svm_type c_svc
kernel_type rbf
gamma 0.25
nr_class 6
total_sv 279
rho -0.342857 -0.385544 0.016326 0.229923 -0.511955 -0.0238428 0.542801 0.611105 -0.00825823 0.538984 0.672837 -0.000386037 0.194472 -0.510718 -0.637712
label 0 1 2 3 5 6
nr_sv 52 8 32 97 46 44
SV
0 0 1 0 1 1:1.056246 2:0.63871 3:0.67462 4:0 
0 0 1 0 1 1:1.053626 2:0.66804 3:0.690199 4:0 
0 0.2210650093049449 1 0 1 1:1.048937 2:0.66981 3:0.686028 4:0 
0 0 1 0 1 1:1.047971 2:0.665296 3:0.678298 4:0 
0 0 1 0 1 1:1.047878 2:0.664357 3:0.672855 4:0 
0 0 1 0 1 1:1.046166 2:0.655005 3:0.659211 4:0 
0 0 1 0 1 1:1.040175 2:0.59767 3:0.648061 4:0 
0 0 1 0 1 1:1.029684 2:0.580809 3:0.66838 4:0 
0 0 1 0 1 1:1.024432 2:0.582003 3:0.655045 4:0 
0 0 1 0.5134698235916468 0 1:1.026781 2:0.536714 3:0.624148 4:0 
0 0 1 1 0 1:1.027721 2:0.509639 3:0.614328 4:0 
0 0 1 0 1 1:1.026577 2:0.572068 3:0.723806 4:0 
0 0 1 0 1 1:1.024723 2:0.576489 3:0.750221 4:0 
0 0 1 1 1 1:1.022972 2:0.575173 3:0.753078 4:0 
0 0.2438314965124549 1 0.2246416886168033 1 1:1.023785 2:0.578816 3:0.758464 4:0 
0.3347985616159783 0.3119254560040123 0.5233400455654615 0.630923495696767 0.2491102281049827 1:1.038602 2:0.70788 3:0.810267 4:8.452325 
0.341292339306612 0.3147546606666119 0.5258774885924188 0.6345093432278507 0.2502502245792567 1:0.943761 2:0.335145 3:0.413086 4:8.452325 
0 0 0 0 1 1:1.147862 2:0.665912 3:0.699987 4:0 
0.3708168970455031 0.4244243335494465 1 0 1 1:1.085044 2:0.678189 3:0.693848 4:0 
0 0 1 0 0.09699969148705977 1:1.056963 2:0.610476 3:0.63309 4:0 
0 0 1 0 0 1:1.049967 2:0.488768 3:0.570442 4:0 
0 0 1 0 0 1:1.036301 2:0.521197 3:0.6103 4:0 
0 0 1 0 0 1:1.031303 2:0.514926 3:0.615 4:0 
0 0 1 0 0 1:1.033486 2:0.519377 3:0.632807 4:0 
0 0 1 0 0 1:1.036947 2:0.544766 3:0.661292 4:0 
0.008727325655770663 0.01171497156487986 0.02295984676222618 0.01117054214467356 0.007251429462189583 1:1.129298 2:0.653689 3:0.814948 4:8.452325 
0 0 1 0 0 1:1.056896 2:0.516558 3:0.635027 4:0 
0 0 0.3340121970270509 0 0 1:1.057679 2:0.439044 3:0.605604 4:0 
0.3679283517379446 0.1207319273004965 0 0 0 1:1.059238 2:0.362302 3:0.552589 4:0 
0 0 0 0.1371141611453934 0 1:1.052864 2:0.397232 3:0.533501 4:0 
0 0 1 0 0 1:1.042434 2:0.471891 3:0.642253 4:0 
0 0 1 0 0 1:1.036801 2:0.508197 3:0.70065 4:0 
0 0 1 0 1 1:1.107296 2:0.596489 3:0.719868 4:0 
0 0 1 0 1 1:1.06671 2:0.626886 3:0.72439 4:0 
0 0 1 0 1 1:1.064528 2:0.639573 3:0.675695 4:0 
0 0 1 0 0 1:1.05956 2:0.562664 3:0.666437 4:0 
0 0 1 0 0 1:1.057709 2:0.547358 3:0.65698 4:0 
0 0 1 0 0 1:1.052489 2:0.520437 3:0.605119 4:0 
0 0 1 0 0 1:1.042332 2:0.523217 3:0.596881 4:0 
0 0 1 0 1 1:1.031466 2:0.582137 3:0.693559 4:0 
0 0 1 0 0 1:1.027464 2:0.541713 3:0.671169 4:0 
0 0 1 1 0 1:1.028869 2:0.487384 3:0.60709 4:0 
0 0 1 0 0 1:1.032677 2:0.488917 3:0.617583 4:0 
0 0 0 0 1 1:1.140869 2:0.620652 3:0.684561 4:0 
0 0 1 0 0 1:1.063196 2:0.575388 3:0.653757 4:0 
0 0 1 0 0 1:1.048826 2:0.560223 3:0.580544 4:0 
0 0 1 0 0 1:1.048144 2:0.523757 3:0.576674 4:0 
0 0 1 0 0 1:1.045609 2:0.520658 3:0.580727 4:0 
0 0 1 0 0 1:1.036746 2:0.564522 3:0.634822 4:0 
0 0 1 0.002454186889682072 1 1:1.024588 2:0.629425 3:0.713989 4:0 
0 0 1 1 1 1:1.016059 2:0.603856 3:0.722036 4:0 
0 0 1 1 0 1:1.0143 2:0.548629 3:0.680755 4:0 
-0 1 0 0 0 1:0.752406 2:0.670771 3:0.754199 4:3.436937 
-0 0 0.5704653898803661 0 0 1:0.72629 2:0.708417 3:0.719663 4:3.436937 
-0 0 1 0.7059815014102013 0 1:0.751725 2:0.405007 3:0.409679 4:3.436937 
-0 0 0.01505087396191137 0 0 1:0.751048 2:0.404085 3:0.410737 4:3.436937 
-0 0.4880673239625971 1 0.3805339442666696 0 1:0.733734 2:0.699846 3:0.755309 4:3.436937 
-0.710251497408677 1 1 1 0.5795729347292436 1:0.738843 2:0.738451 3:0.774882 4:3.436937 
-0.7133119779531319 0.5413671067969987 1 1 0.4967912026001763 1:0.753168 2:0.395872 3:0.412332 4:3.436937 
-0 1 0.6340188842618324 0.2888595791868386 0 1:0.749867 2:0.626401 3:0.784906 4:3.436937 
-0 -0 0 1 0 1:0.93422 2:0.744567 3:0.796709 4:2.385023 
-0 -0 0 1 0 1:0.941536 2:0.750202 3:0.781022 4:2.385023 
-0 -0 0 1 0 1:0.952088 2:0.755586 3:0.786677 4:2.385023 
-0 -0 0 1 0 1:0.943422 2:0.765402 3:0.796453 4:2.385023 
-0 -1 0 1 0 1:0.927267 2:0.693853 3:0.78496 4:2.385023 
-0 -0.0294344307595958 0 1 0 1:0.937954 2:0.690997 3:0.783781 4:2.385023 
-0 -0 0 1 0 1:0.956509 2:0.71641 3:0.770977 4:2.385023 
-0 -0 0 1 0 1:0.959498 2:0.7226 3:0.757004 4:2.385023 
-0 -0 0 1 0 1:0.961155 2:0.725907 3:0.75861 4:2.385023 
-0 -0 0 1 0 1:0.964526 2:0.728438 3:0.761525 4:2.385023 
-0 -0 0 1 0 1:0.96913 2:0.741703 3:0.765657 4:2.385023 
-0 -0 0 1 0 1:0.975217 2:0.668108 3:0.769194 4:2.385023 
-0 -0 0 1 0 1:0.995286 2:0.712319 3:0.767683 4:2.385023 
-0.9766462681935735 -1 1 1 0.6066747866058233 1:0.952992 2:0.672397 3:0.710145 4:2.385023 
-0 -0 0 1 0 1:0.974662 2:0.713317 3:0.715831 4:2.385023 
-0 -0 0 1 0 1:0.973057 2:0.721424 3:0.734076 4:2.385023 
-0 -0 0 1 0 1:0.97186 2:0.740026 3:0.744603 4:2.385023 
-0 -0 0 0.2722971628437284 0 1:0.972103 2:0.752297 3:0.757703 4:2.385023 
-0.6718015867092736 -0 0.9434096228474418 0 0.7302680358468442 1:0.981869 2:0.918016 3:0.962982 4:2.385023 
-0 -1 0 1 0 1:0.926296 2:0.719293 3:0.77534 4:2.385023 
-0 -0 0 1 0 1:0.948342 2:0.686268 3:0.763281 4:2.385023 
-0 -0 0 1 0 1:0.969086 2:0.702595 3:0.734606 4:2.385023 
-0 -0 0 1 0 1:0.968192 2:0.706687 3:0.736311 4:2.385023 
-0 -0 0 1 0 1:0.96334 2:0.708602 3:0.742161 4:2.385023 
-0 -0 0 1 0 1:0.960081 2:0.731634 3:0.767383 4:2.385023 
-0 -0 0 1 0 1:0.958669 2:0.758801 3:0.785507 4:2.385023 
-0 -0 0 1 0 1:0.926984 2:0.792068 3:0.815858 4:2.385023 
-0 -1 0.2945026248508846 1 0 1:0.941156 2:0.680559 3:0.778434 4:2.385023 
-0 -0 0 1 0 1:0.969134 2:0.716048 3:0.745056 4:2.385023 
-0 -0 0 1 0 1:0.971174 2:0.725634 3:0.744815 4:2.385023 
-0 -0 0 1 0 1:0.966262 2:0.727562 3:0.743923 4:2.385023 
-0 -0 0 1 0 1:0.965984 2:0.744163 3:0.753798 4:2.385023 
-0 -0 -0 0 1 1:0.791896 2:0.763124 3:0.77422 4:0 
-0 -0 -0 0 1 1:0.795622 2:0.778445 3:0.783226 4:0 
-0 -0 -0 0 1 1:0.797391 2:0.794308 3:0.80681 4:0 
-0 -0 -0 0 1 1:0.795417 2:0.77118 3:0.83523 4:0 
-0 -0 -0 0 1 1:0.795086 2:0.770586 3:0.838357 4:0 
-0 -0 -0 0 1 1:0.793361 2:0.778224 3:0.793472 4:0 
-0 -0 -0 0 1 1:0.789579 2:0.754635 3:0.799433 4:0 
-1 -0 -0 0 0 1:0.781962 2:0.634457 3:0.740047 4:0 
-1 -0 -0 0 0 1:0.784664 2:0.620966 3:0.755106 4:0 
-1 -0 -0 0 0 1:0.786306 2:0.577209 3:0.761191 4:0 
-1 -0 -0 0 0 1:0.786325 2:0.583517 3:0.759336 4:0 
-1 -0 -0 0 0 1:0.787191 2:0.588452 3:0.761934 4:0 
-1 -0 -0 0 0 1:0.787793 2:0.595095 3:0.76259 4:0 
-1 -0 -0 0 0 1:0.791384 2:0.688883 3:0.748436 4:0 
-0 -0 -0 0 1 1:0.798276 2:0.768918 3:0.782041 4:0 
-0 -0 -0 0 0.7977286210936144 1:0.790892 2:0.736852 3:0.799944 4:0 
-0 -0 -0 0 1 1:0.790127 2:0.770708 3:0.785547 4:0 
-0 -0 -0 0 1 1:0.790303 2:0.764915 3:0.788324 4:0 
-0 -0.1401370568338545 -0 0 0 1:0.738188 2:0.679041 3:0.929688 4:4.412098 
-0 -0 -0.07465833719621584 0 0 1:0.747744 2:0.756109 3:0.758992 4:4.412098 
-0 -0 -0 0 0.4468257452005224 1:0.748227 2:0.694025 3:0.917289 4:4.412098 
-0 -0 -0.7470201142723658 0 0 1:0.746372 2:0.715217 3:0.911291 4:4.412098 
-0 -1 -0 0 0 1:0.743706 2:0.614775 3:0.63133 4:4.412098 
-0.6028487032692975 -1 -0 0.831474917325008 0.0408593461369403 1:0.744229 2:0.583075 3:0.602144 4:4.412098 
-0 -0.2323786722851452 -0.4252153492480882 0 0 1:0.783374 2:0.616392 3:0.634508 4:4.412098 
-0 -1 -0 0 0 1:0.749007 2:0.58628 3:0.622816 4:4.412098 
-0 -1 -0 0 0 1:0.742034 2:0.612679 3:0.632996 4:4.412098 
-0.4045428025934039 -0.148848953536039 -0 0.6219229179984744 0 1:0.734709 2:0.705271 3:0.937639 4:4.412098 
-1 -0 -0 0 0 1:0.785231 2:0.633568 3:0.711973 4:0 
-0 -0 -0 0 1 1:0.788595 2:0.754803 3:0.787576 4:0 
-0 -0 -0 0 1 1:0.790583 2:0.776726 3:0.788584 4:0 
-0 -0 -0 0 1 1:0.792178 2:0.777054 3:0.810585 4:0 
-0 -0 -0 0 1 1:0.79125 2:0.77624 3:0.809519 4:0 
-0 -0 -0 0 1 1:0.790274 2:0.7684 3:0.802274 4:0 
-1 -0 -0 0 0 1:0.785129 2:0.62378 3:0.759076 4:0 
-1 -0 -0 0 0 1:0.784622 2:0.62146 3:0.75726 4:0 
-1 -0 -0 0 0 1:0.785872 2:0.617237 3:0.754999 4:0 
-1 -0 -0 0 0 1:0.787299 2:0.606126 3:0.76412 4:0 
-1 -0 -0 0 0 1:0.789098 2:0.597781 3:0.777199 4:0 
-1 -0 -0 0 0 1:0.789703 2:0.605767 3:0.784773 4:0 
-1 -0 -0 0 0 1:0.790497 2:0.613496 3:0.783114 4:0 
-1 -0 -0 0 0 1:0.791345 2:0.615494 3:0.783484 4:0 
-1 -0 -0 0 0 1:0.791475 2:0.614334 3:0.786197 4:0 
-1 -0 -0 0 0 1:0.792238 2:0.626589 3:0.787791 4:0 
-1 -0 -0 0 0 1:0.79248 2:0.612499 3:0.789078 4:0 
-1 -0 -0 0 0 1:0.792862 2:0.61978 3:0.790643 4:0 
-1 -0 -0 0 0 1:0.79447 2:0.626401 3:0.795305 4:0 
-1 -0 -0 0 0 1:0.795836 2:0.700912 3:0.756822 4:0 
-0 -0 -0 0 1 1:0.798109 2:0.781414 3:0.789549 4:0 
-0 -0 -0 0 1 1:0.799137 2:0.757454 3:0.835353 4:0 
-0 -0 -0 0 1 1:0.798639 2:0.785786 3:0.805882 4:0 
-0 -0 -0 0 1 1:0.798354 2:0.773192 3:0.781649 4:0 
-0 -0 -0 0 1 1:0.798442 2:0.769223 3:0.778398 4:0 
-0 -0 -0 0 1 1:0.798811 2:0.774951 3:0.782296 4:0 
-0 -0 -0 0 1 1:0.799272 2:0.773855 3:0.778185 4:0 
-0 -0 -0 0 1 1:0.799195 2:0.769607 3:0.792596 4:0 
-0 -0 -0 0 1 1:0.79991 2:0.759315 3:0.811844 4:0 
-0 -0 -0 0 1 1:0.800586 2:0.765246 3:0.800707 4:0 
-0 -0 -0 0 1 1:0.801261 2:0.769203 3:0.792991 4:0 
-0 -0 -0 0 1 1:0.801718 2:0.77159 3:0.792215 4:0 
-0 -0 -0 0 1 1:0.802873 2:0.777526 3:0.798494 4:0 
-1 -0 -0 1 0 1:0.784114 2:0.5302 3:0.654055 4:0 
-1 -0.4394420855335903 -0.251679509993338 1 0 1:0.778292 2:0.518804 3:0.636752 4:0 
-1 -0 -0 0.9094568785210591 0 1:0.780246 2:0.592752 3:0.685214 4:0 
-0.3987980720844562 -0 -0 0 0 1:0.778706 2:0.705601 3:0.707967 4:0 
-1 -0 -0 0 0 1:0.773234 2:0.675098 3:0.687979 4:0 
-1 -0 -0 0 0 1:0.772786 2:0.624659 3:0.716073 4:0 
-1 -0 -0 0 0 1:0.770069 2:0.597645 3:0.710389 4:0 
-1 -0 -0 1 0 1:0.771881 2:0.580722 3:0.70252 4:0 
-1 -0 -0 1 0 1:0.773068 2:0.564531 3:0.711317 4:0 
-1 -0 -0 1 0 1:0.774029 2:0.560797 3:0.706963 4:0 
-1 -0 -0 0 0 1:0.775298 2:0.575365 3:0.713159 4:0 
-1 -0 -0 0 0 1:0.777349 2:0.584988 3:0.72089 4:0 
-1 -0 -0 0 0 1:0.778866 2:0.58036 3:0.735344 4:0 
-1 -0 -0 0 0 1:0.77959 2:0.580394 3:0.745697 4:0 
-1 -0 -0 0 0 1:0.780056 2:0.594476 3:0.746935 4:0 
-1 -0 -0 0 0 1:0.781176 2:0.58704 3:0.748523 4:0 
-1 -0 -0 0 0 1:0.781332 2:0.574101 3:0.745097 4:0 
-1 -0 -0 0 0 1:0.781613 2:0.579682 3:0.746598 4:0 
-1 -0 -0 0 0 1:0.783655 2:0.583755 3:0.753697 4:0 
-1 -0 -0 0 0 1:0.790982 2:0.681784 3:0.755883 4:0 
-0 -0 -0 0 1 1:0.797668 2:0.763905 3:0.78684 4:0 
-0 -0 -0 0 1 1:0.798912 2:0.789066 3:0.796043 4:0 
-0 -0 -0 0 1 1:0.798668 2:0.788972 3:0.816102 4:0 
-0 -0 -0 0 1 1:0.799024 2:0.780824 3:0.834515 4:0 
-0 -0.2587283799154808 -0.7393389369883183 0.2693327110701788 1 1:0.800119 2:0.796879 3:0.836635 4:0 
-0 -0 -0 0 1 1:0.799578 2:0.797843 3:0.804422 4:0 
-0 -0 -0 0 1 1:0.799183 2:0.763128 3:0.77599 4:0 
-0 -0 -0 0 1 1:0.799174 2:0.766472 3:0.80961 4:0 
-0 -0 -0 0 1 1:0.798747 2:0.796771 3:0.800243 4:0 
-0 -0 -0 0 1 1:0.798054 2:0.777248 3:0.823017 4:0 
-0 -0 -0 0 1 1:0.796951 2:0.771618 3:0.801955 4:0 
-0 -0 -0 0 1 1:0.797441 2:0.788922 3:0.822365 4:0 
-0 -0 -0 0 1 1:0.797076 2:0.774698 3:0.783551 4:0 
-1 -0 -0 0 0 1:0.796636 2:0.697662 3:0.758584 4:0 
-1 -0 -0 0 0 1:0.796961 2:0.684668 3:0.723015 4:0 
-1 -0 -0 0 0 1:0.797429 2:0.672556 3:0.702974 4:0 
-0 -0 -0 -1 0.01246172428120995 1:0.785264 2:0.512334 3:0.660074 4:1.290257 
-0 -0 -1 -0 0 1:0.782733 2:0.496723 3:0.713349 4:2.142309 
-0 -0 -1 -0 0 1:0.781676 2:0.495113 3:0.730989 4:2.142309 
-0.7701171779006264 -0.3886748517699131 -0.3272074619478841 -0.8049743625693521 0.3627740462338024 1:0.828989 2:0.180066 3:0.732155 4:20.762217 
-0 -0.05121303598667315 -0 -0 0 1:0.801392 2:0.307426 3:0.537482 4:2.142309 
-0 -1 -0 -0 0 1:0.788691 2:0.459968 3:0.500673 4:2.142309 
-0 -0 -1 -0 0 1:0.774104 2:0.61556 3:0.66275 4:2.142309 
-0 -0 -1 -0 0 1:0.771262 2:0.606143 3:0.696479 4:2.142309 
-0 -0 -1 -0 0 1:0.770493 2:0.596329 3:0.711111 4:2.142309 
-0 -0 -1 -0 0 1:0.772614 2:0.599964 3:0.697844 4:2.142309 
-0 -0 -1 -0 0 1:0.77874 2:0.608802 3:0.640739 4:2.142309 
-0 -0 -1 -0 0 1:0.758312 2:0.554026 3:0.640788 4:2.142309 
-0 -0 -1 -0 0 1:0.758528 2:0.553732 3:0.667524 4:2.142309 
-0 -0 -1 -0 0 1:0.759453 2:0.561257 3:0.679703 4:2.142309 
-0 -0 -1 -0 0 1:0.764124 2:0.576046 3:0.672918 4:2.142309 
-0 -0 -1 -0 0 1:0.77473 2:0.603823 3:0.626536 4:2.142309 
-0 -0 -1 -0 0 1:0.788072 2:0.592218 3:0.641283 4:2.142309 
-0.3844429568289772 -0.07272419954270443 -0.1201036120607102 -0.402490768378889 0.1808267856442005 1:0.726129 2:0.487602 3:0.685733 4:94.304688 
-0.3857191647315067 -0.3162218420778124 -0.2070262696746916 -0.403202303158525 0.1814105355775744 1:0.721585 2:0.511706 3:0.664787 4:94.304688 
-0 -0.07964097465759962 -0 -0 0 1:0.775774 2:0.151511 3:0.818455 4:2.142309 
-0 -0.651872552664961 -0 -0 0 1:0.705592 2:0.560444 3:0.572101 4:2.142309 
-0 -0 -1 -0 0 1:0.738101 2:0.607965 3:0.653706 4:2.142309 
-0 -0 -1 -0 0 1:0.735629 2:0.650696 3:0.718459 4:2.142309 
-0 -0 -1 -0 0 1:0.733882 2:0.645734 3:0.784398 4:2.142309 
-0 -0 -1 -0 0 1:0.732311 2:0.630636 3:0.805289 4:2.142309 
-0 -0 -1 -0 0 1:0.732489 2:0.629074 3:0.830653 4:2.142309 
-0 -0 -1 -0 0 1:0.736457 2:0.633261 3:0.840947 4:2.142309 
-0 -0.686753095779285 -1 -0 0 1:0.738992 2:0.645536 3:0.792299 4:2.142309 
-0 -0.1282744723847609 -1 -0 0 1:0.741304 2:0.6494 3:0.686825 4:2.142309 
-0 -0 -1 -0 0 1:0.727944 2:0.605931 3:0.620328 4:2.142309 
-1 -0 -0 -1 1 1:0.736082 2:0.531562 3:0.681246 4:0 
-1 -0 -0 -1 1 1:0.740025 2:0.533543 3:0.685323 4:0 
-1 -0 -0 -1 1 1:0.741842 2:0.551008 3:0.692193 4:0 
-0 -0 -0 -1 1 1:0.785737 2:0.554902 3:0.630672 4:1.290257 
-0 -0 -1 -0 0 1:0.782206 2:0.532894 3:0.684664 4:2.142309 
-0 -0 -1 -0 0 1:0.778302 2:0.511699 3:0.713023 4:2.142309 
-0 -0 -1 -0 0 1:0.775881 2:0.50192 3:0.729956 4:2.142309 
-0 -0 -0.5414982612109445 -0 0 1:0.773893 2:0.497196 3:0.735916 4:2.142309 
-0 -0 -1 -0 0 1:0.776425 2:0.502876 3:0.731791 4:2.142309 
-0 -0 -1 -0 0 1:0.782739 2:0.522148 3:0.678041 4:2.142309 
-0 -0 -0.07646155794949802 -0 0 1:0.789209 2:0.536476 3:0.576652 4:2.142309 
-0 -0 -1 -0 0 1:0.776205 2:0.496708 3:0.73397 4:2.142309 
-0 -0 -1 -0 0 1:0.783018 2:0.527616 3:0.716877 4:2.142309 
-1 -0 -0 -1 1 1:0.790711 2:0.556887 3:0.657757 4:1.290257 
-0.6140039418517067 -0 -0 -0.02151999080795421 0 1:0.794361 2:0.559232 3:0.579245 4:1.290257 
-1 -0 -0 -0 0 1:0.795917 2:0.488138 3:0.595998 4:1.290257 
-1 -0.6088648267053467 -0.7495859542414971 -1 -1 1:0.94079 2:0.728053 3:0.81401 4:0 
-1 -0 -0 -1 -1 1:0.94267 2:0.775554 3:0.850049 4:0 
-1 -0 -0 -1 -1 1:0.944961 2:0.805218 3:0.888714 4:0 
-1 -0 -0 -1 -1 1:0.9453 2:0.827109 3:0.900251 4:0 
-1 -0 -0 -1 -1 1:0.949292 2:0.870781 3:0.919581 4:0 
-1 -0 -0 -1 -0 1:0.948688 2:0.918335 3:0.931257 4:0 
-0 -0 -0 -1 -0 1:0.950319 2:0.960397 3:0.963409 4:0 
-0 -0 -0 -0.2854137124310772 -0 1:0.952541 2:0.991244 3:0.994004 4:0 
-0 -0 -0 -1 -0 1:0.951106 2:0.984423 3:0.990647 4:0 
-0 -0 -0 -1 -0 1:0.950709 2:0.965149 3:0.968414 4:0 
-1 -0 -0 -1 -0 1:0.948491 2:0.944707 3:0.963752 4:0 
-0 -0 -0 -1 -0 1:0.949573 2:0.94672 3:0.980427 4:0 
-0 -0 -0 -1 -0 1:0.94929 2:0.951903 3:0.991756 4:0 
-0 -0 -0 -1 -0 1:0.952551 2:0.974912 3:1.000749 4:0 
-0 -0 -0 -1 -0 1:0.953331 2:0.981521 3:0.992975 4:0 
-0 -0 -0 -1 -0 1:0.954011 2:0.966627 3:1.007217 4:0 
-0 -0 -0 -1 -0 1:0.953463 2:0.958889 3:1.017795 4:0 
-0 -0 -0 -1 -0 1:0.959337 2:0.955076 3:1.009983 4:0 
-0 -0 -0 -1 -0 1:0.958382 2:0.94557 3:1.007098 4:0 
-0 -0 -0 -1 -0 1:0.959415 2:0.965504 3:1.009934 4:0 
-0 -0.4674993106240733 -0.5873568682111705 -0 -0 1:0.959928 2:1.003042 3:1.025656 4:0 
-0 -0 -0 -1 -0 1:0.956588 2:0.953914 3:0.987208 4:0 
-1 -0 -0 -1 -0 1:0.953288 2:0.944271 3:0.968349 4:0 
-0 -0 -0 -1 -0 1:0.955945 2:0.957562 3:0.967503 4:0 
-1 -0 -0 -1 -0 1:0.953922 2:0.919466 3:0.964466 4:0 
-1 -0 -0 -1 -0 1:0.950629 2:0.907281 3:0.950963 4:0 
-1 -0 -0 -1 -0 1:0.95403 2:0.927845 3:0.954632 4:0 
-0 -0 -0 -1 -0 1:0.956611 2:0.960848 3:0.968748 4:0 
-0 -0 -0 -1 -0 1:0.966934 2:0.975451 3:0.985456 4:0 
-0 -0 -0 -1 -0 1:0.967091 2:0.976035 3:0.986457 4:0 
-0 -0 -0 -1 -0 1:0.966695 2:0.961595 3:1.007339 4:0 
-0 -0 -0 -1 -0 1:0.967318 2:0.949976 3:0.991163 4:0 
-1 -0 -0 -1 -0 1:0.965643 2:0.94832 3:0.974008 4:0 
-0.6036115736334888 -0 -0 -1 -0 1:0.965023 2:0.95084 3:0.973408 4:0 
-1 -0 -0 -1 -0 1:0.967778 2:0.952821 3:0.966468 4:0 
-1 -0 -0 -1 -0 1:0.968164 2:0.953663 3:0.960644 4:0 
-1 -0 -0 -1 -0 1:0.969378 2:0.945935 3:0.950065 4:0 
-1 -0 -0 -1 -0 1:0.968141 2:0.933862 3:0.939219 4:0 
-1 -0 -0 -1 -0 1:0.966628 2:0.931105 3:0.934162 4:0 
-1 -0 -0 -1 -0 1:0.967094 2:0.9259 3:0.936509 4:0 
-1 -0 -0 -1 -0 1:0.965514 2:0.922502 3:0.926578 4:0 
-1 -0 -0 -1 -0.7374730917367871 1:0.964578 2:0.909369 3:0.915581 4:0 
-1 -0 -0 -1 -0 1:0.967125 2:0.908897 3:0.915139 4:0 
-1 -0 -0 -1 -0 1:0.968078 2:0.909179 3:0.923015 4:0 
