svm_type c_svc
kernel_type rbf
gamma 0.25
nr_class 6
total_sv 294
rho -0.341239 -0.385272 0.0117748 -0.00933602 -0.432391 -0.0384831 0.53679 0.436137 -0.00243138 0.539208 0.512303 0.00858446 -0.0909175 -0.514117 -0.463096
label 0 1 2 3 4 5
nr_sv 49 8 33 99 44 61
SV
0.2854551416165219 0.3116433558139978 0.4341967339704918 0.4843490240766356 0.2512648247663366 1:1.121901 2:0.717489 3:0.755698 4:8.452325 
0 0 1 0 1 1:1.084913 2:0.600453 3:0.692203 4:0 
0 0 1 0 1 1:1.068147 2:0.572417 3:0.677966 4:0 
0 0 1 0 1 1:1.05466 2:0.553394 3:0.590413 4:0 
0 0 1 0 1 1:1.052183 2:0.549836 3:0.561307 4:0 
0 0 1 0 1 1:1.045715 2:0.549865 3:0.609735 4:0 
0 0 1 0 1 1:1.030465 2:0.617432 3:0.736971 4:0 
0.08616680423325752 0.4640717889814086 1 1 1 1:1.020101 2:0.616383 3:0.751027 4:0 
0 0 1 1 1 1:1.019661 2:0.599727 3:0.741434 4:0 
0 0 1 0.3177704571897849 1 1:1.02071 2:0.587845 3:0.733705 4:0 
0.05851188514390582 0.01130459090803008 0.1038097804510982 0.0298128271476333 0.04384780869229538 1:1.03818 2:0.697304 3:0.798058 4:8.452325 
0.3417992342809524 0.3147281673048793 0.5278554601741049 0.5129473987082418 0.2935634702132759 1:0.943764 2:0.335146 3:0.413085 4:8.452325 
0 0 0 0 1 1:1.147863 2:0.665901 3:0.699971 4:0 
0.2930284330651701 0.4198834971284928 1 0 1 1:1.085039 2:0.678189 3:0.693848 4:0 
0 0 1 0 1 1:1.056963 2:0.610466 3:0.633086 4:0 
0 0 1 0 0 1:1.049966 2:0.488769 3:0.570442 4:0 
0 0 1 0 1 1:1.0363 2:0.521199 3:0.610304 4:0 
0 0 1 0.3880488735684838 1 1:1.031303 2:0.514927 3:0.615001 4:0 
0 0 1 0 1 1:1.033487 2:0.519378 3:0.632809 4:0 
0 0 1 0 1 1:1.036947 2:0.544767 3:0.661295 4:0 
0 0 0 0 1 1:1.140228 2:0.611516 3:0.709109 4:0 
0 0 1 0 0.2575898105880711 1:1.073354 2:0.478012 3:0.63199 4:0 
0 0 1 0 1 1:1.056896 2:0.516555 3:0.63503 4:0 
0 0 0.4092318249776183 0 0 1:1.05768 2:0.43904 3:0.605601 4:0 
0.3609287235817892 0.1268146209169403 0 0 0 1:1.059238 2:0.3623 3:0.552585 4:0 
0 0 0 0.5154314636113051 0 1:1.052863 2:0.397235 3:0.533504 4:0 
0 0 1 0 1 1:1.042434 2:0.471895 3:0.642258 4:0 
0 0 1 0 1 1:1.036801 2:0.508196 3:0.700651 4:0 
0 0 1 0 1 1:1.107294 2:0.596487 3:0.719869 4:0 
0 0 1 0 1 1:1.066709 2:0.626888 3:0.724388 4:0 
0 0 1 0 1 1:1.064528 2:0.63957 3:0.675698 4:0 
0 0 1 0 1 1:1.059559 2:0.562662 3:0.666438 4:0 
0 0 1 0 1 1:1.057709 2:0.547356 3:0.656979 4:0 
0 0 1 0 1 1:1.052489 2:0.520434 3:0.605112 4:0 
0 0 1 0 1 1:1.042331 2:0.52322 3:0.596885 4:0 
0 0 1 0 1 1:1.031465 2:0.582141 3:0.693566 4:0 
0 0 1 0 1 1:1.027464 2:0.541707 3:0.671162 4:0 
0 0 1 1 1 1:1.028869 2:0.487382 3:0.60709 4:0 
0 0 1 0.4693599142819841 1 1:1.032677 2:0.488918 3:0.617584 4:0 
0 0 0 0 1 1:1.140867 2:0.620647 3:0.684551 4:0 
0 0 1 0 1 1:1.063193 2:0.575384 3:0.653751 4:0 
0 0 1 0 0 1:1.053002 2:0.527372 3:0.532297 4:0 
0 0 1 0 1 1:1.048826 2:0.560222 3:0.580544 4:0 
0 0 1 0 1 1:1.048144 2:0.523756 3:0.576673 4:0 
0 0 1 0 1 1:1.045609 2:0.52066 3:0.580729 4:0 
0 0 1 0 1 1:1.036745 2:0.564528 3:0.634826 4:0 
0 0 1 0 1 1:1.024587 2:0.629426 3:0.713992 4:0 
0 0 1 1 1 1:1.016058 2:0.603851 3:0.722034 4:0 
0 0 1 1 1 1:1.0143 2:0.548627 3:0.680754 4:0 
-0.1351474299704235 0 0.89635139349093 1 0 1:0.714608 2:0.694477 3:0.831684 4:3.436937 
-0 1 1 0.6613001312801371 0 1:0.719249 2:0.739052 3:0.799698 4:3.436937 
-0.5763899255335192 1 1 0 0.5931813084138475 1:0.72239 2:0.739939 3:0.798984 4:3.436937 
-0 0 0.09991325053175734 0 0 1:0.751426 2:0.404673 3:0.410028 4:3.436937 
-0 0.2209360703143729 0 0 0 1:0.736187 2:0.721331 3:0.765664 4:3.436937 
-0 1 0.2568107504591868 0 0 1:0.741418 2:0.748683 3:0.78348 4:3.436937 
-0.7143528664176543 0.8200720447868372 1 1 0.4912193126345734 1:0.752535 2:0.395638 3:0.408858 4:3.436937 
-0 0 1 0.6213699393525114 0 1:0.75308 2:0.393325 3:0.415639 4:3.436937 
-0 -0 0 1 0 1:0.929562 2:0.790859 3:0.800395 4:2.385023 
-0 -0 0 0.3749513567471046 0 1:0.930126 2:0.791727 3:0.849304 4:2.385023 
-0 -0.3806748511555006 0 0 0 1:0.911687 2:0.814221 3:0.891918 4:2.385023 
-0 -1 0.2996937462494398 1 0 1:0.9138 2:0.730136 3:0.737294 4:2.385023 
-0 -0 0 1 0 1:0.944468 2:0.703195 3:0.744457 4:2.385023 
-0 -0 0 1 0 1:0.957096 2:0.720206 3:0.784975 4:2.385023 
-0 -0 0 1 0 1:0.952847 2:0.742558 3:0.795796 4:2.385023 
-0 -0 0 1 0 1:0.951858 2:0.765357 3:0.8108 4:2.385023 
-0 -0 0 1 0 1:0.975218 2:0.668109 3:0.769193 4:2.385023 
-0 -0 0 1 0 1:0.995287 2:0.712321 3:0.767683 4:2.385023 
-0 -0 0 1 0 1:0.995462 2:0.728591 3:0.769929 4:2.385023 
-0 -0 0 1 0 1:0.994102 2:0.73078 3:0.777004 4:2.385023 
-0.9764286837122579 -1 1 1 0.5730869243667035 1:0.952993 2:0.672395 3:0.710143 4:2.385023 
-0 -0 0 1 0 1:0.974662 2:0.713319 3:0.715832 4:2.385023 
-0 -0 0 1 0 1:0.973057 2:0.721425 3:0.734078 4:2.385023 
-0 -0 0 1 0 1:0.97186 2:0.740027 3:0.744603 4:2.385023 
-0 -0 0 1 0 1:0.972103 2:0.752297 3:0.757703 4:2.385023 
-0.6720173373414909 -0 0.9399107411187888 0 0.7720218476411095 1:0.981868 2:0.918016 3:0.962982 4:2.385023 
-0 -1 0 1 0 1:0.926297 2:0.719287 3:0.775347 4:2.385023 
-0 -0 0 1 0 1:0.948344 2:0.686268 3:0.763278 4:2.385023 
-0 -0 0 1 0 1:0.969086 2:0.702597 3:0.734606 4:2.385023 
-0 -0 0 1 0 1:0.968191 2:0.706687 3:0.736311 4:2.385023 
-0 -0 0 1 0 1:0.96334 2:0.708603 3:0.742162 4:2.385023 
-0 -0 0 1 0 1:0.960081 2:0.731636 3:0.767386 4:2.385023 
-0 -0 0 1 0 1:0.958669 2:0.758803 3:0.785508 4:2.385023 
-0 -0 0 1 0 1:0.95848 2:0.7687 3:0.787334 4:2.385023 
-0 -0 0 1 0 1:0.926985 2:0.792066 3:0.815853 4:2.385023 
-0 -0.6603332639457096 0 1 0 1:0.941157 2:0.680561 3:0.778433 4:2.385023 
-0 -0 0 1 0 1:0.969135 2:0.716051 3:0.745056 4:2.385023 
-0 -0 0 1 0 1:0.971173 2:0.725633 3:0.744815 4:2.385023 
-0 -0 0 1 0 1:0.966262 2:0.727563 3:0.743923 4:2.385023 
-0 -0 0 1 0 1:0.965984 2:0.744164 3:0.753798 4:2.385023 
-0 -0 0 1 0 1:0.969082 2:0.764673 3:0.767606 4:2.385023 
-0 -0.9965079036640595 -0 0 0 1:0.738133 2:0.602015 3:0.644906 4:4.412098 
-0 -0 -0.8032082279701249 0 0.1292722884224661 1:0.744874 2:0.752931 3:0.889644 4:4.412098 
-0.6122880645252157 -1 -0 0.7060885281355136 0.1133721544420324 1:0.74423 2:0.583073 3:0.602143 4:4.412098 
-0 -0 -0.4450427855836301 0 0.004051599900951845 1:0.783376 2:0.616394 3:0.63451 4:4.412098 
-0 -1 -0 0 0 1:0.749002 2:0.586279 3:0.622815 4:4.412098 
-0 -0.9728148557333647 -0 0 0 1:0.742034 2:0.612687 3:0.632998 4:4.412098 
-0.3997914771766426 -0.5785019532304426 -0 0.4701351770068716 0.2412439485928856 1:0.734686 2:0.709794 3:0.938942 4:4.412098 
-1 -0 -0 0 1 1:0.784943 2:0.684728 3:0.73383 4:0 
-0 -0 -0 0 1 1:0.787192 2:0.732719 3:0.759077 4:0 
-0 -0 -0 0 1 1:0.786222 2:0.764195 3:0.770433 4:0 
-0 -0 -0 0 1 1:0.784121 2:0.754344 3:0.779804 4:0 
-0 -0 -0 0 1 1:0.785888 2:0.763031 3:0.773222 4:0 
-0 -0 -0 0 1 1:0.787627 2:0.773632 3:0.773995 4:0 
-0 -0 -0 0 1 1:0.789725 2:0.759768 3:0.778775 4:0 
-0 -0 -0 0 1 1:0.791363 2:0.763142 3:0.788662 4:0 
-0 -0 -0 0 1 1:0.792178 2:0.777053 3:0.810588 4:0 
-0 -0 -0 0 1 1:0.79125 2:0.776242 3:0.809518 4:0 
-0 -0 -0 0 1 1:0.790274 2:0.768399 3:0.802272 4:0 
-0 -0 -0 0 1 1:0.790172 2:0.762967 3:0.771615 4:0 
-0 -0 -0 0 1 1:0.787692 2:0.74341 3:0.74954 4:0 
-0 -0 -0 0 1 1:0.785969 2:0.69027 3:0.758958 4:0 
-1 -0 -0 0 0 1:0.785128 2:0.623778 3:0.759076 4:0 
-1 -0 -0 0 0 1:0.784622 2:0.621461 3:0.757259 4:0 
-1 -0 -0 0 0 1:0.785872 2:0.617237 3:0.755 4:0 
-1 -0 -0 0 0 1:0.787299 2:0.606125 3:0.76412 4:0 
-1 -0 -0 0 0 1:0.789098 2:0.597781 3:0.7772 4:0 
-1 -0 -0 0 0 1:0.789703 2:0.605769 3:0.784773 4:0 
-1 -0 -0 0 0 1:0.790497 2:0.613497 3:0.783114 4:0 
-1 -0 -0 0 0 1:0.791345 2:0.615493 3:0.783484 4:0 
-1 -0 -0 0 0 1:0.791475 2:0.614335 3:0.786197 4:0 
-1 -0 -0 0 1 1:0.792238 2:0.62659 3:0.787792 4:0 
-1 -0 -0 0 0 1:0.79248 2:0.612496 3:0.789078 4:0 
-1 -0 -0 0 1 1:0.792862 2:0.61978 3:0.790643 4:0 
-1 -0 -0 0 1 1:0.79447 2:0.626404 3:0.795305 4:0 
-1 -0 -0 0 1 1:0.795836 2:0.700921 3:0.756819 4:0 
-0 -0 -0 0 1 1:0.796563 2:0.75099 3:0.751112 4:0 
-0 -0 -0 0 1 1:0.798109 2:0.781415 3:0.789553 4:0 
-0 -0 -0 0 1 1:0.799137 2:0.757451 3:0.835355 4:0 
-0 -0 -0 0 1 1:0.798639 2:0.785789 3:0.805877 4:0 
-0 -0 -0 0 1 1:0.798354 2:0.773193 3:0.781645 4:0 
-0 -0 -0 0 1 1:0.798442 2:0.769221 3:0.7784 4:0 
-0 -0 -0 0 1 1:0.798811 2:0.774948 3:0.782298 4:0 
-0 -0 -0 0 1 1:0.799272 2:0.773853 3:0.778186 4:0 
-0 -0 -0 0 1 1:0.799195 2:0.769607 3:0.792599 4:0 
-0 -0 -0 0 1 1:0.79991 2:0.759315 3:0.811845 4:0 
-0 -0 -0 0 1 1:0.800586 2:0.765246 3:0.800705 4:0 
-0 -0 -0 0 1 1:0.801261 2:0.769204 3:0.792991 4:0 
-0 -0 -0 0 1 1:0.802044 2:0.774822 3:0.794199 4:0 
-1 -0.4307389328332586 -0.271334003387636 1 0 1:0.780985 2:0.521965 3:0.646387 4:0 
-1 -0 -0 1 0 1:0.77796 2:0.542174 3:0.648425 4:0 
-1 -0 -0 0 0 1:0.780827 2:0.651461 3:0.727035 4:0 
-0 -0 -0 0 1 1:0.77986 2:0.731922 3:0.74761 4:0 
-0 -0 -0 0 1 1:0.7778 2:0.725686 3:0.751039 4:0 
-0 -0 -0 0 1 1:0.777975 2:0.734957 3:0.756237 4:0 
-0 -0 -0 0 1 1:0.777862 2:0.747405 3:0.748548 4:0 
-0 -0 -0 0 1 1:0.778992 2:0.753227 3:0.754312 4:0 
-0 -0 -0 0 1 1:0.779178 2:0.754457 3:0.764763 4:0 
-0 -0 -0 0 1 1:0.781355 2:0.723238 3:0.769358 4:0 
-0 -0 -0 0 1 1:0.782583 2:0.709369 3:0.786614 4:0 
-0 -0 -0 0 1 1:0.781374 2:0.722582 3:0.746509 4:0 
-1 -0 -0 0 0 1:0.779348 2:0.698655 3:0.722057 4:0 
-1 -0 -0 0 0 1:0.779376 2:0.692693 3:0.716872 4:0 
-1 -0 -0 0 0 1:0.77954 2:0.695805 3:0.72277 4:0 
-1 -0 -0 0 0 1:0.778706 2:0.7056 3:0.707966 4:0 
-0.4630142578714551 -0 -0 0 0 1:0.778175 2:0.709452 3:0.711884 4:0 
-0 -0 -0 0 1 1:0.777923 2:0.702868 3:0.752204 4:0 
-0 -0 -0 0 1 1:0.776366 2:0.704732 3:0.750396 4:0 
-0 -0 -0 0 0.583808518992491 1:0.77529 2:0.693994 3:0.746973 4:0 
-1 -0 -0 0.2241338462675253 0 1:0.773234 2:0.675101 3:0.687979 4:0 
-1 -0 -0 0 0 1:0.772786 2:0.624654 3:0.716073 4:0 
-1 -0 -0 0.7490162916895273 0 1:0.770068 2:0.597645 3:0.710389 4:0 
-1 -0 -0 1 0 1:0.771881 2:0.58072 3:0.702518 4:0 
-1 -0 -0 1 0 1:0.773068 2:0.56453 3:0.711318 4:0 
-1 -0 -0 1 0 1:0.774029 2:0.560798 3:0.706963 4:0 
-1 -0 -0 1 0 1:0.775298 2:0.575366 3:0.713159 4:0 
-1 -0 -0 0 0 1:0.777349 2:0.584989 3:0.720891 4:0 
-1 -0 -0 0 0 1:0.778866 2:0.58036 3:0.735345 4:0 
-1 -0 -0 0 0 1:0.77959 2:0.580394 3:0.745698 4:0 
-1 -0 -0 0 0 1:0.780056 2:0.594477 3:0.746935 4:0 
-1 -0 -0 0 0 1:0.781176 2:0.587039 3:0.748524 4:0 
-1 -0 -0 0 0 1:0.781332 2:0.5741 3:0.745097 4:0 
-1 -0 -0 0 0 1:0.781613 2:0.579692 3:0.746599 4:0 
-1 -0 -0 0 0 1:0.783655 2:0.583757 3:0.753699 4:0 
-1 -0 -0 0 1 1:0.790983 2:0.681804 3:0.755883 4:0 
-0 -0 -0 0 1 1:0.797668 2:0.763913 3:0.786847 4:0 
-0 -0 -0 0 1 1:0.798912 2:0.789068 3:0.796044 4:0 
-0 -0 -0 0 1 1:0.798949 2:0.764599 3:0.825658 4:0 
-0 -0.2745117490207489 -0.7200194704268374 0 1 1:0.799414 2:0.792198 3:0.856751 4:0 
-0 -0 -0 0 1 1:0.799774 2:0.805134 3:0.816636 4:0 
-0 -0 -0 0 1 1:0.799392 2:0.768733 3:0.795031 4:0 
-0 -0 -0 0 1 1:0.799023 2:0.758028 3:0.788653 4:0 
-0 -0 -0 0 1 1:0.799407 2:0.774892 3:0.812677 4:0 
-0 -0 -0 0 1 1:0.798276 2:0.793698 3:0.815909 4:0 
-0 -0 -0 0 1 1:0.797404 2:0.785678 3:0.798415 4:0 
-0 -0 -0 0 1 1:0.796901 2:0.774975 3:0.829164 4:0 
-0 -0 -0 0 1 1:0.797504 2:0.79274 3:0.809739 4:0 
-0 -0 -0 0 1 1:0.796929 2:0.727379 3:0.766673 4:0 
-1 -0 -0 0 1 1:0.796647 2:0.686011 3:0.743785 4:0 
-1 -0 -0 0 1 1:0.79719 2:0.680916 3:0.709134 4:0 
-0 -0 -1 -0 0 1:0.763152 2:0.623842 3:0.658339 4:2.142309 
-0 -0 -1 -0 0 1:0.761511 2:0.618697 3:0.663658 4:2.142309 
-0 -0 -1 -0 0 1:0.762254 2:0.618184 3:0.650689 4:2.142309 
-0 -0 -1 -0 0 1:0.768931 2:0.581517 3:0.625732 4:2.142309 
-0 -0.07137358981404149 -0 -0 0 1:0.824064 2:0.13944 3:0.773348 4:2.142309 
-0 -0.259767311636583 -0 -0 0 1:0.821008 2:0.13922 3:0.738862 4:2.142309 
-0 -0 -1 -0 0 1:0.763656 2:0.581385 3:0.636406 4:2.142309 
-0 -0 -1 -0 0 1:0.766928 2:0.595953 3:0.646369 4:2.142309 
-0 -0 -1 -0 0 1:0.771426 2:0.612409 3:0.656126 4:2.142309 
-0 -0 -1 -0 0 1:0.782404 2:0.637336 3:0.642296 4:2.142309 
-0 -0 -1 -0 0 1:0.772625 2:0.611534 3:0.683117 4:2.142309 
-0 -0 -1 -0 0 1:0.770462 2:0.598039 3:0.706613 4:2.142309 
-0 -0 -1 -0 0 1:0.771432 2:0.597496 3:0.708494 4:2.142309 
-0 -0 -1 -0 0 1:0.774678 2:0.602787 3:0.677059 4:2.142309 
-0 -0 -1 -0 0 1:0.782883 2:0.573023 3:0.614965 4:2.142309 
-0 -0 -1 -0 0 1:0.759454 2:0.56126 3:0.679704 4:2.142309 
-0 -0 -1 -0 0 1:0.764125 2:0.576048 3:0.672915 4:2.142309 
-0 -0 -1 -0 0 1:0.774731 2:0.603826 3:0.62653 4:2.142309 
-0 -0 -1 -0 0 1:0.788074 2:0.592216 3:0.641288 4:2.142309 
-1 -0.5634749161339521 -0.4878733165403619 -1 0.5367694100068088 1:0.724112 2:0.500121 3:0.681272 4:94.304688 
-0 -1 -1 -0 0 1:0.73705 2:0.654368 3:0.666048 4:2.142309 
-0 -0 -1 -0 0 1:0.734885 2:0.649279 3:0.759457 4:2.142309 
-0 -0 -1 -0 0 1:0.733264 2:0.637586 3:0.797185 4:2.142309 
-0 -0 -1 -0 0 1:0.731748 2:0.628314 3:0.816717 4:2.142309 
-0 -0 -1 -0 0 1:0.734632 2:0.63013 3:0.840337 4:2.142309 
-0 -0.4247427938887808 -1 -0 0 1:0.738104 2:0.638933 3:0.82445 4:2.142309 
-0 -0 -1 -0 0 1:0.739328 2:0.647478 3:0.745758 4:2.142309 
-0 -0 -1 -0 0 1:0.743444 2:0.615621 3:0.654646 4:2.142309 
-0 -0.862264976499081 -0 -0 0 1:0.710062 2:0.455062 3:0.513544 4:2.142309 
-1 -0 -0 -1 1 1:0.73454 2:0.563025 3:0.656336 4:0 
-1 -0 -0 -1 1 1:0.738462 2:0.521603 3:0.690435 4:0 
-1 -0 -0 -1 1 1:0.740933 2:0.546313 3:0.68916 4:0 
-1 -0 -0 -1 1 1:0.74225 2:0.553506 3:0.691608 4:0 
-0 -0 -0 -1 0 1:0.787172 2:0.561045 3:0.587532 4:1.290257 
-0 -0 -0 -1 1 1:0.783956 2:0.545424 3:0.662172 4:1.290257 
-0 -0 -1 -0 0 1:0.780188 2:0.520411 3:0.701795 4:2.142309 
-0 -0 -0.8870780402067425 -0 0 1:0.776847 2:0.505508 3:0.723949 4:2.142309 
-0 -0 -1 -0 0 1:0.777979 2:0.50951 3:0.724102 4:2.142309 
-0 -0 -1 -0 0 1:0.782739 2:0.522148 3:0.678038 4:2.142309 
-0 -0.1010464826602101 -0 -0 0 1:0.778038 2:0.51313 3:0.530485 4:2.142309 
-0 -0 -1 -0 0 1:0.783019 2:0.527618 3:0.716873 4:2.142309 
-1 -0 -0 -1 1 1:0.790712 2:0.556891 3:0.657749 4:1.290257 
-0.7177199585840685 -0 -0 -0.1493738430994378 0.3101404579978564 1:0.794361 2:0.55922 3:0.579245 4:1.290257 
-1 -0 -0 -0 0 1:0.795917 2:0.488136 3:0.596001 4:1.290257 
-0 -0 -0 -1 -0 1:0.934791 2:0.953972 3:0.966553 4:0 
-0 -0 -0 -1 -0 1:0.938127 2:0.971278 3:1.011597 4:0 
-0 -0 -0 -1 -0 1:0.940823 2:0.985206 3:1.0316 4:0 
-0 -0 -0 -1 -0 1:0.944094 2:0.995539 3:1.029852 4:0 
-0 -0.4925349358907961 -0.578227178033519 -0 -0 1:0.971674 2:1.028373 3:1.174968 4:0 
-0 -0 -0 -1 -0 1:0.946661 2:0.917314 3:0.977787 4:0 
-0 -0 -0 -1 -0 1:0.949571 2:0.922744 3:0.992098 4:0 
-0 -0 -0 -1 -0 1:0.95391 2:0.92768 3:1.014205 4:0 
-0 -0 -0 -1 -0 1:0.954013 2:0.918549 3:1.037981 4:0 
-0 -0 -0 -1 -0 1:0.956174 2:0.987134 3:1.005756 4:0 
-0 -0 -0 -1 -0 1:0.956673 2:0.990984 3:0.99816 4:0 
-0 -0 -0 -0.07174851035082687 -0 1:0.956019 2:0.984828 3:1.0148 4:0 
-0 -0 -0 -1 -0 1:0.956453 2:0.976251 3:1.005182 4:0 
-0 -0 -0 -1 -0 1:0.953455 2:0.983239 3:1.011765 4:0 
-0 -0 -0 -1 -0 1:0.957096 2:0.971586 3:0.990608 4:0 
-0 -0 -0 -1 -0 1:0.953379 2:0.964453 3:0.979204 4:0 
-1 -0 -0 -1 -0 1:0.955576 2:0.780017 3:0.803123 4:0 
-1 -0 -0 -1 -0 1:0.954519 2:0.783518 3:0.80323 4:0 
-1 -0 -0 -1 -0 1:0.953871 2:0.786483 3:0.798087 4:0 
-1 -0 -0 -1 -0 1:0.954654 2:0.783387 3:0.798339 4:0 
-1 -0 -0 -1 -0 1:0.954681 2:0.780766 3:0.801751 4:0 
-1 -0 -0 -1 -0 1:0.953951 2:0.781603 3:0.80087 4:0 
-0 -0 -0 -1 -0 1:0.954129 2:0.783457 3:0.809934 4:0 
-1 -0 -0 -1 -0 1:0.956065 2:0.779681 3:0.814652 4:0 
-1 -0 -0 -1 -0 1:0.958762 2:0.778423 3:0.811724 4:0 
-1 -0 -0 -1 -0 1:0.959814 2:0.780898 3:0.806025 4:0 
-1 -0 -0 -1 -0 1:0.961557 2:0.781624 3:0.808349 4:0 
-1 -0 -0 -1 -0 1:0.958873 2:0.779851 3:0.802945 4:0 
-1 -0 -0 -1 -0 1:0.954687 2:0.779281 3:0.801746 4:0 
-1 -0 -0 -1 -0 1:0.95308 2:0.778709 3:0.807427 4:0 
-1 -0 -0 -1 -0 1:0.954143 2:0.773408 3:0.801807 4:0 
-1 -0 -0 -1 -0 1:0.955163 2:0.768929 3:0.80288 4:0 
-1 -0 -0 -1 -0 1:0.955895 2:0.769483 3:0.804853 4:0 
-1 -0 -0 -1 -0 1:0.955584 2:0.775681 3:0.81031 4:0 
-1 -0 -0 -1 -0 1:0.958525 2:0.77348 3:0.81387 4:0 
-1 -0 -0 -1 -0 1:0.962099 2:0.778235 3:0.807431 4:0 
-1 -0 -0 -1 -0 1:0.964684 2:0.786497 3:0.803071 4:0 
-1 -0 -0 -1 -0 1:0.964076 2:0.786909 3:0.803145 4:0 
-0.846265914259979 -0 -0 -1 -0 1:0.962689 2:0.791431 3:0.802336 4:0 
-0 -0 -0 -1 -0 1:0.962198 2:0.792072 3:0.807718 4:0 
-0 -0 -0 -1 -0 1:0.960791 2:0.790616 3:0.805161 4:0 
-1 -0 -0 -1 -0 1:0.959922 2:0.791609 3:0.797779 4:0 
-1 -0 -0 -1 -0 1:0.959889 2:0.792746 3:0.79369 4:0 
-0 -0 -0 -1 -0 1:0.95963 2:0.794492 3:0.799599 4:0 
-1 -0 -0 -1 -0 1:0.960305 2:0.786387 3:0.798929 4:0 
-1 -0 -0 -1 -0 1:0.960155 2:0.78233 3:0.796527 4:0 
-1 -0 -0 -1 -0 1:0.9609 2:0.784649 3:0.793733 4:0 
-1 -0 -0 -1 -0 1:0.960876 2:0.786759 3:0.791302 4:0 
-1 -0 -0 -1 -0 1:0.960215 2:0.787546 3:0.793148 4:0 
-1 -0 -0 -1 -0 1:0.95872 2:0.787316 3:0.791412 4:0 
-1 -0 -0 -1 -0 1:0.957488 2:0.782096 3:0.788905 4:0 
-1 -0 -0 -1 -0 1:0.955728 2:0.783107 3:0.786471 4:0 
-1 -0 -0 -1 -0 1:0.956509 2:0.778452 3:0.783655 4:0 
-1 -0 -0 -1 -0 1:0.956761 2:0.779531 3:0.786445 4:0 
-1 -0 -0 -1 -0.8469098680046652 1:0.955568 2:0.767696 3:0.783648 4:0 
-1 -0 -0 -1 -1 1:0.954764 2:0.75519 3:0.784016 4:0 
-1 -0 -0 -1 -1 1:0.957848 2:0.74994 3:0.785165 4:0 
-1 -0.5918656851576248 -0.766881593974294 -1 -1 1:0.957678 2:0.74674 3:0.782821 4:0 
-1 -0 -0 -1 -1 1:0.956888 2:0.74597 3:0.784267 4:0 
-1 -0 -0 -1 -1 1:0.957723 2:0.748462 3:0.783937 4:0 
-1 -0 -0 -1 -1 1:0.957393 2:0.749229 3:0.784543 4:0 
