svm_type c_svc
kernel_type rbf
gamma 0.333333
nr_class 5
total_sv 863
rho -0.31108 -0.414911 -0.514985 -0.202988 -0.11221 -0.250001 0.118414 -0.138581 0.245528 0.366908
label 0 1 2 3 5
nr_sv 239 184 142 115 183
SV
0.2807400857639569 0.2383564029381426 0.1987951035520659 0.258950878149605 1:177.17612 2:53.419785 3:8.452325 
0.3880484597119221 0.3292772654782284 0.272312825353649 0.5316634176767729 1:176.69258 2:53.756035 3:8.452325 
0.229135513938508 0.1929032235519377 0.1608134222482936 0.2633626966327969 1:176.46429 2:47.795586 3:8.452325 
0.5115663103357576 0.4353543051779166 0.3607934011340674 0.5899973157494972 1:172.66811 2:69.50248 3:8.452325 
0.4838922655922182 0.4186266460783571 0.3408392078710705 0.5627535716018482 1:168.4996 2:66.483971 3:0 
0.5706259284447592 0.4838665886666959 0.4015335247615359 0.6573037289812044 1:166.72055 2:42.411312 3:8.452325 
0.3006819126431701 0.257522627819651 0.2156143700358161 0.3188917983443684 1:167.98819 2:49.180775 3:8.452325 
0.6805698830980333 0.5778868411925893 0.4794685699176017 1 1:167.45534 2:66.390549 3:8.452325 
0.5611523942243419 0.8342032442873718 0.3957818059805353 0.6650522064746796 1:166.27739 2:67.110855 3:0 
0.1040242664036316 0.07937450843612792 0.07309884802054439 0.111341387324784 1:168.25969 2:67.828552 3:0 
0.6397590788896091 0.6691727862054265 0.4502792515785349 0.7397823852479947 1:171.28098 2:68.809265 3:0 
0.4079606655924093 0.5985549409010891 0.2868085393178304 0.4737224230445047 1:170.90572 2:64.572205 3:0 
0.5248123962114487 0.4435489470403054 0.3666717552448819 1 1:170.04849 2:58.003647 3:0 
0.8634152831458929 0.5730543845754217 0.4749520743143549 0.808639957061471 1:164.474 2:50.736324 3:0 
0.6086720489971477 0.5169784468814322 0.4285107623578355 0.7614823851320527 1:165.78371 2:50.046108 3:8.452325 
0.5616825076666889 0.477906768945625 0.3960351916849243 0.6506618710011278 1:172.77597 2:72.237099 3:8.452325 
0.5131034411096853 0.4355858099392367 0.3608918332403869 0.5935997520351596 1:183.75633 2:63.226738 3:8.452325 
0.1168816671982421 0.098989867338186 0.0815573020869292 0.1362918934265013 1:190.21107 2:52.298828 3:8.452325 
0.497688230488415 0.422585581034159 0.3503669202262036 0.5744878778804204 1:175.07761 2:36.356873 3:8.452325 
0.5821623010029274 0.4945523879546445 0.4098786284013489 0.6834520491378863 1:173.24841 2:34.455902 3:8.452325 
0.5360828853953556 0.4557151723301566 0.3776578462171233 0.6200629231944937 1:194.64656 2:47.994427 3:8.452325 
0.6316538703468317 0.5360221855685245 0.4447478191903938 0.7306457589578514 1:200.77504 2:60.623299 3:0 
0.6669627374611447 0.5665939396713964 0.4694972764599394 0.7716487468434355 1:185.09727 2:89.387566 3:0 
0.4854593712976658 0.4147631047137328 0.3412607470465015 0.5610292580503978 1:184.5988 2:86.335609 3:0 
0.6688498303100394 0.5688923058686672 0.4709029729660595 0.773841374568619 1:184.95686 2:81.943596 3:0 
0.3617950378445042 0.3402959698284578 0.2537157659091169 0.4168419721776042 1:182.57126 2:79.317703 3:0 
0.1751201951092893 0.1430703996112146 0.124288844838748 0.2030992635574 1:182.32411 2:78.104073 3:0 
0.3540995084494835 0.3046808771082216 0.2443696599863576 0.4071027879889962 1:180.88406 2:76.237541 3:0 
0.5273284639259042 0.4497049573022973 0.3696851482946006 0.6082561531476821 1:177.5365 2:63.585457 3:0 
0.4960986776170352 0.4355232506648842 0.3596879915472191 0.5918456985466076 1:176.53683 2:58.400833 3:0 
1 0.3000051156803234 0.2407551441435445 0.3683707208792888 1:176.86145 2:55.572586 3:0 
1 0 0 0.003371407612616728 1:178.00519 2:56.452858 3:0 
0.3666148682792683 0 0 0 1:178.13156 2:57.070354 3:0 
0.09015481691149523 0.3973957893275663 0.3296109778595409 0.54168335863023 1:178.37596 2:57.733307 3:0 
0.8326529180199975 0.2545098002963681 0.2164434557905653 0 1:175.16157 2:54.240509 3:0 
0.1557895887864182 0.02465462690572198 0.05342642896453289 0.1473270483721114 1:176.02936 2:55.956993 3:0 
0 0.1428838537594804 0.0891987587880427 0 1:175.69943 2:55.754837 3:0 
0.03682973922562727 0.2734728010266204 0.2243716118769328 0.8218222058529462 1:173.84975 2:54.097748 3:0 
1 0.1888065532538646 0.156192394577233 0.8789184362459844 1:170.77567 2:53.132507 3:0 
0.5436519518220411 0.4509236205042377 0.3738011364586498 0.5096480109560267 1:166.91019 2:54.611214 3:0 
0.08741589944781682 0.06749639710375679 0.05767260959053986 0.01438286848846332 1:169.44624 2:47.991035 3:8.452325 
0.235823020098232 0.201899269779585 0.1672524034611587 0.1932328333559323 1:171.33441 2:51.494335 3:8.452325 
0 0 0 0.130811012151561 1:169.64322 2:48.722527 3:8.452325 
0.5822859171944081 0.4942744534500627 0.4094257869349109 0.6755718010196167 1:167.85388 2:71.043983 3:8.452325 
0.5572936634583284 0.6809021048232966 0.3925876556797585 0.6641686262850247 1:165.68707 2:72.975555 3:0 
0.6705255774630241 0.5694601434763531 0.4720366535112427 0.7757534770827256 1:165.55867 2:75.980911 3:8.452325 
0.664419393909951 0.90613204314331 0.4677575420874938 0.7686729332116683 1:167.89935 2:79.491554 3:0 
0.4552747135254405 0.3864554717642745 0.3208097753822258 0.5259520651282497 1:170.60881 2:77.27047 3:8.452325 
0.001954668985529659 0.0005571981702967577 0.0005919088569424358 0.00177912355599201 1:172.53569 2:71.026627 3:8.452325 
0.4608733154368371 0.3921009858425494 0.3241529855372319 0.759814167521791 1:172.771 2:56.42931 3:8.452325 
1 0.3664250351963822 0.3041004319149888 0.8363825994744872 1:171.56355 2:51.390675 3:0 
0.7548921425166535 0.3304825814156631 0.2738018953742628 0.7243395096284602 1:170.40457 2:54.052883 3:0 
0.3369166032920805 0.2776017475695948 0.2303006776809012 1 1:168.94952 2:55.544971 3:0 
0.4899385694666545 0.4199128150582399 0.3480352877369325 0.6033317256040945 1:167.29845 2:56.867519 3:0 
1 0.4046094253544885 0.3356122480795769 0.7154157402818753 1:167.8107 2:48.048439 3:0 
0.3446168178359225 0.2936689108383752 0.2423166539843895 0.3995166416481318 1:169.66128 2:76.132324 3:8.452325 
0.599797282570006 0.5096382480885878 0.4223446157123795 0.6941412063824781 1:167.64188 2:78.697876 3:8.452325 
0.4494836411163724 0.381584189216903 0.316488163446534 0.5203037709632532 1:182.59277 2:69.054832 3:8.452325 
0.6046649963445847 0.5136087331443125 0.4257321116261646 0.7001471922693396 1:184.2328 2:60.620903 3:8.452325 
0.5731782213309126 0.4868133783209868 0.4039272550836614 0.6628301103411961 1:186.05405 2:51.504925 3:8.452325 
0.5830127459823714 0.4948072735959076 0.4101912327365937 0.6744708607106239 1:186.42255 2:33.823566 3:8.452325 
0.6272300491855709 0.532619453045474 0.4414831638430388 0.8538649267519292 1:179.10854 2:27.294426 3:8.452325 
0.6281438459056248 0.5338644054729335 0.4420625336496845 0.7150135696666405 1:179.89891 2:24.769089 3:8.452325 
0.6889553603651224 0.5851059720870606 0.4851199287830114 0.7970635367907178 1:197.54848 2:79.683838 3:8.452325 
0.6885540069740128 0.5839985204463009 0.4840453713486343 0.7960973620171087 1:195.88544 2:69.204628 3:0 
0.442298178911212 0.3758432646598302 0.3109911919951022 0.5111797854620599 1:191.82661 2:60.757984 3:0 
0.6306705064207923 0.5358138367048053 0.4438476911142523 0.7298231749163222 1:191.88872 2:67.182793 3:0 
0.4443795799438179 0.3778384469075405 0.313247571375083 0.5142714952536384 1:192.7945 2:49.815025 3:0 
0.4708785054587266 0.3998544560790623 0.3315697087482322 0.543540321815286 1:190.90979 2:43.060875 3:0 
0.6747523310359578 0.572926737716509 0.4752985447836694 0.7804083978628517 1:188.4968 2:36.315205 3:0 
0.675292564629935 0.5737698644988953 0.4757106804153123 0.7810631558202161 1:188.55789 2:32.900166 3:0 
0.589926519820225 0.5009340546633092 0.4153124329299869 0.6826121738790714 1:185.33298 2:39.681969 3:0 
0.9186522225662612 0.4939505629203944 0.4104419040348641 0.673144913643047 1:179.50804 2:55.087749 3:0 
1 0 0 0.2264210643956748 1:175.8452 2:54.842003 3:0 
0.4146206215796273 0.3312075594477737 0.2766365856214696 0.8669846725200594 1:173.1427 2:55.679012 3:0 
0.4039779484804269 0.2684154200148422 0.2827320503778585 0.4590252755962669 1:171.42896 2:63.416214 3:0 
0.5780186256767276 0.4723294767533267 0.4064764017738143 0.7376666276592648 1:169.87288 2:60.931728 3:0 
0.5612251413745821 0.4575271949306118 0.3793277337037178 1 1:172.47737 2:57.867908 3:0 
0.568953485622801 0.4837975359670261 0.4001556210033089 0.7731537436510105 1:175.85229 2:57.146362 3:8.452325 
0.4014154266569983 0.3415517307293091 0.2824444823866713 0.4141390597521677 1:175.16885 2:61.003567 3:8.452325 
0.2152265454249302 0.1819463952829667 0.1517060686501384 0.8381802794510917 1:174.35016 2:56.405426 3:8.452325 
0.06509764461695829 0.05670460880021194 0.04690739738774538 0.06317915555692669 1:173.65477 2:47.075085 3:8.452325 
0.3209374838137506 0.2725817763851914 0.2282036941230621 0.3903019669585362 1:172.49687 2:40.668686 3:8.452325 
0.5327377031636141 0.452709687933265 0.3750940012075284 0.6153058860616858 1:170.37123 2:72.547821 3:8.452325 
0.3268580458217328 0.3119811023979337 0.2304631908075824 0.3919509787972291 1:167.95105 2:69.482407 3:0 
0.5511255168712024 0.4681445734269463 0.3887157859949947 0.9575273437431221 1:166.4326 2:46.294369 3:8.452325 
0.2636644070625251 0.2263220027352494 0.1868706388277687 0.334693470331346 1:168.41444 2:41.772236 3:8.452325 
0.1311954627110213 0.1089823396291309 0.08862227484641848 0.1071504277495706 1:169.07335 2:42.227131 3:8.452325 
0.2598069276572529 0.2221846037512809 0.1836689501418349 0.4844844117918524 1:168.32997 2:58.176308 3:8.452325 
0.1858439629640661 1 0.1272539219795558 0.2046858413102429 1:167.46111 2:73.194298 3:0 
0.6005286496121495 0.5094045630816901 0.4227165168560936 1 1:167.58138 2:54.896824 3:8.452325 
0.1423086449604077 0.159787182182232 0.1481310479076834 0.7480379282071926 1:169.15881 2:50.950718 3:8.452325 
0.2039787107758736 0.1587019315231414 0.1387894812113489 0.2064471770401829 1:170.71964 2:48.88039 3:8.452325 
0.2575154744968215 0.2164350863546094 0.180229333622278 0.1756232836136267 1:169.86993 2:45.079632 3:8.452325 
0.2918456097298994 0.2559904080802567 0.2131960153834306 0.7784113783032441 1:168.55876 2:56.807705 3:8.452325 
0.5243000497067873 0.5946471800889656 0.3703640514750716 0.6084738989885811 1:167.29523 2:76.425751 3:0 
0.5579983537983121 0.4742226681610485 0.3933479211216571 1 1:166.64557 2:58.712528 3:8.452325 
0.1028951641907825 0.08493184529482323 0.07164233423977483 0.1049352422101912 1:173.02167 2:48.29932 3:8.452325 
0.5904320675637507 0.5019789548384112 0.4156854768546454 0.6832771840839851 1:181.30968 2:70.777412 3:8.452325 
0.6685986010048965 0.5675912692731699 0.470734782516673 0.7735582536356478 1:183.657 2:80.902786 3:8.452325 
0.6478925348106781 0.5502139469029755 0.4561212434297549 0.749251881867835 1:180.03374 2:66.231499 3:8.452325 
0.6486306300899132 0.5509130299021436 0.4563842156966598 0.7524999897801097 1:178.35602 2:50.85244 3:8.452325 
0.5873503666426054 0.4985129730725329 0.413238002863534 0.6552620205848042 1:175.89586 2:44.593063 3:8.452325 
0.6701654706421096 0.5687418813629418 0.4714966117795968 1 1:171.33562 2:66.118462 3:8.452325 
0.2465504649432013 0.2683288526826042 0.1774250317707097 0.2909522207148164 1:167.69705 2:73.672379 3:0 
1 0.09319256921652506 0.07667054356389778 0.1965772804294736 1:167.61107 2:49.175114 3:0 
0.5288049460499162 0.4491763359418947 0.3724201465952399 0.9221005757252737 1:171.26028 2:59.993355 3:8.452325 
0.4058040067004217 0.3437446471316709 0.2853874324904725 0.5562043276838342 1:174.45226 2:61.806084 3:8.452325 
0.6305880280179371 1 0.4368266402759782 0.7179532997012656 1:175.10748 2:67.44899 3:0 
0.1335278560632001 0.2936655931867425 0.09272704036762382 0.1524697320233172 1:167.51871 2:75.362045 3:0 
0.6889460438067081 0.5851066485624244 0.4851804355089529 0.7969708957459881 1:152.4473 2:81.82534 3:8.452325 
0.6891103909552685 0.5850688984851885 0.4850323312010058 0.7970936183686619 1:140.20075 2:76.278999 3:8.452325 
0.6889538717142741 0.5850611779720138 0.4852102790730493 0.7968213479417516 1:144.13853 2:70.766655 3:8.452325 
0.6869443258718035 0.5834053219516731 0.4837778173450907 1 1:163.81 2:68.543015 3:8.452325 
0.6666536128512153 0.5658426788743034 0.4691237810187923 0.7710085326482302 1:181.03816 2:60.36285 3:8.452325 
0.4660388812042178 0.3957117284166706 0.32835234632036 0.5393207415016379 1:187.11885 2:54.149769 3:8.452325 
0.5719967812924992 0.4856116455502444 0.4001393985751288 0.661334930644957 1:189.16406 2:55.521286 3:8.452325 
0.6823229896163266 0.5794651014460486 0.4803734057826701 0.7895726607257013 1:189.88798 2:59.125523 3:8.452325 
0.5170664162531472 0.4401839491386944 0.3648245202998975 0.6000090539270245 1:177.6617 2:47.302944 3:8.452325 
0.3487117357031899 0.29546113548269 0.2648463943547879 0.4305992086876477 1:170.28036 2:40.55444 3:8.452325 
0.2965028815013013 0.2533170823812458 0.2043745486595341 0.3385418736217166 1:177.24895 2:38.644531 3:8.452325 
0.5173007217862751 0.4395576800723995 0.3644078854537133 0.5984153456079979 1:201.02657 2:56.717823 3:8.452325 
0.01174532078513065 0.01136387504183357 0.008027575320671144 0.01377392893686336 1:199.54622 2:59.662502 3:0 
0.2421283181510721 0.2061030465427522 0.1709519437415098 0.2820798710944843 1:190.27223 2:43.693813 3:0 
0.6843565381430552 0.5814488527112341 0.4819546483052922 0.7915299596249206 1:188.71272 2:80.98307 3:0 
0.05314186853805958 0.04203278660242755 0.03359846479018178 0.05674271828434015 1:189.03493 2:94.935707 3:0 
0.6020770009123009 0.5134391305362161 0.4262090999834661 0.7003672159498187 1:189.28058 2:95.724541 3:0 
0.1755818533017177 0.1511275901839721 0.1271547776893373 0.2061122937320397 1:189.0551 2:93.373627 3:0 
0.5300782284871435 0.4490328799836817 0.3708080991246258 0.6114557565976382 1:188.52905 2:92.599182 3:0 
0.5117390243917349 0.4335138643042841 0.3601036641541335 0.5925705681884355 1:186.10753 2:85.36721 3:0 
0.2116474795781432 0.1776146021532662 0.1541753649560854 0.2474313205477305 1:180.66867 2:75.886566 3:0 
0.5966786153421701 1 0.4194285873006654 0.6894379411576576 1:177.70271 2:70.935867 3:0 
0.5035058924160586 0.6792545657197496 0.3556946186883517 0.5842952190751037 1:177.26263 2:68.697754 3:0 
0.2485319294759749 0.1741025233963169 0.1438526658365027 0.2370986728869437 1:175.9527 2:48.806313 3:0 
1 0.4823255494773545 0.4003775993275835 0.6566311583995018 1:174.45779 2:48.333122 3:0 
0.5582814405311262 0.4269894711842528 0.3540393710593198 0.5784975800293877 1:170.00902 2:45.734505 3:0 
0.05948662233934501 0.342991288049428 0.2841966332533862 0.3100989611991581 1:168.0853 2:50.879135 3:0 
0.5187907843538001 0.4401188755950975 0.3649949383899851 0.8678897876025485 1:173.76782 2:43.336346 3:8.452325 
0.5033507772515242 0.4262679113875363 0.3533857678397779 0.6110992758838889 1:172.81348 2:46.358173 3:8.452325 
0.5751574886057137 0.7103341093567321 0.4042450123323498 0.6646007758631263 1:170.34575 2:74.187836 3:0 
0.41502083053503 0.348448795834672 0.2867555817496671 0.6311823061833267 1:170.20679 2:52.244091 3:8.452325 
0.3792241775478948 0.3209982044314919 0.2652283389587636 0.4141132685364702 1:173.81946 2:40.797367 3:8.452325 
0.270547011895669 0.229183635198406 0.1924384484103585 0.3162736844284212 1:176.0193 2:39.380653 3:8.452325 
0.3334841694966769 0.2840730183286134 0.2340883844493825 0.386842019650892 1:174.7332 2:38.291107 3:8.452325 
0.4049467640717537 0.3426144593829692 0.2845179024582225 0.5385161502958782 1:172.68489 2:58.412094 3:8.452325 
0.6002878077658631 1 0.4215378444630158 0.6924087406009835 1:170.61066 2:76.691925 3:0 
0.5520918488288605 0.3808390900084258 0.3164408953099677 0.4233940722116717 1:170.42864 2:50.002167 3:0 
0.09173761936848915 0.08857444203107438 0.06715105802602825 0.1198621767544049 1:171.79347 2:49.15559 3:8.452325 
0.1269648880646886 0.1073997231973401 0.08919129129402532 0.1475242395865875 1:171.59833 2:69.376427 3:8.452325 
0.6833420345793964 0.5802690437963718 0.4808346678069361 0.7901526703498337 1:176.23262 2:66.097267 3:8.452325 
0.3738303144779419 0.318016832779115 0.2634490354431451 0.4325773070997097 1:185.69365 2:63.468132 3:8.452325 
0.0235802151627588 0.02044019223316789 0.01934848802442287 0.02803655680364723 1:189.20087 2:54.743626 3:8.452325 
0.1653675641577507 0.1401755310832434 0.1160486707369568 0.1925934725666849 1:191.01587 2:50.836636 3:8.452325 
0.4194482466306211 0.35664204972075 0.2957473433195853 0.4832633046942711 1:191.34757 2:51.825806 3:8.452325 
0.562947267835183 0.4780715845294475 0.3964574828494693 0.6513771256902865 1:189.27129 2:45.831558 3:8.452325 
0.1991953959386717 0.1677875256509699 0.1434722372670328 0.2331033392655569 1:177.12642 2:38.134418 3:8.452325 
0.6654547257908301 0.565117157220872 0.468510797514154 0.7682187240018153 1:178.78354 2:35.009159 3:8.452325 
0.4418639674433688 0.3750999025302519 0.3106363937993271 0.5111176732984695 1:200.87274 2:54.786381 3:0 
0.5496014205918014 0.4672368890454835 0.3870128490519902 0.6360180490959968 1:192.0144 2:46.017342 3:0 
0.6889584789276502 0.5847799699318519 0.4851793645420581 0.7966194852232453 1:189.32019 2:22.909897 3:8.452325 
0.582546283503669 0.4952068690211879 0.4101753996642198 0.6741438530406023 1:185.1418 2:31.961939 3:8.452325 
0.6041121315360792 0.5126119173864957 0.4254272496890034 0.698780291226084 1:185.44923 2:42.48262 3:8.452325 
0.06290102874196542 0.05336144245713489 0.04406150932772075 0.07303019206903065 1:187.18919 2:51.805336 3:8.452325 
0.4073768022802082 0.3459087171313805 0.286133690989135 0.4706345880092893 1:187.75441 2:48.927956 3:8.452325 
0.5057410159743152 0.4295310699333106 0.3560092899347459 0.5849242165072283 1:187.03439 2:46.809471 3:8.452325 
0.5933841138031599 0.5039520377139654 0.4174962323048468 0.6863191920972771 1:184.35626 2:44.641644 3:8.452325 
0.5357495395626874 0.4549428225373363 0.3770512330377794 0.6202524572527411 1:194.11893 2:46.125912 3:8.452325 
0.6887963640993054 0.5849535933823082 0.4851954611838352 0.7970690657253734 1:199.19945 2:65.572327 3:8.452325 
0.5554901498439541 0.4712707391210302 0.3904581900811504 0.6420254232784829 1:192.47504 2:55.196285 3:0 
0.5370630469878966 0.456039704529686 0.3779783805374037 0.6215718718336893 1:190.67598 2:59.340481 3:0 
0.08290246202237164 0.06931198284718601 0.05848227720505188 0.09450778216672222 1:190.18494 2:45.54166 3:0 
0.4467712598809239 0.3785074871668881 0.3143429056257714 0.5162145780901712 1:185.88147 2:58.574017 3:0 
0.5239130498938399 0.4450265350121249 0.3686827965038697 0.6057671291042297 1:181.88162 2:74.19281 3:0 
0.3509986574782815 0.2833581969978416 0.2469990510832039 0.4070368622336258 1:183.45882 2:78.411865 3:0 
0.4784490557933179 0.406518965225048 0.336187532764549 0.5538982739804877 1:187.86957 2:75.540726 3:0 
0.6515674130707693 0.5531284059240202 0.4587810717242137 0.7536057303317529 1:189.74945 2:69.213875 3:0 
0.5965423661963981 0.5067161636669753 0.4199964990490705 0.6903724792604964 1:189.3721 2:65.227882 3:0 
0.6720674306112767 0.5704154991237977 0.4734519305036977 0.7771680611055153 1:185.84587 2:65.272835 3:0 
0.5292799408506083 0.4541636564080214 0.3701335353465624 0.6081001556265243 1:175.89825 2:62.660381 3:0 
0.5920311563729148 0.5103988329417585 0.4199990551880228 0.6934851539784593 1:183.4854 2:61.118286 3:0 
0.4438594951925576 0.3767372384505341 0.3124466820282807 0.5131345427134314 1:202.04851 2:54.168579 3:0 
0.6889812839126349 0.5850234989528503 0.4849755820885632 0.7969571630414072 1:197.30745 2:46.352131 3:0 
0.4987415679550737 0.4237627461638107 0.351317458807094 0.5769389968553831 1:190.86641 2:53.998322 3:0 
0.5680717148299108 0.4827950516902677 0.3995805388640622 0.6577299599706388 1:190.89044 2:63.085266 3:0 
0.4784483265879043 0.4059036764699994 0.3372582644305208 0.5535043048261196 1:188.93617 2:74.387489 3:0 
0.5780539229115761 0.4915377543488069 0.4068977449548593 0.6690072273512758 1:184.30678 2:72.256126 3:0 
0.5475823307186732 0.4625224505348287 0.3855303821171006 0.6331519128381055 1:181.70558 2:71.19413 3:0 
0.5754666100339126 0.4887805957959962 0.4055776162578348 0.6660845151578138 1:182.62511 2:67.792839 3:0 
0.4025392026226698 0.3424169681292544 0.2820650151985158 0.465730216012483 1:182.6366 2:63.263931 3:0 
0.03988145954795623 0.009921633784073305 0.01187411572979389 0.01592970639054361 1:182.974 2:61.660271 3:0 
0.5861035127894455 0.490071914919209 0.4068298821261191 0.6680845598766479 1:176.79904 2:50.219669 3:0 
0.4493792624547002 0.3825619518493314 0.3158983797102845 0.5255414914242413 1:174.65247 2:48.476742 3:8.452325 
0.2423189532129323 0.2545748547328708 0.2105986557743927 0.3863305886260237 1:168.75143 2:46.111061 3:0 
1 0.1272781524775038 0.1057157634632323 0.3755042888806894 1:167.61137 2:50.524406 3:0 
0.3158037415460333 0.2632939435923349 0.2208253354681689 0.382637546938856 1:172.49606 2:49.926552 3:8.452325 
0.4731382461937203 0.4017138802087822 0.3335277206596191 0.553318231780999 1:169.82808 2:69.768387 3:8.452325 
0.2136895191276265 0.1808640368940465 0.1491606529103248 0.4451202782769395 1:167.1129 2:47.789104 3:8.452325 
0.6218227532249424 0.5280326771806629 0.4376093146060526 0.719253987048035 1:168.0484 2:37.81488 3:8.452325 
0.2569947728717028 0.2252361339325971 0.1831589116757051 0.3224648500596011 1:170.28656 2:47.466068 3:8.452325 
0.4560191556641458 0.3886387560520124 0.3221374538573909 0.6057675373629589 1:170.47177 2:43.529663 3:8.452325 
0 0 0 0.1371242111346969 1:169.84876 2:45.432907 3:8.452325 
0.1845367994339815 0.1557674690887496 0.1296288520300276 0.2127110852580816 1:168.66281 2:77.063957 3:8.452325 
0.1991699510984261 0.1255617864430918 0.08945959226724903 0 1:169.09026 2:50.682201 3:8.452325 
0.1065731491537736 0.0910309142137177 0.05544950317734072 0.09451556027723035 1:170.47412 2:40.330818 3:8.452325 
0.06088519505482742 0.0668841942979395 0.0520067490425179 0 1:169.69261 2:49.38459 3:8.452325 
0.4221598619701071 0.3197003223569416 0.2969642374269288 0.4823242118052496 1:168.89969 2:70.31942 3:0 
0.08018274709325468 0.05916835646870572 0.04836294580166443 0 1:168.60822 2:57.079617 3:8.452325 
0.5682303413571869 0.4830076571909397 0.4010987687935838 0.6584369261933541 1:170.6635 2:37.881271 3:8.452325 
0.6397857143524898 0.5431434146882754 0.4504002358574842 0.9714146811928263 1:169.79286 2:62.277706 3:8.452325 
0.6086637906631368 1 0.4285352474720308 0.7210757572757845 1:168.09775 2:62.975506 3:0 
0.3022852965342208 0.2573596209327 0.2135945816383885 0.2872900402546708 1:169.10268 2:46.155678 3:8.452325 
0.6021803335266114 0.5117989094902244 0.4240395053182693 0.7038374525845368 1:174.16147 2:51.870777 3:8.452325 
0.5587147112673053 0.4749794128863744 0.3931989812287482 0.6465124676215429 1:182.90373 2:66.852356 3:8.452325 
0.6687398808204164 0.5677620017485344 0.4709896810719297 0.7733475500635321 1:186.28726 2:79.014549 3:8.452325 
0.5902727032063781 0.5008679696362526 0.4154294633829251 0.68285127070045 1:187.71973 2:63.490837 3:8.452325 
0.2983181243081066 0.2533874881691875 0.2096203580323366 0.3447057612782543 1:188.50639 2:52.860115 3:8.452325 
0.2276202031601879 0.1930278769335997 0.1611430117369433 0.2630209942028499 1:189.39938 2:51.091064 3:8.452325 
0.1682058751233727 0.1428028353986213 0.1183855333624343 0.19412392072505 1:189.76363 2:49.485085 3:8.452325 
0.3671853893169411 0.311988542893592 0.2582767096223119 0.4251057921306774 1:189.73714 2:48.277668 3:8.452325 
0.6778893080482955 0.5756832843616163 0.4772854352481249 0.7842001447735024 1:180.71992 2:38.53968 3:8.452325 
0.6383523566150663 0.5422266734538745 0.4493137871798052 1 1:171.25374 2:32.624264 3:8.452325 
0.6752211829722109 0.5733049950582824 0.475432337284213 0.9009636877213819 1:179.73386 2:31.695662 3:8.452325 
0.5168720230483306 0.4391276069899196 0.364164554999481 0.5984480516113352 1:202.3886 2:57.922867 3:8.452325 
0.6289324792491996 0.5330555387658631 0.442773474152346 0.727471689764865 1:198.69531 2:58.847843 3:0 
0.4145535601903424 0.3513148791667584 0.2918219949319073 0.4796910591172064 1:191.55304 2:51.411201 3:0 
0.3959726126202342 0.3358190892995998 0.278444596892773 0.4577016229182074 1:191.45187 2:48.533596 3:0 
0.6889773040784712 0.5849669102363666 0.4849071236751952 0.7966456582015815 1:189.73657 2:39.767262 3:8.452325 
0.5734471980985798 0.4879811043268669 0.4035140610603778 0.6639803183730839 1:189.18132 2:46.513733 3:0 
0.3466264797735572 0.2961705909188449 0.2450249664625694 0.402978473179116 1:189.25787 2:50.210983 3:0 
0.2946414349154457 0.2487779676076768 0.2065624510519175 0.3388170537584193 1:189.29918 2:50.895412 3:0 
0.4662811454391426 0.395943729513275 0.3279433899631915 0.5388816739441983 1:186.3615 2:57.21101 3:0 
0.4395053312341428 0.3734933418975951 0.3090731099921064 0.508140169595911 1:183.67746 2:69.777496 3:0 
0.5472155849434071 0.4511531306309344 0.3748637898059369 0.6147718474051689 1:181.63669 2:64.801422 3:0 
0.6523213144186224 0.5522293062687753 0.457175829644062 0.7521205385061959 1:181.99864 2:53.700218 3:0 
0.4181143977207471 0.348352615912378 0.2888776980818849 0.4738277896550505 1:183.21716 2:42.933533 3:0 
0.3539600232137025 0.3013899976392882 0.2493740791986797 0.4097094953955126 1:185.00012 2:41.653099 3:0 
0.2776189774404897 0.2385764998459309 0.1983031397334145 0.3264013053306144 1:184.60763 2:43.421623 3:0 
0.5017545144531919 0.4219999987622172 0.3497154959404478 0.5743115078675339 1:183.40044 2:45.380886 3:0 
0.6426534822916232 0.5243647056241911 0.4351250516865584 0.7146755877902822 1:182.05505 2:47.391754 3:0 
-1 0.7809208020924595 0.6597550491622289 0.9862897302155966 1:92.554893 2:50.21769 3:0 
-1 0.8214485439025079 0.6944366670249862 1 1:92.42276 2:53.043846 3:0 
-1 0.8851757714088069 0.7476488869322042 1 1:92.306686 2:59.635014 3:0 
-0.9802549406273244 0.6674591154996844 0.5642095498189742 0.8400987034940142 1:93.182602 2:67.191437 3:3.436937 
-0.7740429545537125 0.5250368151921631 0.4436142999789278 0.6617480929732166 1:94.453789 2:70.092896 3:3.436937 
-0.3261235325974602 0.2196472529549563 0.1860548497587123 0.2773828250932454 1:94.985863 2:71.64579 3:3.436937 
-0.9743826614659316 0.6581074810685192 0.5560839855664357 0.8297329388338436 1:95.575493 2:73.443405 3:3.436937 
-0.2262995878065816 0.1556104862634693 0.1309080352715193 0.1952671757290765 1:95.990227 2:72.965195 3:3.436937 
-0.8606319616847347 0.5832953963655209 0.4920719583645372 0.7339958601583698 1:96.224197 2:70.298676 3:3.436937 
-1 0.7994220300729703 0.6756747118722908 1 1:97.196342 2:65.701019 3:3.436937 
-1 0.8717721188230698 0.7365593653990787 1 1:97.829742 2:58.87978 3:3.436937 
-0.9121349033672886 0.6175567988418965 0.521503834380475 0.7781920000406106 1:97.851563 2:54.381783 3:3.436937 
-0.1259591408752094 0.07838276799834634 0.06653109922169165 0.09976907272801705 1:97.497963 2:52.168259 3:3.436937 
-0.7454969009135942 0.5239270371299128 0.4421818253592169 0.6590110126623061 1:97.524574 2:51.351944 3:3.436937 
-0.03623683730975059 0 0 0 1:97.436829 2:50.339802 3:3.436937 
-1 0.6999978414428283 0.5913701588497977 0.8817910738853305 1:96.91774 2:49.2827 3:3.436937 
-0.4779285964800086 0.3202628258002729 0.2700976939555801 0.4035102014664294 1:96.607033 2:52.90519 3:3.436937 
-0.6403642932377647 0.4404447082983211 0.3724226551155352 0.5533172331540243 1:95.924713 2:54.724663 3:3.436937 
-0.3805695770631585 0.2933493347287248 0.2505324475355233 0.3674762440008455 1:94.258003 2:49.065594 3:3.436937 
-0.7692100092410386 0.5186324525228196 0.4382904315548821 0.6539887146542057 1:92.246704 2:47.829941 3:3.436937 
-1 0.7980884118595079 0.6741392503091197 1 1:89.784721 2:50.024563 3:3.436937 
-1 0.8271975082237421 0.6990904690474846 1 1:87.238594 2:51.181534 3:3.436937 
-1 0.7715708019977385 0.6506069529580991 0.9721306698144064 1:87.788612 2:46.892029 3:3.436937 
-0.3025918228164189 0.1262126304862194 0.1118269928208726 0.1602899478553416 1:88.420082 2:45.354233 3:3.436937 
-0.6294584827274692 0.5676073306006627 0.4610681592140773 0.7084438444277017 1:88.943382 2:44.383369 3:3.436937 
-0.2578187514730188 0.07401782365131718 0.07812191529349358 0.09909900184995588 1:89.243744 2:44.249237 3:3.436937 
-0.8922658378786917 0.6025297211325977 0.5095158645358611 0.7585722061999247 1:89.660118 2:41.343967 3:3.436937 
-0.5155868947514806 0.3499328410146641 0.2954450576028484 0.4409123403256749 1:90.598015 2:39.780552 3:3.436937 
-0.2819159860124441 0.1959397766547805 0.1631217234978928 0.2483654680260028 1:90.83831 2:42.63179 3:3.436937 
-0.7608989266984399 0.5168230728444942 0.4379159113118395 0.6497840903221955 1:91.305199 2:46.224438 3:3.436937 
-0.09911933788155286 0.067449364059025 0.06417665454211141 0.0882517656919202 1:92.073441 2:41.417805 3:3.436937 
-0.02937503223232424 0.05029484308254362 0.03959572522056173 0.05993313489344534 1:92.138527 2:37.984936 3:3.436937 
-0.1632513595336313 0.0554180423576521 0.04786156995374539 0.07083598153208437 1:92.479309 2:37.073399 3:3.436937 
-0.298865262513637 0.1960137727118344 0.1613051661160972 0.2493553054570817 1:93.2901 2:45.318943 3:3.436937 
-0.4304645974241209 0.2401229814082787 0.2001274773484663 0.3043468412100929 1:93.875267 2:49.60051 3:3.436937 
-0.1389802931107065 0.09553110335159286 0.08811963456910157 0.1184048831427391 1:92.725082 2:44.226925 3:3.436937 
-0.3686087147113015 0.2524493181468271 0.2371284375071678 0.3027887799868245 1:91.626884 2:43.966545 3:3.436937 
-0.1789873374601391 0.1218306405951932 0.07553793835069851 0.1694790492330397 1:91.724419 2:44.148693 3:3.436937 
-0.4578513279293172 0.313627081926433 0.2613444097860378 0.3921693253937569 1:92.047676 2:40.00182 3:3.436937 
-1 0.7224497385169754 0.6099881468449447 0.9100050394939128 1:92.118622 2:36.575367 3:3.436937 
-0.5185450584553 0.3341309342491341 0.2856386532487625 0.4245322514082975 1:91.930458 2:38.645035 3:3.436937 
-0.5969814936014138 0.3960379995705271 0.3279061542210355 0.496244174105099 1:92.50103 2:42.167328 3:3.436937 
-0.001174545548978972 0 0 0 1:94.996689 2:42.218124 3:3.436937 
-1 0.7259448656826178 0.6141989497144301 0.9153070153088356 1:94.964165 2:41.638824 3:3.436937 
-0.8764251105559144 0.5854564099266246 0.4929608820052631 0.7375508146836264 1:94.731789 2:43.95686 3:3.436937 
-0.879908602524591 0.589197575598484 0.4966748811696041 0.7436223262667379 1:94.670425 2:46.989357 3:3.436937 
-0.1482450511334933 0.1097301392206281 0.09585788036294439 0.1359103025708829 1:93.896133 2:45.659721 3:3.436937 
-1 0.7426063585219564 0.6285034266614871 0.9355225307651764 1:93.621429 2:51.50428 3:3.436937 
-1 0.7671704357155579 0.6484069081275622 0.966241452230985 1:93.332771 2:57.353577 3:3.436937 
-1 0.7181846224586867 0.6071815825328198 0.9046167163927126 1:94.063721 2:62.003376 3:3.436937 
-0.7197495136825356 0.4869866499764681 0.412022562958307 0.6132110783360661 1:94.498726 2:64.379402 3:3.436937 
-0.763324663689585 0.5052757670864385 0.4266004459017666 0.6377164722584092 1:94.947624 2:67.26532 3:3.436937 
-0.5345673187705936 0.3427684379288499 0.289322779843129 0.4330758935553071 1:95.352432 2:63.453285 3:3.436937 
-0.8794609580175017 0.5707453459698679 0.4819177360305952 0.7218031573257412 1:95.403854 2:56.595909 3:3.436937 
-0.8345648747430323 0.5613377805748023 0.4741833773768558 0.707538254966795 1:95.613472 2:51.346947 3:0 
-0.8318481203839578 0.5606480786472842 0.4737013075614418 0.7060490186105145 1:95.669151 2:49.907604 3:0 
-0.8144266247095049 0.5506517455600168 0.4657587165681954 0.6936642484716011 1:139.35913 2:45.007515 3:1.290257 
-0.819828153313466 0.5559263989109764 0.4712913203666269 0.7000491792218532 1:137.83777 2:52.303516 3:3.436938 
-0.02448590704453171 0 0.1906668367712097 0 1:137.67239 2:58.349613 3:3.436938 
-1 0.7195512816667963 0.5746964802552289 0.9069398451096978 1:137.31845 2:59.648163 3:3.436938 
-1 0.7153966154893672 0.5202675111730988 0.9013638745093466 1:137.12369 2:57.571999 3:3.436938 
-0.9320970994866196 0.6303137869831088 0.5322426395730323 0.7942017950228895 1:137.02863 2:53.619709 3:3.436938 
-0.9414857935932233 0.6372897267823245 0.5374410682452279 0.8031259971239467 1:137.38516 2:49.534264 3:3.436938 
-0.5140884336234698 0.3433169818784539 0.2971082002113609 0.4353912617720229 1:138.028 2:45.747955 3:3.436938 
-0.6419346661463516 0.4321214998014581 0.3649528823834451 0.5464730578889933 1:138.32506 2:38.813271 3:3.436938 
-0.2969948086363395 0.203960150141048 0.1794445643989887 0.2552266633300627 1:138.16148 2:41.518009 3:3.436938 
-0.4630028556772681 0.3068896857815143 0.2521470336415504 0.3908499278389457 1:138.15002 2:40.870022 3:3.436938 
-0.54789188845811 0.3743470163853979 0.3087958148254552 0.4692914145951124 1:138.56857 2:42.706127 3:3.436938 
-0.3670606632350901 0.2436821161870141 0.2080469418749396 0.3065040243801865 1:138.24107 2:48.229126 3:3.436938 
-0.4774017104564138 0.3253112939916228 0.2702595647932888 0.4086762774491248 1:138.20271 2:46.843693 3:3.436938 
-0.444389768625885 0.2916133919944928 0.2590087248594857 0.3737568725789175 1:138.19778 2:43.720501 3:3.436938 
-0.1541681751200398 0.1138289780859661 0.08431368209720762 0.1371516970830508 1:138.26163 2:44.491558 3:3.436938 
-0.283815980594512 0.1996427528704987 0.1761834017166883 0.2477031111896355 1:138.32446 2:39.953514 3:3.436938 
-0.01293822423067581 0.006393291497582817 0 0.007838234933895171 1:138.0092 2:39.631145 3:3.436938 
-0.07973224994537358 0.05560035767303399 0.04414339669286507 0.06918783588607832 1:137.51433 2:36.663548 3:3.436938 
-0.7761579692863322 0.5790537458449376 0.4892965641338511 0.7288827130240928 1:137.49841 2:35.399841 3:3.436938 
-1 0.7709403017436474 0.6514404216409188 0.9710281197281079 1:137.38078 2:33.198368 3:3.436938 
-0.105991602214623 0 0 0 1:137.36069 2:34.981777 3:3.436938 
-0.7343267586075365 0.5022230471138845 0.426176747460563 0.6316164575688606 1:137.35551 2:37.502205 3:3.436938 
-0.02227226295288931 0.004295280984879086 0.004704542137718799 0.007091173741395361 1:137.46992 2:36.681019 3:3.436938 
-1 0.7005697308893156 0.5919432707041902 0.8830712344439876 1:137.74883 2:48.114193 3:1.290257 
-0.5074848586933958 0.3437039556242634 0.2895217166617812 0.4326681898099769 1:138.23592 2:44.99017 3:1.290257 
-1 0.4632042177324823 0.3936544101318936 0.5862113484169148 1:173.90427 2:47.672745 3:0 
-0.9306461111683829 0.4626901959394299 0.3886732940134457 0.5805585734176598 1:173.3477 2:47.417122 3:0 
-0.008879069292705367 0.002969587457628067 0.001836131092965018 0 1:172.62032 2:47.798248 3:3.436938 
-1 0.7190750199110773 0.6080199208893119 0.9557299928851836 1:169.44391 2:45.27689 3:3.436938 
-1 0.7072514444147316 0.5985093357902755 0.9024493872022257 1:168.59297 2:42.302979 3:3.436938 
-0.3524497005171776 0.2078620360764877 0.1739990261298683 0.2423919059493937 1:169.17511 2:43.15168 3:3.436938 
-0.8638356768915832 0.5849054644155182 0.4941806915476775 0.8630390443940706 1:170.89575 2:48.157124 3:3.436938 
-0.03416168493246034 0.02300291280542575 0.01604655286169722 0.06179694739941814 1:172.43344 2:50.259769 3:3.436938 
-0.2006722169742619 0.119140034048607 0.1008839636331125 0.1207392816435567 1:171.45145 2:46.223801 3:3.436938 
-0.494020927842594 0.3458653310637861 0.2937665790620804 0.4287487359032786 1:173.78725 2:49.275299 3:3.436938 
-0.5479021305866409 0.3635650901760241 0.3079198723428307 0.4592628953521653 1:177.26886 2:50.394508 3:3.436938 
-0.6719528335512404 0.4563706400751437 0.3849271450519327 0.5751486898824411 1:178.43855 2:49.707378 3:3.436938 
-0.9118821016574364 0.6150962735949589 0.5196026820840617 0.7751920776297466 1:179.34326 2:47.898716 3:3.436938 
-1 0.7242991939415339 0.6109583542714029 0.9135066411690411 1:177.78343 2:45.015533 3:3.436938 
-0.1026270534488931 0.03258164851944285 0.02844953302525348 0.0393617358604011 1:177.06944 2:44.278362 3:3.436938 
-0.8299954159242212 0.5716275350698976 0.4823281844627736 0.7217172512472697 1:176.03008 2:42.7076 3:3.436938 
-0.3771546161042832 0.2555010280735523 0.2149252440939389 0.328245129814666 1:175.28784 2:44.50647 3:3.436938 
-0.3731471318281315 0.2620343567271171 0.2227295488028116 0.3245083770903493 1:175.09698 2:45.204491 3:3.436938 
-0.4427934640891424 0.2854953107727566 0.2387365351839688 0.3644859098389763 1:174.97597 2:46.428082 3:3.436938 
-0.3026628575479664 0.1346550303306664 0.1022159089154483 0.1562239669598854 1:174.75095 2:49.10062 3:3.436938 
-0.5938248877536887 0.1986940502153951 0.1014730309393603 0.2622383783747752 1:173.77116 2:51.815578 3:3.436938 
-0.2580809691465851 0.2054720830395826 0.1833180792769456 0.2621873665498824 1:173.68285 2:52.752239 3:3.436938 
-0 0.1976989504656396 0.2307654974037817 0.2393416388873337 1:173.812 2:51.622128 3:3.436938 
-0.5615604014094246 0.3661369722934871 0.3098021165897233 0.4707995181799531 1:173.87137 2:54.617119 3:3.436938 
-0.3844320135364641 0.2614535223085784 0.2176782534227182 0.3416568725135705 1:173.85622 2:55.843468 3:3.436938 
-0.1532775487156888 0.1061615219883548 0.08664718186098551 0.1309252201415516 1:173.68709 2:58.426151 3:3.436938 
-0.9665139263747734 0.9105004193723247 0.5511973442800171 0.8232799303838445 1:173.71075 2:64.732552 3:3.436938 
-1 1 0.5728731258831365 0.8546635650843617 1:173.82047 2:66.58123 3:3.436938 
-1 1 0.7099573528617374 1 1:173.77901 2:70.9161 3:3.436938 
-0.7617278504126883 1 0.3785403871931207 0.5875398658739266 1:173.62109 2:73.723816 3:3.436938 
-0.6002739722564213 1 0.3391847378727765 0.5068839199751534 1:173.37401 2:76.208572 3:3.436938 
-0.9646019224694147 1 0.5538465674096946 0.8248685421209152 1:173.45189 2:77.529045 3:3.436938 
-0.41383592129095 0 0.2865663635326111 0.4069218456033264 1:173.35135 2:73.975037 3:3.436938 
-0 0.009379108896767401 0 0 1:173.44661 2:66.20681 3:3.436938 
-0.9218843216936088 0.6163095898622628 0.5260003535772352 0.7922859634895 1:173.85126 2:61.496136 3:3.436938 
-0.6677097964817507 0.4466727801167132 0.3812394912947865 0.5803674322802128 1:173.86922 2:57.071049 3:3.436938 
-0.05357231485840687 0.004383416540407455 0 0 1:174.05029 2:50.465107 3:3.436938 
-0.8097432515443209 0.5450950472821736 0.4601021109986232 0.6868833120618059 1:176.1606 2:47.853203 3:3.436938 
-0.01825489207055972 0.0113321780612938 0.009454903728750956 0.007678635682567029 1:175.76782 2:46.778141 3:3.436938 
-0.1465271400596815 0.08968706069143725 0.07481149063866034 0.1082578309175412 1:175.92129 2:50.571426 3:3.436938 
-0.4179210805817804 0.2947507173376786 0.2508829633064591 0.3740012348331962 1:175.9496 2:51.476845 3:3.436938 
-0.9556983555363034 0.6348187217695723 0.5355388488979537 0.7987695561050776 1:175.87207 2:53.475658 3:3.436938 
-0.01441917581243001 0.02388956803831568 0.02348002587957189 0.03674172519287187 1:174.97995 2:47.40424 3:3.436938 
-0.1368414670941333 0.07156100078294796 0.05172462995531012 0.08595910950409262 1:174.98787 2:50.454544 3:3.436938 
-0.015294720957284 0.08647479847383105 0.08895648925506421 0.1315090379071233 1:174.8076 2:49.596783 3:3.436938 
-0.02451064262927084 0.01553288291045076 0.01400628396559552 0.01420321443131266 1:174.80933 2:42.587364 3:3.436938 
-1 0.7375242732043473 0.6228083472435259 0.9262846568542666 1:174.87489 2:38.139702 3:3.436938 
-0.6898372402960971 0.4621565735423855 0.3897845740306778 0.5845692666913217 1:174.72771 2:41.315277 3:3.436938 
-0.5088457700268102 0.3457436731635974 0.291450978024087 0.4278073707252329 1:174.1523 2:59.847778 3:3.436938 
-0.5682463459308984 0.3869340572123645 0.3254879856319758 0.4931300987374105 1:172.52463 2:59.972183 3:3.436938 
-0.5547885560346502 0.366499855545082 0.3121171261697496 0.47399791735749 1:172.30307 2:58.347218 3:3.436938 
-0.3958072087277355 0.2598855169627022 0.2170507597857036 0.329941702592552 1:169.91516 2:54.327896 3:3.436938 
-0.3172391372010215 0.2063845708518816 0.1792030517975067 0.2553279343729061 1:169.04994 2:53.446632 3:3.436938 
-0.5341777518698234 0.3930318430481832 0.3217208001611145 0.5469162590962584 1:169.1877 2:52.730438 3:3.436938 
-0.3027079597431699 0.1708393219657738 0.1513137073148591 0.1887061060467753 1:169.56541 2:52.58202 3:3.436938 
-0.7026103068065237 0.4739248774996094 0.4052913820276995 0.6226434325103984 1:170.82837 2:56.231861 3:3.436938 
-0.3569459769164527 0.2395988746479627 0.1976442835883198 0.305713647228977 1:171.16301 2:56.688278 3:3.436938 
-0.7786947187135133 0.5163418834717656 0.4358636221304792 0.6721817808298803 1:171.69925 2:53.74897 3:3.436938 
-0.8650521890017631 0.5742336776739025 0.4869972187868412 0.6765043773872592 1:171.71175 2:50.065235 3:3.436938 
-0.6482999763316346 0.4405279171075502 0.3720815937980773 0.5743495722168819 1:172.0714 2:45.091652 3:3.436938 
-0.8458205413568964 0.5755375490440523 0.487261798522016 0.7263071897693875 1:172.40193 2:43.034607 3:3.436938 
-0.1104763199688294 0.07061116610991766 0.05908809242679963 0.1090985953527108 1:172.96471 2:42.87043 3:3.436938 
-0.8234273177818461 0.5414415907784437 0.4573225882267791 0.6945192660783799 1:172.98647 2:39.071777 3:3.436938 
-0.5698014877986317 0.3925544240913146 0.3319345609813859 0.4861298567867269 1:172.95848 2:40.812733 3:3.436938 
-0.6149746384048969 0.4287445730625639 0.3624994967082277 0.5293034360095124 1:172.81889 2:46.983761 3:3.436938 
-1 0.6714740968113337 0.5679581502992502 1 1:170.07869 2:53.300179 3:0 
-1 0.543574708530108 0.4582171799738047 0.7904953997781323 1:166.90881 2:50.02776 3:0 
-1 0.2016267882978712 0.1719322508194511 0.3244938318801819 1:166.37396 2:48.950146 3:0 
-1 0.5298552417966036 0.4469483313593868 0.8080088255311164 1:167.37636 2:48.465706 3:0 
-1 0.6818732109831036 0.5760546097670071 1 1:171.1714 2:51.706985 3:0 
-1 0.3227794263196598 0.2733217834544709 0.410640415604227 1:176.10895 2:54.829346 3:0 
-1 0.7530987638745884 0.6359078700197961 0.9479688349960694 1:177.7625 2:56.138969 3:0 
-1 0 0 0 1:177.82306 2:55.516876 3:0 
-1 0.5905409229898917 0.4982447484013095 0.7435194578820301 1:176.57149 2:53.792732 3:0 
-0.9857633471029053 0.6604581087729102 0.5576360414255253 0.8312791913961828 1:183.68768 2:54.271114 3:3.436937 
-0.9096301171630415 0.6165475201426874 0.5203382073255985 0.776018611893016 1:181.9202 2:65.328529 3:64.380936 
-1 0.8879146505072492 0.7500480752418166 1 1:180.81775 2:73.882248 3:64.380936 
-0.9155411356451433 0.6197431669977116 0.523854125386588 0.7810222346814781 1:180.87067 2:66.510735 3:64.380936 
-0.696314509031006 0.4714015192535795 0.3981116711521918 0.595146594610352 1:181.42158 2:61.245544 3:64.380936 
-0.7147340407159199 0.4838977728332295 0.4086479644505062 0.6084145414330896 1:181.78575 2:60.666634 3:64.380936 
-0.911175506229678 0.6161738034652902 0.5212174426970599 0.7765012781926979 1:182.89998 2:58.841526 3:3.436937 
-1 0.7043237892421862 0.5953951239647665 0.8876096268200786 1:183.72807 2:51.742805 3:3.436937 
-0.8328208366018266 0.5629524044635593 0.4756070751799591 0.710718908548498 1:183.00382 2:56.420662 3:3.436937 
-0.1534450201683886 0.0988476109541908 0.0828728606502358 0.1250892665502765 1:182.14842 2:59.068268 3:3.436937 
-0.1502510341744069 0.1055490209984715 0.08924351839874652 0.1319036951655003 1:181.94551 2:57.261524 3:3.436937 
-0.3999757519361515 0.251857121688346 0.2125518963836978 0.3172956715138063 1:181.05231 2:63.408024 3:3.436937 
-0.9815868106147609 0.6640297349700395 0.5596882716060146 0.8353097233028119 1:180.23656 2:65.21051 3:3.436937 
-0.5814812764813726 0.4000074494203475 0.3386408158566661 0.503883944138241 1:179.77882 2:63.565666 3:3.436937 
-1 0.6858914046023078 0.5795240626737184 0.8645635284862472 1:179.83536 2:60.901955 3:3.436937 
-0.6048870136325488 0.4049781476554336 0.3420555400545105 0.5103012711508034 1:179.96416 2:57.881527 3:3.436937 
-0.4734235997283111 0.3217511835155239 0.2713616905888327 0.4046059040741303 1:179.99545 2:58.587112 3:3.436937 
-0.9739877518554607 0.6515105271361241 0.550455429479322 0.8210863319070404 1:180.16191 2:55.518414 3:3.436937 
-0.04213163039658798 0 0 0 1:180.52898 2:53.832634 3:3.436937 
-1 0.7225300820003732 0.6103691978722696 0.9100174285795644 1:180.81049 2:53.218018 3:3.436937 
-0.131537308867502 0.09456307335954775 0.07956356670019414 0.1169334759155027 1:181.11859 2:48.905315 3:3.436937 
-0.8136648307116917 0.5674904161065615 0.4725863796307872 0.7278686730216692 1:181.42058 2:43.830257 3:3.436937 
-0.3122996011290083 0.1922059887973647 0.1695540898502449 0.2288549320248824 1:181.6111 2:43.852615 3:3.436937 
-0.6690495545605175 0.4519407594075178 0.3800264029184838 0.5716621068415367 1:181.67963 2:45.848831 3:3.436937 
-0.2551196673464904 0.1683405964558847 0.1441091489773083 0.2087152913033513 1:181.73816 2:46.749249 3:3.436937 
-0.677322234079789 0.4517877660361073 0.381407436496055 0.5722020735961343 1:182.1048 2:48.085369 3:3.436937 
-0.8605297898666622 0.5758530656282733 0.486992395687625 0.725958229235144 1:181.98631 2:50.057823 3:3.436937 
-1 0.715132039537001 0.6043261083089496 0.9010693920803865 1:182.4042 2:61.847992 3:3.436937 
-1 -0.8970566080220171 0.696289289399932 0.9649420440851025 1:149.9846 2:59.305309 3:2.385023 
-0.1526269635216762 -0.01168889058855961 0.006823051381516859 0.02207534400834621 1:150.85297 2:59.628677 3:2.385023 
-0.6909653359975856 -0.5587502773681441 0.4346061725288827 1 1:150.87274 2:60.927505 3:2.385023 
-0.6902149515678763 -0.5322805563350265 0.4069938856417864 1 1:150.07686 2:62.589409 3:2.385023 
-0.1779935329467058 -0.15929191185081 0.132556566557683 1 1:149.52943 2:63.39798 3:2.385023 
-0.7491447499382081 -0.562968379138682 0.4285720656397499 1 1:149.68341 2:64.198044 3:2.385023 
-0 -0 0 0.166549728289195 1:150.27832 2:64.24511 3:2.385023 
-0.2941616062543138 -0.2911483003320208 0.2307150244279383 0.429432025331385 1:150.95305 2:65.199707 3:2.385023 
-0.8237194390661339 -0.5651192443932362 0.4336638247258273 0 1:151.51845 2:65.856262 3:2.385023 
-0 -0 0 1 1:151.57039 2:66.333336 3:2.385023 
-0 -0 0 1 1:151.45528 2:66.749374 3:2.385023 
-1 -0.9440869710006501 0.7321344358566013 1 1:151.52037 2:67.908264 3:2.385023 
-1 -1 0.8252771255884964 1 1:152.42274 2:54.508083 3:2.385023 
-1 -0.751705667481436 0.580792847813221 1 1:155.72839 2:54.050926 3:2.385023 
-0.8312629186387023 -0.6481471109328388 0.5026106748846407 1 1:160.05447 2:59.304878 3:2.385023 
-1 -0.8268159627059637 0.6383365782641923 0.9255990365313136 1:160.44524 2:61.317581 3:2.385023 
-0.06993241264834402 -0.02258498974873565 0.02089594241422289 0 1:159.09019 2:61.795841 3:2.385023 
-0.5654410502931536 -0.467351255454212 0.3576021292185412 0.5774890790223886 1:158.30264 2:62.835251 3:2.385023 
-0.5955013538438931 -0.4524874723494108 0.3547987188917226 0.4824755067084293 1:157.71283 2:63.660275 3:2.385023 
-1 -0.7750797804350068 0.6007690414793695 1 1:154.80211 2:62.21595 3:2.385023 
-0.7068657912722451 -0.5571164132827225 0.4327082408139185 0.7059154616979753 1:155.45874 2:63.975353 3:2.385023 
-0.5288588141374645 -0.4156948184645123 0.3209283878986421 0.3929381797932625 1:155.88232 2:65.825752 3:2.385023 
-0.7690973294642797 -0.5988186132483713 0.4663214000936173 0.7243361188313465 1:156.89796 2:66.486725 3:2.385023 
-0.8355343265034667 -0.6571308785057017 0.5089331331604235 0.8677253773985065 1:154.23734 2:71.461815 3:2.385023 
-0.3030381308253417 -0.2509978796740783 0.1977932067385 1 1:155.41945 2:76.17688 3:2.385023 
-0 -0 0 0.4174744439130776 1:155.63113 2:75.465515 3:2.385023 
-0.1508382799685292 -0.1153699043222214 0.08713657580837506 0 1:154.99483 2:74.257042 3:2.385023 
-0.8584811328938197 -0.6760214925060083 0.5246074074729097 0.7206482959929525 1:154.22458 2:73.536972 3:2.385023 
-0.102822774988531 -0.07987094385112406 0.06211711946348136 0 1:155.5445 2:75.138496 3:2.385023 
-0.666750219991478 -0.5182457611515192 0.3996456058259338 1 1:156.84718 2:75.416565 3:2.385023 
-0 -0 0 0.01041949879667257 1:156.88834 2:73.888847 3:2.385023 
-0.6180935438615038 -0.4851016943896851 0.3759967742809706 0.06512833739694063 1:156.39491 2:71.975784 3:2.385023 
-0 -0 0 1 1:156.71549 2:72.525574 3:2.385023 
-0.8743969403915717 -0.6863223180697861 0.5302240466778602 1 1:157.45618 2:73.203903 3:2.385023 
-0.4886362785439837 -0.3964165331915446 0.307257738799604 1 1:160.08495 2:74.58252 3:2.385023 
-0.690428213044717 -0.4942442449678811 0.3823313939575178 0.5882401447700155 1:163.48943 2:78.482697 3:2.385023 
-1 -0.9732109162769982 0.7535242647213796 1 1:165.08656 2:81.698692 3:2.385023 
-1 -0.8984897346432777 0.6956246985957633 1 1:162.10709 2:79.480507 3:2.385023 
-0.8738962925690305 -0.6905301140384672 0.5352335744471933 1 1:158.72388 2:75.809525 3:2.385023 
-0 -0 0 1 1:157.68828 2:74.944214 3:2.385023 
-0.01356848461427389 -0.01433662139340031 0.01309497812460081 0 1:156.46166 2:74.18737 3:2.385023 
-1 -1 0.8339640083867941 1 1:155.73196 2:79.556885 3:2.385023 
-1 -0.8678898281736831 0.6709512020120886 0.9485780866558386 1:154.78534 2:52.341385 3:2.385023 
-1 -1 0.7856421855628246 1 1:157.45483 2:56.092808 3:2.385023 
-0.8068713752078143 -0.626430334637941 0.4842971590226339 1 1:158.293 2:59.084396 3:2.385023 
-0.834121446224974 -0.6619614855425279 0.5128368190578936 0.6954056437266064 1:157.52336 2:60.912334 3:2.385023 
-0.9897817219911934 -0.7750127136858534 0.599942954226458 1 1:155.215 2:69.602837 3:2.385023 
-0.5953068475278708 -0.443789575739599 0.337031628532117 0.3069156246849777 1:154.56833 2:76.898994 3:2.385023 
-0.9387557703088667 -0.7461303526989891 0.5803250601023524 0.8252540257685698 1:153.32172 2:76.051178 3:2.385023 
-1 -0.979423896734147 0.7580925659467762 1 1:153.55565 2:59.921818 3:2.385023 
-0.005644795663458196 -0.008459115822494218 0.004843018209444671 0 1:156.17647 2:62.941441 3:2.385023 
-0.257828278336047 -0.2100405338817083 0.1597932004048937 0.2997754582682421 1:157.22607 2:65.379723 3:2.385023 
-1 -0.8051838180826023 0.6238322322218487 1 1:157.59598 2:69.311668 3:2.385023 
-0.720267099548868 -0.5219723069308947 0.4034685063410972 1 1:160.99809 2:75.248955 3:2.385023 
-0.04457118456152262 -0 0 0 1:164.84323 2:78.638084 3:2.385023 
-1 -0.8492592645964118 0.6569868770177459 0.944165910176456 1:165.44083 2:78.289787 3:2.385023 
-1 -0.9381462779816034 0.7257230918100066 1 1:162.58749 2:73.758797 3:2.385023 
-0.9693476968554007 -0.7622488869254986 0.5903264546212202 1 1:160.34767 2:70.6642 3:2.385023 
-0.5787374700583318 -0.4512050379741606 0.3492213376475257 0.8991465338267222 1:159.80432 2:69.692162 3:2.385023 
-0 -0 0 1 1:160.32314 2:70.123688 3:2.385023 
-0.8107418794863781 -0.9990544529512232 0.4932698603762671 0.714851233410346 1:175.25957 2:73.45134 3:2.385023 
-0.3398260438104776 -0.5463903928290003 0.199627359963156 0.2880051256045953 1:174.49017 2:77.482788 3:2.385023 
-0.5270415614578451 -1 0.3324697519896756 0.4820627231927598 1:173.51863 2:77.275856 3:2.385023 
-0 -0.1836359715022142 0 0 1:173.29547 2:77.926125 3:2.385023 
-0.5113734708390061 -0.3829533203164119 0.3108148825042317 0.4459062766367133 1:173.32332 2:81.927391 3:2.385023 
-0.1388380352204086 -0 0 0 1:173.66972 2:83.222534 3:2.385023 
-0.04457156321166358 -0.1550264406614221 0.1109414648015375 0.1641904181908307 1:173.64903 2:83.193481 3:2.385023 
-0.5770081419620277 -0.45764645560581 0.3519729135944429 0.5093518059449997 1:174.77887 2:82.420151 3:2.385023 
-0.5795912526461574 -0.4537090594279031 0.350478332563982 0.507401159375735 1:178.39496 2:86.970825 3:2.385023 
-0.5839249152209217 -0.443853609078111 0.3588338124233901 0.5120899078216096 1:176.65855 2:85.342537 3:2.385023 
-0.4899440242457693 -0.3980079761814136 0.2921076171555351 0.4322212049846013 1:176.49634 2:85.139931 3:2.385023 
-1 -0.8767133404081243 0.6788741629492221 0.9813396119390921 1:178.98813 2:88.960136 3:2.385023 
-0.6237186584675468 -0.4831258996247089 0.3767512070464197 0.5417061148785527 1:181.01147 2:92.117836 3:2.385023 
-0.8108015211403008 -0.6440251507894612 0.496061379709839 0.7203267566499255 1:181.3015 2:92.310799 3:2.385023 
-0.06147623692240001 -0 0 0 1:178.59444 2:88.637726 3:2.385023 
-0.6881965181467798 -0.5349149765668938 0.4204904025110806 0.6051156483577517 1:174.73419 2:83.816109 3:2.385023 
-0.9457875979979348 -0.7386300878708564 0.5723667618303618 0.8275496963594692 1:171.00395 2:82.31485 3:0 
-0.7754523575734302 -0.6168862380303719 0.4774210035471855 0.6898441268005905 1:171.4778 2:80.636345 3:0 
-0.1831970339658863 -0.06195890123451533 0.1186752985052611 0.1640488954806995 1:174.08554 2:77.721542 3:0 
-1 -0.7527041252065687 0.5978391573758076 0.8751504225472029 1:174.17236 2:76.811363 3:0 
-0.3050040766309977 -0.1718987169667953 0.1880636737095216 0.2704776612154314 1:173.66052 2:78.96859 3:2.385023 
-0.6458261397049736 -0.5428230571479833 0.3907653616106684 0.5670017466178873 1:173.09796 2:80.193787 3:2.385023 
-0.8484541557119861 -0.745596685132861 0.4776282151192869 0.6915939849351915 1:171.56378 2:77.584869 3:2.385023 
-0.5203642626050322 -0.3829543501475749 0.3346183468702162 0.4824186752414694 1:171.20911 2:79.268005 3:2.385023 
-1 -0.7000622233708944 0.5358421394377795 0.7740961516757585 1:169.83756 2:78.451744 3:0 
-1 -0.5701197241180654 0.4606429453546591 0.6685976216511299 1:171.05603 2:77.543083 3:0 
-0.8158914345211371 -0.6512854312654728 0.4959771163356812 0.7179218226347174 1:175.26984 2:79.464081 3:0 
-0.5057665862683697 -0.4016340867335977 0.3112854368569168 0.450311716382668 1:178.76814 2:80.807571 3:0 
-0.658740650514412 -0.5082703200926382 0.3937776822209951 0.5694071080963208 1:179.76404 2:81.2789 3:0 
-0.8821840158516958 -0.6927442800215877 0.5371252431887001 0.7759492287985096 1:181.22286 2:82.841911 3:2.385023 
-0.9521392925211379 -0.747881531284489 0.579001281817626 0.8374899245995905 1:181.58823 2:84.54409 3:2.385023 
-1 -0.786391139169625 0.6085957179680904 0.8801660261507017 1:179.56319 2:80.324142 3:2.385023 
-0.9291552377729406 -0.6919242137225035 0.5533289338777808 0.7994813322175589 1:176.5217 2:71.759514 3:2.385023 
-0.9905970892185162 -0.7476175469434154 0.5402070633552842 0.786367177225374 1:175.99512 2:68.952423 3:2.385023 
-0.9063580249708434 -0.4705783356272507 0.4652606395617868 0.672874361899082 1:176.11784 2:67.07309 3:2.385023 
-1 -1 0.691692378391753 1 1:175.00214 2:65.509827 3:2.385023 
-0 -0.2517748898380267 0 0 1:175.6362 2:66.467743 3:2.385023 
-0.272303554309367 -0.2122918626043428 0.1532697672840558 0.2226789847530944 1:170.86728 2:81.07357 3:2.385023 
-0.730594735815322 -0.58430604249796 0.457166533353644 0.6631010895115478 1:170.60068 2:82.340942 3:2.385023 
-0.3492946795732375 -0.2738638608801567 0.2124862909700235 0.300686075030853 1:171.39615 2:84.334442 3:2.385023 
-1 -1 0.7780655953380045 1 1:174.14398 2:87.71701 3:2.385023 
-0.9519389938557319 -0.7532113511889024 0.5836547836436122 0.8389586198295227 1:177.02898 2:90.977463 3:2.385023 
-0.8332848328929269 -0.6363176915491168 0.4923941529982838 0.7236506191398218 1:176.07117 2:89.748428 3:2.385023 
-0.9740111524149304 -0.7620224627543866 0.5900392058890612 0.8604502807223864 1:171.79314 2:85.116676 3:2.385023 
-0.157290209598905 -0.0786994304416866 0.06222168286624601 0.08183512991918296 1:168.63185 2:81.629776 3:2.385023 
-1 -0.8293808822151473 0.6411342340903035 0.930804452074723 1:168.55048 2:80.458099 3:2.385023 
-0.9000783478571387 -0.6501134060363273 0.5049296264599777 0.7281766158253067 1:168.32146 2:76.309998 3:2.385023 
-0.5450167628615172 -0.3652323773430138 0.283040424912833 0.4080824799710296 1:167.08467 2:76.679657 3:2.385023 
-1 -1 0.8230208752303709 1 1:163.31573 2:76.133553 3:0 
-1 -1 0.8116196047714448 1 1:167.11577 2:73.354744 3:0 
-1 -1 0.8344842322480378 1 1:172.31564 2:74.066208 3:0 
-0.8481788213965011 -0.6709446696373096 0.5159603045827952 0.7460714404402022 1:176.81107 2:78.823723 3:0 
-0.9950858696473768 -0.7838503137901324 0.6068055193352839 0.8780096930439591 1:178.68994 2:83.034698 3:0 
-0.7453856388131079 -0.5863124618474912 0.454388868547965 0.6563990298174356 1:179.50009 2:86.091194 3:2.385023 
-0.8204709951583542 -0.6456324673316269 0.4995302885230108 0.722576307215649 1:178.81503 2:83.892952 3:2.385023 
-0.9160871771136645 -0.7256862618628042 0.5568445697537076 0.8046741784957012 1:177.33394 2:80.821854 3:2.385023 
-0.9644933387182859 -0.6908734452602767 0.5886003873172889 0.8510705281604982 1:176.19679 2:78.309341 3:2.385023 
-0.1325989247443219 -0.1016278680352121 0.08131172746939426 0.1176730277228998 1:178.39418 2:81.535263 3:2.385023 
-0.52197764900977 -0.4169769747644589 0.3211387199244558 0.463327688880657 1:168.32335 2:84.828842 3:2.385023 
-0.3107460801711505 -0.2325444874349136 0.1863191136397669 0.2663650555929545 1:170.0092 2:87.285858 3:2.385023 
-0.7652580611622583 -0.6072095739465255 0.4675726976552036 0.686364370466623 1:171.9118 2:90.205696 3:2.385023 
-1 -0.9657482628670642 0.7487719152396002 1 1:173.33327 2:91.910385 3:2.385023 
-0.1916633280136596 -0 0 0.04726500764711554 1:173.25256 2:91.749062 3:2.385023 
-0.09463178602669915 -0.09942991098916673 0.06661533859352398 0.1065235236397256 1:166.79301 2:85.322639 3:2.385023 
-0.7600665794718856 -0.5744445227797077 0.4538639945747384 0.6468108705190931 1:166.69791 2:84.950722 3:2.385023 
-0.5254854415205434 -0.4024196321029513 0.3165174796957554 0.4551481920815618 1:167.89058 2:86.209602 3:2.385023 
-0.7004692484617225 -0.5587597195431191 0.4295519158045367 0.6229360802450065 1:170.23694 2:88.552582 3:2.385023 
-0.3600998239109154 -0.2709003169483323 0.2134326009780649 0.3039649078313192 1:171.30443 2:89.449753 3:2.385023 
-0.5414454804804887 -0.4362456447554338 0.3317962709673737 0.4826723542270737 1:169.28922 2:87.084961 3:2.385023 
-0.8639565598817234 -0.6643445070806657 0.5135461993521642 0.7583773406733938 1:167.35877 2:82.650444 3:2.385023 
-1 -0.7465340573321756 0.5751727908311354 0.8460366339803513 1:167.10901 2:74.741753 3:2.385023 
-1 -0.830953810447456 0.6444971238427613 0.9140402466123271 1:166.94226 2:67.355377 3:2.385023 
-1 -0.7670263934228735 0.5908289121071578 1 1:165.42828 2:68.250404 3:2.385023 
-1 -1 0.828069606443683 1 1:163.8942 2:67.240616 3:0 
-1 -1 0.860920278188388 1 1:167.47656 2:63.331451 3:0 
-1 -1 0.8328441073167631 1 1:172.58914 2:65.919426 3:0 
-1 -0.930709134520326 0.7282898569785813 1 1:175.32851 2:69.442192 3:0 
-1 -0.4203831837857641 0.3165523093713771 0.4655856323960054 1:176.58787 2:71.906235 3:0 
-0.6577294400500063 -0.5968884154912067 0.48035091947242 0.6898267410546802 1:176.7187 2:72.769653 3:0 
-1 -0.7258527011550771 0.6281784533656452 0.9082434467987323 1:176.84113 2:74.4944 3:2.385023 
-0.653784901483777 -0.7695073069090409 0.4095508315200218 0.5892554063865229 1:173.19038 2:69.108826 3:2.385023 
-0.8976133690885464 -0.6849417332246132 0.49384327865636 0.72141469390171 1:172.7567 2:68.307678 3:2.385023 
-1 -1 -1 1 1:142.26326 2:51.309689 3:4.412098 
-1 -1 -0.9591418003042275 1 1:142.03133 2:53.880161 3:4.412098 
-1 -1 -0.9142950338678418 1 1:141.99213 2:56.658966 3:4.412098 
-1 -0.8633922790660524 -0.7716161872690223 0.9203365585805771 1:142.3559 2:60.379204 3:4.412098 
-1 -1 -0.9414456984994485 1 1:142.8419 2:62.282623 3:64.380936 
-1 -1 -1 1 1:142.39475 2:63.708557 3:0.905675 
-1 -1 -0.9631176841424723 1 1:141.62158 2:66.12262 3:0.905675 
-0.05877971293071055 -0.04337081150847678 -0.03551992347732259 0.04710302581361495 1:142.50815 2:71.066383 3:0.905675 
-0.6901407245899994 -0.5810640541547751 -0.5344999742066785 0.6335733260860066 1:143.18224 2:71.700279 3:0.905675 
-0.7397346249467981 -0.595966321933071 -0.5396602783674493 0.655898737850815 1:143.47533 2:72.766197 3:0.905675 
-1 -0.8683937762865281 -0.7907146840907679 0.9399642165310039 1:143.40381 2:75.091187 3:0.905675 
-0.2248065342390423 -0.1341028845339634 -0.1220965217812343 0.1627963861940588 1:142.79939 2:75.978218 3:0.905675 
-0.03407924145065679 -0 -0 0 1:141.735 2:74.183609 3:0.905675 
-0.09708545016734539 -0 -0 0 1:140.65797 2:73.165535 3:0.905675 
-1 -0.9143135150538718 -0.8313073015973416 1 1:140.6978 2:73.402229 3:0.905675 
-0.8146239661477508 -0.669327218841904 -0.6106838014960406 0.733285677729883 1:142.10271 2:69.380371 3:0.905675 
-0.7730013638580344 -0.6448342628822025 -0.5889652805263603 0.7048635844301745 1:140.7753 2:71.251335 3:0.905675 
-0 -0.04783880555025215 -0.04709703230635657 0.03874956361484194 1:141.74396 2:74.323875 3:0.905675 
-1 -0.9931393253473213 -0.8911092585110716 1 1:140.9278 2:60.953762 3:64.380936 
-0.7451795178921484 -0.6170948580882194 -0.555321403947468 0.6666841324388822 1:140.97467 2:61.637169 3:4.412098 
-0.1070337061414487 -0.09224173451211941 -0.08939122959882564 0.1092175030254808 1:140.8226 2:62.986801 3:4.412098 
-1 -0.8993850094379755 -0.8191299682164471 0.9854086173898212 1:141.78107 2:66.476997 3:4.412098 
-0.01606171471288852 -0 -0 0 1:142.01703 2:66.082489 3:4.412098 
-0.5940206626903478 -0.475638347574472 -0.4316937737840095 0.520081444897711 1:141.76688 2:64.803131 3:4.412098 
-0.3704299715113368 -0.2637007846087154 -0.2384086304232473 0.2871578562423155 1:140.57756 2:65.421051 3:4.412098 
-0.2037918097564434 -0.208256131062197 -0.1933497411678678 0.2319275296121562 1:140.11078 2:64.403481 3:4.412098 
-0.8662387238665696 -0.6942071529420484 -0.626707019549978 0.751346243266485 1:139.99988 2:63.474388 3:4.412098 
-0.2412814601669847 -0 -0 0.09325427194388264 1:140.55966 2:62.630772 3:64.380936 
-0.8856151411018154 -0.7252430424374892 -0.6579835825245199 0.7960801142440419 1:140.63916 2:69.178734 3:0.905675 
-0.4425153780979917 -0.285287369761655 -0.2568398872686238 0.3427133571319831 1:141.27867 2:75.569359 3:0.905675 
-1 -0.9631017661043078 -0.8788838749979563 1 1:141.32718 2:76.92997 3:0.905675 
-1 -1 -1 1 1:140.11659 2:63.495052 3:64.380936 
-1 -0.8376526954500156 -0.7235255995087524 0.8871469460649321 1:139.95319 2:57.798042 3:4.412098 
-0.6284429091029867 -0.6040421104051041 -0.4937325010010697 0.5794962518026616 1:140.16064 2:59.340824 3:4.412098 
-0.08599132413647136 -0.03674793859996955 -0.06133985017498004 0.0774351416892599 1:140.52615 2:60.11237 3:4.412098 
-0.2046124475747829 -0.1076408853873116 -0.1247706953148914 0.1630333043375777 1:141.66095 2:59.350056 3:4.412098 
-1 -1 -1 1 1:123.09956 2:39.511303 3:0 
-1 -1 -0.9559681058153882 1 1:123.15823 2:42.230373 3:0 
-0.8044855974374088 -0.664431138921495 -0.6052294652224803 0.7272627724448534 1:125.04623 2:67.749031 3:0 
-0.8421571253654392 -0.6974102136236926 -0.6359699002248335 0.7601336382951215 1:125.29003 2:69.702614 3:0 
-0.3432870197052252 -0.2314049364551758 -0.2087440282058952 0.272239223651926 1:123.92511 2:61.481773 3:0 
-0.4676385966634162 -0.4078117059647113 -0.3731973313061515 0.4306651464278378 1:124.12513 2:62.192307 3:0 
-0.1809067710050435 -0 -0 0.08196296863732584 1:123.34566 2:50.026234 3:0 
-1 -1 -0.9696625062515398 1 1:123.4517 2:49.206089 3:0 
-0.4029355215874728 -0.314192130718379 -0.2857871923257418 0.336925719336035 1:123.7898 2:53.476097 3:0 
-0.02325789534652453 -0.006144792454670626 -0.004595883877798439 0.008445714905611773 1:124.50415 2:64.672775 3:0 
-0.7290091034912753 -0.6158555847405522 -0.5618881275514294 0.6724328327317811 1:124.91396 2:65.152122 3:0 
-0.7029292695136597 -0.5955919897904534 -0.5353375276122497 0.6578080340454436 1:125.32173 2:73.399948 3:0 
-0.4509375174086256 -0.3417902180527428 -0.2915878101399825 0.4060772092566689 1:123.98315 2:73.701813 3:0 
-1 -1 -0.9732177182633718 1 1:124.0978 2:75.589134 3:0 
-1 -0.8863679580749839 -0.8107418314956919 0.9628681670333731 1:122.85184 2:71.743629 3:0 
-0.03121453719528643 -0 -0 0 1:122.93003 2:71.726944 3:0 
-1 -1 -0.9222254670890067 1 1:121.85854 2:59.833588 3:0 
-0 -0.03754088462780984 -0.06443708700528689 0.03964098434876188 1:121.78726 2:53.552898 3:0 
-0.8699242477320765 -0.7194580839104567 -0.6533476936856453 0.7920232361186375 1:122.35559 2:57.164314 3:0 
-0.4491697352545144 -0.3475256751177022 -0.3107936377295992 0.3648947488221133 1:123.6831 2:56.455402 3:0 
-0.6401540318983361 -0.5312577722724403 -0.4833647317479013 0.5841711862380236 1:123.30772 2:63.200283 3:0 
-0.06458699655671364 -0 -0 0 1:124.39204 2:74.609009 3:0 
-0.2668910015446829 -0.2243161009519702 -0.2173208152471043 0.2290299393166387 1:125.39196 2:72.675735 3:0 
-0.6143289455074399 -0.5000906785937673 -0.4496792388103679 0.5530510526139615 1:125.23138 2:71.251801 3:0 
-0 -0 -0.002044219422945444 0 1:125.28617 2:70.616035 3:0 
-0.9884127557201697 -0.8459410926721215 -0.7655324317265597 0.9155349363979717 1:124.13952 2:51.755898 3:0 
-1 -1 -0.9105018201517208 1 1:125.38084 2:43.573307 3:0 
-0.785292283782359 -0.6110755689846441 -0.5535624667516094 0.6893939961351577 1:126.01316 2:45.846283 3:0 
-1 -1 -1 1 1:127.64434 2:48.337971 3:0 
-0.9760730273482818 -0.8043789409430618 -0.7299628160601788 0.8907489791604695 1:124.78319 2:46.469944 3:0 
-0.04543963732928407 -0.03494592306352557 -0.04182879626387412 0 1:124.34849 2:59.261116 3:0 
-0.7078087395397039 -0.5969433105467052 -0.5452883368460594 0.6986142601926545 1:123.76955 2:54.641899 3:0 
-0.03707992481002906 -0.05501333168806816 -0.05676795029342536 0.2250254097823066 1:123.8237 2:57.120735 3:0 
-0.9128942912014417 -0.782086320513391 -0.7097338485009204 0.8390249587535089 1:121.74738 2:51.399834 3:0 
-0.2765238327214831 -0.2014916335651469 -0.1457634038344157 0.2094035886968677 1:121.63975 2:54.281761 3:0 
-0.7789782339431872 -0.6523239197562604 -0.613581064374176 0.7125106068941515 1:121.63752 2:54.979675 3:0 
-0.5009881727489714 -0.382051720332869 -0.3382041964190595 0.4290611436615431 1:121.6859 2:52.692879 3:0 
-0.0793446336222676 -0 -0 0 1:122.34596 2:59.172699 3:0 
-0.06539940260257805 -0 -0 0 1:122.6884 2:69.893913 3:0 
-0.7781512094826299 -0.6899361991417772 -0.6269764462577248 0.7603237271281089 1:122.66545 2:69.594398 3:0 
-0.3000686742859918 -0.240822955032284 -0.2208416873008097 0.2544522448505321 1:122.65292 2:68.336975 3:0 
-0.8029547123748351 -0.6629494670509242 -0.6038950625691734 0.7240312344654015 1:122.65639 2:64.680473 3:0 
-0.608550579296346 -0.4886734297880125 -0.4328785512260689 0.5906880677692858 1:123.76929 2:59.116116 3:0 
-0.5483470328831394 -0.4397053583330879 -0.3986664560329908 0.5855277164920398 1:125.92184 2:58.370594 3:0 
-0.8905687597749137 -0.7418960913030053 -0.675666109748566 0.9019889254486834 1:125.74819 2:57.428143 3:0 
-1 -0.8937666702069538 -0.8138149128546758 0.9755217961326633 1:125.59049 2:60.774349 3:0 
-0.4916903103676836 -0.4003369008024944 -0.3642527825918066 0.4375963086136501 1:125.22751 2:66.053764 3:0 
-0.5138319052633461 -0.4258770067410922 -0.3864786698712011 0.4734680074901311 1:122.67401 2:67.431366 3:0 
-0.5046827203352345 -0.4163037489937579 -0.380038756582857 0.4523901174025996 1:122.70662 2:66.356689 3:0 
-1 -1 -1 1 1:111.48875 2:40.150406 3:60.110359 
-1 -0.998911476469581 -0.9099748705068 1 1:110.79604 2:41.741776 3:0 
-0.8781730318720592 -0.7209331128522454 -0.6581536968475989 0.7923259534567 1:110.50651 2:45.057323 3:0 
-0.8073881003651691 -0.6652125730486198 -0.6054031331602787 0.7278266128010379 1:110.76093 2:51.62603 3:0 
-1 -0.9111740809665845 -0.8302537308571935 0.9955192468494163 1:111.48927 2:61.801437 3:0 
-1 -1 -0.9580859300751128 1 1:111.16291 2:55.908848 3:0 
-0.8615884140170478 -0.7086189741526225 -0.6441964313613218 0.770645195770061 1:111.26166 2:64.24633 3:0 
-0.4450526485140094 -0.3803191734600002 -0.3508787159260383 0.4068414724203662 1:111.34943 2:57.621609 3:0 
-0.7490251712967165 -0.6065363396016086 -0.5473429349606376 0.6728423245750769 1:111.12086 2:59.189686 3:0 
-0.2495080580118674 -0.04655656275918922 -0 0.1356091983773668 1:110.67901 2:56.498672 3:0 
-0.3950105459540977 -0.3611477648963802 -0.3369937306042251 0.3792414967822227 1:110.26372 2:58.480377 3:0 
-0.1443468156857358 -0.06640430084535763 -0.06007658698160661 0.07262409132303659 1:110.22415 2:60.446827 3:0 
-0.2624573717794713 -0.1708949761191641 -0.1571622028487298 0.1893499193678175 1:109.59847 2:61.443745 3:0 
-0.7163196576359379 -0.5706163609303411 -0.5192234257108633 0.6260661024762859 1:107.87753 2:58.611076 3:0 
-0.5849595675151326 -0.4128383668742358 -0.3762331893915116 0.4512165968864466 1:106.585 2:54.917614 3:0 
-0.9563664025071946 -0.7929938126683124 -0.7222347946285939 0.8662956396764669 1:106.56706 2:59.90036 3:0 
-1 -0.877004906103878 -0.7993999629853729 0.9583255847323702 1:106.90987 2:56.867981 3:0 
-1 -0.9110979638152894 -0.8296154033561307 0.9962057730582857 1:107.36593 2:54.097916 3:0 
-0.8083061199152254 -0.6615441737677704 -0.6026476730516088 0.7239849948960088 1:107.8678 2:61.236225 3:0 
-0.3146493639706278 -0.326687231215295 -0.296352527843349 0.355036712318291 1:109.39284 2:60.764713 3:0 
-0.7553460450882017 -0.6972331757584911 -0.654390742127865 0.7253843046723649 1:111.61508 2:66.388458 3:0 
-0.6465640739124463 -0.4546748115273956 -0.383741060098202 0.5338704791028083 1:110.97991 2:67.41246 3:0 
-1 -1 -0.9992741870230353 1 1:109.49026 2:68.938713 3:0 
-0.9204997567242879 -0.7507908716798128 -0.6836742176342491 0.8203791976898317 1:109.29409 2:63.702263 3:0 
-1 -0.8914438921989629 -0.8105778150628931 0.9754110801940413 1:108.99689 2:65.950615 3:0 
-0.05687628559141112 -0.003437705729057006 -0 0.02494689642347668 1:111.49596 2:65.603615 3:0 
-0.8287410508377462 -0.6843793125186026 -0.6234742594627491 0.7479113816523248 1:110.55397 2:50.953766 3:0 
-0.7953571234945016 -0.6493663575185117 -0.590051912361295 0.7099292535794312 1:109.5228 2:45.121502 3:0 
-1 -0.938505693937872 -0.8550569192698823 1 1:108.82901 2:42.39127 3:0 
-1 -1 -1 1 1:108.12419 2:41.280537 3:60.110359 
-1 -0.7372700412882636 -0.6736744218180927 -0.5295966887333953 1:162.43745 2:65.577698 3:2.142309 
-0.3470993005126335 -0.253348813915136 -0.5102212867020708 -0.1817923973755119 1:161.72238 2:71.198715 3:2.142309 
-0.3205127898083479 -0.2391385083473447 -1 -0.1712003030584749 1:160.63178 2:74.008423 3:2.142309 
-1 -0.8318441475418908 -1 -0.5972140858866528 1:157.07433 2:79.003899 3:2.142309 
-0.7199586783624016 -0.5263182513806864 -0.3535989133285616 -0.3786126632517276 1:152.08324 2:79.779045 3:2.142309 
-0.7134816401795296 -0.5243868376070205 -0.6187710200386114 -0.375454992421062 1:152.47562 2:78.771645 3:2.142309 
-0.854399678657669 -0.6249042095925379 -1 -0.4485172373181648 1:156.27701 2:75.998909 3:2.142309 
-0.6596403970277858 -0.4866120003351818 -0.1110178521365965 -0.3498844816826187 1:162.70993 2:68.346336 3:2.142309 
-1 -1 -0.6934145084806896 -0.5817210403199042 1:168.6768 2:47.920597 3:2.142309 
-1 -0.8630639244348577 -0.7314269395220711 -0.6138203266113997 1:170.45252 2:36.709839 3:2.142309 
-0.6141693148930046 -0.4499847993886836 -0.3847148404603283 -0.3233261819250036 1:172.19218 2:26.030872 3:2.142309 
-0.2658025257748518 -0.1980777833122568 -0.1694650985848162 -0.1421129154153181 1:172.7254 2:19.536755 3:2.142309 
-0.2264925209663333 -0.1674758491659431 -0.142850024246285 -0.1189368063896064 1:173.39928 2:17.110176 3:2.142309 
-0.9914415555099073 -0.7183037419626972 -0.6147714909504094 -0.5194608473742244 1:174.56074 2:13.258572 3:2.142309 
-1 -0.8581816523632823 -0.7346676168768129 -0.6161997104769585 1:175.73689 2:10.268445 3:2.142309 
-0.2261514151684499 -0.1810830695645431 -0.1529298649172417 -0.1149681022352962 1:175.15379 2:14.809879 3:2.142309 
-0.6457844370209539 -0.4733227057199331 -0.4053878916134982 -0.3400357291505242 1:174.0237 2:24.847237 3:2.142309 
-0.7380979005364373 -0.5407437210549939 -0.4623397651828731 -0.3882635542971409 1:173.14861 2:23.272348 3:2.142309 
-0.3549544540413254 -0.2545860928241038 -0.218339771813208 -0.182895382166076 1:173.93278 2:19.843428 3:2.142309 
-0.4694405918350533 -0.3537120973589848 -0.3021021371181907 -0.2552159375382177 1:174.98511 2:20.743671 3:2.142309 
-0.5809829273288557 -0.4271026875334708 -0.3652311635194301 -0.293523013963007 1:175.63754 2:18.504732 3:2.142309 
-0.4173095426422485 -0.2922461034164339 -0.25028656314024 -0.2100740734871285 1:176.16242 2:21.019878 3:2.142309 
-0.4331688212290373 -0.3224558334875755 -0.2760161018724642 -0.2312198995709347 1:176.34163 2:22.812155 3:2.142309 
-0.7966773540978949 -0.5807414462553208 -0.4973922007600227 -0.4174453886046559 1:176.33382 2:24.007879 3:2.142309 
-1 -1 -0.6818992821069884 -0.5722755190916458 1:166.50455 2:49.545723 3:2.142309 
-0.9464510710843398 -0.6709673617815224 -0.7301649566717914 -0.481764959472756 1:164.87027 2:70.325714 3:2.142309 
-0.1486658007416282 -0.1240286342304399 -0 -0.08905281048170524 1:164.05399 2:70.411865 3:2.142309 
-0.3950342111086156 -0.2822421904456197 -0.8961225359264756 -0.2019130452675949 1:163.71696 2:68.671089 3:2.142309 
-0.1934003903570578 -0.1488191965053418 -0.1253273814896453 -0.1046152917968393 1:162.80635 2:64.557198 3:6.724129 
-0.7322451108379047 -0.5356662673415755 -0.4590855754483238 -0.3852629272129814 1:161.7954 2:61.755245 3:6.724129 
-0.2359570691095444 -0.1737539727647048 -0.1495213149317957 -0.1241743261499071 1:162.10127 2:60.419228 3:6.724129 
-0.800148362396879 -0.586375855164459 -0.5010594634026926 -0.421280895007105 1:162.5921 2:58.851501 3:6.724129 
-1 -1 -0.5616645618331715 -0.4712716963147027 1:172.27536 2:52.771664 3:0 
-1 -0.813540079320638 -0.4528150015600982 -0.3799143371147146 1:171.70085 2:54.272873 3:0 
-1 -0.3402222103615512 -0.3098299467397896 -0.2597520013732421 1:171.4216 2:56.710472 3:0 
-1 -0.6784892765025029 -0.567023070082477 -0.4758947176300909 1:171.13661 2:58.479439 3:0 
-0.6394951256326773 -0 -0 -0 1:170.81645 2:57.633888 3:0 
-1 -0.6700627071392637 -0.5471596782716482 -0.4594033153222703 1:169.63088 2:56.609253 3:0 
-0.7197754801381397 -0.5475566476704965 -0.4536986225805141 -0.3805568054596707 1:169.85043 2:57.103348 3:6.724129 
-1 -0.5819229111461639 -0.4957134327784489 -0.4168570186184986 1:170.27156 2:60.463703 3:6.724129 
-0.5615185980880131 -0.3598237982615609 -0.3084650114028418 -0.259047790754497 1:169.82144 2:66.547401 3:6.724129 
-0.448510057646865 -0.3399492476020357 -0.2912365286657529 -0.2446879508163542 1:169.26645 2:65.285751 3:6.724129 
-0.266925450365861 -0.2074548766676282 -0.1794358849945862 -0.1498054901605052 1:168.92766 2:60.557365 3:6.724129 
-1 -0.698057130802722 -0.5751531128489628 -0.4831238082731245 1:168.71242 2:53.649979 3:6.724129 
-1 -0.7929206640612335 -0.6703624342388084 -0.5624254110004443 1:169.11603 2:51.264938 3:6.724129 
-0.9771545607672089 -0.4337597264757427 -0.3747246266488537 -0.3144282367298069 1:169.01907 2:56.33313 3:6.724129 
-0.8158459080972065 -0.4538499627879408 -0.3875233212107919 -0.3253967831032596 1:168.041 2:59.351566 3:6.724129 
-0.9568632787391897 -0.682020904612285 -0.5835023327059733 -0.4899510703204764 1:167.11749 2:62.152359 3:6.724129 
-1 -0.6662881592949915 -0.572500046773182 -0.4779830022866997 1:165.168 2:67.706886 3:6.724129 
-0.8714995536989257 -0.6764858803194673 -0.5797338838735497 -0.4854462173006145 1:163.90883 2:70.958809 3:6.724129 
-0.3390883414557848 -0.05979446402326263 -0.05104821924054762 -0.04211096227768094 1:162.71149 2:68.875099 3:6.724129 
-0.4727911969299454 -0.207314770487072 -0.1766491582557467 -0.1493654454049607 1:164.08577 2:69.426956 3:6.724129 
-0.8566841716534987 -0.625984012339467 -0.5360140040875496 -0.4496183880846201 1:164.96317 2:64.414146 3:6.724129 
-0.2150597429964935 -0.187894877141675 -0.149981842857414 -0.1232322200730495 1:165.06661 2:61.063259 3:6.724129 
-0.8806386065295204 -0.6758849360333037 -0.5779460833600357 -0.4855811155969328 1:165.14506 2:53.142361 3:6.724129 
-1 -0.7176150400103564 -0.6141152281764519 -0.5153987616210616 1:166.18259 2:47.756474 3:6.724129 
-0.3063892641085608 -0 -0 -0 1:166.34134 2:58.425152 3:6.724129 
-0.3830091484829397 -0.2538579953747617 -0.2202292949846589 -0.1854980218602214 1:166.09891 2:59.75819 3:6.724129 
-0.7970735923665054 -0.5811237322394158 -0.4960550262930015 -0.4161420652805543 1:166.01173 2:58.208012 3:6.724129 
-0.847610787246788 -0.4768078613796415 -0.4099880041808328 -0.3436356712590198 1:166.18446 2:54.550541 3:6.724129 
-1 -0.8726291176779928 -0.8204815120498189 -0.6264573037179603 1:165.63094 2:63.784821 3:2.142309 
-0.3150975083690632 -0.2333651032013369 -1 -0.1670230641591861 1:160.4619 2:70.65181 3:2.142309 
-1 -0.8784466539564685 -1 -0.6309429512871044 1:155.53368 2:69.408463 3:2.142309 
-0.924182325547484 -0.6769398973871228 -1 -0.4861267710375876 1:151.68967 2:67.496582 3:2.142309 
-0 -0 -1 -0 1:150.39934 2:67.322189 3:2.142309 
-0.9185799335606812 -0.6734671002909179 -0 -0.4833544106112921 1:149.84622 2:67.040962 3:2.142309 
-0 -0 -1 -0 1:150.27965 2:66.674606 3:2.142309 
-1 -0.7811387216820584 -1 -0.5610422304785924 1:153.2218 2:62.670162 3:2.142309 
-1 -0.845696535457369 -1 -0.6071032380945252 1:157.86864 2:53.968021 3:2.142309 
-1 -0.8162244424943641 -0.6986734586269964 -0.5862834607983939 1:162.60748 2:40.759899 3:2.142309 
-1 -0.7607163703550758 -0.6509539863127433 -0.5462571147251857 1:166.48212 2:31.886904 3:2.142309 
-0.7328294555977446 -0.5366898292565476 -0.4601245132591829 -0.3852706383471746 1:171.23581 2:25.130703 3:2.142309 
-1 -0.7676487677000364 -0.6570290753409057 -0.5515671172837285 1:178.04123 2:19.790174 3:2.142309 
-0.8553665243551715 -0.6264245788179472 -0.5360859110967077 -0.4501210446881488 1:180.89246 2:14.722785 3:2.142309 
-0.9897651820935913 -0.7292891406485836 -0.6240340860618599 -0.5238257559705195 1:183.57562 2:13.030959 3:2.142309 
-0.02159278209056421 -0.004304793140319331 -0.004653598932796779 -0.002764066414666505 1:185.10858 2:12.395683 3:2.142309 
-1 -0.7616219110308263 -0.6518026559897886 -0.547405554612034 1:186.69438 2:11.359351 3:2.142309 
-0.842257964610599 -0.6182834546989388 -0.5283263399397061 -0.4442591921460363 1:185.81483 2:13.476033 3:2.142309 
-0.8894439585691158 -0.6518282248705295 -0.5578728431127794 -0.4679328708392544 1:181.84325 2:16.216782 3:2.142309 
-1 -0.8496021537801991 -0.7269406026590948 -0.6103318094664778 1:167.32613 2:35.918793 3:2.142309 
-1 -0.8706451437694018 -0.7399869231406329 -0.6210495917148531 1:164.73055 2:46.534565 3:2.142309 
-0.8025735871955566 -0.5788964472865429 -0.5415377804656656 -0.4160213506967089 1:160.28343 2:55.56971 3:2.142309 
-1 -0.8486910115629298 -1 -0.6096305307241103 1:154.49974 2:59.846355 3:2.142309 
-0.8077013950004976 -0.5858076068915413 -1 -0.4222429265174957 1:150.67024 2:61.919914 3:2.142309 
-0.4667684365026598 -0.3422723742787398 -1 -0.2467709279009603 1:148.83281 2:63.384617 3:2.142309 
-0 -0 -0.5013023030313213 -0 1:147.44139 2:63.59993 3:2.142309 
-0.9870584896309564 -0.7237273570781869 -0.1142686383849155 -0.5190396751778567 1:147.18071 2:63.376518 3:2.142309 
-0.3598631865981466 -0.2652382496185841 -1 -0.1886249810489329 1:150.10161 2:63.016991 3:2.142309 
-0.8671042143815105 -0.6355876695138327 -0.5461996182023142 -0.4567830042279534 1:159.57675 2:64.404915 3:6.724129 
-1 -0.6527277428834355 -0.5600511078151793 -0.4693382394432278 1:167.14368 2:66.23381 3:6.724129 
-0.9951894398300276 -0.5195359975831274 -0.442855340288815 -0.3707146555799015 1:170.78191 2:65.599007 3:6.724129 
-1 -0.8043771713286783 -0.6791006795557285 -0.5695101626268713 1:172.09415 2:62.104576 3:6.724129 
-1 -0.6367245190018003 -0.5228340739224623 -0.4386694967373636 1:173.3837 2:57.20034 3:6.724129 
-0.8857345503485624 -0.5512459008021878 -0.4511244845425064 -0.378583763178079 1:173.79469 2:55.244133 3:6.724129 
-0.2310691655846941 -0 -0 -0 1:174.06436 2:57.249969 3:6.724129 
-1 -0.5785521403654814 -0.4937911554956048 -0.4143081868646038 1:175.31552 2:56.238567 3:6.724129 
-0.374751045188272 -0.2844913403663906 -0.2438263238593911 -0.2037756341739454 1:130.85036 2:45.529263 3:108.47304 
-0.3666252291243305 -0.2608863662478813 -0.2246160877767973 -0.1876848297853677 1:131.52515 2:51.348194 3:108.47304 
-0.8270036514959143 -0.6074467813223978 -0.5197264443583983 -0.4362479055485851 1:132.1904 2:49.418369 3:108.47304 
-0.8889841639517162 -0.6513700618442594 -0.5570732478223811 -0.4675758706722217 1:132.44916 2:46.799351 3:108.47304 
-0.7212465425949558 -0.5135528171507997 -0.4393966441359091 -0.3695931015054305 1:131.3262 2:44.679932 3:108.47304 
-1 -0.7780602597590451 -0.6664014210666219 -0.5588272730835832 1:130.23511 2:44.506401 3:4.412098 
-0.8871188185960772 -0.6459126739271117 -0.5526977043961182 -0.4639650125016873 1:129.63097 2:47.616955 3:4.412098 
-1 -0.7427110919819024 -0.6358631409891656 -0.5309568818489704 1:129.87567 2:49.854095 3:4.412098 
-0.5479317615328423 -0.3987896914308875 -0.3407748334851814 -0.2859474726650723 1:130.26549 2:50.669609 3:108.47304 
-0.7874378694648346 -0.4215186561566658 -0.3792017779848204 -0.2973180118098806 1:131.60204 2:53.208652 3:108.47304 
-1 -0.8028119097575116 -0.6863029201478978 -0.5764288318051372 1:132.35513 2:55.565804 3:108.47304 
-0.1285712903471949 -0.2444435491709863 -0.1906888309498972 -0.1809351389092222 1:131.50899 2:53.058037 3:108.47304 
-0.2425216574436952 -0.1824171659358281 -0.1566075926309909 -0.1317577184069915 1:129.92708 2:49.774368 3:108.47304 
-0.2561983116794714 -0.1845836064787909 -0.1576988427505504 -0.1315530776953389 1:130.00915 2:48.44315 3:108.47304 
-0.537150148621392 -0.3958471592677498 -0.3392314670970752 -0.285018659581092 1:129.29642 2:47.688782 3:108.47304 
-0.6089396547536727 -0.4402955985071206 -0.376940057694406 -0.3163328492535968 1:127.76807 2:48.504044 3:108.47304 
-0.1708884744000996 -0.1387845499038845 -0.1183136885935569 -0.09925273955254399 1:126.92325 2:47.74073 3:108.47304 
-0.8065597775998006 -0.5753835881294064 -0.4925331210329726 -0.4131621812915676 1:126.85825 2:46.630394 3:108.47304 
-1 -0.8310110088419745 -0.7111294037355078 -0.5966097756856364 1:126.70151 2:43.9044 3:108.47304 
-0.7342474517727025 -0.5382240070077093 -0.4604107710263433 -0.3862101170156249 1:126.72362 2:38.128025 3:108.47304 
-0.7308080955916535 -0.5354845914870177 -0.4579300455309682 -0.3848785002141438 1:126.65182 2:39.279091 3:108.47304 
-1 -0.7642623003982043 -0.6536785993478439 -0.5483002424619098 1:126.86636 2:39.925907 3:4.412098 
-1 -0.7409432709340273 -0.6339001302626954 -0.5239461923161425 1:126.89225 2:47.383686 3:4.412098 
-0.7354875577975477 -0.5390943520482182 -0.4609928567027513 -0.37409695021037 1:127.04032 2:55.620766 3:2.142309 
-0.2316217616773183 -0.1636338927325111 -0.1428575409981165 -0 1:126.72794 2:57.92461 3:2.142309 
-0.7784397196274982 -0.5772871928987573 -0.4917120517352884 -0.7791893617874927 1:126.48209 2:58.131596 3:2.142309 
-0.791485522202396 -0.5796382773055818 -0.4963163806584302 -0.5170510397784603 1:127.43568 2:49.494354 3:2.142309 
-0.7580151276762201 -0.5545623595434451 -0.4745281623983382 -0.3971762142168441 1:128.2213 2:38.702995 3:2.142309 
-0.9381764710640306 -0.6872303733890903 -0.5885368615384838 -0.4940656656072545 1:128.9415 2:30.148693 3:2.142309 
-1 -0.8618103033858302 -0.7375445966214297 -0.6188876520613712 1:130.82419 2:20.352732 3:2.142309 
-0.3970706342582765 -0.2918643417883333 -0.2481431446408255 -0.2077993710094295 1:132.51973 2:13.555673 3:2.142309 
-0.2989326794772609 -0.2182018646503941 -0.1883558516269494 -0.1578801988502846 1:133.85884 2:11.905672 3:2.142309 
-0.3478031992015426 -0.2554274411470633 -0.2169519560917579 -0.1826081324742577 1:134.39752 2:11.819891 3:2.142309 
-0.80884278951328 -0.5927713827485017 -0.5077514843341135 -0.4254760487670196 1:134.34389 2:10.648843 3:2.142309 
-0.8471568792708982 -0.6201320262303938 -0.5324673329647981 -0.446940341304587 1:132.44925 2:14.352598 3:2.142309 
-1 -0.8616964655579888 -0.7371365328964753 -0.6186656750372286 1:128.15161 2:22.399437 3:2.142309 
-0.9380300891132591 -0.6876816377943689 -0.5881872580011119 -0.4935746790638977 1:127.10413 2:29.503901 3:2.142309 
-0.788969702664035 -0.575015969936746 -0.4922266228026167 -0.4168694801962374 1:126.54211 2:38.803814 3:2.142309 
-0.7905734000584089 -0.5791391969772091 -0.4950944293196787 -0.5085507834124677 1:125.99435 2:48.827717 3:2.142309 
-0.795507999579544 -0.5824441097115651 -0.4983940965612483 -0.5105699745702267 1:125.53414 2:54.992458 3:2.142309 
-0.04031678044051437 -0 -0 -0 1:124.12884 2:57.53701 3:2.142309 
-1 -0.7667357751610706 -0.656438483088135 -0.8595245299834515 1:123.93926 2:57.300575 3:2.142309 
-1 -0.8812638063011123 -0.7544566418317891 -0.6328184722666015 1:125.41398 2:52.745274 3:64.380936 
-1 -0.7767167515920825 -0.6645796171627519 -0.5583413051104507 1:127.63885 2:44.185921 3:4.412098 
-0.3433888585712859 -0.2360508341198784 -0.2018422284071771 -0.1699132279867508 1:130.05579 2:37.107708 3:4.412098 
-1 -0.7654203454779632 -0.6547035737376112 -0.5493542356580745 1:129.43436 2:35.410824 3:4.412098 
-0.8562760591434413 -0.6341127823756433 -0.5430967861621216 -0.4554669145802415 1:129.75485 2:38.339745 3:4.412098 
-1 -0.8434978499235878 -0.7219395334203543 -0.6056648707842057 1:131.77565 2:41.881687 3:108.47304 
-0.8434128074720304 -0.6158902550795575 -0.5195738387108023 -0.4420986003063595 1:161.76944 2:56.56908 3:2.142309 
-1 -0.7939481647481216 -0.7848199380448777 -0.5699871127749639 1:159.8801 2:65.694695 3:2.142309 
-0.4097706144442606 -0.2992192356507635 -1 -0.2145640543647979 1:158.69658 2:72.86911 3:2.142309 
-0.6479434093257567 -0.4701567678835525 -1 -0.3378282644967837 1:157.8875 2:76.099487 3:2.142309 
-0 -0 -1 -0 1:157.37732 2:75.90728 3:2.142309 
-0.8095732862248353 -0.593969784461872 -1 -0.427006762921433 1:157.67557 2:73.213051 3:2.142309 
-1 -0.800562876876895 -1 -0.5749877297433961 1:159.87433 2:58.540676 3:2.142309 
-1 -0.7643900218540459 -0.6541986589608693 -0.5486701932685092 1:164.30267 2:30.961294 3:2.142309 
-0.9827693422525677 -0.72032482230807 -0.6159431554428632 -0.5170149026678464 1:169.9708 2:19.445013 3:2.142309 
-0.6268287776567569 -0.4582590591020485 -0.3922605398470941 -0.3296786674402015 1:172.62439 2:18.358946 3:2.142309 
-0.6924480719869532 -0.5064142258462916 -0.433496557690171 -0.3646709888085192 1:173.48639 2:15.786667 3:2.142309 
-0.2147550175279366 -0.124611915532624 -0.1114562761858306 -0.1310555172397721 1:175.47679 2:15.826386 3:2.142309 
-0.4798469601114007 -0.3782292432983916 -0.3203595780193046 -0.2336719359680836 1:175.55194 2:16.348885 3:2.142309 
-0.1601905101423406 -0.1101069239088307 -0.09484870966826159 -0.09882217073498353 1:175.46396 2:17.908735 3:2.142309 
-0.8937623153646436 -0.6546228643492752 -0.5605621265807061 -0.4706262566360281 1:171.17362 2:21.394711 3:2.142309 
-1 -0.8135440275849947 -0.6963821249212097 -0.5850148042241792 1:163.88727 2:38.32151 3:2.142309 
-0.5759776760238752 -0.4199659948001891 -1 -0.3017285997050946 1:160.94717 2:69.939743 3:2.142309 
-0.5200668711104627 -0.3765810219916461 -1 -0.2708437907641446 1:160.70544 2:74.699905 3:2.142309 
-1 -0.7381246658038864 -1 -0.5302334728702083 1:160.69043 2:76.766823 3:2.142309 
-0.5385683423188929 -0.393545002296509 -0.2583448785422985 -0.283115099152996 1:161.02042 2:72.372032 3:2.142309 
-0.9700275389802415 -0.7273954434961674 -0.6226909082579033 -0.5227156171929674 1:164.22273 2:56.223793 3:6.724129 
-0.04052470286459566 -0.03908864384266755 -0.02534771838173033 -0.02005661159567069 1:163.40411 2:62.52021 3:6.724129 
-0.7152397855191134 -0.5138610546286378 -0.4402357572618023 -0.3698563609004615 1:162.85733 2:65.966835 3:6.724129 
-0.4883141165674901 -0.3502082093151524 -0.3062554319841348 -0.2578297139386091 1:162.80447 2:63.192913 3:6.724129 
-1 -0.7188901277965738 -0.6149633791676702 -0.5159467275821887 1:165.24324 2:45.865192 3:6.724129 
-1 -0.8813784952678885 -0.7540424869073363 -0.6326173360811143 1:171.36206 2:32.521282 3:6.724129 
-1 -0.7322084428835112 -0.6265967471736471 -0.5258816894758926 1:174.75194 2:29.364433 3:6.724129 
-0.3519765666208026 -0.2693543259875091 -0.2309020811108549 -0.1932774096454924 1:176.33522 2:30.066685 3:6.724129 
-1 -0.7240952511506884 -0.6199416605940948 -0.5199793692568158 1:177.38856 2:28.08654 3:6.724129 
-0.06785395708646523 -0 -0 -0 1:177.68585 2:28.475864 3:6.724129 
-1 -0.7329498927246547 -0.6271480214424008 -0.5265696980247908 1:178.19089 2:30.658524 3:6.724129 
-0.008576927673291304 -0 -0 -0 1:178.06522 2:30.40221 3:6.724129 
-1 -0.9119236566601056 -0.7541005759085414 -0.6330076724304983 1:172.8128 2:43.613197 3:6.724129 
-0.6079618640736715 -0.4215153264086696 -0.372838946324313 -0.3155637713817185 1:164.61809 2:61.516205 3:6.724129 
-0.7653153690395247 -0.6644923436472411 -0.5697683689506382 -0.4780878343541187 1:162.03307 2:69.38134 3:6.724129 
-0.7316906959904255 -0.5386751604878812 -0.4613262917785309 -0.3869606011901066 1:160.76924 2:66.083488 3:6.724129 
-0.1547878393597352 -0.1129656802267157 -0.094219159387064 -0.08017814959386209 1:160.43094 2:64.157715 3:6.724129 
-0.9939285128863415 -0.7280222211935322 -0.624847380433362 -0.5226433788406374 1:160.36436 2:58.776623 3:6.724129 
-1 -0.8813676619101087 -0.7539348698102563 -0.6330119667300038 1:160.67732 2:50.770748 3:6.724129 
