svm_type c_svc
kernel_type rbf
gamma 0.1
nr_class 6
total_sv 928
rho -0.190407 0.0535928 0.372904 0.1206 0.0151832 0.22801 0.448247 0.273318 0.201599 0.28731 0.0539554 -0.0268987 -0.225446 -0.291976 -0.0763656
label 0 1 2 3 4 5
nr_sv 100 133 131 285 154 125
SV
0.8095231498557215 1 1 1 1 1:1.009738 2:0.089928 3:-0.972429 4:-0.21516 5:-4.611801 6:-50.330933 7:-42.028992 8:13.047806 9:-29.87085 10:-28.694733 
0.7840499303344497 1 1 1 0.9834626053683126 1:1.012022 2:0.095306 3:-0.975405 4:-0.198751 5:-5.142624 6:-47.769775 7:-38.891312 8:11.398796 9:-37.563965 10:-31.580643 
0.7881065796743391 1 1 1 0.9873285658853548 1:1.022347 2:0.074757 3:-0.995961 4:-0.049718 5:-5.232941 6:-49.072144 7:-35.115295 8:10.448799 9:-40.526611 10:-28.393127 
0.8084341628077497 1 1 1 1 1:1.037626 2:0.046951 3:-0.973612 4:0.223327 5:-3.90316 6:-53.182007 7:-24.073975 8:12.04174 9:-42.822266 10:-14.182114 
0.8099265784570157 1 1 1 1 1:1.044103 2:0.003722 3:-0.933749 4:0.357909 5:-3.129539 6:-53.4823 7:-2.856812 8:12.178619 9:-39.377319 10:7.255493 
0.8020842576300162 1 1 1 1 1:1.0503 2:-0.014255 3:-0.867509 4:0.497218 5:-3.53315 6:-51.406982 7:10.903702 8:12.330879 9:-35.640869 10:20.70401 
0.7996793298310233 1 1 1 1 1:1.051157 2:-0.030534 3:-0.844745 4:0.534297 5:-3.788445 6:-48.859741 7:15.807251 8:12.639732 9:-32.96106 10:23.77597 
0.8095469034331295 1 1 1 1 1:1.031471 2:-0.016298 3:-0.824242 4:0.566003 5:-4.006798 6:-45.161011 7:8.736191 8:12.797157 9:-29.76123 10:14.439194 
0.6581722729209883 0.8566767448590453 1 0.9120548959573295 0.8247990790275401 1:0.967234 2:-0.013223 3:-0.853364 4:0.521148 5:-2.862938 6:-38.995239 7:-8.603043 8:13.108131 9:-24.569092 10:-2.658508 
0.8098506026113793 1 1 1 1 1:0.942365 2:-0.012499 3:-0.853122 4:0.521562 5:-3.224052 6:-36.351807 7:-17.399887 8:12.850121 9:-21.917847 10:-10.050781 
0.6669881833179168 0.8679230498566284 1 0.9227269838591472 0.8366287773894281 1:1.042624 2:-0.077982 3:-0.769214 4:0.634215 5:-3.494659 6:-38.68811 7:-5.642365 8:12.606628 9:-23.659912 10:-0.434204 
0.8097836804369106 1 1 1 1 1:1.121901 2:-0.069782 3:-0.626802 4:0.776047 5:-10.900322 6:-53.59314 7:29.668381 8:10.761787 9:-43.402466 10:47.905655 
0.8094988203540534 1 1 1 1 1:1.084913 2:0.002984 3:-0.845128 4:0.534555 5:-13.529366 6:-46.582886 7:18.928787 8:15.836807 9:-32.895142 10:47.64769 
0.8093563928101046 1 1 1 1 1:1.068147 2:-0.020939 3:-0.886343 4:0.462556 5:-22.192497 6:-44.327393 7:2.569992 8:25.078094 9:-36.206787 10:38.94426 
0.8094060806370067 1 1 1 1 1:1.060343 2:-0.000935 3:-0.915967 4:0.401253 5:-21.202599 6:-37.186768 7:-21.435837 8:25.186394 9:-35.931152 10:9.015778 
0.8097318716947287 1 1 1 1 1:1.05466 2:-0.048193 3:-0.941158 4:0.334514 5:-20.092339 6:-35.575806 7:-30.855438 8:23.313713 9:-37.453857 10:-18.885269 
0.8091296448718963 1 1 1 1 1:1.052183 2:-0.069567 3:-0.953099 4:0.294554 5:-16.372025 6:-37.157104 7:-26.844284 8:15.925293 9:-37.190552 10:-25.233017 
0.8086116083313805 1 1 1 1 1:1.045715 2:-0.068907 3:-0.966042 4:0.249027 5:-11.637047 6:-42.357788 7:-29.430862 8:11.907394 9:-35.340698 10:-29.714386 
0.7605440713221995 0.989328622620927 1 1 0.95319978357062 1:1.030465 2:-0.050062 3:-0.997407 4:0.051702 5:-7.211143 6:-46.352905 7:-43.402069 8:11.165489 9:-32.040405 10:-41.419296 
0.6832763404587864 0.8892670980524895 1 0.9466338315796087 0.856364732802455 1:1.020101 2:0.018764 3:-0.98965 4:-0.142274 5:-5.339737 6:-44.125977 7:-47.602585 8:11.807671 9:-29.230591 10:-43.165161 
0.270587497256372 0.3517375662184842 0.550849994321952 0.3750869200942443 0.3392909346942444 1:1.019661 2:0.022638 3:-0.988309 4:-0.150775 5:-3.734329 6:-44.44751 7:-46.308029 8:13.051216 9:-29.448486 10:-40.831497 
0.6288454101418457 0.8192399883254604 1 0.8724007048749316 0.7896649575621115 1:1.02071 2:0.036013 3:-0.990115 4:-0.135558 5:-2.863686 6:-45.41748 7:-44.466476 8:12.780556 9:-29.793091 10:-39.340439 
0.5042860735670932 0.6555426407209236 0.8555380461812483 0.6978172748791558 0.6316360021557419 1:1.017785 2:0.024468 3:-0.967484 4:-0.251744 5:-6.490944 6:-43.076538 7:-42.641891 8:10.530174 9:-34.074341 10:-34.12381 
0.3584932674977937 0.467270013307688 0.6079924530463894 0.4967327339907727 0.4503737885863467 1:1.02586 2:0.030926 3:-0.986853 4:-0.158634 5:-7.218506 6:-42.188965 7:-41.293808 8:9.163689 9:-35.40918 10:-34.485229 
0.5794127367848221 0.7532869972881283 0.9840799374877545 0.801870001739999 0.7258841386316441 1:1.031934 2:0.036615 3:-0.997817 4:-0.054956 5:-7.939468 6:-43.400024 7:-43.145706 8:9.661972 9:-36.905151 10:-36.189194 
0.8098912533609273 1 1 1 1 1:1.03818 2:0.042236 3:-0.992377 4:0.115772 5:-6.685066 6:-42.852783 7:-53.929939 8:11.97747 9:-38.182251 10:-45.333771 
0.8096169824968991 1 1 1 1 1:1.040278 2:-0.00233 3:-0.976464 4:0.215668 5:-4.337616 6:-47.907593 7:-46.360352 8:13.387039 9:-44.444824 10:-34.945236 
0.809338566755024 1 1 1 1 1:1.047648 2:-0.02995 3:-0.934212 4:0.355458 5:-5.296181 6:-54.946777 7:-10.580643 8:11.983788 9:-48.425415 10:-0.154312 
0.8020578834512042 1 1 1 1 1:1.061805 2:-0.048396 3:-0.880567 4:0.471444 5:-7.113693 6:-52.396973 7:10.053589 8:10.475571 9:-45.218506 10:18.838669 
0.6080831560940997 0.7927416622874799 1 0.8400080349447557 0.7630124905136257 1:1.062169 2:-0.067563 3:-0.878379 4:0.473166 5:-6.625702 6:-50.0979 7:15.165466 8:9.663162 9:-42.125977 10:23.751831 
0.3232248489243896 0.4195500396655735 0.6124685808249235 0.4520678532215682 0.4053726359379349 1:1.06195 2:-0.076128 3:-0.879944 4:0.468939 5:-6.022141 6:-49.027832 7:16.304428 8:9.933594 9:-40.641235 10:24.435699 
0.7366087945628866 0.9589965158913465 1 1 0.9235974163985902 1:1.062201 2:-0.079715 3:-0.873551 4:0.480161 5:-5.504196 6:-46.983398 7:18.627121 8:9.687881 9:-38.306396 10:25.663803 
0.8099542232247776 1 1 1 1 1:1.043936 2:-0.063751 3:-0.847274 4:0.527317 5:-5.684975 6:-38.02356 7:16.130951 8:9.254524 9:-28.864014 10:20.733932 
0.8094423331456999 1 1 1 1 1:0.957648 2:-0.085538 3:-0.817121 4:0.570085 5:-4.477417 6:-36.161377 7:0.916718 8:10.844696 9:-26.172241 10:5.56398 
0.8028965068365755 1 1 1 1 1:0.943764 2:-0.110719 3:-0.803367 4:0.585101 5:-4.282852 6:-34.350098 7:-9.216644 8:11.010895 9:-26.057495 10:-6.66629 
0.8095363153873332 1 1 1 1 1:1.074664 2:-0.11943 3:-0.743532 4:0.657948 5:-4.205208 6:-40.610962 7:5.623734 8:8.183876 9:-31.160156 10:9.371796 
0.8097210073607812 1 1 1 1 1:1.147863 2:-0.115553 3:-0.664074 4:0.738684 5:-9.183754 6:-43.787476 7:36.508667 8:2.640114 9:-36.462646 10:48.456406 
0.8097599958612681 1 1 1 1 1:1.085039 2:-0.074902 3:-0.887983 4:0.453735 5:-21.951408 6:-49.051514 7:23.892715 8:17.12751 9:-31.939697 10:48.029648 
0.8099008171670571 1 1 1 1 1:1.056963 2:-0.017277 3:-0.949015 4:0.314759 5:-19.264679 6:-51.317993 7:3.058731 8:24.055984 9:-35.867676 10:30.615479 
0.8099299086819405 1 1 1 1 1:1.055164 2:-0.001438 3:-0.959101 4:0.283062 5:-12.951546 6:-45.779663 7:-15.43869 8:21.05481 9:-33.009888 10:4.844284 
0.8055401523985678 1 1 1 1 1:1.055516 2:0.058958 3:-0.962863 4:0.263474 5:-7.567245 6:-40.985718 7:-25.110962 8:17.097946 9:-34.321777 10:-12.390671 
0.8046488025195013 1 1 1 1 1:1.049966 2:0.13772 3:-0.978721 4:0.152114 5:-3.481735 6:-41.037231 7:-27.402084 8:16.813187 9:-34.572754 10:-17.847794 
0.6415020843147607 0.8354706279159362 1 0.8876295049731009 0.8045326647682299 1:1.0363 2:0.176405 3:-0.98044 4:-0.087284 5:-1.023994 6:-41.59729 7:-32.704941 8:17.544472 9:-33.574707 10:-24.65242 
0.1279263347028746 0.1661307792396345 0.2751601433385542 0.1779628325301023 0.160433058911174 1:1.031303 2:0.157418 3:-0.975055 4:-0.156484 5:-0.875488 6:-42.803223 7:-31.802414 8:17.280418 9:-33.615234 10:-23.776871 
0.5282334231392878 0.6874239126253737 0.9213137115382403 0.730805452066089 0.6625100701852147 1:1.033487 2:0.092092 3:-0.991299 4:-0.094046 5:0.242813 6:-45.028809 7:-31.364548 8:15.904243 9:-34.830933 10:-23.715424 
0.68803092672626 0.8950739868762745 1 0.9528501707056826 0.8628573761289524 1:1.036947 2:0.041812 3:-0.998921 4:-0.020215 5:0.87561 6:-47.059692 7:-32.759964 8:15.111824 9:-36.317749 10:-26.160843 
0.8095387934170571 1 1 1 1 1:1.031535 2:0.165264 3:-0.985979 4:0.023082 5:3.832214 6:-53.987183 7:-22.327576 8:19.485611 9:-42.953735 10:-17.677444 
0.8092449572418863 1 1 1 1 1:1.042845 2:0.14594 3:-0.96475 4:0.218995 5:3.361633 6:-53.350342 7:-16.201981 8:20.649841 9:-42.157959 10:-6.698441 
0.8096157220178701 1 1 1 1 1:1.054708 2:0.097257 3:-0.911093 4:0.400564 5:5.310699 6:-52.91272 7:2.285797 8:22.763138 9:-38.934937 10:15.291412 
0.8093811934349289 1 1 1 1 1:1.05837 2:0.07142 3:-0.860796 4:0.503913 5:3.772125 6:-48.404053 7:16.586731 8:19.940582 9:-31.441528 10:26.456604 
0.8092402393007829 1 1 1 1 1:1.024536 2:0.077007 3:-0.838267 4:0.539795 5:-0.12265 6:-40.695068 7:7.963333 8:16.838684 9:-22.785034 10:14.616638 
0.8090990509443358 1 1 1 1 1:1.083348 2:-0.01359 3:-0.773953 4:0.633097 5:0.142181 6:-42.61792 7:12.234634 8:14.752106 9:-24.620117 10:20.992096 
0.8095611137439082 1 1 1 1 1:1.140228 2:-0.043953 3:-0.682287 4:0.729762 5:-2.503372 6:-49.157471 7:19.733582 8:11.347733 9:-37.89917 10:47.076859 
0.8097342472789222 1 1 1 1 1:1.073354 2:0.007079 3:-0.855287 4:0.518106 5:-14.405167 6:-37.951904 7:-8.393158 8:27.09729 9:-29.341187 10:37.528992 
0.8096055416067431 1 1 1 1 1:1.056896 2:0.104031 3:-0.915341 4:0.38901 5:-21.911057 6:-37.724365 7:-33.605667 8:34.011658 9:-25.129028 10:14.775284 
0.8095826470204078 1 1 1 1 1:1.05768 2:0.148395 3:-0.910729 4:0.385424 5:-24.896515 6:-35.306763 7:-29.859604 8:32.552368 9:-18.541504 10:6.789307 
0.8095537528154473 1 1 1 1 1:1.059238 2:0.210432 3:-0.871565 4:0.442824 5:-13.662003 6:-38.965942 7:-24.315765 8:24.813751 9:-19.243164 10:1.035095 
0.809891402209022 1 1 1 1 1:1.052863 2:0.206354 3:-0.922114 4:0.327297 5:-0.645874 6:-43.050415 7:-16.93074 8:21.224045 9:-27.012695 10:-2.5466 
0.8096028285652127 1 1 1 1 1:1.042434 2:0.182263 3:-0.966208 4:0.18227 5:5.803406 6:-51.37146 7:-20.71904 8:20.290466 9:-32.206055 10:-15.022324 
0.8095643584989696 1 1 1 1 1:1.036801 2:0.193199 3:-0.978082 4:0.077652 5:8.508347 6:-53.543457 7:-27.429703 8:19.967255 9:-31.878418 10:-22.961426 
0.8092706086903344 1 1 1 1 1:1.028896 2:-0.102013 3:-0.985609 4:-0.134788 5:-11.323715 6:-52.631226 7:-29.949631 8:8.541306 9:-45.763672 10:-23.890808 
0.80906043739144 1 1 1 1 1:1.043231 2:-0.102061 3:-0.990012 4:0.097258 5:-10.890854 6:-53.463013 7:-23.088379 8:10.721176 9:-46.805298 10:-12.195724 
0.8078743186194001 1 1 1 1 1:1.054966 2:-0.095693 3:-0.937116 4:0.335644 5:-10.839706 6:-54.189331 7:-11.358795 8:12.778793 9:-46.660034 10:6.171799 
0.808407185196889 1 1 1 1 1:1.059945 2:-0.135211 3:-0.890089 4:0.43527 5:-10.639671 6:-54.736694 7:3.304947 8:13.520386 9:-44.609985 10:18.855286 
0.8017012929493575 1 1 1 1 1:1.061587 2:-0.151875 3:-0.864143 4:0.479783 5:-11.040771 6:-53.159302 7:11.096924 8:13.120178 9:-42.154663 10:22.748428 
0.808455679795272 1 1 1 1 1:1.062847 2:-0.161814 3:-0.848848 4:0.503263 5:-11.125053 6:-50.934448 7:5.062042 8:12.745743 9:-40.151245 10:13.074188 
0.795559164491882 1 1 1 0.9968850930656555 1:1.042147 2:-0.141257 3:-0.823146 4:0.54998 5:-13.467308 6:-45.914185 7:-16.305557 8:11.321793 9:-36.509644 10:-13.54274 
0.7991596172299525 1 1 1 1 1:1.028664 2:-0.139596 3:-0.793845 4:0.59188 5:-14.909203 6:-43.016724 7:-16.824081 8:7.761826 9:-32.408203 10:-15.322174 
0.8093254456011003 1 1 1 1 1:1.115808 2:-0.22868 3:-0.694089 4:0.682602 5:-13.65744 6:-49.427124 7:11.620972 8:6.893036 9:-52.182983 10:36.841278 
0.809569319710204 1 1 1 1 1:1.107294 2:-0.210599 3:-0.763251 4:0.610816 5:-16.163124 6:-46.716797 7:15.228485 8:10.501106 9:-40.978149 10:45.907425 
0.8099605600886776 1 1 1 1 1:1.066709 2:-0.122381 3:-0.852567 4:0.508088 5:-16.928925 6:-51.04187 7:7.964478 8:19.052071 9:-45.478882 10:38.919708 
0.8098663512358966 1 1 1 1 1:1.064528 2:-0.10372 3:-0.90008 4:0.423199 5:-15.778496 6:-56.430908 7:0.010727 8:17.806282 9:-47.113525 10:23.223373 
0.8081200139483222 1 1 1 1 1:1.059559 2:-0.130237 3:-0.930446 4:0.342503 5:-12.8535 6:-56.262329 7:-3.047562 8:15.905884 9:-44.960815 10:10.309784 
0.8069200737500666 1 1 1 1 1:1.057709 2:-0.118335 3:-0.945122 4:0.304534 5:-10.92112 6:-55.742798 7:-4.391159 8:12.984032 9:-45.552002 10:3.070526 
0.8093781806471643 1 1 1 1 1:1.052489 2:-0.071753 3:-0.972265 4:0.222605 5:-10.449989 6:-50.833862 7:-7.763107 8:13.332748 9:-42.97937 10:-3.439285 
0.8054640649811632 1 1 1 1 1:1.042331 2:-0.014391 3:-0.997902 4:0.063128 5:-13.62545 6:-45.431885 7:-20.723618 8:15.338936 9:-39.431152 10:-16.388412 
0.755444477747337 0.9829923687060775 1 1 0.9473114142183396 1:1.031465 2:0.00296 3:-0.995729 4:-0.09228 5:-16.898514 6:-42.074219 7:-39.51712 8:15.73748 9:-36.373901 10:-31.268646 
0.7551985151919623 0.9826544445958345 1 1 0.9469979144599856 1:1.027464 2:-0.020103 3:-0.983702 4:-0.178681 5:-16.100693 6:-42.64917 7:-36.184113 8:15.48632 9:-34.286743 10:-28.130569 
0.6079524084963859 0.7910884739015862 1 0.8413875358323861 0.7618834491415694 1:1.028869 2:-0.084891 3:-0.983063 4:-0.162421 5:-12.981636 6:-43.606323 7:-26.486618 8:13.715599 9:-33.579712 10:-21.693451 
0.6080560114049989 0.7917620666637492 1 0.8419444206292505 0.7630718169201751 1:1.032677 2:-0.132212 3:-0.986928 4:-0.09216 5:-10.817841 6:-45.640137 7:-25.849075 8:12.524094 9:-34.218384 10:-21.675903 
0.7771879916873178 1 1 1 0.9747732138632327 1:1.030279 2:-0.308313 3:-0.949116 4:0.064202 5:-19.290005 6:-45.161621 7:-24.335464 8:0.046383 9:-41.955566 10:-19.536453 
0.7723949904393697 1 1 1 0.9680197665528365 1:1.034882 2:-0.317906 3:-0.938279 4:0.136265 5:-20.228046 6:-44.644287 7:-20.942795 8:-0.981361 9:-43.037231 10:-15.19429 
0.8099873523001416 1 1 1 1 1:1.041183 2:-0.320242 3:-0.909845 4:0.263868 5:-18.987026 6:-43.256226 7:-3.180725 8:-0.570145 9:-42.033203 10:2.723541 
0.8039600493126642 1 1 1 1 1:1.047185 2:-0.316827 3:-0.857244 4:0.405898 5:-15.941177 6:-41.227417 7:14.278503 8:1.173458 9:-37.098267 10:19.418762 
0.5405053599402009 0.7040725830318375 0.9161311827962165 0.7485623610525953 0.6783407481835546 1:1.050582 2:-0.298537 3:-0.821486 4:0.485837 5:-15.268791 6:-39.630371 7:21.596146 8:1.711456 9:-36.029175 10:25.657425 
0.538228714862604 0.6998313745674846 0.9136555371331933 0.7441633186362565 0.6739449665576731 1:1.052503 2:-0.312429 3:-0.791488 4:0.525296 5:-16.876194 6:-40.304077 7:20.172089 8:1.468815 9:-36.790527 10:24.549438 
0.8096584304992221 1 1 1 1 1:1.025884 2:-0.316689 3:-0.779295 4:0.540747 5:-16.774906 6:-38.921143 7:7.853806 8:0.720238 9:-37.095215 10:9.134506 
0.7086140539832493 0.9225837209807329 1 0.9816219219707931 0.8892069169343483 1:0.966364 2:-0.343546 3:-0.759301 4:0.552665 5:-15.775448 6:-37.491089 7:-5.229263 8:-0.94516 9:-36.147949 10:-5.173996 
0.709675519105615 0.9229597130817384 1 0.9814104081915622 0.8887900202426389 1:0.96884 2:-0.341143 3:-0.752862 4:0.562867 5:-16.394241 6:-35.602539 7:-6.639236 8:-1.34885 9:-32.970703 10:-7.004303 
0.8051135325760351 1 1 1 1 1:1.098737 2:-0.377613 3:-0.682815 4:0.625437 5:-17.02338 6:-37.676025 7:11.610474 8:-3.076344 9:-35.492554 10:16.251785 
0.8095400120822962 1 1 1 1 1:1.140867 2:-0.389185 3:-0.559289 4:0.731937 5:-22.563293 6:-41.31897 7:26.084229 8:-4.451672 9:-35.421753 10:47.428436 
0.809583459887371 1 1 1 1 1:1.063193 2:-0.440712 3:-0.747919 4:0.496376 5:-26.021744 6:-40.089111 7:14.330902 8:7.677082 9:-40.849243 10:38.553833 
0.8094641256398314 1 1 1 1 1:1.053002 2:-0.347515 3:-0.829582 4:0.437067 5:-25.835865 6:-35.838989 7:-13.371719 8:7.32489 9:-44.911255 10:4.562073 
0.7442636465269428 0.9684038252344267 1 1 0.9326002999812337 1:1.048826 2:-0.364849 3:-0.866485 4:0.340717 5:-27.089962 6:-36.203613 7:-22.134323 8:0.795666 9:-47.187134 10:-11.528107 
0.6461831525085824 0.8412778456966158 1 0.8973794804547424 0.8102489223398208 1:1.048144 2:-0.32679 3:-0.88748 4:0.324942 5:-26.100998 6:-36.579224 7:-21.943237 8:-1.643841 9:-43.484863 10:-13.010223 
0.7169815011102962 0.9332633738021434 1 0.992760745707288 0.8987618242847433 1:1.045609 2:-0.283894 3:-0.907727 4:0.308927 5:-23.313095 6:-39.146484 7:-21.451279 8:-2.149681 9:-42.448486 10:-15.234421 
0.8043740413219606 1 1 1 1 1:1.036745 2:-0.243975 3:-0.947632 4:0.206082 5:-21.6203 6:-43.345825 7:-26.159439 8:-2.409649 9:-41.945557 10:-25.126541 
0.7691799952279806 1 1 1 0.9645741291347283 1:1.024587 2:-0.2587 3:-0.965941 4:-0.005643 5:-20.528038 6:-45.038574 7:-37.198608 8:-0.483017 9:-40.331055 10:-36.775574 
0.7680098244888862 1 1 1 0.9631840921498299 1:1.016058 2:-0.232708 3:-0.961229 4:-0.147941 5:-19.164192 6:-43.149414 7:-41.125504 8:0.229431 9:-37.463135 10:-36.586151 
0.8068255116286234 1 1 1 1 1:1.0143 2:-0.240861 3:-0.950226 4:-0.197627 5:-18.505859 6:-42.480835 7:-36.577301 8:1.785465 9:-36.370239 10:-30.618393 
-1 1 1 1 1 1:0.717588 2:0.924454 3:-0.219782 4:-0.311578 5:37.949463 6:-16.653221 7:-36.95826 8:43.339966 9:10.443443 10:-25.59729 
-1 1 1 1 1 1:0.715915 2:0.920854 3:-0.209432 4:-0.328885 5:40.595215 6:-14.045479 7:-37.281052 8:54.59375 9:9.671898 10:-29.886162 
-1 1 1 1 1 1:0.714295 2:0.912025 3:-0.227985 4:-0.34093 5:41.875977 6:-13.102119 7:-38.513237 8:60.813171 9:7.59832 10:-32.455948 
-0.6679359992311364 0.6918734844030163 0.8330147137832822 0.7205694912444783 0.6751533691489605 1:0.714213 2:0.903029 3:-0.25785 4:-0.343588 5:42.55896 6:-12.987549 7:-39.30069 8:62.012695 9:3.762039 10:-35.762032 
-0.707605056972691 0.7312498574209834 0.8721749691697158 0.7601223059640562 0.7140256084791547 1:0.714608 2:0.898322 3:-0.269404 4:-0.347043 5:43.689209 6:-11.698021 7:-39.765793 8:61.599792 9:4.205246 10:-37.27449 
-0.9950785487974111 1 1 1 1 1:0.715344 2:0.90648 3:-0.251161 4:-0.339429 5:44.287415 6:-12.30632 7:-38.838432 8:57.863403 9:6.176117 10:-35.259155 
-1 1 1 1 1 1:0.717826 2:0.923862 3:-0.224799 4:-0.309748 5:41.963623 6:-14.025803 7:-34.883942 8:51.259277 9:8.811897 10:-32.314072 
-1 1 1 1 1 1:0.721845 2:0.944476 3:-0.202057 4:-0.259109 5:38.019348 6:-14.879303 7:-29.757919 8:44.023193 9:7.755333 10:-27.717461 
-0.397953465984266 0.410450257043721 0.4834406297264074 0.4256882378387863 0.4015688047139343 1:0.728316 2:0.962512 3:-0.209956 4:-0.171723 5:34.755554 6:-16.367233 7:-23.76268 8:38.058228 9:6.450012 10:-21.920746 
-0.3057474091585538 0.3154127601906562 0.3709547091490238 0.3274109922665622 0.3090722462152083 1:0.726313 2:0.940944 3:-0.271485 4:-0.202285 5:33.644958 6:-15.997711 7:-21.232178 8:34.373657 9:5.790573 10:-19.411964 
-0.3969801083775293 0.4100010659769948 0.4836172984470516 0.4250848549080004 0.4003249341558577 1:0.728004 2:0.94704 3:-0.265131 4:-0.181163 5:33.276855 6:-16.834732 7:-20.453651 8:33.416321 9:4.0382 10:-20.512581 
-0.3182840978718985 0.3273385238984731 0.3869985901578271 0.3403220899439718 0.3198773043831039 1:0.730935 2:0.965101 3:-0.220039 4:-0.141995 5:32.462585 6:-17.810425 7:-19.569397 8:37.333435 9:5.72496 10:-19.11187 
-0.3496598786470501 0.3594729684100432 0.421825868215412 0.3698594336639364 0.352540565425099 1:0.732393 2:0.963734 3:-0.241111 4:-0.114375 5:32.656677 6:-17.835854 7:-20.299217 8:35.843689 9:3.315552 10:-20.782791 
-0.0462074581442011 0.145350389692929 0.2040774730145763 0.08670772298485417 0.1369577663297231 1:0.732941 2:0.961829 3:-0.247329 4:-0.117104 5:33.185486 6:-18.815971 7:-18.183395 8:36.325317 9:3.880928 10:-16.996819 
-0.2573962527484258 0.1050365787248865 0.0881237659166775 0.1811047165531698 0.1200254067248296 1:0.732844 2:0.961643 3:-0.247798 4:-0.117641 5:33.133362 6:-18.74926 7:-18.120758 8:36.274414 9:3.832855 10:-17.016975 
-0.2202116970443762 0.2861922197239954 0.3382084431918995 0.2939406757482127 0.2681077903935643 1:0.73245 2:0.960796 3:-0.2491 4:-0.121735 5:33.091125 6:-18.594406 7:-18.049507 8:36.24707 9:3.904068 10:-16.725471 
-0.03966161190819505 0.04445299538063016 0.05264242469914829 0.03633222655027972 0.04501369814415447 1:0.731317 2:0.958146 3:-0.249855 4:-0.139744 5:32.3255 6:-18.224083 7:-18.165871 8:36.110901 9:3.637726 10:-17.604477 
-0.2017818341597912 0.2133769904434824 0.2550363513336649 0.2268645840825868 0.2068412207068319 1:0.730868 2:0.9567 3:-0.249593 4:-0.149763 5:32.166565 6:-18.159279 7:-19.00209 8:35.966309 9:3.30011 10:-19.030296 
-0.2426226897553234 0.2503971610052133 0.2944290574947592 0.2600387112514684 0.2456087924499026 1:0.727052 2:0.945955 3:-0.250313 4:-0.206184 5:31.473083 6:-17.461922 7:-22.791344 8:37.301697 9:5.137367 10:-20.892174 
-0.5673048546794256 0.5851686941440079 0.6934532497717831 0.6074434594392798 0.57220140970155 1:0.723526 2:0.936411 3:-0.241496 4:-0.254587 5:33.443787 6:-17.402733 7:-23.832733 8:39.962341 9:5.184891 10:-21.604591 
-1 1 1 1 1 1:0.719816 2:0.927905 3:-0.222371 4:-0.299237 5:37.34491 6:-17.773224 7:-24.945221 8:44.36499 9:4.143349 10:-24.116035 
-1 1 1 1 1 1:0.718123 2:0.922436 3:-0.219102 4:-0.317972 5:42.257874 6:-18.813072 7:-28.088852 8:48.613281 9:3.359268 10:-27.663376 
-1 1 1 1 1 1:0.717263 2:0.920985 3:-0.2073 4:-0.32987 5:45.800171 6:-18.489075 7:-29.88327 8:53.116272 9:3.328201 10:-31.469231 
-0.9232756351585584 0.9565878587735079 1 0.9981100386070716 0.9332983691880614 1:0.71707 2:0.918846 3:-0.211192 4:-0.333348 5:48.047791 6:-17.555367 7:-31.992767 8:55.48407 9:3.241318 10:-34.388344 
-0.7324957346331853 0.7555417578724943 0.893243685974121 0.7785790313503137 0.7397523937521761 1:0.717845 2:0.91917 3:-0.215878 4:-0.329428 5:49.606628 6:-17.942566 7:-33.852249 8:57.416382 9:5.310295 10:-36.28817 
-0.3883365699119904 0.4008478474161 0.542068187785224 0.427352269903851 0.3916644555896576 1:0.719249 2:0.920989 3:-0.232034 4:-0.312952 5:50.070435 6:-18.219406 7:-35.615234 8:57.909973 9:6.303764 10:-37.628372 
-0.9562949100157799 0.9869000874425642 1 1 0.9656489891991802 1:0.72239 2:0.931921 3:-0.238155 4:-0.273505 5:48.755798 6:-19.169548 7:-37.049973 8:57.143433 9:7.980759 10:-38.360786 
-0.814321948878332 0.8404739052852817 0.9917210292201339 0.8709844014244871 0.822294630644485 1:0.723948 2:0.938603 3:-0.238316 4:-0.249462 5:41.775208 6:-18.949844 7:-37.965843 8:47.43927 9:8.508072 10:-35.562332 
-1 1 1 1 1 1:0.724267 2:0.939711 3:-0.242112 4:-0.241506 5:33.396606 6:-19.73539 7:-38.1054 8:37.716003 9:8.441826 10:-35.589142 
-0.8201239513897516 0.847292205282097 1 0.8793178967684476 0.8282897964189782 1:0.727844 2:0.946853 3:-0.264232 4:-0.18344 5:30.207886 6:-22.413712 7:-36.822861 8:34.032837 9:7.031281 10:-35.13784 
-0.6254510173450017 0.6446636719535443 0.7614572214201789 0.6691234689522327 0.6312394065235123 1:0.734521 2:0.957881 3:-0.278016 4:-0.071904 5:30.386475 6:-21.553879 7:-37.409767 8:32.095398 9:7.595062 10:-33.27243 
-0.08477566335713017 0.08624986400298826 0.09643408025711894 0.08953408574708817 0.08311888078705752 1:0.736884 2:0.954198 3:-0.296506 4:-0.03988 5:30.497437 6:-20.126701 7:-38.019547 8:30.74585 9:4.560196 10:-32.786591 
-0.7803484365152729 0.8057746379613036 0.9493480472077764 0.8352550825078051 0.7894700784743427 1:0.737031 2:0.950346 3:-0.308889 4:-0.037811 5:30.863281 6:-19.946846 7:-37.579407 8:31.617737 9:3.461525 10:-32.259506 
-0.3922924291000787 0.4053735937096619 0.4883806731142847 0.4200432287532781 0.39660726649216 1:0.737585 2:0.943563 3:-0.329941 4:-0.028783 5:31.23053 6:-19.82048 7:-37.619797 8:31.250916 9:4.504272 10:-34.199188 
-1 1 1 1 1 1:0.72153 2:0.928449 3:-0.0473 4:-0.368436 5:34.721985 6:-20.122116 7:-39.008598 8:41.885498 9:11.917778 10:-34.601379 
-0.7852816754696101 0.811589734293123 0.9656194939936217 0.8642728520033218 0.7931439369969944 1:0.717937 2:0.911075 3:-0.066173 4:-0.406895 5:35.418335 6:-19.566612 7:-38.225822 8:46.100891 9:8.64003 10:-35.89566 
-0.4745266552150945 0.4886483906662317 0.5763063008620979 0.5028400428492791 0.4781962837510225 1:0.716578 2:0.899673 3:-0.097372 4:-0.425567 5:37.219971 6:-19.492493 7:-38.19313 8:48.554565 9:6.294708 10:-37.979172 
-0.6063022805378822 0.6256065343529804 0.7320357980469558 0.6483952182953078 0.6121259529279125 1:0.722208 2:0.922307 3:-0.104754 4:-0.371989 5:42.692993 6:-18.701843 7:-39.556534 8:49.595459 9:5.556519 10:-38.847267 
-0.7278492894391418 0.7504918087606205 0.9043619215272436 0.778465605776131 0.7348237488323058 1:0.729327 2:0.952098 3:-0.084418 4:-0.293911 5:42.273315 6:-17.850227 7:-38.207306 8:46.265137 9:5.317032 10:-36.738914 
-0.4142147977907959 0.4261367277553277 0.4994410734118291 0.4417418240267913 0.4177607656201045 1:0.7339 2:0.964455 3:-0.119279 4:-0.235795 5:37.150818 6:-17.653702 7:-32.137062 8:40.303345 9:4.93763 10:-29.219635 
-0.6477392713265867 0.6681862152420255 0.7879232972554159 0.6922956498480274 0.6536463360349424 1:0.735401 2:0.963538 3:-0.179416 4:-0.198508 5:34.671082 6:-19.216095 7:-24.60038 8:37.881348 9:6.537437 10:-20.972305 
-0.5256224196440693 0.5397724903691032 0.6352019131536504 0.5598705347785339 0.5274716017054631 1:0.736224 2:0.969963 3:-0.174532 4:-0.169441 5:33.049255 6:-20.033066 7:-18.796158 8:35.223389 9:5.770004 10:-15.650368 
-0.4455371000203538 0.4601029484066447 0.5421230342906751 0.4777064337691388 0.4507172331272197 1:0.740839 2:0.982453 3:-0.152694 4:-0.107104 5:32.014648 6:-19.07122 7:-17.987923 8:33.452942 9:7.310745 10:-13.795898 
-0.7617821355421293 0.7858067593347824 0.9258571250711927 0.8148312415442069 0.7691218756422966 1:0.741274 2:0.989804 3:-0.115386 4:-0.083509 5:31.803101 6:-17.661171 7:-18.852081 8:31.061096 9:5.669052 10:-13.397469 
-0.07969486310382611 0.08032223079858622 0.1115564673763043 0.08281126679365218 0.07994264823476586 1:0.744706 2:0.990667 3:-0.135907 4:-0.0104 5:33.354736 6:-17.621895 7:-16.478729 8:33.579285 9:3.960587 10:-13.631973 
-0 0 0.004037993263171058 0 0 1:0.743444 2:0.983075 3:-0.178926 4:-0.039359 5:33.289246 6:-17.130859 7:-15.589195 8:33.839722 9:4.883659 10:-13.178993 
-0 0 0.02652195372020615 0 0 1:0.743154 2:0.98789 3:-0.148041 4:-0.046446 5:33.317627 6:-17.918289 7:-14.853668 8:33.598022 9:4.152649 10:-12.995789 
-0.8638659923970968 0.8921354745295847 1 0.9250091491050276 0.8714973851959641 1:0.743652 2:0.989062 3:-0.142349 4:-0.038633 5:33.230835 6:-18.011711 7:-14.869843 8:33.468445 9:3.915131 10:-13.037918 
-0.08935386319167718 0.09184729952592306 0.1070387935791636 0.09560143548067378 0.0893028162199356 1:0.742635 2:0.986633 3:-0.146639 4:-0.071083 5:31.440247 6:-18.114304 7:-17.068756 8:32.015686 9:4.595795 10:-15.366623 
-0.3204225183212353 0.3309098879806373 0.3918088341389883 0.342894193773413 0.3247269757664647 1:0.741994 2:0.983687 3:-0.152625 4:-0.095208 5:30.510254 6:-18.254234 7:-19.245094 8:31.521362 9:4.617332 10:-17.55304 
-0.1080481206925069 0.1114190408174439 0.129238867847218 0.1148033153504258 0.1046640452624716 1:0.739587 2:0.973202 3:-0.160078 4:-0.165083 5:29.004761 6:-19.249718 7:-21.235153 8:30.141602 9:4.249702 10:-19.077133 
-0.4905320825771118 0.5053206174128204 0.5994248915826083 0.5247859694766278 0.4985698465013018 1:0.732575 2:0.950888 3:-0.166046 4:-0.26123 5:27.755859 6:-18.632294 7:-20.979538 8:29.402405 9:4.398483 10:-19.346161 
-0.2123851733770293 0.2206368691399435 0.258429657920387 0.22800268064882 0.213078760272051 1:0.723666 2:0.909427 3:-0.178552 4:-0.375581 5:26.504395 6:-16.936043 7:-22.537323 8:28.202332 9:5.678909 10:-20.694138 
-0.4777522891089896 0.4914475292269596 0.5817546431631434 0.5107561904224377 0.4831015176199318 1:0.720693 2:0.889304 3:-0.192422 4:-0.414864 5:25.729614 6:-16.644447 7:-23.61142 8:27.375671 9:6.421829 10:-21.830742 
-0.8017771755000278 0.8266916260764618 0.9742734694883259 0.8565942469126676 0.8087867444877643 1:0.719979 2:0.905129 3:-0.178554 4:-0.385824 5:25.577576 6:-18.795418 7:-23.01635 8:27.243469 9:3.790825 10:-21.333656 
-0.2931565134876739 0.3033127041193504 0.3561767117046679 0.3147915603890705 0.2970021898526662 1:0.735332 2:0.964451 3:-0.179626 4:-0.193829 5:29.305481 6:-18.915169 7:-20.611557 8:30.461792 9:3.545792 10:-19.644531 
-0.4064701994906212 0.4185076384425079 0.4947737360146239 0.4338750043113912 0.410543682306643 1:0.733534 2:0.958631 3:-0.172616 4:-0.226341 5:30.412292 6:-18.630013 7:-21.85154 8:32.172302 9:4.097481 10:-20.610008 
-0.6150619841170957 0.6344662600947212 0.7485838253197571 0.6587573873372866 0.6207702096851674 1:0.73058 2:0.94908 3:-0.166182 4:-0.26764 5:32.601013 6:-18.711067 7:-24.198822 8:35.203613 9:4.208443 10:-23.227783 
-0.2057023341751041 0.2117828575972772 0.2459724354070216 0.219021641353977 0.2081072911944694 1:0.726785 2:0.93528 3:-0.151615 4:-0.319787 5:34.36615 6:-18.551872 7:-25.769379 8:38.628418 9:4.523727 10:-24.981537 
-0.485432002734088 0.5016978308274075 0.5960791423927957 0.5207321608159108 0.4899165876479842 1:0.724317 2:0.927552 3:-0.133868 4:-0.348895 5:35.060242 6:-18.738846 7:-26.473343 8:39.961609 9:3.935623 10:-25.053497 
-0.5984079638864777 0.6204464360869434 0.7508612376647237 0.6479324470520373 0.6053794156733533 1:0.724856 2:0.928387 3:-0.146576 4:-0.341487 5:36.724609 6:-18.63092 7:-27.614861 8:41.348755 9:3.335594 10:-26.241707 
-0.7295281814300063 0.7534298612300522 0.8952844715785754 0.7828988415131057 0.7365697063932966 1:0.72505 2:0.931021 3:-0.135558 4:-0.338857 5:38.630188 6:-18.862442 7:-29.956001 8:44.746399 9:3.089134 10:-28.500748 
-0.550190199395302 0.5694868090114525 0.6848716296433557 0.5938483330883877 0.5554016559432793 1:0.725342 2:0.931672 3:-0.138257 4:-0.335965 5:38.957031 6:-19.356384 7:-31.363541 8:47.383606 9:3.169189 10:-29.918083 
-0.6931221344101648 0.7138776472089247 0.839647746161145 0.7380944160040422 0.6995148076680259 1:0.724613 2:0.929287 3:-0.130883 4:-0.34539 5:38.925171 6:-20.709885 7:-31.870796 8:49.409424 9:3.183594 10:-31.598755 
-0.1805432962452354 0.1887493098665461 0.2435046895418984 0.2003728245750776 0.1828101035896157 1:0.724624 2:0.929642 3:-0.133061 4:-0.3436 5:39.018616 6:-21.163666 7:-32.288422 8:51.706421 9:4.523148 10:-32.805412 
-0.3448663328776073 0.349984359676715 0.3735925373330303 0.3559627178259911 0.3450032618006539 1:0.724655 2:0.928939 3:-0.133532 4:-0.345313 5:38.832397 6:-21.339203 7:-32.766609 8:52.677856 9:5.105576 10:-33.879753 
-0.5987901556515367 0.6218814081687988 0.7670760470539738 0.6485399199138466 0.6070158161140377 1:0.725052 2:0.9307 3:-0.134245 4:-0.340258 5:38.679626 6:-21.586136 7:-33.653168 8:52.550842 9:5.385811 10:-34.309387 
-0.8812179995497842 0.9085959855418528 1 0.9416053506269021 0.8892267970335297 1:0.726769 2:0.936809 3:-0.140838 4:-0.32024 5:37.795044 6:-21.289085 7:-34.937523 8:48.624512 9:6.179558 10:-33.438148 
-1 1 1 1 1 1:0.731184 2:0.949726 3:-0.174478 4:-0.259959 5:35.844849 6:-19.867851 7:-36.12027 8:37.391907 9:5.555336 10:-33.301956 
-0.9192250718266871 0.9484709313943039 1 1 0.9284025481325133 1:0.738612 2:0.961391 3:-0.235907 4:-0.141685 5:35.811157 6:-20.221306 7:-38.112701 8:30.342468 9:6.34745 10:-36.34066 
-0.9693408579882301 0.9990964105743367 1 1 0.9779850334039827 1:0.745589 2:0.962886 3:-0.268738 4:-0.025115 5:37.6698 6:-20.33123 7:-39.678757 8:30.7547 9:5.220764 10:-38.965683 
-0.7659326663808539 0.7905157140085226 0.9353272003454123 0.8172833226963998 0.773092836446524 1:0.732917 2:0.940464 3:-0.117077 4:-0.319094 5:35.94812 6:-20.617599 7:-36.789337 8:43.763428 9:6.534264 10:-36.743256 
-0.5888723903796249 0.6085980465547431 0.7211335788099056 0.631405819874398 0.5954421274481598 1:0.731409 2:0.930739 3:-0.146915 4:-0.334874 5:36.736511 6:-21.700737 7:-38.427437 8:47.541992 9:5.312584 10:-39.885178 
-0.8310328478743648 0.8569152376552956 1 0.8883567813536444 0.8385760685162721 1:0.730877 2:0.923946 3:-0.169546 4:-0.342896 5:37.939209 6:-20.888031 7:-40.846558 8:47.117798 9:4.237747 10:-39.891754 
-0.6625804353582508 0.6834037086397057 0.802853039890975 0.7075851497789494 0.6690129456210839 1:0.737524 2:0.947888 3:-0.184535 4:-0.25972 5:35.600525 6:-19.270653 7:-30.448128 8:42.111023 9:4.489822 10:-28.957985 
-0.04986389460329271 0.05256931760766781 0.0632949604019425 0.05295631752588971 0.04567796084097481 1:0.746633 2:0.975377 3:-0.193222 4:-0.106326 5:31.914429 6:-16.89064 7:-21.614952 8:35.588379 9:7.729996 10:-17.758766 
-0.6636704103515467 0.683108466182296 0.8040532438743635 0.7092261066836127 0.6740020553877797 1:0.747258 2:0.979262 3:-0.17939 4:-0.094155 5:31.816833 6:-17.180595 7:-20.982719 8:35.752991 9:8.035217 10:-17.472786 
-0.03217505055317259 0.03501513515988301 0.03971508485870746 0.03560861396124453 0.03391328535320451 1:0.750473 2:0.981217 3:-0.18909 4:-0.038187 5:29.823975 6:-16.267845 7:-17.203972 8:33.072021 9:6.464302 10:-15.966423 
-0.2774290723091852 0.2869657470726765 0.3391494800493682 0.2975101286729626 0.280724210786363 1:0.754218 2:0.981305 3:-0.187636 4:0.042806 5:30.950378 6:-16.486755 7:-14.458168 8:34.053711 9:6.2967 10:-13.256409 
-0.5245226325460679 0.5401248444273571 0.6394766557923219 0.5608329241502196 0.529050250168221 1:0.754878 2:0.982315 3:-0.175275 4:0.065846 5:29.981201 6:-16.645615 7:-11.731659 8:33.717834 9:6.927788 10:-11.710457 
-0.4742332175340018 0.4895255577149322 0.5750295219846939 0.5071194176574907 0.4786452631096356 1:0.754023 2:0.979355 3:-0.196444 4:0.047676 5:29.536743 6:-15.576965 7:-11.63015 8:33.138916 9:7.661385 10:-11.657196 
-0.4593244485227314 0.4731326430152721 0.5571616253475463 0.4910089080351633 0.4629277683393718 1:0.74789 2:0.980751 3:-0.173079 4:-0.09039 5:29.064697 6:-15.721123 7:-15.239876 8:32.57196 9:7.868248 10:-14.691101 
-0.5815193537982466 0.5993588960291831 0.7088037892561592 0.6222843343300466 0.5868706023492127 1:0.742694 2:0.970663 3:-0.157639 4:-0.181557 5:29.5354 6:-15.958099 7:-18.801254 8:32.814026 9:7.291138 10:-18.017754 
-0.6871942762549909 0.709314482467315 0.8368398862432037 0.735238480560263 0.694003554988498 1:0.736704 2:0.951346 3:-0.152501 4:-0.267738 5:30.773621 6:-15.810173 7:-22.746361 8:33.97937 9:6.947121 10:-21.946274 
-0.6204046270972461 0.6405391530884865 0.7552008174806911 0.664041285989591 0.6266894554591766 1:0.732195 2:0.935612 3:-0.131843 4:-0.327486 5:32.961487 6:-16.248169 7:-25.785774 8:36.459839 9:6.434669 10:-25.580132 
-0.349814595906168 0.3637630935594233 0.4412032536390995 0.3801636977417335 0.3543253690154099 1:0.730943 2:0.932142 3:-0.120985 4:-0.341281 5:36.083862 6:-16.6661 7:-30.143349 8:39.84729 9:6.780548 10:-28.950684 
-0.6640926425041679 0.683528553189429 0.7976649093596643 0.7064683263458189 0.6701740446741657 1:0.730781 2:0.93283 3:-0.108779 4:-0.343504 5:37.770386 6:-17.568024 7:-33.016556 8:42.220276 9:6.666145 10:-32.185532 
-0.6788639937373956 0.7016584230386895 0.8362015787376187 0.7306308587076238 0.6848254930995903 1:0.730734 2:0.932185 3:-0.107767 4:-0.345568 5:38.731384 6:-18.036476 7:-34.9589 8:44.290771 9:6.6866 10:-35.201668 
-0.1867250337377533 0.1915631839593491 0.2216123283775824 0.1936711896730567 0.1892153788276059 1:0.730615 2:0.931052 3:-0.111792 4:-0.347339 5:39.135925 6:-18.276001 7:-35.951691 8:45.30481 9:6.621124 10:-37.136925 
-0.1578882686295658 0.1633657517412165 0.1885053485423015 0.1719825638268308 0.1585695540618974 1:0.730298 2:0.929961 3:-0.108013 4:-0.351434 5:39.821777 6:-18.25647 7:-36.494545 8:46.634705 9:6.739883 10:-37.866234 
-0.438645402432651 0.4521229016036754 0.5579708299345831 0.4735448693811235 0.4416423986837539 1:0.730594 2:0.929255 3:-0.110849 4:-0.352417 5:40.771484 6:-19.085091 7:-37.66893 8:49.091248 9:6.875946 10:-40.455658 
-0.3161529160506991 0.3262618919262309 0.3479663525321313 0.3308959003664917 0.3203499293369487 1:0.732141 2:0.934975 3:-0.118737 4:-0.33425 5:41.689453 6:-18.981598 7:-38.150673 8:50.029541 9:7.387566 10:-40.624382 
-0.596128089530654 0.6150946736068652 0.7972922033250897 0.65069528500894 0.6016351387479875 1:0.736187 2:0.949345 3:-0.133327 4:-0.284548 5:44.277466 6:-19.055298 7:-39.865105 8:51.134644 9:7.633392 10:-41.659927 
-0.9647580685779035 0.9954188882176656 1 1 0.9739472730778965 1:0.741418 2:0.966471 3:-0.143375 4:-0.213018 5:46.488586 6:-18.343636 7:-41.442818 8:52.304504 9:7.650375 10:-42.6828 
-0.8392993437580147 0.8669728576139443 1 0.8985598817544849 0.8476442754888995 1:0.750704 2:0.972161 3:-0.228854 4:-0.050294 5:36.926819 6:-19.480537 7:-29.619354 8:36.570435 9:6.119797 10:-26.718361 
-0.2718733155133915 0.2802560224606538 0.3326389854300518 0.2897961136056441 0.2739731709769445 1:0.74862 2:0.974643 3:-0.207039 4:-0.084894 5:33.790283 6:-17.806961 7:-26.90036 8:35.259888 9:5.016914 10:-24.487823 
-0.1149048905299914 0.1184763283966164 0.1386649715631016 0.1229938632147831 0.115257524412655 1:0.750041 2:0.981397 3:-0.179345 4:-0.068515 5:29.78363 6:-18.048309 7:-17.947083 8:32.65271 9:6.590988 10:-17.182526 
-0.6067600386441414 0.6264398919664033 0.7386485708783588 0.6503559407545121 0.6138970542228946 1:0.752535 2:0.98545 3:-0.168804 4:-0.019857 5:28.048828 6:-16.832108 7:-13.675972 8:30.555115 9:7.845108 10:-13.488724 
-0.2914385664593035 0.3005290657777834 0.3554693452013107 0.31062418211293 0.2932872823814353 1:0.75308 2:0.986124 3:-0.165972 4:0.003712 5:29.291382 6:-16.084549 7:-13.506752 8:30.484253 9:8.328079 10:-12.835091 
-0.1769085528524846 0.1814343057278064 0.2149861665780273 0.1878410443555746 0.1778463719996246 1:0.750038 2:0.986094 3:-0.160149 4:-0.04439 5:30.822388 6:-16.78019 7:-16.247444 8:33.132935 9:7.055542 10:-15.966225 
-0.4134674951537601 0.4267252799141872 0.5019723525787287 0.442249365537854 0.417408758839757 1:0.743009 2:0.972246 3:-0.17878 4:-0.150917 5:29.903625 6:-16.500084 7:-21.116264 8:31.597473 9:7.112335 10:-20.266891 
-0.2684035061229104 0.2771098065744504 0.3256741112779429 0.2863484697191393 0.270854540555812 1:0.73611 2:0.956327 3:-0.163455 4:-0.242323 5:28.169739 6:-17.520988 7:-25.634743 8:27.621155 9:5.315887 10:-24.995033 
-0.7772403448799993 0.8006910787555972 0.9459987371786306 0.8318767456680072 0.7835940938383555 1:0.732432 2:0.941032 3:-0.172448 4:-0.291068 5:26.129456 6:-18.309258 7:-26.217216 8:26.328491 9:5.120438 10:-26.165596 
-0.3291136061941983 0.337905138815756 0.3976413245694672 0.3493852461600233 0.3319822404980536 1:0.731534 2:0.940062 3:-0.151336 4:-0.305582 5:27.558167 6:-17.297859 7:-23.750305 8:29.007385 9:7.373955 10:-23.664162 
-0.2851025576019058 0.2961592884261585 0.3490702895690013 0.3074936657571894 0.2878809718347056 1:0.723051 2:0.895164 3:-0.15519 4:-0.417848 5:26.846741 6:-16.552628 7:-24.700806 8:29.008301 9:8.162148 10:-23.928154 
-0.211500435750559 0.2202329540433418 0.2477576336927914 0.217651482340876 0.2170337921916864 1:0.723488 2:0.898548 3:-0.157919 4:-0.409478 5:26.293152 6:-17.096169 7:-27.38044 8:28.969543 9:8.03878 10:-25.027405 
-0.3378376334987445 0.3446136936602205 0.4196504284101327 0.3692540442913203 0.3363128351569836 1:0.723654 2:0.897752 3:-0.163091 4:-0.409197 5:25.925293 6:-17.118637 7:-27.238373 8:28.462158 9:7.904099 10:-25.482018 
-0.1296923043894407 0.1355455617567435 0.1554990627610189 0.1366586529252552 0.1329716292569288 1:0.72587 2:0.911558 3:-0.154139 4:-0.381186 5:25.706726 6:-17.506546 7:-27.422218 8:27.031128 9:6.624039 10:-25.560844 
-0.4327538089606781 0.4471021568470468 0.5314039388816494 0.4652758942397953 0.4365591319810494 1:0.729179 2:0.921992 3:-0.162309 4:-0.351548 5:28.377747 6:-17.59388 7:-27.210793 8:30.037659 9:6.842369 10:-24.722328 
-0.8281886025738124 0.854194595585539 1 0.8849871577695811 0.8356883457447564 1:0.727159 2:0.91509 3:-0.146792 4:-0.375583 5:31.007751 6:-17.220947 7:-27.920364 8:32.708435 9:7.09269 10:-25.240906 
-0.6966588524761254 0.7191402492517169 0.8518632458885096 0.7463641397993802 0.7036813144328699 1:0.727688 2:0.917045 3:-0.153219 4:-0.368176 5:34.012024 6:-16.741234 7:-29.368233 8:34.823303 9:7.117462 10:-26.428055 
-0.4266436237766851 0.4378085667048939 0.5157992789815403 0.4526691375931851 0.4291728008126043 1:0.728641 2:0.92219 3:-0.152384 4:-0.35545 5:36.622314 6:-16.928772 7:-30.118187 8:38.028931 9:7.014977 10:-28.19442 
-0.5256518582255967 0.5493134259736409 0.6871690291099906 0.5776593966287868 0.5323425887368716 1:0.731174 2:0.932685 3:-0.151691 4:-0.327243 5:39.618225 6:-16.965416 7:-31.420372 8:42.263977 9:7.105995 10:-30.513206 
-1 1 1 1 1 1:0.736167 2:0.951921 3:-0.150509 4:-0.266822 5:42.860779 6:-16.799095 7:-32.460663 8:45.690979 9:6.466705 10:-31.67028 
-1 1 1 1 1 1:0.742629 2:0.973998 3:-0.14009 4:-0.178052 5:47.726868 6:-17.814171 7:-33.769386 8:50.975098 9:5.753845 10:-34.416397 
-1 1 1 1 1 1:0.751937 2:-0.98167 3:0.120049 4:-0.148031 5:-37.968811 6:17.931778 7:-29.191528 8:-36.76825 9:-10.526161 10:-25.443108 
-0.6510360573506647 0.6723424869282046 0.8016728238853326 0.6984519877026498 0.6564588140417102 1:0.748425 2:-0.973741 3:0.104671 4:-0.202169 5:-37.772339 6:16.911964 7:-30.264977 8:-39.318115 9:-7.030952 10:-27.400146 
-0.6174672614751376 0.6390782085219464 0.7661190507555444 0.6661801080639681 0.6246853217105203 1:0.748424 2:-0.971024 3:0.117407 4:-0.208152 5:-37.362915 6:16.382385 7:-28.778473 8:-39.394714 9:-6.628769 10:-26.739929 
-1 1 1 1 1 1:0.750954 2:-0.979218 3:0.114912 4:-0.167113 5:-35.86261 6:16.469643 7:-22.541916 8:-37.132629 9:-8.203796 10:-20.414612 
-0.05663230465778432 0.04792243678190158 0 0.03509707987225 0.05322725840959754 1:0.749069 2:-0.972284 3:0.13787 4:-0.188825 5:-34.314514 6:17.073021 7:-20.297295 8:-34.352722 9:-8.204666 10:-17.589157 
-0.3653920962334233 0.3935879343085043 0.5561143454231775 0.4285051854865412 0.3736966162341482 1:0.748814 2:-0.972298 3:0.138013 4:-0.188653 5:-34.938538 6:16.294838 7:-20.916351 8:-35.218567 9:-8.279633 10:-17.987419 
-0.6262930739157997 0.6462603954662093 0.76422031757498 0.672254490079583 0.6333860189858538 1:0.750255 2:-0.976554 3:0.139065 4:-0.164324 5:-33.374268 6:16.741516 7:-19.857231 8:-34.537231 9:-7.312973 10:-17.278191 
-0.7702621009625308 0.7949181891214494 0.9390762055986357 0.8250478712942237 0.7777448121269175 1:0.746143 2:-0.969011 3:0.149273 4:-0.196811 5:-31.657227 6:16.457062 7:-21.616257 8:-33.0672 9:-8.26152 10:-18.532143 
-0.5080858258048232 0.5245737765369136 0.62862432134973 0.5438405670123954 0.513530190091931 1:0.742608 2:-0.960837 3:0.130978 4:-0.244204 5:-30.306213 6:15.509926 7:-24.75843 8:-32.009583 9:-8.117447 10:-20.885483 
-0.4805625138588348 0.495870066657327 0.575153335627514 0.5139789145185172 0.4850714196712964 1:0.740095 2:-0.945895 3:0.139662 4:-0.292879 5:-29.926636 6:15.258965 7:-25.996071 8:-31.614258 9:-8.087753 10:-22.417702 
-0.4262014733070997 0.4381645658702004 0.493362008286728 0.4565167610088791 0.4292500846143044 1:0.740375 2:-0.944428 3:0.149931 4:-0.292535 5:-29.934937 6:17.320961 7:-25.188194 8:-32.629272 9:-9.096161 10:-22.800148 
-0.4016104462489246 0.414610347705012 0.5432089826922922 0.4274998035465259 0.4051426852349684 1:0.74145 2:-0.946789 3:0.155146 4:-0.281993 5:-30.494812 6:17.284386 7:-26.162125 8:-33.404541 9:-7.991493 10:-24.319519 
-0.9161635883898944 0.9476383819405427 1 0.9863974848591535 0.9254062031207596 1:0.741399 2:-0.947308 3:0.142087 4:-0.287089 5:-31.356567 6:16.784325 7:-26.833694 8:-36.221497 9:-7.41021 10:-25.479195 
-1 1 1 1 1 1:0.741917 2:-0.947931 3:0.141911 4:-0.285111 5:-31.734924 6:16.134094 7:-27.363663 8:-40.774109 9:-6.860001 10:-26.966331 
-1 1 1 1 1 1:0.741946 2:-0.946046 3:0.146474 4:-0.289037 5:-32.390686 6:16.021667 7:-28.655487 8:-45.531189 9:-6.829659 10:-29.503448 
-1 1 1 1 1 1:0.741951 2:-0.943948 3:0.154704 4:-0.291597 5:-33.347351 6:16.077118 7:-30.522903 8:-48.844727 9:-6.841972 10:-32.216347 
-1 1 1 1 1 1:0.743907 2:-0.953493 3:0.145182 4:-0.264145 5:-34.871826 6:16.195976 7:-32.923317 8:-52.417847 9:-6.543472 10:-36.033218 
-1 1 1 1 1 1:0.748236 2:-0.96583 3:0.159174 4:-0.20454 5:-36.604797 6:16.334641 7:-34.82534 8:-54.991882 9:-6.319176 10:-39.439133 
-0.9390215803140155 -0.7663427081352369 1 1 0.9656215281292908 1:0.929562 2:0.189705 3:-0.666444 4:-0.721017 5:-2.529694 6:-19.95224 7:-65.566612 8:12.284027 9:-15.782471 10:-66.465034 
-0.7547666449833018 -0.6155904482612 1 0.8407337565513053 0.776194658852877 1:0.930126 2:0.158395 3:-0.678361 4:-0.717452 5:-3.239166 6:-17.031555 7:-66.432243 8:7.743286 9:-18.742676 10:-70.803177 
-0.283192274248651 -0.231623717946989 0.4016578631136999 0.3146791463491062 0.2906963263777677 1:0.932079 2:0.117147 3:-0.693394 4:-0.710972 5:-3.240631 6:-14.87735 7:-67.461487 8:6.232605 9:-19.939117 10:-71.670898 
-0.3752484633126377 -0.3056357536152408 0.5015855189775456 0.4180669883237838 0.3858232312519166 1:0.934088 2:0.078708 3:-0.710571 4:-0.69921 5:-3.721832 6:-14.27475 7:-67.774796 8:5.975708 9:-19.8302 10:-73.053993 
-0.5596661851276533 -0.4569640856424637 0.7637361344344942 0.6235008955096898 0.5757815589069497 1:0.935681 2:0.040747 3:-0.722211 4:-0.690471 5:-6.500793 6:-13.772736 7:-67.578163 8:5.638306 9:-18.902069 10:-74.371246 
-0.1680199555772226 -0.1368809942618154 0.2281887707561824 0.1878062524141608 0.1719684845813521 1:0.936861 2:-0.005119 3:-0.729222 4:-0.684258 5:-9.181671 6:-13.25238 7:-68.29937 8:5.084717 9:-18.957855 10:-74.551559 
-0.7052490793233062 -0.5761630287215797 0.9582920520126843 0.7855196577334026 0.7247703101467148 1:0.937541 2:-0.031623 3:-0.736515 4:-0.675682 5:-10.541077 6:-14.200958 7:-68.635445 8:4.857269 9:-20.008331 10:-74.492401 
-0.0581822754448814 -0.04621579131857224 0.07972783668854504 0.06375493077363627 0.06039763293957462 1:0.934985 2:-0.036198 3:-0.7265 4:-0.686212 5:-9.30365 6:-14.174591 7:-68.878365 8:5.893829 9:-19.686981 10:-74.293198 
-0.887295877250324 -0.7238892892814117 1 0.9885779786069127 0.9122790171344345 1:0.929439 2:0.005123 3:-0.708547 4:-0.705645 5:-3.300171 6:-14.862701 7:-68.877625 8:14.139587 9:-18.324158 10:-72.777901 
-0.9449224456063053 -0.7709139956671685 1 1 0.9716703255561214 1:0.920747 2:-0.018355 3:-0.701304 4:-0.712626 5:3.399506 6:-14.349945 7:-68.635979 8:23.655243 9:-14.326233 10:-70.503166 
-0.9005677467933133 -0.734359406874137 1 1 0.9260053809106075 1:0.911687 2:-0.069157 3:-0.720208 4:-0.690303 5:-7.642883 6:-14.031921 7:-68.7761 8:12.370636 9:-16.097595 10:-74.633514 
-0.9378787408436158 -0.7653033704022315 1 1 0.9645394326313759 1:0.9138 2:-0.215194 3:-0.709727 4:-0.670805 5:-48.00238 6:-10.557281 7:-39.915428 8:-31.057526 9:-27.925659 10:-48.40976 
-0.9432624100835232 -0.7690477577625597 1 1 0.9702130703029718 1:0.944468 2:-0.6105 3:-0.690507 4:-0.387931 5:-47.449219 6:-9.037109 7:-37.221512 8:-37.218811 9:-26.87207 10:-45.391449 
-0.899776878560216 -0.7337237757382773 1 1 0.9249364975531138 1:0.957096 2:-0.748379 3:-0.586442 4:-0.309862 5:-44.5271 6:-11.565216 7:-42.239891 8:-35.917023 9:-27.047943 10:-51.108894 
-0.8969319691030824 -0.7313252909980468 1 0.9996345956305239 0.9221049434443664 1:0.952847 2:-0.715645 3:-0.587231 4:-0.378169 5:-43.90744 6:-9.936432 7:-46.04245 8:-34.299072 9:-25.661469 10:-54.105858 
-0.9247947099229925 -0.7543326835835142 1 1 0.9506436023168691 1:0.951858 2:-0.67298 3:-0.615912 4:-0.409572 5:-41.791351 6:-9.962097 7:-50.589256 8:-31.159302 9:-25.887238 10:-57.468346 
-0.946495231575073 -0.7721388355532042 1 1 0.9730739350343475 1:0.947872 2:-0.56193 3:-0.671569 4:-0.48294 5:-37.185486 6:-12.069641 7:-55.031525 8:-24.014862 9:-27.567139 10:-61.772179 
-0.9465494136547519 -0.7720940652914288 1 1 0.9731097585270109 1:0.942842 2:-0.32556 3:-0.756115 4:-0.567716 5:-29.443207 6:-15.475739 7:-60.490746 8:-11.448669 9:-27.998444 10:-66.226837 
-0.9398242954879781 -0.7668633982469932 1 1 0.9665295585966384 1:0.940075 2:-0.061485 3:-0.788005 4:-0.612592 5:-18.84613 6:-18.613098 7:-64.730003 8:2.583221 9:-25.759705 10:-69.041649 
-0.9291723791458263 -0.7583005885441549 1 1 0.9557941860963617 1:0.938621 2:0.169384 3:-0.752082 4:-0.636931 5:-7.453766 6:-19.2677 7:-67.294449 8:14.301483 9:-18.948578 10:-70.043564 
-0.793956012949468 -0.6478960645486556 1 0.8850460092430863 0.8172277724359193 1:0.943806 2:0.2861 3:-0.738629 4:-0.610389 5:-1.632751 6:-19.654663 7:-68.480194 8:18.477509 9:-15.124359 10:-70.865517 
-0.4097616950940581 -0.3341488245091329 0.5808765523838046 0.4555692951503393 0.4204936260357411 1:0.952454 2:0.282818 3:-0.783397 4:-0.553446 5:-1.754333 6:-21.069275 7:-69.917389 8:17.43338 9:-16.947571 10:-72.68531 
-0.6604931455973788 -0.5388711886169221 0.9103169905728015 0.7366375587079965 0.6803164942582832 1:0.96047 2:0.257684 3:-0.819596 4:-0.511724 5:-0.990143 6:-22.413605 7:-69.874084 8:16.912842 9:-19.410278 10:-72.815536 
-0.3592060085076927 -0.2927449199863845 0.4979110609565663 0.3989450406541634 0.3681907120614897 1:0.954041 2:-0.386271 3:-0.52897 4:-0.755635 5:-10.116425 6:-5.61615 7:-69.998093 8:-3.521301 9:-12.323395 10:-72.167076 
-0.4412132221803485 -0.3597740429219401 0.5955300999285134 0.4924496083850445 0.4550102498474141 1:0.956271 2:-0.399378 3:-0.541475 4:-0.739799 5:-8.320892 6:-5.089478 7:-70.509361 8:-3.852325 9:-12.850403 10:-73.244987 
-0.3752183246181204 -0.3064665131869129 0.5147386143175553 0.417862933909119 0.3853959530819216 1:0.956467 2:-0.403069 3:-0.542595 4:-0.736971 5:-8.993622 6:-4.148712 7:-70.66198 8:-1.987244 9:-12.566223 10:-73.963211 
-0.4907726371346997 -0.400340530158733 0.6735854457941717 0.5468421614693968 0.5051931721850171 1:0.956516 2:-0.421444 3:-0.529734 4:-0.736048 5:-12.156738 6:-2.83551 7:-71.647713 8:-2.041687 9:-11.524597 10:-73.138565 
-0.5105195829356527 -0.4162173300090343 0.691539696782123 0.5686425224726347 0.5231238709298152 1:0.953413 2:-0.446325 3:-0.517414 4:-0.730121 5:-14.485718 6:-1.94928 7:-71.570908 8:-4.185974 9:-10.617889 10:-71.70668 
-0 -0 0 0 0.001428632314480637 1:0.953944 2:-0.461015 3:-0.512615 4:-0.724355 5:-15.046234 6:-1.968018 7:-71.863724 8:-4.642334 9:-11.27356 10:-71.501732 
-0.5854538674411857 -0.4781765696049597 0.7993202925429987 0.6514975301871263 0.6015922749000804 1:0.958249 2:-0.526799 3:-0.498497 4:-0.688464 5:-14.397522 6:-2.775177 7:-72.700233 8:-5.1604 9:-12.594757 10:-71.46711 
-0.8053561666868155 -0.6568817623760823 1 0.8972342105069101 0.8283395233561801 1:0.958151 2:-0.528319 3:-0.499981 4:-0.68622 5:-11.743164 6:-5.76825 7:-73.014008 8:-1.418945 9:-14.89032 10:-71.577217 
-0.7560368044479416 -0.6163088934190147 1 0.841967429359781 0.7773851445816025 1:0.957492 2:-0.547002 3:-0.495593 4:-0.674668 5:-5.049072 6:-10.898468 7:-73.162201 8:7.167755 9:-16.949707 10:-71.332672 
-0.7616117353804279 -0.6219907921534763 1 0.8487180139045292 0.7833723935744511 1:0.95781 2:-0.59387 3:-0.480648 4:-0.64521 5:-4.434937 6:-9.343872 7:-74.518707 8:9.49115 9:-16.091248 10:-73.166077 
-0.9439174738067279 -0.7697680501256435 1 1 0.9705219450844526 1:0.960843 2:-0.622438 3:-0.43951 4:-0.647612 5:-37.435211 6:12.08844 7:-57.935059 8:-26.381561 9:-1.842743 10:-61.119286 
-0.9406830338889252 -0.7671175839859954 1 1 0.967433083984116 1:0.975218 2:-0.760253 3:-0.361517 4:-0.539742 5:-50.372711 6:26.102081 7:-35.079453 8:-39.358246 9:5.007477 10:-42.22052 
-0.6918892513216833 -0.5645309443184862 0.9479566057397774 0.7708344936311013 0.7115039827592841 1:0.995287 2:-0.963273 3:0.037904 4:-0.265835 5:-48.396942 6:23.94574 7:-38.938202 8:-39.595978 9:4.907196 10:-47.156738 
-0.3163181080385563 -0.2583620905240208 0.4188878530385672 0.3526959990532281 0.3257407169814164 1:0.995462 2:-0.95717 3:0.126007 4:-0.260671 5:-47.463959 6:24.387573 7:-40.127777 8:-39.758087 9:5.557281 10:-48.789246 
-0.648203950046876 -0.5286573128967025 0.9070291445251304 0.7209127091925123 0.6659498072194382 1:0.993955 2:-0.945034 3:0.188379 4:-0.267252 5:-46.947418 6:22.95816 7:-42.96344 8:-39.939697 9:5.588959 10:-48.910454 
-0.8550476405671786 -0.6970186680658674 1 0.9525417900374995 0.8795512852923563 1:0.990035 2:-0.945643 3:0.118278 4:-0.302937 5:-46.63324 6:20.908264 7:-45.395409 8:-38.319305 9:4.156097 10:-51.143631 
-0.9466128669409081 -0.7721332397501248 1 1 0.9730824229564982 1:0.980417 2:-0.910219 3:-0.058179 4:-0.41002 5:-43.551697 6:13.638214 7:-51.995018 8:-32.645203 9:-0.323914 10:-57.619598 
-0.9462109186768287 -0.7720575569200027 1 1 0.9730189980407701 1:0.971483 2:-0.795837 3:-0.297551 4:-0.527358 5:-36.446655 6:5.112976 7:-60.832672 8:-23.837982 9:-6.171417 10:-63.997009 
-0.9423322061473517 -0.7689872783636327 1 1 0.9687994138671415 1:0.969348 2:-0.633147 3:-0.506543 4:-0.585268 5:-27.437805 6:-4.602631 7:-66.418228 8:-13.131226 9:-13.225403 10:-67.981819 
-0.856856528431896 -0.6986267822496884 1 0.9545141706990401 0.8813237880368173 1:0.973981 2:-0.473536 3:-0.655774 4:-0.587982 5:-21.003174 6:-11.341827 7:-68.197578 8:-6.840271 9:-15.992554 10:-69.04493 
-0.2127084450397754 -0.1744629476122327 0.3527222498768562 0.2368512851585944 0.2178796080312685 1:0.977175 2:-0.435125 3:-0.702513 4:-0.563153 5:-19.208069 6:-13.894684 7:-69.289955 8:-5.022369 9:-16.122498 10:-70.314262 
-0.7484737651055018 -0.6094779383377801 0.9788124919328012 0.8336988898156278 0.7701626549620262 1:0.981111 2:-0.459156 3:-0.697872 4:-0.549681 5:-18.719299 6:-14.806793 7:-70.256958 8:-4.646851 9:-16.523743 10:-71.111519 
-0.656690348375442 -0.5353601477222226 0.8872679490415296 0.7311513302678542 0.6752729932621473 1:0.961195 2:0.035399 3:-0.753863 4:-0.656077 5:-3.677368 6:-19.896851 7:-69.387383 8:8.79715 9:-23.916962 10:-72.699211 
-0.487251092351124 -0.3958586871438925 0.6546721123913004 0.5424488264185594 0.5000262739459779 1:0.961674 2:0.014548 3:-0.758141 4:-0.651929 5:-3.115265 6:-18.140564 7:-69.649162 8:6.490753 9:-22.852356 10:-74.977844 
-0.1597064647871083 -0.1320553506786213 0.2228274786393445 0.1779114685475386 0.1650064827896722 1:0.961269 2:0.000578 3:-0.755514 4:-0.655132 5:-3.698853 6:-18.084229 7:-69.62796 8:7.316559 9:-21.705139 10:-75.461685 
-0.6552310768622444 -0.5337257517377265 0.8868147294508831 0.7302940472386843 0.6735528525281237 1:0.961186 2:-0.012586 3:-0.752549 4:-0.658416 5:-6.25177 6:-19.63327 7:-70.291374 8:8.291382 9:-21.36734 10:-74.98748 
-0.7947223299567404 -0.6473050785984379 1 0.8857356879423546 0.8171528529449155 1:0.963211 2:-0.107915 3:-0.761595 4:-0.639005 5:-7.60083 6:-20.194305 7:-69.869194 8:3.632599 9:-24.542511 10:-72.994698 
-0.2131050286375702 -0.1748951575185806 0.3349027216470425 0.237162398769793 0.2191029287346838 1:0.961953 2:-0.092665 3:-0.763116 4:-0.639583 5:-6.05188 6:-20.18042 7:-69.993561 8:5.623383 9:-24.055115 10:-73.039566 
-0.8701763754169815 -0.7095639507595937 1 0.9690010028117728 0.894379501273178 1:0.957975 2:0.003764 3:-0.755659 4:-0.654954 5:1.385925 6:-19.934967 7:-69.873817 8:14.838806 9:-21.881836 10:-72.060341 
-0.9455910325704777 -0.7714217094019928 1 1 0.9720396617361543 1:0.953853 2:0.01743 3:-0.764677 4:-0.644177 5:8.506653 6:-19.428497 7:-68.340874 8:23.61322 9:-18.216003 10:-70.874084 
-0.9354229571885945 -0.7629906326921605 1 1 0.9618449787978537 1:0.949032 2:-0.123748 3:-0.756606 4:-0.642054 5:-12.770508 6:-20.690857 7:-66.229652 8:1.168365 9:-24.321289 10:-70.471855 
-0.946517033635379 -0.7719330131167795 1 1 0.9731269754151992 1:0.952993 2:-0.491198 3:-0.684143 4:-0.539142 5:-54.109497 6:-5.169769 7:-28.94519 8:-39.279785 9:-22.079742 10:-37.006973 
-0.8790146053653369 -0.7176110198991399 1 0.9795701898392578 0.9047494698496729 1:0.974662 2:-0.891617 3:-0.397272 4:-0.217239 5:-55.232239 6:0.305695 7:-28.331924 8:-46.948334 9:-17.173004 10:-36.43248 
-0.7695526092575401 -0.6276232630688428 1 0.8566185697754469 0.791010529297332 1:0.973057 2:-0.909645 3:-0.336403 4:-0.243679 5:-54.456451 6:-1.779755 7:-30.74353 8:-46.865326 9:-16.07843 10:-39.968155 
-0.6714148379617799 -0.5475614672923976 0.941235325823231 0.7476384536481872 0.6901541127740149 1:0.97186 2:-0.912498 3:-0.322262 4:-0.251981 5:-54.190552 6:-2.646027 7:-34.273407 8:-46.003082 9:-16.741211 10:-42.104851 
-0.8136256608240306 -0.6639362205370778 1 0.9062554421353242 0.8366462096978777 1:0.972103 2:-0.916505 3:-0.310993 4:-0.251599 5:-53.876526 6:-2.815765 7:-37.506821 8:-44.902344 9:-16.881653 10:-44.212807 
-0.9458837863646312 -0.7721711534245455 1 1 0.9730568237978432 1:0.970063 2:-0.861941 3:-0.414309 4:-0.292243 5:-51.405426 6:-6.451416 7:-42.94944 8:-40.163483 9:-18.293854 10:-50.052834 
-0.9332769037997236 -0.7611433968007784 1 1 0.959871542897529 1:0.966599 2:-0.680898 3:-0.625353 4:-0.381196 5:-44.167542 6:-13.597076 7:-52.10585 8:-31.298889 9:-21.298157 10:-56.821434 
-0.9465256256217562 -0.7717733951153694 1 1 0.9733794878037808 1:0.966738 2:-0.422225 3:-0.779108 4:-0.463375 5:-33.204346 6:-20.419495 7:-59.276024 8:-19.243469 9:-24.640411 10:-62.089607 
-0.9463717994494527 -0.7720143593252835 1 1 0.9730370067392324 1:0.971566 2:-0.179051 3:-0.852932 4:-0.490355 5:-22.996399 6:-25.265808 7:-63.021439 8:-8.646118 9:-25.538574 10:-65.320229 
-0.9458533262761513 -0.7714834117609092 1 1 0.9725820078686067 1:0.977373 2:-0.010986 3:-0.885538 4:-0.464437 5:-13.556885 6:-29.153992 7:-65.098198 8:0.583557 9:-25.781097 10:-67.44632 
-0.6679081736787682 -0.5451606736389345 0.9092398916699473 0.744745240039323 0.6867939809316599 1:0.980464 2:0.022981 3:-0.895901 4:-0.443658 5:-8.738922 6:-30.679657 7:-66.451759 8:6.504181 9:-23.931274 10:-70.646629 
-0.5168222589576276 -0.4218266831072515 0.7027153197174895 0.5751843971867194 0.5314491626781221 1:0.984196 2:0.039275 3:-0.912306 4:-0.407622 5:-7.388702 6:-31.520447 7:-67.313759 8:8.667114 9:-23.53476 10:-72.199844 
-0.6162496407380601 -0.5027072981283962 0.8391900115640805 0.6866318873786763 0.6338042526792453 1:0.988745 2:-0.251223 3:-0.896594 4:-0.364701 5:-5.855286 6:-31.977051 7:-67.007538 8:11.605316 9:-26.009369 10:-71.532936 
-0.2563875169415133 -0.209457690033269 0.3694608515965034 0.2850311813484654 0.2628748866212991 1:0.996012 2:-0.725002 3:-0.634685 4:-0.267483 5:-1.655426 6:-33.86441 7:-67.880821 8:15.072968 9:-29.437256 10:-71.785927 
-0.7606348015367684 -0.620459078337769 1 0.8476943279305929 0.7823780449774357 1:0.995932 2:-0.842634 3:-0.468628 4:-0.265248 5:-0.261139 6:-35.352722 7:-67.47834 8:15.518188 9:-30.792297 10:-71.650047 
-0.6985022083811808 -0.5693924833344524 0.9431450268989314 0.7776426666630574 0.7179032780892272 1:0.99159 2:-0.560516 3:-0.759613 4:-0.329864 5:-2.329193 6:-32.605255 7:-66.967506 8:13.684692 9:-27.640228 10:-70.816978 
-0.4256106156386841 -0.3472175878052299 0.5772557849029877 0.4730326388334792 0.4371717665263165 1:0.982346 2:-0.038771 3:-0.896368 4:-0.441612 5:-5.591156 6:-30.95993 7:-65.748123 8:9.554321 9:-25.598541 10:-68.830841 
-0.3091985195868415 -0.2518722688903391 0.4221304391702331 0.3444712580561349 0.3178582503535591 1:0.981501 2:0.086651 3:-0.885249 4:-0.456974 5:-5.825531 6:-30.793365 7:-66.232735 8:8.390228 9:-25.235992 10:-68.807999 
-0.9463537145793822 -0.7723108180873961 1 1 1 1:0.940987 2:-0.488499 3:0.449462 4:-0.747899 5:-8.667664 6:15.955933 7:-70.309341 8:-23.290985 9:3.161194 10:-70.031326 
-0.5584105378772911 -0.455937438835085 0.7596335204102955 0.622393366767895 0.574541080721078 1:0.941427 2:-0.482517 3:0.460533 4:-0.745042 5:-7.555359 6:14.349121 7:-70.462448 8:-16.788635 9:10.116882 10:-73.994949 
-0.60640345078194 -0.4943600975931702 0.8246005477333538 0.6757416816583394 0.6234692429221158 1:0.944089 2:-0.471033 3:0.500173 4:-0.726605 5:-7.170502 6:12.708069 7:-71.150719 8:-14.845856 9:12.489929 10:-74.511688 
-0.5868843764033629 -0.4785378413796884 0.7971636380695812 0.6528195816095983 0.602893226652035 1:0.947036 2:-0.451982 3:0.531194 4:-0.71662 5:-4.381226 6:15.440979 7:-71.650742 8:-14.403381 9:10.579346 10:-74.91851 
-0.2172652840426937 -0.177037890705973 0.2935010434691352 0.2427310525008854 0.2235396076561179 1:0.944731 2:-0.412556 3:0.558068 4:-0.71997 5:-4.681702 6:13.636414 7:-71.831833 8:-15.578705 9:10.420105 10:-73.262184 
-0.1769046949004348 -0.1445962772884796 0.2479085165192404 0.1965143648761867 0.1821975609831122 1:0.951496 2:-0.309678 3:0.679569 4:-0.665045 5:-5.236328 6:14.791382 7:-72.534409 8:-17.46048 9:11.733276 10:-73.678139 
-0.7728079182120073 -0.6299754540236707 1 0.860860373026289 0.7945529480641101 1:0.973414 2:0.132217 3:0.892503 4:-0.431227 5:-9.11554 6:15.445801 7:-75.732826 8:-22.27713 9:12.964539 10:-77.135864 
-0.8691578771005404 -0.7092901940767524 1 0.9676278289798244 0.8934709751614009 1:0.981868 2:0.379035 3:0.865301 4:-0.328005 5:-11.535339 6:17.484131 7:-76.803535 8:-24.759369 9:15.057007 10:-78.318924 
-0.7967407889940095 -0.6498293379692872 1 0.8867931027924248 0.8199403360349983 1:0.965339 2:-0.094066 3:0.839966 4:-0.534423 5:-6.602905 6:17.112976 7:-73.706291 8:-20.154449 9:14.105835 10:-75.393585 
-0.156454875490229 -0.1280141702928698 0.2147054332835838 0.1735660814334026 0.1599591115580519 1:0.952968 2:-0.374598 3:0.663038 4:-0.648118 5:-2.916046 6:17.41626 7:-72.101997 8:-16.524078 9:14.691956 10:-73.247543 
-0.6817825483103577 -0.5560868008258233 0.9260270358955411 0.7595579632170453 0.7014135564514766 1:0.948593 2:-0.321051 3:0.653591 4:-0.68538 5:-2.354706 6:17.608276 7:-71.375565 8:-15.49054 9:15.396179 10:-72.228424 
-0.4978861687969637 -0.4061560334667404 0.679543075270745 0.5557141682561831 0.5134748496428727 1:0.945204 2:-0.325236 3:0.638599 4:-0.697433 5:-4.57135 6:16.139282 7:-71.648376 8:-17.393311 9:13.767944 10:-71.825188 
-0.9443816014412972 -0.7700413327171933 1 1 0.9707677101494058 1:0.938273 2:-0.397336 3:0.566191 4:-0.722185 5:-15.231415 6:7.154907 7:-71.334892 8:-26.666412 9:1.96875 10:-70.282272 
-0.9465268405182008 -0.7720118309613999 1 1 0.9731004810768461 1:0.926949 2:-0.420286 3:0.525 4:-0.740091 5:-24.921509 6:-3.959167 7:-67.684372 8:-34.886078 9:-13.111511 10:-65.18087 
-0.9442625983907492 -0.7703541261453515 1 1 0.9708753302125676 1:0.919316 2:-0.348677 3:0.588747 4:-0.729247 5:-17.270203 6:3.550293 7:-70.347656 8:-28.537384 9:-4.250427 10:-70.263321 
-0.945986377412777 -0.7719183886217005 1 1 0.9730573401903316 1:0.926297 2:-0.238222 3:0.661306 4:-0.711284 5:37.398071 6:35.71637 7:-42.970917 8:18.66156 9:38.181274 10:-45.657532 
-0.9464979775562551 -0.7719742395251613 1 1 0.973171225326706 1:0.948344 2:0.142987 3:0.869317 4:-0.473119 5:63.355194 6:17.35321 7:-8.131195 8:45.481293 9:33.173218 10:-19.304443 
-0.7530173367316109 -0.6153219850573757 0.9958859935206638 0.839165309452208 0.7751093789646418 1:0.969086 2:0.599741 3:0.773195 4:-0.206107 5:61.634308 6:10.08667 7:-12.555176 8:49.566193 9:27.983521 10:-21.733109 
-0.2558480627926704 -0.207536997926541 0.4058982286099249 0.2844854417632097 0.2623955914584267 1:0.968191 2:0.655464 3:0.725501 4:-0.209798 5:61.424133 6:9.809753 7:-14.417679 8:49.49646 9:27.965454 10:-22.882156 
-0.8439227610487293 -0.6885290566077805 1 0.9400018307948367 0.8679793548938167 1:0.96334 2:0.564292 3:0.778308 4:-0.275337 5:61.273315 6:10.708679 7:-16.522232 8:48.501587 9:27.833679 10:-25.47229 
-0.9466675551988375 -0.7719124023050071 1 1 0.9730355860756293 1:0.960081 2:0.460326 3:0.831931 4:-0.309825 5:60.262146 6:13.987671 7:-24.520004 8:46.429749 9:28.289551 10:-32.701706 
-0.9455314377737561 -0.7713709008604022 1 1 0.9722835256925926 1:0.958669 2:0.408444 3:0.851051 4:-0.329978 5:56.789551 6:17.82312 7:-33.125977 8:42.667542 9:29.861145 10:-40.220657 
-0.9455645261285641 -0.7709777350943899 1 1 0.9720802163001894 1:0.95848 2:0.403547 3:0.850364 4:-0.337684 5:53.418488 6:21.424194 7:-36.73024 8:38.693146 9:32.494385 10:-43.480522 
-0.9462512098160795 -0.7721679301465232 1 1 0.9730405097186993 1:0.960093 2:0.418685 3:0.837631 4:-0.350822 5:48.684814 6:24.578796 7:-41.028366 8:34.384888 9:33.58728 10:-47.479408 
-0.9464009790545415 -0.7719133642744732 1 1 0.9730784806933267 1:0.960034 2:0.308156 3:0.850543 4:-0.426166 5:43.289856 6:26.735657 7:-47.312294 8:28.223419 9:32.883484 10:-53.143875 
-0.946718318629817 -0.7722182074505464 1 1 0.9730090657572354 1:0.959552 2:0.056419 3:0.87186 4:-0.486494 5:35.829041 6:31.114807 7:-53.654968 8:19.283173 9:33.501587 10:-59.18335 
-0.9464778040467695 -0.7715317491179117 1 1 0.9731154726292602 1:0.95876 2:-0.176403 3:0.82702 4:-0.533778 5:24.329315 6:34.797852 7:-59.126099 8:7.048737 9:32.839111 10:-64.245636 
-0.9464086393447818 -0.7717213403033221 1 1 0.9726628276049398 1:0.958569 2:-0.370755 3:0.729392 4:-0.574916 5:11.49942 6:34.270264 7:-64.42128 8:-4.803223 9:28.207153 10:-68.307472 
-0.9463647706883217 -0.7719902391105461 1 1 0.9730606222024262 1:0.955846 2:-0.469232 3:0.630531 4:-0.618266 5:0.12442 6:27.682617 7:-68.728821 8:-13.93103 9:19.322998 10:-70.354942 
-0.7643409649579378 -0.6228946830795707 1 0.8510680823100232 0.7853015621245225 1:0.954262 2:-0.500559 3:0.569058 4:-0.65239 5:-5.26712 6:23.116394 7:-70.080254 8:-17.63858 9:13.335449 10:-71.042168 
-0.4437923682364859 -0.3625699178414488 0.6211147460044385 0.4946657660861255 0.4574385653195369 1:0.955905 2:-0.514941 3:0.558672 4:-0.650169 5:-7.644348 6:22.782349 7:-70.695313 8:-18.857971 9:12.290161 10:-72.252571 
-0.2775756697045874 -0.2258447986199891 0.3708544146246661 0.3089698335249861 0.2846230837663811 1:0.957343 2:-0.52558 3:0.543666 4:-0.654364 5:-9.618469 6:20.922302 7:-71.011894 8:-18.886902 9:11.59436 10:-73.307533 
-0.6840414383559795 -0.5583731665051096 0.9321439734009364 0.7614772393714623 0.7034304045851438 1:0.959545 2:-0.512766 3:0.566981 4:-0.644673 5:-11.404755 6:20.939819 7:-70.671066 8:-19.095917 9:12.482239 10:-73.079163 
-0.9285496983988103 -0.7571004071176641 1 1 0.9547515332767182 1:0.935717 2:-0.410495 3:-0.528288 4:-0.74324 5:-17.445984 6:-10.781616 7:-69.154793 8:-7.241211 9:-23.889343 10:-66.274734 
-0.4926282202770654 -0.4019362440729674 0.6767807626318878 0.5495900507850731 0.506224587550111 1:0.936374 2:-0.439079 3:-0.507991 4:-0.741049 5:-14.595001 6:-9.985901 7:-69.57164 8:-11.132935 9:-21.026245 10:-69.75325 
-0.4930131918022891 -0.402364181566897 0.6701254845853912 0.5488022320118422 0.5071832145826458 1:0.938479 2:-0.479713 3:-0.48623 4:-0.730381 5:-14.479034 6:-8.903442 7:-69.805756 8:-10.360901 9:-21.62085 10:-71.389854 
-0.3156542943943844 -0.2576200714667244 0.4287518128135221 0.3520614645309066 0.3249592428946708 1:0.938553 2:-0.512017 3:-0.445359 4:-0.734503 5:-16.821533 6:-7.782104 7:-68.494286 8:-11.339142 9:-20.237915 10:-71.453178 
-0.6311129794820889 -0.5149758312121485 0.8637157224917975 0.7041544117849428 0.6496029234689882 1:0.938711 2:-0.531683 3:-0.424835 4:-0.732686 5:-17.396515 6:-7.248535 7:-68.10894 8:-13.271912 9:-18.291565 10:-71.050148 
-0.1315792815195932 -0.107440705988288 0.1796762631023565 0.1449982160377997 0.1345968193505981 1:0.939258 2:-0.5446 3:-0.419984 4:-0.725964 5:-16.533691 6:-8.395325 7:-68.163094 8:-13.294922 9:-18.871643 10:-70.764709 
-0.9331337789519166 -0.7611745928520527 1 1 0.9595713997676252 1:0.936559 2:-0.522262 3:-0.451222 4:-0.72363 5:-12.171478 6:-13.38623 7:-68.768158 8:-6.731262 9:-24.006714 10:-70.780373 
-0.8883712922756439 -0.7243996174455287 1 0.988853102655284 0.9131083310550209 1:0.933972 2:-0.507225 3:-0.476435 4:-0.718145 5:-4.178345 6:-19.567688 7:-68.667877 8:4.227722 9:-30.5177 10:-69.173241 
-0.8901635220582065 -0.7263667226305157 1 0.9911722799365561 0.9151276483442288 1:0.929042 2:-0.515199 3:-0.507561 4:-0.690617 5:-1.4328 6:-21.950684 7:-67.929489 8:7.691406 9:-31.817383 10:-68.81839 
-0.9061688687286313 -0.7388953141022933 1 1 0.9314217388710994 1:0.926985 2:-0.594477 3:-0.388249 4:-0.704173 5:-22.861511 6:1.259003 7:-64.758118 8:-19.965027 9:-9.768524 10:-67.167244 
-0.9460833336285281 -0.7718956340180074 1 1 0.9731231799788983 1:0.941157 2:-0.768083 3:-0.168067 4:-0.617901 5:-30.126343 6:52.702789 7:-29.523819 8:-38.129822 9:33.000885 10:-30.660492 
-0.9272990457293375 -0.7563372626734216 1 1 0.9535721201747166 1:0.969135 2:-0.914707 3:0.333794 4:-0.2278 5:-19.051758 6:55.312988 7:-27.42157 8:-30.900238 9:43.12207 10:-32.27092 
-0.6013687639485362 -0.4907519272286937 0.8261357024225559 0.6706274559458401 0.61790932545451 1:0.971173 2:-0.827434 3:0.535682 4:-0.168517 5:-17.076874 6:53.144958 7:-29.045212 8:-29.080536 9:44.513885 10:-36.668533 
-0.6440448821022045 -0.5255824021004512 0.8735747267933121 0.7174876470024883 0.6630206267581102 1:0.966262 2:-0.829554 3:0.511824 4:-0.223327 5:-16.958649 6:52.098877 7:-31.286331 8:-29.448517 9:43.779327 10:-37.120209 
-0.9464530169344046 -0.7718679414533864 1 1 0.9728284834475425 1:0.965984 2:-0.847377 3:0.465285 4:-0.255856 5:-20.265869 6:49.060547 7:-36.698898 8:-31.255859 9:40.039795 10:-41.144493 
-0.9463645844412952 -0.7718764541786858 1 1 0.9730842569113635 1:0.969082 2:-0.852734 3:0.436484 4:-0.286926 5:-26.804047 6:40.570313 7:-45.086075 8:-33.746216 9:30.385895 10:-48.670837 
-0.9461037318028057 -0.7718879451470224 1 1 0.9736171055083511 1:0.963798 2:-0.891528 3:0.242955 4:-0.382297 5:-31.082428 6:30.141541 7:-52.687347 8:-34.870819 9:18.061554 10:-55.388229 
-0.9464574318415272 -0.7718741881541414 1 1 0.9730494405995463 1:0.961495 2:-0.89316 3:-0.10181 4:-0.438064 5:-34.053131 6:20.88327 7:-57.954048 8:-33.241882 9:7.600159 10:-61.106651 
-0.8999958120974079 -0.7340949865910964 1 1 0.9258439646681017 1:0.969703 2:-0.893433 3:-0.181451 4:-0.410916 5:-35.98349 6:12.799194 7:-60.138786 8:-32.917053 9:-0.056793 10:-63.34182 
-0.6437621650567001 -0.5254480835625424 0.8903237758127391 0.7177571390948493 0.6622655934586701 1:0.982166 2:-0.942202 3:0.147411 4:-0.300872 5:-35.795654 6:9.941803 7:-62.479897 8:-34.075867 9:-3.320862 10:-64.529007 
-0.6514150370460555 -0.5313827426789581 0.8970838023114457 0.7252679712806859 0.6696231828517439 1:0.991486 2:-0.919275 3:0.324811 4:-0.222332 5:-37.325775 6:9.20871 7:-64.31501 8:-35.226257 9:-4.282593 10:-65.940956 
-0.8843616399118951 -0.721437987461943 1 0.9850211235368 0.9092359887072468 1:0.988862 2:-0.920669 3:0.296659 4:-0.253697 5:-35.177032 6:6.052551 7:-65.912315 8:-32.901001 9:-5.60495 10:-67.071999 
-0.9460550262421105 -0.771708205217249 1 1 0.9727879787910897 1:0.970776 2:-0.877389 3:-0.129526 4:-0.461964 5:-29.761902 6:2.70993 7:-66.174362 8:-26.2771 9:-7.435516 10:-67.015953 
-0.9015971308627947 -0.7352178563532474 1 1 0.9274323472489723 1:0.95239 2:-0.591284 3:-0.499517 4:-0.63314 5:-25.100403 6:-2.606201 7:-66.445923 8:-19.499939 9:-12.403015 10:-66.109795 
-0.8210682050865663 -0.669736673878045 1 0.9142721077753566 0.844375589665987 1:0.951302 2:-0.469349 3:-0.605341 4:-0.642864 5:-21.027466 6:-9.73053 7:-67.138977 8:-13.080811 9:-18.249512 10:-67.711487 
-0.8431950505686809 -0.6878909129192624 1 0.9393223826260931 0.866976972045885 1:0.954628 2:-0.475885 3:-0.629221 4:-0.614503 5:-19.977417 6:-13.143829 7:-67.0373 8:-11.493347 9:-20.83963 10:-68.845833 
-0.6227599436574903 -0.5483193798485252 -0.7078990846308956 0.7696478875626384 0.7032448042557103 1:0.738133 2:0.933617 3:0.131702 4:-0.333186 5:44.969177 6:-3.77594 7:-33.032333 8:38.383728 9:17.878479 10:-30.536568 
-0.5089709403246621 -0.4481135772164614 -0.5780980994273627 0.6280125766255558 0.5740682310203529 1:0.737042 2:0.925372 3:0.139203 4:-0.352576 5:47.616577 6:-2.205688 7:-35.948242 8:42.68457 9:17.127808 10:-33.930771 
-0.1611080597064763 -0.1408103727548825 -0.1824387406238873 0.1977058124581911 0.1817964246837586 1:0.737977 2:0.927564 3:0.138682 4:-0.346975 5:48.876343 6:-1.249573 7:-38.033157 8:44.655212 9:16.32312 10:-36.376427 
-0.1678525537235376 -0.148426560513624 -0.1906532119156256 0.2095643358405854 0.1901810638446133 1:0.737904 2:0.925127 3:0.142315 4:-0.351976 5:49.366089 6:-0.889038 7:-39.100487 8:46.400818 9:15.848816 10:-36.441757 
-0.4013823441143453 -0.3533153222247149 -0.4563234418095802 0.4955344822449002 0.4538972442708143 1:0.736875 2:0.918437 3:0.146068 4:-0.367612 5:48.881531 6:0.536621 7:-35.465767 8:46.97113 9:15.939331 10:-37.877106 
-0.1402359954022593 -0.1244884170107868 -0.161403336205067 0.1722944020708434 0.1584646936471589 1:0.736328 2:0.913931 3:0.150341 4:-0.376998 5:49.381531 6:0.562561 7:-38.13588 8:47.335449 9:15.707458 10:-36.46096 
-0.005791971153623324 -0.001469043629850851 -0.003007325001503263 0.007552647676407962 0.003128241800662837 1:0.736307 2:0.915287 3:0.144833 4:-0.375863 5:50.485168 6:-0.005676 7:-37.495796 8:48.009766 9:14.092102 10:-37.5737 
-0.08548892811986532 -0.07673260471420806 -0.09768770913893152 0.1047739587855159 0.09850674863464381 1:0.73647 2:0.916548 3:0.14416 4:-0.373038 5:50.840454 6:-0.499634 7:-37.626228 8:48.685181 9:13.590759 10:-36.98497 
-0.05995899083309512 -0.05541889787744033 -0.07105752801551989 0.07516774903370396 0.06921993014692221 1:0.736703 2:0.917967 3:0.140075 4:-0.371101 5:51.269226 6:-1.126587 7:-36.923599 8:48.699402 9:13.033691 10:-37.994446 
-0.07344295259339595 -0.07271221611819161 -0.09843255430608194 0.09640855573918884 0.08135590490138772 1:0.737343 2:0.920329 3:0.143185 4:-0.363994 5:52.567078 6:-5.832153 7:-38.39196 8:49.211792 9:10.786804 10:-37.125854 
-0.052423706687968 -0.03766935827756851 -0.04496311150391422 0.05889473511248187 0.0603744365558013 1:0.73774 2:0.921457 3:0.147129 4:-0.359541 5:52.443298 6:-5.722961 7:-38.423523 8:48.886353 9:11.225769 10:-37.610039 
-0.1197531888910686 -0.1055907018194017 -0.1360917570040179 0.1480690406796526 0.1351893038004883 1:0.736746 2:0.898446 3:0.226707 4:-0.376031 5:51.674866 6:-1.337341 7:-37.710999 8:47.002808 9:19.516479 10:-37.348038 
-0.2977274745336564 -0.2622849899008537 -0.3382678915213337 0.3675932956478469 0.3363649474368088 1:0.73579 2:0.863131 3:0.323687 4:-0.387597 5:51.326416 6:-1.649414 7:-38.178154 8:42.673401 9:30.811218 10:-36.182175 
-0.4947704503166471 -0.4352887761063152 -0.5624479885094937 0.6115678299652275 0.5590450028091385 1:0.735196 2:0.831372 3:0.392824 4:-0.393078 5:51.395264 6:-2.244385 7:-38.686714 8:37.819702 9:42.493408 10:-36.420227 
-0.2259742706107529 -0.1983191127783796 -0.2570950768382524 0.2785380978662759 0.2560380061987873 1:0.735355 2:0.828819 3:0.399397 4:-0.391842 5:51.125671 6:-1.855286 7:-38.888405 8:34.794495 9:47.957703 10:-37.825066 
-0.1393639523868605 -0.123206557555004 -0.1585808047838189 0.1726081774757341 0.1561080284242719 1:0.736354 2:0.843706 3:0.38025 4:-0.378906 5:50.893555 6:-1.979065 7:-39.360306 8:34.182739 9:49.089355 10:-37.527351 
-0.1814620982620885 -0.1607372719435075 -0.2076947503439135 0.2257217329087237 0.2063525486687871 1:0.738884 2:0.881608 3:0.320338 4:-0.346628 5:50.344849 6:-1.296875 7:-39.734695 8:38.856201 9:46.845825 10:-37.621628 
-0.1526725177446126 -0.1333274706287749 -0.1734614682876078 0.1881285527634164 0.1719620598538268 1:0.740952 2:0.901702 3:0.284703 4:-0.325389 5:49.304993 6:-1.058655 7:-40.406944 8:42.076599 9:46.905212 10:-36.964394 
-0.3842617629459893 -0.338028321440465 -0.436777049276544 0.4748069401948012 0.4338396402849287 1:0.742448 2:0.921808 3:0.237321 4:-0.306511 5:48.170471 6:-1.216919 7:-40.419884 8:44.26239 9:49.422119 10:-36.571281 
-0.2849889786567713 -0.2500246860306833 -0.3236581006479567 0.3513512464859483 0.3213759510545569 1:0.741173 2:0.914774 3:0.244887 4:-0.321278 5:47.080444 6:-1.799866 7:-39.255257 8:42.974304 9:54.916016 10:-36.85553 
-0.2431548717864457 -0.2141918740543454 -0.2763015123773766 0.3000966534485341 0.2746427353440437 1:0.7384 2:0.895245 3:0.27298 4:-0.352163 5:46.388123 6:-2.106018 7:-39.005142 8:39.079712 9:58.422913 10:-36.625679 
-0.06387927251238572 -0.05616924065390383 -0.07240663567787588 0.07860388162801447 0.07132793636966321 1:0.737886 2:0.895577 3:0.266095 4:-0.356559 5:46.442749 6:-1.937988 7:-39.226059 8:36.912781 9:57.91095 10:-36.161713 
-0.1901459440295004 -0.167690348332726 -0.21694186602261 0.2354204594792124 0.2157397166200409 1:0.738386 2:0.902307 3:0.253973 4:-0.348339 5:46.939697 6:-1.24823 7:-39.221275 8:37.016174 9:54.467224 10:-35.718559 
-0.2738690440957221 -0.2408777643748206 -0.3118224898061498 0.3387205744648431 0.3095171675469708 1:0.73863 2:0.905838 3:0.247416 4:-0.343865 5:47.260986 6:-0.624512 7:-39.152679 8:37.876831 9:49.74353 10:-36.372093 
-0.08646538596009119 -0.07559339270902894 -0.09718653126335784 0.1059674833156958 0.09661871417605718 1:0.737968 2:0.887211 3:0.295699 4:-0.354146 5:47.647034 6:-0.888367 7:-38.798958 8:37.399414 9:45.980652 10:-36.759666 
-0.282008778555311 -0.2514491322888643 -0.3272070344839277 0.3540903526101549 0.3244812159138606 1:0.738123 2:0.882758 3:0.309823 4:-0.353197 5:48.017883 6:-1.136902 7:-38.916763 8:34.737122 9:45.124939 10:-37.107948 
-0.145618800286447 -0.1279932914954379 -0.1674897358855965 0.1798755060462081 0.1661861846684831 1:0.737039 2:0.864962 3:0.342462 4:-0.366826 5:48.166382 6:-1.394836 7:-38.811157 8:31.277893 9:49.001892 10:-37.677284 
-0.09566643647268745 -0.0814563472362729 -0.1026358666149223 0.1126863757610746 0.1022753106735545 1:0.739196 2:0.862517 3:0.371788 4:-0.343275 5:48.67804 6:-1.488098 7:-38.979424 8:34.990356 9:44.75238 10:-37.392769 
-0.1634655142762905 -0.1437967313565374 -0.1836884600272735 0.2012349003037149 0.1827259160577315 1:0.739849 2:0.876587 3:0.346474 4:-0.333992 5:48.690857 6:-1.045471 7:-39.155876 8:31.852722 9:47.78418 10:-37.868332 
-0.5108095059282964 -0.4493744231045231 -0.5803080346914048 0.6312588739866987 0.5763954779196652 1:0.74051 2:0.883866 3:0.336669 4:-0.324706 5:48.712036 6:-0.599915 7:-39.133095 8:30.218262 9:53.842285 10:-38.5103 
-0.3175507390626159 -0.2790953299152731 -0.3607170445454609 0.391842056018965 0.3586404478570602 1:0.740759 2:0.881573 3:0.342567 4:-0.324771 5:48.569153 6:-0.659851 7:-39.242645 8:30.886414 9:58.777222 10:-38.537247 
-0.3577377617503759 -0.3148930769684486 -0.406649787703333 0.4419347708535432 0.403993617432969 1:0.740106 2:0.871579 3:0.360119 4:-0.332662 5:48.474304 6:-0.890869 7:-39.35215 8:33.710205 9:59.295776 10:-38.60601 
-0.2877489121809566 -0.2526367359918744 -0.3265468587775702 0.3552749907938701 0.3244385175428574 1:0.739727 2:0.86327 3:0.374351 4:-0.338564 5:48.471436 6:-1.368103 7:-39.238258 8:37.006775 9:56.366394 10:-37.985535 
-0.2335304166009038 -0.205828787420365 -0.2652960269476146 0.2888399870283337 0.2640549658817655 1:0.739893 2:0.863739 3:0.374679 4:-0.337002 5:48.549011 6:-1.502869 7:-39.381699 8:39.203003 9:52.410156 10:-37.397995 
-0.06417875367040823 -0.05561406043017736 -0.07189105308550114 0.07778001270178422 0.0709542768564923 1:0.740305 2:0.868779 3:0.366716 4:-0.332779 5:48.657959 6:-1.090759 7:-39.19635 8:40.180298 9:48.846008 10:-37.452103 
-0.2865702137668601 -0.2525376282840041 -0.3258041335639472 0.3540961893766217 0.3235727976829167 1:0.740779 2:0.889539 3:0.320755 4:-0.325325 5:49.095215 6:-0.688293 7:-39.221542 8:40.65625 9:44.935486 10:-37.104332 
-0.4575903355286222 -0.4021690346110583 -0.5196274975530938 0.5652076841479556 0.5153561777356638 1:0.741745 2:0.915396 3:0.254676 4:-0.311755 5:49.436646 6:-0.351257 7:-39.480965 8:43.24176 9:34.079712 10:-35.179253 
-0.360561296304576 -0.3174487056821315 -0.409804763392063 0.4453241498061844 0.4073554135114819 1:0.744191 2:0.941238 3:0.186081 4:-0.28186 5:50.141602 6:-0.460144 7:-38.971054 8:46.3573 9:21.723328 10:-35.596642 
-0.01118406444889192 -0.008982824148434702 -0.01275128044378645 0.01281231739481796 0.01252841864359578 1:0.74717 2:0.956431 3:0.158016 4:-0.245501 5:50.554443 6:-1.43158 7:-39.27475 8:48.217529 9:16.477661 10:-37.335701 
-0.1688435774105999 -0.1463496994307233 -0.1917101920797102 0.2080189532380906 0.1897463747662504 1:0.750155 2:0.968583 3:0.146581 4:-0.2009 5:51.331177 6:-1.586853 7:-39.686935 8:49.710144 9:12.003784 10:-37.180588 
-0.3786120078299586 -0.3327221092553402 -0.4290704663646629 0.4677220061144457 0.4272600223834783 1:0.750536 2:0.969086 3:0.152031 4:-0.194315 5:52.085022 6:-2.431763 7:-36.555061 8:49.513184 9:10.802185 10:-39.751785 
-0.300146348658365 -0.2662533058047506 -0.3409449544349951 0.3716915319635067 0.3392273734499136 1:0.750925 2:0.973475 3:0.130437 4:-0.187972 5:51.968018 6:-3.287659 7:-39.854065 8:49.783325 9:10.034363 10:-37.152069 
-0.07469128750073929 -0.06366662740261288 -0.08376791180032359 0.09130729637394881 0.08441840656389483 1:0.748531 2:0.966301 3:0.131872 4:-0.22107 5:52.625427 6:-4.651123 7:-38.361275 8:50.351807 9:8.864746 10:-37.967087 
-0.1711230994744611 -0.151937253015806 -0.1948030197051928 0.21181935128794 0.1946458151461977 1:0.746543 2:0.957788 3:0.142607 4:-0.249611 5:52.812622 6:-7.859741 7:-38.844383 8:50.283569 9:7.025818 10:-37.877747 
-0.1906578906471388 -0.1683299657300491 -0.217690647212172 0.2370004467043519 0.2162976000325164 1:0.744839 2:0.950456 3:0.148773 4:-0.272946 5:53.754333 6:-13.312988 7:-38.907738 8:49.857361 9:4.013306 10:-38.018204 
-0.2987654415201503 -0.2670808340697715 -0.3394688310060165 0.3688500375767199 0.3370545720034283 1:0.744399 2:0.94477 3:0.171982 4:-0.278983 5:52.899353 6:-11.445374 7:-36.911407 8:49.946289 9:5.129761 10:-40.029945 
-0.1116969370123289 -0.09718693456213798 -0.1259837187975187 0.1369870586459286 0.1253549718930358 1:0.745088 2:0.947803 3:0.165629 4:-0.272463 5:52.948425 6:-10.340149 7:-38.532906 8:49.918762 9:6.770081 10:-37.71769 
-0.1377533590272355 -0.1216075527548658 -0.1582548139160475 0.1723984873940256 0.1567701128492814 1:0.744791 2:0.936936 3:0.212651 4:-0.277363 5:50.067749 6:3.952454 7:-38.353951 8:49.636047 9:19.742981 10:-39.351494 
-0.4104309689694696 -0.3610013443966166 -0.4656574120197062 0.5069404380983462 0.46363298379143 1:0.745283 2:0.936739 3:0.219648 4:-0.272534 5:50.274902 6:5.636047 7:-39.258102 8:49.58783 9:21.204224 10:-38.459877 
-0.3475613432910137 -0.3054508924548153 -0.3937924508590901 0.4272936979681738 0.3909798413819185 1:0.745757 2:0.936707 3:0.228443 4:-0.265318 5:50.316528 6:4.595337 7:-36.763779 8:49.542114 9:20.254639 10:-39.494087 
-0.4324101475129595 -0.3809282623807002 -0.4911451655678373 0.5338897917884786 0.4878674311546086 1:0.746288 2:0.944756 3:0.201881 4:-0.258224 5:51.950317 6:-0.160767 7:-39.124092 8:50.857605 9:15.480835 10:-38.143318 
-0.1164821200228129 -0.1031572259995752 -0.1337177793333413 0.1434891712400385 0.1314618938327797 1:0.746416 2:0.949146 3:0.183751 4:-0.255652 5:51.810547 6:-3.777771 7:-37.763832 8:51.314758 9:11.625793 10:-39.679436 
-0.2365086437932375 -0.2077082423825118 -0.2686291298754886 0.291747355429432 0.2661405756349894 1:0.746156 2:0.953733 3:0.152913 4:-0.258863 5:52.289673 6:-7.750549 7:-38.541656 8:52.045654 9:6.622742 10:-38.223618 
-0.1328910574832396 -0.1152635234037423 -0.151600062961132 0.1643563493415185 0.1507395344478626 1:0.746221 2:0.955398 3:0.142475 4:-0.258679 5:52.486938 6:-10.428345 7:-37.18766 8:52.296204 9:4.209778 10:-39.223907 
-0.2529201418354526 -0.2229605415390723 -0.2869243363231719 0.3120027018239624 0.2848442456971729 1:0.746167 2:0.954888 3:0.140618 4:-0.261565 5:52.42395 6:-11.312927 7:-38.948433 8:52.448853 9:3.565735 10:-38.653625 
-0.360259172294467 -0.3178516375616116 -0.4099390159676154 0.4457547869947551 0.4070593351364611 1:0.745304 2:0.950075 3:0.166231 4:-0.264054 5:51.519104 6:-5.337097 7:-39.119522 8:49.997803 9:14.364929 10:-37.979248 
-0.4411462750051121 -0.3877751745268241 -0.5019477751084315 0.5454792781523559 0.4986168644804368 1:0.746021 2:0.945279 3:0.196156 4:-0.26071 5:52.697205 6:-7.599487 7:-40.260582 8:48.472961 9:20.356079 10:-39.347626 
-0.4216638487591345 -0.3714530847455417 -0.4792980721598031 0.5208229915231172 0.4758011547829246 1:0.745053 2:0.941807 3:0.198524 4:-0.271269 5:52.481567 6:-8.770996 7:-39.234589 8:48.12439 9:23.77832 10:-37.629623 
-0.5121644561165717 -0.4509843794753595 -0.5826513134382268 0.6333574279980851 0.5787582020401612 1:0.745175 2:0.940254 3:0.207067 4:-0.270269 5:52.553711 6:-9.219543 7:-37.380463 8:47.522156 9:26.960815 10:-39.181595 
-0.5845584566408419 -0.5140635936092632 -0.6643150607708821 0.7216764481372027 0.6599864850628829 1:0.745267 2:0.935233 3:0.226995 4:-0.271684 5:52.137512 6:-9.916626 7:-39.572617 8:46.982361 9:32.110779 10:-38.14138 
-0.5829098722964826 -0.5127962457209218 -0.6627678381086994 0.7199878667833153 0.6584132985225475 1:0.743884 2:0.918611 3:0.269787 4:-0.288736 5:51.839844 6:-9.592957 7:-38.652206 8:44.30542 9:44.693726 10:-36.862518 
-0.50742704999413 -0.4467108322459262 -0.5772550260879904 0.6271025854770518 0.5726087508793881 1:0.744605 2:0.925736 3:0.253414 4:-0.280703 5:51.748291 6:-8.846313 7:-38.787811 8:41.130188 9:50.627258 10:-38.703094 
-0.4288866021939565 -0.3774190843605159 -0.4880387944544644 0.5299771368766113 0.4835005276485185 1:0.744536 2:0.931007 3:0.232449 4:-0.281412 5:51.312561 6:-7.747253 7:-39.460381 8:40.943054 9:54.045349 10:-36.841766 
-0.08400795565370874 -0.07364742007548092 -0.09438234022062764 0.1032058186638945 0.09518851157642455 1:0.744979 2:0.931731 3:0.236348 4:-0.275713 5:51.591797 6:-6.898315 7:-39.169006 8:40.819214 9:52.909912 10:-37.809044 
-0.5266195477452666 -0.4633419961568822 -0.5984469730418355 0.6505193356362208 0.5946901428019922 1:0.746669 2:0.945417 3:0.204394 4:-0.253792 5:52.736084 6:-5.590027 7:-38.935211 8:41.605286 9:43.68811 10:-36.076042 
-0.5119002917832319 -0.4502486841451925 -0.5814818262507007 0.6322395067096809 0.5780974754096717 1:0.750234 2:0.965305 3:0.166574 4:-0.201095 5:53.731628 6:-4.124817 7:-39.079872 8:41.188477 9:30.473267 10:-35.73246 
-0.620088971752181 -0.5455900255051025 -0.704656300649806 0.7660420046019749 0.7001035774250753 1:0.751944 2:0.97383 3:0.15762 4:-0.163743 5:53.37323 6:-2.777954 7:-39.647087 8:39.809326 9:23.30304 10:-36.751984 
-0.5165322173279451 -0.4542711165842006 -0.5867822940930791 0.6378284209100573 0.5829187898941446 1:0.735618 2:0.911372 3:0.160865 4:-0.378846 5:48.60321 6:-6.206177 7:-35.718384 8:43.279541 9:13.248962 10:-34.098244 
-0.1164465091944395 -0.1024081737637221 -0.1333137467268275 0.1448660819877296 0.1325156835517336 1:0.733096 2:0.903262 3:0.139987 4:-0.405612 5:49.397644 6:-8.327209 7:-34.821762 8:46.269409 9:11.645691 10:-36.389557 
-0.198488240900407 -0.1756808663775904 -0.2254828822543224 0.2450271600523487 0.224641188081873 1:0.732776 2:0.902575 3:0.137587 4:-0.407956 5:51.257324 6:-11.790894 7:-35.528152 8:47.567444 9:10.011292 10:-33.804451 
-0.2705434720836882 -0.2380523738855895 -0.3072062067911314 0.3339559564708838 0.3047481823731504 1:0.732838 2:0.901073 3:0.149351 4:-0.407139 5:50.4552 6:-10.556213 7:-33.190727 8:47.967102 9:9.227417 10:-36.30986 
-0.3762077640035036 -0.3313577114005121 -0.4272018642073943 0.4642427413654828 0.4244014623743374 1:0.732964 2:0.888587 3:0.191556 4:-0.416798 5:49.947327 6:-6.705627 7:-33.751427 8:47.242554 9:14.77832 10:-37.320251 
-0.2963352628686042 -0.2608332881695824 -0.336741568821698 0.3663099594314983 0.3345536171239819 1:0.732694 2:0.887187 3:0.189257 4:-0.420811 5:50.192444 6:-6.197083 7:-36.521797 8:47.165649 9:18.033386 10:-33.005913 
-0.4824921091949623 -0.4250505986351217 -0.5490710169558096 0.5967186172889369 0.5458111454289869 1:0.733053 2:0.881161 3:0.221705 4:-0.417614 5:47.101257 6:-0.661865 7:-32.790604 8:46.551514 9:21.581116 10:-38.401207 
-0.2812662928304958 -0.2470164666494263 -0.3197368979407071 0.3478516987633961 0.3177022008078463 1:0.733016 2:0.879475 3:0.223876 4:-0.420003 5:49.941101 6:-1.937317 7:-36.624046 8:46.244995 9:23.028503 10:-34.344994 
-0.3274384691670504 -0.2869079984880027 -0.3711091415166817 0.4032938703835422 0.3683347183436475 1:0.733566 2:0.86877 3:0.267015 4:-0.417063 5:47.878845 6:0.793884 7:-33.525963 8:45.535522 9:24.745239 10:-38.859047 
-0.1774088204686326 -0.1561353015438225 -0.2007723235301379 0.2183549904694286 0.199542850734987 1:0.733579 2:0.861379 3:0.287296 4:-0.418913 5:49.595886 6:-1.49762 7:-37.322891 8:45.512024 9:26.282288 10:-35.209724 
-0.1836752467426408 -0.1626086668895499 -0.2100264824210909 0.2284149755801549 0.2093483654977187 1:0.734197 2:0.871404 3:0.266856 4:-0.411635 5:48.662292 6:-0.497559 7:-34.813263 8:45.165039 9:27.301392 10:-38.005905 
-0.384838723355202 -0.3385311944072649 -0.4371786711109066 0.4749746688176744 0.4342414990594927 1:0.734509 2:0.881662 3:0.235561 4:-0.408881 5:50.422668 6:-5.306091 7:-34.081795 8:46.312927 9:20.043457 10:-36.56678 
-0.4579120442888278 -0.4027342406464082 -0.5204682356007975 0.5656919553731048 0.5169943098519379 1:0.734119 2:0.881782 3:0.230728 4:-0.411368 5:52.602539 6:-12.780823 7:-34.956551 8:47.883972 9:14.055908 10:-35.574318 
-0.3691402395005249 -0.3231599059770356 -0.4190798154101988 0.4554020871864969 0.4160586965585428 1:0.735106 2:0.881847 3:0.244859 4:-0.402977 5:51.480713 6:-14.341614 7:-35.036491 8:49.116638 9:8.179932 10:-37.712143 
-0.5147999700400513 -0.451545835264463 -0.5850419148218943 0.6362619373693161 0.5811270336565095 1:0.734657 2:0.876677 3:0.257529 4:-0.406345 5:51.02301 6:-14.972473 7:-38.767799 8:49.468384 9:10.222656 10:-35.029793 
-0.3536167420252551 -0.3108018457174924 -0.4023381644564039 0.436980468909748 0.399290794801258 1:0.733819 2:0.843718 3:0.340758 4:-0.414757 5:47.924438 6:-3.450867 7:-34.122337 8:46.957825 9:17.342834 10:-35.194275 
-0.5092244750493894 -0.4476562753978142 -0.5780230766884079 0.629069163519333 0.5749072797175465 1:0.733779 2:0.822029 3:0.386192 4:-0.418478 5:49.639832 6:-2.56897 7:-36.075142 8:42.228455 9:34.887207 10:-32.726227 
-0.382186494002275 -0.3367502582894111 -0.4339585544285013 0.4718941383903625 0.4313720042558097 1:0.733392 2:0.820393 3:0.39197 4:-0.416311 5:49.284119 6:-3.053833 7:-36.322258 8:36.068665 9:48.820435 10:-33.743271 
-0.01119420041086989 -0.007981900753741087 -0.01325716317026124 0.01378770503669352 0.01309270111709747 1:0.735116 2:0.822931 3:0.406438 4:-0.39698 5:49.723694 6:-4.020996 7:-36.762253 8:35.201782 9:50.442566 10:-34.749481 
-0.1067744068738404 -0.09634365110248307 -0.1217502455324044 0.1321912358057392 0.120230094846798 1:0.736757 2:0.833681 3:0.398474 4:-0.382355 5:49.322449 6:-5.051941 7:-37.317635 8:36.54303 9:50.295044 10:-35.087097 
-0.1383293809939582 -0.1203523735147464 -0.1562229146886576 0.170872903088228 0.1566369803946703 1:0.737955 2:0.85255 3:0.372415 4:-0.366695 5:48.831116 6:-5.002014 7:-37.466248 8:39.291321 9:51.815002 10:-35.266174 
-0.3266809220540818 -0.2872236041582075 -0.3713833711255227 0.4034340434828846 0.3685736938066554 1:0.739483 2:0.86334 3:0.362276 4:-0.351284 5:47.906799 6:-5.102478 7:-37.112404 8:41.03241 9:55.402954 10:-34.404709 
-0.3618126764547892 -0.3178161614505201 -0.4104879719816004 0.4465374077694541 0.4090305940981094 1:0.737936 2:0.877966 3:0.31995 4:-0.356099 5:46.190918 6:-5.516846 7:-36.96463 8:39.484802 9:60.667847 10:-34.255165 
-0.264383081462247 -0.2331883409796857 -0.3009541173794897 0.3266484247149178 0.2979902940312654 1:0.738189 2:0.891299 3:0.283851 4:-0.353574 5:45.53479 6:-4.888184 7:-37.015678 8:40.757141 9:60.152527 10:-34.932205 
-0.174983219328474 -0.1543018049132183 -0.1988625997934453 0.2165393646095922 0.1978137603487516 1:0.739828 2:0.895903 3:0.290133 4:-0.336423 5:45.652405 6:-4.645203 7:-37.61879 8:42.83136 9:55.51886 10:-35.209129 
-0.2993478538963865 -0.2634200122549257 -0.3404470517018827 0.3692614642596096 0.3373403820302495 1:0.738929 2:0.887086 3:0.306702 4:-0.34498 5:46.466003 6:-4.558533 7:-37.953369 8:41.155151 9:51.449829 10:-34.9468 
-0.05086398265438745 -0.04568396401714455 -0.05926944625301909 0.06323251540905993 0.05954979234218246 1:0.737492 2:0.869893 3:0.335735 4:-0.361341 5:46.79718 6:-4.777405 7:-38.013519 8:35.2547 9:51.851685 10:-35.310631 
-0.2990800673820734 -0.2637429990759458 -0.3394552091865708 0.3693653953777694 0.3372079862229719 1:0.736953 2:0.854551 3:0.365925 4:-0.368566 5:47.50415 6:-4.180603 7:-37.732735 8:33.250305 9:52.127075 10:-36.169647 
-0.09301848111015314 -0.08000581109356122 -0.1041402707157106 0.1135476311014016 0.1025539452435739 1:0.737667 2:0.858028 3:0.364629 4:-0.361709 5:47.687012 6:-3.892761 7:-37.630455 8:34.901306 9:50.780334 10:-34.10524 
-0.004192302969370156 -0.004993737305632527 -0.0063611456784994 0.006779334505853218 0.006876232209541915 1:0.739679 2:0.876496 3:0.337669 4:-0.343125 5:48.005127 6:-3.659424 7:-37.783104 8:38.597107 9:48.310425 10:-36.168724 
-0.445401433390413 -0.3919905626124182 -0.5062151505014062 0.5495079222302316 0.5027469709334335 1:0.739844 2:0.887462 3:0.308138 4:-0.342728 5:48.458923 6:-4.174866 7:-37.711494 8:39.810486 9:45.599304 10:-33.917557 
-0.484206786954271 -0.4264706624008364 -0.5504164908667658 0.5983499872016775 0.546660330521378 1:0.739933 2:0.903472 3:0.257853 4:-0.342418 5:49.562378 6:-5.594971 7:-38.321556 8:42.602356 9:31.755737 10:-33.69104 
-0.2799760917432769 -0.2464191186650771 -0.3184492401677791 0.3456460313076101 0.3161020674092666 1:0.741281 2:0.921155 3:0.207089 4:-0.329527 5:51.400208 6:-7.650146 7:-38.14225 8:46.068054 9:18.425659 10:-35.617615 
-0.2005055919240916 -0.1760830314249506 -0.2288452629533061 0.2473895566853858 0.2276336445844605 1:0.741726 2:0.926927 3:0.185383 4:-0.32625 5:51.550964 6:-9.004456 7:-36.633987 8:48.392273 9:11.927734 10:-35.590279 
-0.4433269045774489 -0.3907756058101893 -0.5042603415058107 0.5478911813178617 0.5009617589623677 1:0.74188 2:0.928718 3:0.175456 4:-0.326645 5:48.594482 6:-7.835815 7:-33.19558 8:49.991577 9:6.84436 10:-38.001434 
-0.479570110726079 -0.4190711666245143 -0.5455640118705078 0.5925668147273823 0.5414737532562408 1:0.741409 2:0.926192 3:0.170259 4:-0.336421 5:51.976563 6:-14.640076 7:-38.844193 8:52.168335 9:2.687866 10:-35.569778 
-0.5098241220063271 -0.4485961890602439 -0.5795684782206867 0.629901374763807 0.5758565421356097 1:0.742306 2:0.932596 3:0.154682 4:-0.326096 5:50.658081 6:-8.492249 7:-33.140198 8:52.288269 9:4.240967 10:-37.548759 
-0.5269327977528694 -0.4630039357916805 -0.5981168159609531 0.6502335153603829 0.5943830382210565 1:0.744083 2:0.938847 3:0.149261 4:-0.310302 5:49.004395 6:-2.955383 7:-35.610504 8:52.411804 9:14.471313 10:-37.546844 
-0.5394556216985618 -0.4746787641944769 -0.6128505678169787 0.6662431969315615 0.609349800694803 1:0.743759 2:0.935211 3:0.17133 4:-0.309883 5:50.89856 6:1.088013 7:-36.370087 8:51.433105 9:23.823364 10:-35.744759 
-0.5623377630845098 -0.4941850983044478 -0.6387294159011216 0.6941402755659071 0.6341628953507332 1:0.745977 2:0.938921 3:0.194891 4:-0.283627 5:50.003235 6:3.624451 7:-35.557686 8:48.362549 9:28.928772 10:-38.559471 
-0.4226186697411541 -0.3721806804602499 -0.4802971777092168 0.5222110569291474 0.4772359167510198 1:0.746438 2:0.938536 3:0.201717 4:-0.280106 5:53.013611 6:-0.336243 7:-37.689766 8:47.811768 9:25.022278 10:-36.635384 
-0.4034579451547764 -0.354833580985404 -0.4582842932662986 0.4980857236747456 0.455223572243217 1:0.746369 2:0.939693 3:0.203245 4:-0.275078 5:52.430481 6:-2.338379 7:-36.590881 8:48.250305 9:18.3255 10:-38.940987 
-0.2828013701145731 -0.2484354771074511 -0.3207593043239869 0.3498799791687758 0.3194421758831568 1:0.747637 2:0.941467 3:0.2101 4:-0.263626 5:53.546082 6:-6.865234 7:-36.309578 8:51.412537 9:9.567871 10:-37.868675 
-0.4330803181833485 -0.3811095610400612 -0.4917917230482091 0.5339397614871992 0.4882875693429035 1:0.748131 2:0.938644 3:0.230405 4:-0.256632 5:54.120972 6:-14.793274 7:-39.673683 8:52.118042 9:5.804504 10:-38.024849 
-0.3852851776350119 -0.3396053388430039 -0.4381668219233698 0.475870764068144 0.4353831821834496 1:0.747799 2:0.929939 3:0.260645 4:-0.259377 5:51.479187 6:-9.029846 7:-36.542267 8:51.601257 9:9.835083 10:-39.636978 
-0.2891760093529079 -0.2545469047273585 -0.3287338756399238 0.3572809783487802 0.3261059141174925 1:0.746063 2:0.907348 3:0.309003 4:-0.28502 5:53.254456 6:-6.575928 7:-39.099991 8:48.697205 9:19.012268 10:-36.344673 
-0.09841744578301996 -0.08723611843683532 -0.1120495180667136 0.1216485535623264 0.1120163248504187 1:0.744546 2:0.875833 3:0.374794 4:-0.30405 5:49.876831 6:-1.08905 7:-38.003799 8:41.869629 9:34.246155 10:-35.13369 
-0.2469418043464425 -0.2182013784225535 -0.2809825765318192 0.3055546432568861 0.2793653232524242 1:0.748981 2:0.92744 3:0.28626 4:-0.240644 5:47.436218 6:-2.825745 7:-39.894997 8:42.736755 9:47.68927 10:-35.716522 
-0.405233480951614 -0.3564705783607668 -0.4604870292077496 0.5009071940045329 0.4578186486736461 1:0.748392 2:0.938788 3:0.246881 4:-0.240263 5:45.916687 6:-3.275452 7:-39.474213 8:45.013611 9:52.422607 10:-35.942924 
-0.3112479714919334 -0.2741591692650863 -0.353828380238047 0.3842655373151009 0.3512931137571366 1:0.747719 2:0.947562 3:0.19494 4:-0.253229 5:44.794861 6:-4.085693 7:-39.713432 8:42.649475 9:56.670898 10:-37.344406 
-0.2675156296821477 -0.2354838593518355 -0.3041621132095363 0.3305113815661488 0.3021848279233696 1:0.745978 2:0.938365 3:0.214935 4:-0.270693 5:45.058655 6:-4.122192 7:-40.050682 8:39.506165 9:56.274475 10:-37.703796 
-0.2654617565182698 -0.2332038698382801 -0.3009133034158631 0.3276257503297588 0.2990751715188097 1:0.746747 2:0.93455 3:0.240516 4:-0.262237 5:46.152893 6:-3.873718 7:-40.173233 8:37.013306 9:52.92926 10:-37.217567 
-0.3024098554448875 -0.265599283784051 -0.3430148326761874 0.3731009623660019 0.3407439614835671 1:0.74669 2:0.926218 3:0.268367 4:-0.264764 5:47.13208 6:-3.706604 7:-40.436043 8:35.382446 9:48.19928 10:-37.202324 
-0.4339868131101556 -0.3820352425118261 -0.4923341304631924 0.5358086945352262 0.4894033463430575 1:0.746209 2:0.915436 3:0.296847 4:-0.27177 5:47.572021 6:-3.851074 7:-40.194237 8:30.561096 9:48.430847 10:-37.497635 
-0.5114602437296154 -0.4504237545865671 -0.581817176142154 0.6325375034470321 0.5777823186713589 1:0.746582 2:0.91411 3:0.305358 4:-0.266758 5:47.97113 6:-3.286438 7:-39.560188 8:27.292419 9:57.175293 10:-36.988136 
-0.5967854918108767 -0.5247203425333079 -0.6785227103814867 0.7372121545102818 0.6739695527949316 1:0.746991 2:0.916428 3:0.300332 4:-0.2645 5:47.909119 6:-3.094299 7:-39.377274 8:29.565735 9:63.534241 10:-36.491043 
-0.4421721563298021 -0.3891346491899658 -0.5020145213667772 0.5458464605842851 0.4992657184985244 1:0.745443 2:0.898762 3:0.328824 4:-0.290002 5:48.046265 6:-3.877869 7:-39.028725 8:35.575256 9:59.979065 10:-34.835182 
-0.05452283211242105 -0.04848235840782314 -0.06233940831700182 0.06710145975525034 0.06086392374745098 1:0.74502 2:0.879315 3:0.373825 4:-0.295058 5:48.998901 6:-4.045959 7:-38.664314 8:39.951599 9:53.14978 10:-34.59201 
-0.06918865366499105 -0.05940284577089965 -0.07725391318287619 0.08478425296559493 0.07664896381113512 1:0.745779 2:0.879763 3:0.382837 4:-0.281875 5:49.910461 6:-3.855103 7:-38.204811 8:38.865295 9:47.309082 10:-34.998993 
-0.1095628871269699 -0.0963649739260085 -0.1244879675528287 0.1358180066642994 0.1248217461899205 1:0.746279 2:0.880992 3:0.383448 4:-0.277165 5:50.145447 6:-4.040588 7:-38.443237 8:33.977478 9:48.931458 10:-35.960129 
-0.3710144547099221 -0.3263790872105479 -0.4213924911435301 0.4577293716676656 0.4195050083860313 1:0.74539 2:0.873801 3:0.393489 4:-0.285724 5:49.858093 6:-4.453308 7:-38.909264 8:30.941162 9:55.654053 10:-35.555313 
-0.2607498385374507 -0.2291273499236037 -0.2964936972020382 0.3218796988481928 0.2935078693000972 1:0.745361 2:0.878442 3:0.380655 4:-0.288862 5:49.305542 6:-4.365356 7:-39.453339 8:31.849976 9:58.522766 10:-36.140854 
-0.09832784431039775 -0.08638829067873503 -0.1108291343742807 0.1219459721109983 0.1098240528993341 1:0.744708 2:0.88321 3:0.362244 4:-0.29786 5:48.950928 6:-4.762939 7:-39.240959 8:35.055359 9:55.881714 10:-35.178513 
-0.2625167434837428 -0.2316721741716765 -0.2981043829185736 0.3244303092319293 0.2969127868408323 1:0.744928 2:0.887393 3:0.354024 4:-0.295298 5:49.211121 6:-5.209961 7:-39.146431 8:36.230713 9:54.389526 10:-34.782555 
-0.04646923906521337 -0.04044377584933014 -0.05357884648991655 0.05673028864832371 0.05309098954924605 1:0.746199 2:0.908633 3:0.309595 4:-0.280244 5:49.544128 6:-3.974915 7:-38.532082 8:36.185242 9:55.233154 10:-36.205338 
-0.3387254753379231 -0.2981226410570535 -0.3849964398542761 0.4190594554402451 0.3832127248621475 1:0.732607 2:0.902848 3:0.120179 4:-0.412822 5:48.136902 6:-11.928345 7:-34.879669 8:42.335449 9:10.175903 10:-35.242943 
-0.2940236588422364 -0.2557487094167559 -0.3343253417765799 0.3628795996595962 0.3320255424726224 1:0.731252 2:0.898158 3:0.111295 4:-0.425353 5:47.409485 6:-13.789307 7:-35.827087 8:44.028137 9:7.586487 10:-37.19413 
-0.578564807836328 -0.5206947934135429 -0.6581306568336337 0.7152989170838767 0.6538716353412249 1:0.732607 2:0.905274 3:0.104611 4:-0.411747 5:47.291565 6:-15.719971 7:-38.057358 8:47.865601 9:3.757202 10:-31.805511 
-0.4516624703093121 -0.5138564196945944 -0.5129555454811024 0.5572595328042702 0.509591192323948 1:0.733846 2:0.906989 3:0.118499 4:-0.404139 5:48.775452 6:-15.220093 7:-35.123894 8:49.199219 9:3.372742 10:-36.241364 
-0.1540161435290538 -0.08317170711027085 -0.1755673192305263 0.1904744914653559 0.1738290548633105 1:0.734206 2:0.907142 3:0.104478 4:-0.407648 5:49.543213 6:-13.750732 7:-35.839783 8:48.788208 9:5.430359 10:-37.94886 
-0.2874317051684773 -0.2401810014515016 -0.3266584005932875 0.3551202043112102 0.3248190540248546 1:0.734623 2:0.911186 3:0.082349 4:-0.403682 5:50.048706 6:-11.426575 7:-37.413567 8:48.358093 9:7.499207 10:-34.685982 
