svm_type c_svc
kernel_type rbf
gamma 8
nr_class 3
total_sv 186
rho -0.993814 -1.2768 -1.65779
label 0 1 7
nr_sv 57 43 86
SV
0.2443763515262848 0 1:-0.963804 2:-0.798197 3:-0.989874 4:-0.578541 5:-0.99954 6:-0.997769 
0.5568391632118215 0 1:-0.585454 2:-0.750353 3:-0.985159 4:-0.725305 5:-0.998719 6:-0.850715 
0 239.3858473758422 1:0.177299 2:-0.715178 3:-0.975264 4:-0.623791 5:-0.999093 6:-0.867962 
280.1270311450001 383.3716145243636 1:0.145343 2:-0.74654 3:-0.974974 4:-0.67191 5:-0.99946 6:-0.994241 
317.941825996319 438.8267690123359 1:0.140669 2:-0.687213 3:-0.975249 4:-0.700998 5:-0.999838 6:-0.976512 
13.01190461311032 0 1:0.180274 2:-0.68757 3:-0.977006 4:-0.849329 5:-0.999548 6:-0.88575 
512 0 1:0.186386 2:-0.740783 3:-0.977599 4:-0.503576 5:-0.999833 6:-0.963042 
512 76.89563695416331 1:0.21208 2:-0.68064 3:-0.992917 4:-0.569882 5:-0.9942 6:-0.993172 
265.9555968677979 0 1:0.179277 2:-0.752787 3:-0.966381 4:-0.764738 5:-0.998514 6:-0.965142 
512 512 1:0.230572 2:-0.672557 3:-0.972361 4:-0.707993 5:-0.999275 6:-0.980678 
154.7831283724323 114.339316922209 1:0.198876 2:-0.730145 3:-0.977944 4:-0.586182 5:-0.997717 6:-0.90714 
386.298028922733 0 1:0.204246 2:-0.720321 3:-0.978652 4:-0.587879 5:-0.997092 6:-0.970121 
408.8393176613242 0 1:0.205827 2:-0.711463 3:-0.978914 4:-0.587609 5:-0.99931 6:-0.992532 
0 417.8329436545804 1:0.214927 2:-0.674988 3:-0.969971 4:-0.73793 5:-0.994775 6:-0.948177 
0 3.117855905369137 1:0.445263 2:0.141976 3:-0.980379 4:-0.879691 5:-0.993062 6:-0.894725 
0 11.64587732647555 1:0.524918 2:0.636903 3:-0.976331 4:-0.915196 5:-0.999458 6:-0.984955 
0 2.327762838329481 1:0.364319 2:0.740678 3:-0.960428 4:-0.955114 5:-0.990215 6:-0.973463 
0 18.15125994716145 1:0.373142 2:0.80906 3:-0.960144 4:-0.967824 5:-0.999914 6:-0.994159 
0.0012882435041593 0 1:0.565046 2:0.731746 3:-0.962703 4:-0.679871 5:-0.994821 6:-0.370872 
0 108.9454296366868 1:0.0466572 2:-0.801576 3:-0.996198 4:-0.62344 5:-0.975876 6:-0.962605 
0 512 1:0.0494375 2:-0.884197 3:-0.971455 4:-0.647044 5:-0.99936 6:-0.976899 
0 3.807873693522455 1:-0.0556472 2:-0.922394 3:-0.972504 4:-0.597444 5:-0.999036 6:-0.988244 
0 1.634733665747377 1:-0.445002 2:-0.942111 3:-0.978692 4:-0.488801 5:-0.99703 6:-0.804012 
0 3.667653669718819 1:-0.456232 2:-0.942054 3:-0.978808 4:-0.69276 5:-0.997271 6:-0.980481 
0.002725138050442202 0 1:0.176255 2:0.535073 3:-0.972723 4:-0.688287 5:-0.995801 6:-0.943882 
0.0005936222859002083 0 1:0.136369 2:0.544236 3:-0.985669 4:-0.843149 5:-0.985439 6:-0.748987 
0.005596603257458204 0 1:1 2:0.860226 3:-0.978173 4:-0.797142 5:-0.989714 6:-0.0388048 
0.003479867709655915 0 1:0.826719 2:0.83565 3:-0.978628 4:-0.890634 5:-0.997681 6:-0.832238 
0.005209275665452301 0 1:0.526543 2:0.540059 3:-0.94827 4:-0.476898 5:-0.975677 6:0.312724 
0.002051954780528064 0 1:0.531471 2:0.546546 3:-0.941733 4:-0.411362 5:-0.999678 6:-0.98883 
0 124.1784829432723 1:0.191643 2:-0.618916 3:-0.969625 4:-0.729864 5:-0.997529 6:-0.939798 
30.51848312809308 0 1:0.114849 2:-0.7063 3:-0.979666 4:-0.399375 5:-0.993875 6:-0.944912 
0 12.89810772502875 1:0.105975 2:-0.823948 3:-0.972169 4:-0.790181 5:-0.998365 6:-0.83814 
0 142.9225104799378 1:0.212625 2:-0.671507 3:-0.964298 4:-0.769695 5:-0.997834 6:-0.998259 
34.23973820892009 0 1:-0.0562787 2:-0.415656 3:-0.959734 4:-0.609068 5:-0.997865 6:-0.955834 
0.008846471731101398 2.251985437464252 1:0.366886 2:0.231736 3:-0.989394 4:-0.862302 5:-0.96021 6:-0.609592 
0.002783875953198262 0 1:0.508563 2:0.563619 3:-0.941708 4:-0.43624 5:-0.981172 6:-0.24849 
0.006266315635612751 0 1:0.504236 2:0.500602 3:-0.940757 4:0.758222 5:-0.990026 6:1 
0.006479867186410693 0 1:0.485824 2:0.385501 3:-0.946657 4:1 5:-0.999618 6:-0.100064 
0.005656297050104958 0 1:0.385402 2:-0.122824 3:-0.961174 4:0.563197 5:-0.993234 6:-0.987054 
0.004996773521726616 0 1:0.359964 2:-0.246713 3:0.993659 4:-0.416169 5:1 6:-0.959016 
0.001633038739918102 0 1:0.357781 2:-0.255663 3:1 4:-0.43158 5:0.964629 6:-0.995125 
0.00656420453832101 0 1:0.359338 2:-0.257132 3:-0.980588 4:-0.455107 5:0.819381 6:-0.992702 
22.56770288626602 0 1:0.2205 2:-0.589366 3:-0.969273 4:-0.759253 5:-0.999894 6:-0.84668 
209.8632978276954 188.1867705961499 1:0.212848 2:-0.627543 3:-0.972028 4:-0.839822 5:-0.999864 6:-0.973526 
0.03115672221414602 0 1:0.321357 2:0.489658 3:-0.96429 4:-0.893979 5:-0.999201 6:-0.861059 
4.146684867675457 0 1:-0.194666 2:-0.608223 3:-0.971033 4:-0.465247 5:-0.994653 6:-0.771966 
0.004540085504770959 0 1:0.856167 2:1 3:-0.969369 4:-0.648257 5:-0.999087 6:-0.472967 
0.004101663083512621 0 1:0.488975 2:0.625699 3:-0.92075 4:-0.0729082 5:-0.982634 6:0.087833 
0.004992894950633616 0 1:0.482195 2:0.560645 3:-0.920104 4:-0.0672379 5:-0.987602 6:-0.435167 
67.38482890495588 98.20059435860966 1:0.257243 2:-0.49513 3:-0.98726 4:-0.791697 5:-0.99098 6:-0.995982 
240.8032327991915 0 1:0.0221791 2:-0.721053 3:-0.973203 4:-0.548176 5:-0.994091 6:-0.994914 
473.3132503424504 0 1:0.05096 2:-0.591709 3:-0.975123 4:-0.618577 5:-0.991302 6:-0.911695 
0 0.08115569330941864 1:-0.348076 2:-0.931541 3:-0.970691 4:-0.648878 5:-0.998089 6:-0.973349 
0 0.07335479690480215 1:-0.185718 2:-0.842326 3:-0.96642 4:-0.861003 5:-0.996497 6:-0.801459 
4.259592541671419 0 1:0.272322 2:-0.410165 3:-0.962762 4:-0.865013 5:-0.999805 6:-0.685828 
0.006325898796663937 0 1:0.107967 2:-0.721785 3:-0.973011 4:-0.339652 5:-0.999894 6:0.369285 
-0 50.93743086819671 1:-0.715873 2:-0.128985 3:-0.98879 4:-0.866762 5:-0.999214 6:-0.988256 
-0 204.5213060802843 1:-0.762349 2:-0.391088 3:-0.979661 4:-0.733333 5:-0.999993 6:-0.999763 
-0 209.9838460281811 1:-0.749615 2:-0.347881 3:-0.989617 4:-0.833338 5:-0.998614 6:-0.978074 
-0 121.2207111235028 1:-0.734974 2:-0.293662 3:-0.994675 4:-0.87948 5:-0.998711 6:-0.980815 
-0 107.2217430580074 1:-0.705978 2:-0.169246 3:-0.999465 4:-0.927214 5:-0.996005 6:-0.936758 
-0 78.17166032948595 1:-0.699553 2:-0.101626 3:-0.999458 4:-0.936124 5:-0.999626 6:-0.992223 
-0.6291384995335935 0 1:-0.815073 2:-0.494569 3:-0.99443 4:-0.888848 5:-0.999973 6:-0.999492 
-0.8585255909566043 0 1:-0.807414 2:-0.452865 3:-0.994262 4:-0.737799 5:-0.999792 6:-0.992414 
-0.5972965863744524 0 1:-0.698872 2:-0.0738638 3:-0.987967 4:-0.810978 5:-0.998398 6:-0.856413 
-0.286125099519151 13.0793757650932 1:-0.689429 2:-0.0341542 3:-0.986395 4:-0.813588 5:-0.999978 6:-0.999874 
-512 6.31598375895354 1:0.0467896 2:-0.624231 3:-0.967179 4:-0.592848 5:-0.999642 6:-0.944319 
-242.2965090901855 0 1:0.040103 2:-0.646744 3:-0.968111 4:-0.546531 5:-0.999581 6:-0.952379 
-0 58.10029569127573 1:0.0237297 2:-0.670162 3:-0.969536 4:-0.539598 5:-0.999493 6:-0.999066 
-22.59194547729849 0 1:0.0413011 2:-0.626028 3:-0.968389 4:-0.60892 5:-0.999749 6:-0.98307 
-50.00629041034195 0 1:0.09269 2:-0.475071 3:-0.966215 4:-0.809254 5:-0.999814 6:-0.877151 
-4.188291816902366 4.484162329398284 1:0.14496 2:-0.270969 3:-0.96978 4:-0.861525 5:-0.998779 6:-0.975613 
-3.154467008125718 0 1:0.137784 2:-0.294618 3:-0.98258 4:-0.825362 5:-0.997069 6:-0.997839 
-0 75.15116808388763 1:0.0474899 2:-0.659351 3:-0.982744 4:-0.718664 5:-0.999989 6:-0.998287 
-87.32719116290134 139.0903604220159 1:0.0448679 2:-0.666222 3:-0.982699 4:-0.728264 5:-0.999994 6:-0.999155 
-0 195.0048070018125 1:-0.549817 2:-0.299168 3:-0.981786 4:-0.823279 5:-0.99995 6:-0.995193 
-0 132.1140366817065 1:-0.593735 2:-0.428129 3:-0.993093 4:-0.827836 5:-0.999911 6:-0.998806 
-0 20.72074856611179 1:-0.593735 2:-0.428129 3:-0.993093 4:-0.827836 5:-0.999911 6:-0.998806 
-512 512 1:0.180169 2:-0.75804 3:-0.970227 4:-0.743945 5:-1 6:-1 
-0 54.60364969763107 1:-0.0103089 2:-0.98224 3:-0.982304 4:-0.510387 5:-1 6:-1 
-4.526470757842265 0 1:0.0149427 2:-0.947239 3:-0.984251 4:-0.527953 5:-0.999903 6:-0.980356 
-32.35971987446002 0 1:0.0149427 2:-0.947239 3:-0.984251 4:-0.527953 5:-0.999903 6:-0.980356 
-0 512 1:0.08837 2:-0.87468 3:-0.984173 4:-0.668717 5:-0.999673 6:-0.949526 
-1.076080391714092 512 1:0.08837 2:-0.87468 3:-0.984173 4:-0.668717 5:-0.999673 6:-0.949526 
-0 512 1:0.08837 2:-0.87468 3:-0.984173 4:-0.668717 5:-1 6:-1 
-24.25802980870289 31.10276966017114 1:0.196571 2:-0.652315 3:-0.98372 4:-0.744637 5:-0.998195 6:-0.921207 
-380.3548607326321 511.9991987646688 1:0.196571 2:-0.652315 3:-0.98372 4:-0.744637 5:-0.998195 6:-0.921207 
-60.30283671110123 512 1:0.229424 2:-0.623538 3:-0.986302 4:-0.741611 5:-0.999735 6:-0.999707 
-460.288380781933 512 1:0.229424 2:-0.623538 3:-0.986302 4:-0.741611 5:-0.999735 6:-0.999707 
-0 512 1:0.229424 2:-0.623538 3:-0.986302 4:-0.741611 5:-1 6:-1 
-512 15.1342208385743 1:0.203629 2:-0.72487 3:-0.986942 4:-0.598646 5:-0.999979 6:-0.959488 
-512 368.9690620097723 1:0.203629 2:-0.72487 3:-0.986942 4:-0.598646 5:-0.999979 6:-0.959488 
-512 0 1:0.200432 2:-0.722658 3:-0.981074 4:-0.528504 5:-0.999511 6:-0.987656 
-512 0 1:0.200432 2:-0.722658 3:-0.981074 4:-0.528504 5:-0.999511 6:-0.987656 
-1.135729670414316 13.68539626887164 1:-0.372724 2:-0.0470308 3:-0.984168 4:-0.931884 5:-1 6:-1 
-0 0.4446621933462335 1:-0.434562 2:-0.348172 3:-0.989712 4:-0.868172 5:-0.999699 6:-0.927767 
-1.113897597627246 30.08884985637762 1:-0.434562 2:-0.348172 3:-0.989712 4:-0.868172 5:-0.999699 6:-0.927767 
-0.07365151145841267 0 1:-0.441992 2:-0.357208 3:-0.992629 4:-0.825364 5:-0.999998 6:-0.993626 
-1.544710834508986 0 1:-0.441992 2:-0.357208 3:-0.992629 4:-0.825364 5:-0.999998 6:-0.993626 
-0 -185.3168855488432 1:-0.652555 2:-0.155874 3:-0.980225 4:-0.890073 5:-1 6:-1 
-0 -27.07089026357722 1:-0.685751 2:-0.326634 3:-0.986966 4:-0.743463 5:-0.999991 6:-0.994403 
-0 -82.97203062801525 1:-0.685751 2:-0.326634 3:-0.986966 4:-0.743463 5:-0.999991 6:-0.994403 
-1.05158015500652 -0 1:-0.727115 2:-0.47992 3:-0.988738 4:-0.754698 5:-1 6:-1 
-0 -66.92548977269303 1:-0.678975 2:-0.283298 3:-0.985177 4:-0.892184 5:-0.999999 6:-0.950837 
-0 -205.4754072379357 1:-0.678975 2:-0.283298 3:-0.985177 4:-0.892184 5:-0.999999 6:-0.950837 
-0 -43.53610968450979 1:-0.64007 2:-0.0951058 3:-0.983425 4:-0.954815 5:-0.999988 6:-0.979184 
-0 -3.547098125501851 1:-0.575307 2:0.266004 3:-0.979969 4:-0.986346 5:-0.999999 6:-0.999873 
-0 -1.23283540282802 1:-0.575307 2:0.266004 3:-0.979969 4:-0.986346 5:-0.999999 6:-0.999873 
-1.239343936498429 -0 1:-0.575307 2:0.266004 3:-0.979969 4:-0.986346 5:-1 6:-1 
-0 -329.1325596823908 1:-0.702074 2:-0.389224 3:-0.987636 4:-0.779655 5:-1 6:-1 
-0 -63.83219463657576 1:-0.717062 2:-0.437112 3:-0.988554 4:-0.814233 5:-0.999993 6:-0.998144 
-0 -47.33248937055258 1:-0.717062 2:-0.437112 3:-0.988554 4:-0.814233 5:-0.999993 6:-0.998144 
-0.3742956589149343 -0 1:-0.921262 2:0.152247 3:-0.987285 4:-0.667823 5:-1 6:-1 
-0.4405057752932741 -0 1:-0.905266 2:0.488333 3:-0.976904 4:-0.955244 5:-0.999573 6:-0.911866 
-0.2342759341360572 -0 1:-0.905266 2:0.488333 3:-0.976904 4:-0.955244 5:-0.999573 6:-0.911866 
-1.794059196075604 -1.953877489307428 1:-0.874218 2:0.96901 3:-0.967884 4:-0.968751 5:-1 6:-1 
-0 -1.556663094791168 1:-0.959739 2:-0.0175108 3:-0.987657 4:-0.828565 5:-0.999702 6:-0.720361 
-0 -0.9709023438678697 1:-0.959739 2:-0.0175108 3:-0.987657 4:-0.828565 5:-0.999702 6:-0.720361 
-0 -2.94085486079647 1:-1 2:-0.166153 3:-0.988933 4:-0.94651 5:-0.999843 6:-0.950882 
-0 -22.54491475247254 1:-1 2:-0.166153 3:-0.988933 4:-0.94651 5:-0.999843 6:-0.950882 
-1.517640427810974 -14.76444986806601 1:-1 2:-0.166153 3:-0.988933 4:-0.94651 5:-1 6:-1 
-0.3899791209354128 -0.02118087059974212 1:-0.849619 2:0.60716 3:-0.980003 4:-0.970848 5:-1 6:-1 
-0 -0.1436820222890693 1:-0.847987 2:0.738934 3:-0.979173 4:-0.980585 5:-1 6:-1 
-0.03158618439018433 -0.2233237468313544 1:-0.909847 2:0.114201 3:-0.989973 4:-0.669546 5:-0.998163 6:-0.606719 
-1.609539709559563 -1.198953518149195 1:-0.909847 2:0.114201 3:-0.989973 4:-0.669546 5:-0.998163 6:-0.606719 
-0 -2.294047097790174 1:-0.929775 2:0.0279769 3:-0.991009 4:-0.781704 5:-0.998838 6:-0.992698 
-0 -10.28715732019145 1:-0.929775 2:0.0279769 3:-0.991009 4:-0.781704 5:-0.998838 6:-0.992698 
-0 -0.6352004923997344 1:-0.873572 2:0.375659 3:-0.987609 4:-0.948263 5:-0.999504 6:-0.802309 
-0.3194982658972078 -0.03191183750363643 1:-0.873572 2:0.375659 3:-0.987609 4:-0.948263 5:-0.999504 6:-0.802309 
-0.1311248286269853 -0.6645371883818511 1:-0.82536 2:0.833057 3:-0.975243 4:-0.974589 5:-0.998667 6:-0.888168 
-0.1235292520122935 -0 1:-0.82536 2:0.833057 3:-0.975243 4:-0.974589 5:-0.998667 6:-0.888168 
-0.6022550344583472 -0 1:-0.91163 2:0.0907665 3:-0.993609 4:-0.649263 5:-1 6:-1 
-0 -19.37611791521976 1:-0.297629 2:-0.384937 3:-0.970721 4:-0.838208 5:-1 6:-1 
-0.002439525938494771 -0 1:-0.253401 2:-0.193609 3:-0.967812 4:-0.741918 5:-0.995324 6:-0.685924 
-1.192393851308768 -0 1:-0.253401 2:-0.193609 3:-0.967812 4:-0.741918 5:-0.995324 6:-0.685924 
-0 -0.1266052624447216 1:-0.150169 2:0.341202 3:-0.961295 4:-0.976145 5:-0.999926 6:-0.764647 
-1.408008005226152 -2.470204793623355 1:-0.150169 2:0.341202 3:-0.961295 4:-0.976145 5:-0.999926 6:-0.764647 
-0.4971990705632686 -0 1:-0.100129 2:0.850689 3:-0.959637 4:-0.970336 5:-0.99999 6:-0.999848 
-2.913118171142798 -0 1:-0.100129 2:0.850689 3:-0.959637 4:-0.970336 5:-0.99999 6:-0.999848 
-0 -2.196793024401206 1:-0.100129 2:0.850689 3:-0.959637 4:-0.970336 5:-1 6:-1 
-0 -2.408491728842675 1:-0.303601 2:-0.394971 3:-0.985964 4:-0.827369 5:-0.999594 6:-0.961076 
-6.264551687721881 -81.25518605145832 1:-0.303601 2:-0.394971 3:-0.985964 4:-0.827369 5:-0.999594 6:-0.961076 
-512 -193.6348882212637 1:0.212267 2:-0.623118 3:-0.964088 4:-0.790159 5:-1 6:-1 
-0 -0.02678494845617585 1:0.16417 2:-0.760636 3:-0.987582 4:-0.726381 5:-0.997495 6:-0.995976 
-0 -377.1997888130092 1:0.16417 2:-0.760636 3:-0.987582 4:-0.726381 5:-0.997495 6:-0.995976 
-0 -97.85947350277027 1:0.162976 2:-0.759763 3:-0.984972 4:-0.665077 5:-0.999433 6:-0.912868 
-0 -365.0266848633026 1:0.162976 2:-0.759763 3:-0.984972 4:-0.665077 5:-0.999433 6:-0.912868 
-0 -128.9324331381714 1:0.147225 2:-0.778568 3:-0.984762 4:-0.63636 5:-0.99983 6:-0.987234 
-0 -207.628911621448 1:0.147225 2:-0.778568 3:-0.984762 4:-0.63636 5:-0.99983 6:-0.987234 
-254.0481872846873 -0 1:0.147225 2:-0.778568 3:-0.984762 4:-0.63636 5:-1 6:-1 
-3.382853455014445 -25.25600175211413 1:0.130663 2:-0.79043 3:-0.982965 4:-0.779421 5:-0.999741 6:-0.943059 
-49.3216853441437 -0 1:0.130663 2:-0.79043 3:-0.982965 4:-0.779421 5:-0.999741 6:-0.943059 
-36.30168776758465 -0 1:0.096013 2:-0.829842 3:-0.983729 4:-0.679994 5:-0.996437 6:-0.892156 
-12.6502731779726 -35.45082097872204 1:0.096013 2:-0.829842 3:-0.983729 4:-0.679994 5:-0.996437 6:-0.892156 
-56.15087612250633 -9.703434234509068 1:0.0470224 2:-0.875055 3:-0.983846 4:-0.59351 5:-0.999963 6:-0.971389 
-74.3760488249534 -512 1:0.0470224 2:-0.875055 3:-0.983846 4:-0.59351 5:-0.999963 6:-0.971389 
-81.80582646501247 -0 1:0.0256503 2:-0.887064 3:-0.983359 4:-0.592476 5:-0.999974 6:-0.999599 
-35.94914615615638 -0 1:0.0590521 2:-0.861134 3:-0.984706 4:-0.673725 5:-0.999983 6:-0.967771 
-331.5624904278727 -0 1:0.0590521 2:-0.861134 3:-0.984706 4:-0.673725 5:-1 6:-1 
-0 -19.3285780713481 1:0.082268 2:-0.882396 3:-0.986401 4:-0.760689 5:-0.999498 6:-0.833756 
-0 -56.12219585118312 1:0.082268 2:-0.882396 3:-0.986401 4:-0.760689 5:-0.999498 6:-0.833756 
-0 -206.7757064375391 1:0.0778979 2:-0.892063 3:-0.985964 4:-0.711926 5:-0.999811 6:-0.995069 
-0 -511.9892266163678 1:0.0778979 2:-0.892063 3:-0.985964 4:-0.711926 5:-0.999811 6:-0.995069 
-12.07851076790913 -0 1:-0.158508 2:-0.988646 3:-0.984231 4:-0.611207 5:-0.999834 6:-0.842247 
-4.511549791981458 -0 1:-0.117337 2:-0.956687 3:-0.982217 4:-0.710965 5:-0.999922 6:-0.978297 
-3.279979750302846 -0 1:0.0129113 2:-0.882239 3:-0.976305 4:-0.868674 5:-0.999671 6:-0.904667 
-14.71231712471402 -0 1:0.0129113 2:-0.882239 3:-0.976305 4:-0.868674 5:-0.999671 6:-0.904667 
-0.1500320722164472 -0.2542597682520877 1:0.330373 2:0.0309657 3:-0.962332 4:-0.986714 5:-0.999931 6:-0.739403 
-6.388944736731098 -2.942654456601571 1:0.330373 2:0.0309657 3:-0.962332 4:-0.986714 5:-0.999931 6:-0.739403 
-0.2169135751469836 -0 1:0.399272 2:0.333757 3:-0.95686 4:-0.996506 5:-0.999987 6:-0.98727 
-2.251238974052507 -0 1:0.399272 2:0.333757 3:-0.95686 4:-0.996506 5:-0.999987 6:-0.98727 
-0.436288341132848 -0.4904606110726495 1:0.399272 2:0.333757 3:-0.95686 4:-0.996506 5:-1 6:-1 
-0 -2.252483158329639 1:0.456738 2:0.757638 3:-0.949279 4:-1 5:-1 6:-1 
-0.2503784697405282 -0 1:0.450847 2:0.746071 3:-0.949874 4:-0.998086 5:-0.999963 6:-0.999064 
-29.34819539118571 -0 1:0.450847 2:0.746071 3:-0.949874 4:-0.998086 5:-0.999963 6:-0.999064 
-0.8663579695783723 -0.8316124000161077 1:0.367351 2:0.219289 3:-0.95819 4:-0.98852 5:-1 6:-1 
-0.007704573333976976 -0 1:0.0197313 2:-0.92554 3:-0.973871 4:-0.784816 5:-0.998391 6:-0.580771 
-2.721092815362829 -0 1:0.0197313 2:-0.92554 3:-0.973871 4:-0.784816 5:-0.998391 6:-0.580771 
-4.578936709595116 -0 1:-0.217523 2:-0.976396 3:-0.977766 4:-0.670718 5:-0.999971 6:-0.998007 
-512 -0 1:0.179449 2:-0.706072 3:-0.978166 4:-0.655946 5:-0.996862 6:-0.925762 
-512 -0 1:0.179449 2:-0.706072 3:-0.978166 4:-0.655946 5:-0.996862 6:-0.925762 
-329.2590972767762 -512 1:0.211475 2:-0.651575 3:-0.978792 4:-0.730647 5:-0.999829 6:-0.97644 
-512 -512 1:0.211475 2:-0.651575 3:-0.978792 4:-0.730647 5:-0.999829 6:-0.97644 
-0 -512 1:0.220749 2:-0.615904 3:-0.978357 4:-0.732084 5:-0.999971 6:-0.997488 
-0 -512 1:0.220749 2:-0.615904 3:-0.978357 4:-0.732084 5:-0.999971 6:-0.997488 
