svm_type c_svc
kernel_type rbf
gamma 0.00555556
nr_class 3
total_sv 852
rho 1.81826 0.573632 -1.08926
label 2 3 1
nr_sv 245 339 268
SV
1 1 1:1 5:1 11:1 13:1 17:1 24:1 25:1 30:1 31:1 35:1 37:1 42:1 47:1 60:1 71:1 77:1 80:1 85:1 90:1 93:1 96:1 98:1 100:1 104:1 106:1 111:1 116:1 120:1 124:1 129:1 135:1 137:1 140:1 142:1 145:1 149:1 155:1 162:1 165:1 166:1 170:1 176:1 
1 0.3930440677406641 2:1 4:1 9:1 10:1 17:1 26:1 29:1 35:1 38:1 44:1 50:1 53:1 56:1 58:1 61:1 64:1 67:1 71:1 74:1 80:1 83:1 85:1 90:1 96:1 100:1 108:1 110:1 113:1 115:1 119:1 123:1 132:1 133:1 138:1 141:1 144:1 145:1 149:1 152:1 159:1 160:1 163:1 166:1 169:1 173:1 175:1 179:1 
1 1 3:1 6:1 9:1 14:1 17:1 20:1 27:1 33:1 34:1 38:1 40:1 48:1 51:1 57:1 59:1 62:1 65:1 69:1 71:1 74:1 81:1 83:1 85:1 90:1 91:1 102:1 105:1 106:1 110:1 112:1 117:1 119:1 122:1 125:1 127:1 131:1 133:1 137:1 144:1 146:1 153:1 155:1 162:1 166:1 174:1 180:1 
1 1 6:1 7:1 10:1 13:1 21:1 38:1 41:1 51:1 57:1 61:1 76:1 79:1 83:1 85:1 90:1 93:1 96:1 98:1 105:1 106:1 109:1 114:1 115:1 119:1 121:1 130:1 138:1 141:1 142:1 147:1 148:1 151:1 154:1 159:1 160:1 164:1 171:1 174:1 175:1 178:1 
0.6777634763302123 0 11:1 14:1 16:1 20:1 26:1 29:1 35:1 38:1 48:1 53:1 62:1 68:1 74:1 81:1 83:1 85:1 90:1 96:1 98:1 101:1 104:1 111:1 114:1 117:1 118:1 123:1 125:1 132:1 137:1 139:1 150:1 152:1 155:1 158:1 164:1 167:1 174:1 176:1 
1 0.5280560731584937 6:1 20:1 26:1 35:1 40:1 50:1 53:1 56:1 66:1 69:1 71:1 77:1 79:1 83:1 85:1 90:1 93:1 96:1 97:1 101:1 104:1 107:1 111:1 112:1 117:1 123:1 127:1 133:1 138:1 140:1 143:1 146:1 152:1 155:1 157:1 162:1 163:1 168:1 174:1 177:1 178:1 
1 1 8:1 14:1 17:1 19:1 32:1 44:1 54:1 57:1 60:1 63:1 68:1 74:1 81:1 83:1 85:1 90:1 93:1 97:1 101:1 105:1 106:1 111:1 113:1 117:1 118:1 121:1 124:1 128:1 130:1 141:1 142:1 145:1 148:1 151:1 156:1 157:1 163:1 170:1 173:1 175:1 
0.5149116142811025 1 7:1 23:1 29:1 32:1 34:1 45:1 50:1 58:1 62:1 65:1 79:1 83:1 85:1 90:1 93:1 99:1 106:1 109:1 115:1 121:1 126:1 132:1 133:1 136:1 139:1 142:1 147:1 150:1 151:1 154:1 159:1 161:1 171:1 173:1 175:1 180:1 
1 1 2:1 9:1 16:1 20:1 22:1 26:1 30:1 32:1 42:1 46:1 49:1 60:1 61:1 65:1 71:1 80:1 85:1 90:1 93:1 99:1 100:1 105:1 107:1 110:1 113:1 115:1 126:1 129:1 131:1 133:1 138:1 141:1 144:1 147:1 151:1 155:1 158:1 160:1 163:1 166:1 171:1 177:1 178:1 
0.6869437052916171 1 2:1 5:1 8:1 10:1 15:1 18:1 19:1 23:1 29:1 31:1 35:1 37:1 41:1 43:1 56:1 63:1 65:1 71:1 74:1 83:1 85:1 90:1 93:1 96:1 105:1 108:1 111:1 114:1 117:1 123:1 125:1 128:1 131:1 133:1 137:1 141:1 144:1 150:1 151:1 155:1 157:1 162:1 164:1 167:1 169:1 173:1 176:1 178:1 
1 1 2:1 11:1 13:1 18:1 20:1 23:1 29:1 32:1 35:1 37:1 40:1 45:1 49:1 54:1 56:1 63:1 66:1 70:1 74:1 79:1 83:1 85:1 90:1 93:1 96:1 98:1 100:1 104:1 106:1 110:1 114:1 120:1 131:1 133:1 137:1 141:1 150:1 151:1 155:1 157:1 162:1 165:1 177:1 179:1 
1 0 3:1 5:1 8:1 15:1 17:1 24:1 25:1 28:1 32:1 38:1 40:1 44:1 46:1 50:1 57:1 68:1 74:1 77:1 79:1 83:1 85:1 90:1 92:1 96:1 98:1 100:1 108:1 109:1 114:1 115:1 120:1 122:1 125:1 128:1 130:1 135:1 137:1 140:1 143:1 147:1 150:1 152:1 154:1 158:1 161:1 164:1 167:1 174:1 180:1 
1 0 1:1 5:1 9:1 20:1 22:1 30:1 31:1 34:1 39:1 49:1 66:1 68:1 71:1 80:1 83:1 85:1 90:1 92:1 101:1 104:1 106:1 112:1 123:1 126:1 127:1 137:1 145:1 149:1 152:1 154:1 157:1 165:1 169:1 173:1 180:1 
1 0.600321143735192 4:1 9:1 11:1 13:1 17:1 19:1 27:1 33:1 34:1 38:1 45:1 48:1 49:1 53:1 59:1 62:1 68:1 74:1 77:1 80:1 83:1 85:1 90:1 93:1 98:1 102:1 107:1 109:1 114:1 120:1 121:1 126:1 129:1 131:1 134:1 136:1 140:1 142:1 146:1 148:1 153:1 155:1 157:1 162:1 164:1 166:1 171:1 173:1 175:1 
0 1 2:1 4:1 9:1 11:1 18:1 23:1 29:1 36:1 41:1 44:1 47:1 50:1 52:1 56:1 59:1 62:1 64:1 68:1 71:1 74:1 80:1 83:1 85:1 90:1 91:1 96:1 97:1 100:1 105:1 107:1 110:1 112:1 115:1 120:1 123:1 125:1 127:1 135:1 137:1 141:1 147:1 150:1 156:1 158:1 160:1 164:1 168:1 171:1 173:1 179:1 
0.7871682173953642 0.5487420698295139 2:1 5:1 12:1 13:1 20:1 27:1 30:1 33:1 38:1 44:1 47:1 50:1 53:1 59:1 62:1 65:1 67:1 71:1 74:1 77:1 83:1 85:1 90:1 93:1 96:1 97:1 102:1 104:1 107:1 109:1 114:1 117:1 119:1 125:1 129:1 132:1 134:1 136:1 149:1 156:1 159:1 161:1 163:1 168:1 170:1 172:1 175:1 180:1 
0 1 6:1 7:1 12:1 14:1 18:1 21:1 24:1 25:1 28:1 32:1 36:1 38:1 41:1 46:1 50:1 52:1 62:1 71:1 74:1 80:1 83:1 85:1 90:1 92:1 99:1 100:1 105:1 107:1 109:1 114:1 115:1 118:1 123:1 124:1 129:1 134:1 136:1 141:1 142:1 146:1 150:1 153:1 154:1 157:1 164:1 168:1 169:1 172:1 175:1 179:1 
0.8642515596436695 0 3:1 5:1 9:1 12:1 21:1 22:1 33:1 34:1 38:1 40:1 45:1 56:1 62:1 65:1 74:1 77:1 80:1 83:1 85:1 90:1 91:1 95:1 102:1 105:1 107:1 110:1 112:1 115:1 122:1 124:1 128:1 130:1 135:1 138:1 140:1 142:1 147:1 150:1 151:1 154:1 159:1 160:1 168:1 169:1 172:1 177:1 180:1 
0.9199588484766613 0 2:1 4:1 24:1 33:1 38:1 44:1 47:1 59:1 61:1 68:1 74:1 76:1 79:1 83:1 85:1 90:1 92:1 98:1 101:1 108:1 111:1 114:1 115:1 118:1 121:1 129:1 135:1 137:1 144:1 147:1 153:1 154:1 158:1 165:1 180:1 
1 1 3:1 6:1 9:1 11:1 15:1 18:1 21:1 24:1 26:1 33:1 34:1 38:1 41:1 45:1 46:1 51:1 54:1 57:1 60:1 63:1 69:1 72:1 75:1 78:1 80:1 83:1 85:1 90:1 93:1 101:1 107:1 109:1 113:1 115:1 119:1 122:1 125:1 131:1 134:1 136:1 141:1 147:1 150:1 151:1 159:1 160:1 171:1 174:1 176:1 
0 0.06128750594652937 2:1 6:1 11:1 14:1 20:1 22:1 25:1 30:1 36:1 42:1 45:1 47:1 50:1 54:1 59:1 68:1 71:1 74:1 80:1 83:1 85:1 90:1 93:1 96:1 97:1 102:1 104:1 107:1 109:1 120:1 126:1 129:1 131:1 134:1 138:1 144:1 145:1 149:1 153:1 156:1 159:1 165:1 166:1 170:1 174:1 177:1 180:1 
1 0 3:1 4:1 8:1 11:1 13:1 18:1 21:1 26:1 57:1 65:1 70:1 74:1 77:1 80:1 83:1 85:1 90:1 92:1 95:1 97:1 102:1 104:1 106:1 109:1 113:1 115:1 120:1 126:1 128:1 131:1 134:1 136:1 141:1 144:1 147:1 149:1 155:1 162:1 163:1 171:1 172:1 177:1 
0 1 6:1 7:1 11:1 14:1 16:1 21:1 24:1 29:1 39:1 57:1 65:1 70:1 74:1 77:1 80:1 83:1 85:1 90:1 93:1 96:1 97:1 102:1 104:1 108:1 109:1 113:1 115:1 120:1 126:1 128:1 131:1 134:1 136:1 141:1 144:1 147:1 150:1 155:1 162:1 163:1 168:1 173:1 179:1 
1 1 3:1 5:1 8:1 11:1 17:1 19:1 22:1 25:1 33:1 34:1 38:1 41:1 47:1 49:1 53:1 56:1 65:1 71:1 77:1 80:1 85:1 90:1 93:1 99:1 100:1 110:1 116:1 120:1 123:1 126:1 128:1 131:1 135:1 136:1 144:1 152:1 158:1 160:1 165:1 168:1 169:1 172:1 175:1 178:1 
0 0.4768985260753006 11:1 14:1 21:1 30:1 35:1 41:1 44:1 50:1 56:1 59:1 68:1 71:1 74:1 76:1 80:1 85:1 90:1 93:1 99:1 100:1 107:1 109:1 117:1 120:1 124:1 127:1 131:1 134:1 138:1 141:1 144:1 147:1 148:1 155:1 157:1 161:1 164:1 167:1 172:1 179:1 
1 1 2:1 7:1 11:1 14:1 16:1 22:1 29:1 39:1 40:1 47:1 49:1 56:1 59:1 74:1 81:1 85:1 90:1 93:1 94:1 97:1 104:1 108:1 111:1 112:1 118:1 124:1 127:1 131:1 133:1 140:1 142:1 149:1 152:1 156:1 159:1 162:1 166:1 170:1 173:1 176:1 178:1 
0 1 5:1 7:1 10:1 14:1 19:1 23:1 25:1 30:1 33:1 36:1 37:1 41:1 44:1 47:1 51:1 53:1 55:1 62:1 68:1 71:1 74:1 79:1 83:1 85:1 90:1 93:1 96:1 105:1 108:1 110:1 113:1 116:1 119:1 122:1 124:1 129:1 131:1 133:1 136:1 141:1 144:1 146:1 152:1 154:1 159:1 162:1 163:1 167:1 169:1 174:1 176:1 178:1 
0.8019767051822723 0 6:1 7:1 11:1 19:1 23:1 25:1 35:1 37:1 50:1 53:1 56:1 64:1 71:1 77:1 80:1 83:1 85:1 90:1 91:1 98:1 101:1 105:1 113:1 120:1 123:1 125:1 130:1 134:1 147:1 148:1 156:1 157:1 162:1 163:1 168:1 171:1 175:1 
1 0 5:1 8:1 14:1 16:1 26:1 29:1 36:1 38:1 42:1 47:1 54:1 56:1 65:1 68:1 74:1 77:1 80:1 83:1 85:1 90:1 92:1 94:1 97:1 100:1 103:1 108:1 110:1 114:1 120:1 121:1 128:1 138:1 140:1 147:1 150:1 153:1 158:1 162:1 165:1 167:1 169:1 173:1 175:1 180:1 
1 1 1:1 8:1 13:1 16:1 19:1 27:1 28:1 36:1 37:1 40:1 49:1 57:1 58:1 68:1 85:1 90:1 99:1 108:1 111:1 112:1 126:1 127:1 130:1 133:1 143:1 146:1 148:1 153:1 154:1 158:1 160:1 163:1 168:1 180:1 
1 1 5:1 13:1 18:1 21:1 22:1 27:1 30:1 45:1 50:1 56:1 65:1 68:1 71:1 85:1 90:1 93:1 94:1 101:1 103:1 106:1 113:1 119:1 122:1 125:1 128:1 130:1 137:1 140:1 142:1 147:1 148:1 152:1 155:1 160:1 164:1 170:1 177:1 179:1 
1 0.0948371759335165 1:1 4:1 7:1 11:1 15:1 17:1 22:1 25:1 40:1 43:1 47:1 49:1 53:1 61:1 77:1 85:1 90:1 101:1 104:1 107:1 109:1 114:1 115:1 118:1 123:1 124:1 129:1 132:1 137:1 141:1 143:1 146:1 148:1 159:1 168:1 169:1 172:1 177:1 178:1 
0 1 2:1 15:1 18:1 20:1 26:1 28:1 32:1 41:1 51:1 53:1 56:1 72:1 83:1 85:1 90:1 93:1 94:1 99:1 105:1 109:1 113:1 115:1 119:1 122:1 130:1 133:1 136:1 140:1 142:1 145:1 153:1 154:1 159:1 160:1 163:1 168:1 170:1 172:1 177:1 
1 1 3:1 4:1 14:1 17:1 22:1 26:1 28:1 33:1 35:1 38:1 48:1 50:1 53:1 60:1 62:1 68:1 74:1 79:1 82:1 85:1 90:1 93:1 95:1 97:1 100:1 104:1 110:1 115:1 120:1 121:1 125:1 127:1 134:1 138:1 140:1 144:1 149:1 152:1 154:1 157:1 161:1 163:1 166:1 170:1 173:1 177:1 
0.01136006632357139 1 1:1 4:1 7:1 14:1 17:1 19:1 23:1 26:1 33:1 35:1 38:1 41:1 44:1 46:1 53:1 56:1 62:1 69:1 77:1 80:1 83:1 85:1 90:1 93:1 99:1 100:1 107:1 110:1 115:1 120:1 123:1 129:1 132:1 133:1 138:1 141:1 143:1 146:1 150:1 151:1 154:1 157:1 162:1 166:1 170:1 172:1 180:1 
1 1 2:1 5:1 9:1 10:1 15:1 20:1 22:1 26:1 32:1 35:1 42:1 47:1 49:1 53:1 61:1 65:1 68:1 71:1 78:1 79:1 83:1 85:1 90:1 93:1 95:1 98:1 103:1 108:1 109:1 113:1 119:1 122:1 125:1 129:1 130:1 135:1 138:1 140:1 149:1 152:1 158:1 171:1 174:1 176:1 179:1 
1 0 1:1 9:1 11:1 18:1 19:1 23:1 26:1 28:1 32:1 41:1 44:1 47:1 53:1 62:1 68:1 75:1 76:1 81:1 83:1 85:1 90:1 96:1 102:1 103:1 107:1 116:1 118:1 122:1 125:1 129:1 130:1 133:1 138:1 139:1 143:1 146:1 148:1 153:1 154:1 158:1 161:1 165:1 167:1 169:1 174:1 177:1 
1 0 2:1 9:1 11:1 14:1 20:1 23:1 26:1 30:1 32:1 45:1 51:1 57:1 59:1 62:1 65:1 68:1 72:1 74:1 80:1 83:1 85:1 90:1 92:1 94:1 99:1 101:1 104:1 110:1 113:1 116:1 120:1 122:1 126:1 127:1 131:1 135:1 136:1 144:1 146:1 149:1 152:1 155:1 161:1 163:1 166:1 170:1 174:1 
1 1 2:1 5:1 12:1 13:1 18:1 20:1 22:1 26:1 28:1 33:1 34:1 38:1 42:1 45:1 47:1 54:1 62:1 68:1 80:1 82:1 85:1 90:1 93:1 100:1 104:1 106:1 109:1 114:1 116:1 119:1 126:1 127:1 135:1 136:1 139:1 144:1 147:1 150:1 151:1 154:1 157:1 161:1 165:1 166:1 171:1 174:1 177:1 180:1 
0.08588094092426257 1 5:1 8:1 14:1 16:1 24:1 26:1 28:1 35:1 38:1 40:1 44:1 47:1 50:1 53:1 56:1 65:1 68:1 74:1 77:1 80:1 83:1 85:1 90:1 93:1 94:1 97:1 103:1 108:1 110:1 113:1 115:1 120:1 123:1 128:1 135:1 138:1 140:1 147:1 150:1 153:1 158:1 162:1 165:1 167:1 169:1 173:1 175:1 178:1 
1 0 1:1 4:1 9:1 10:1 14:1 22:1 28:1 42:1 47:1 50:1 66:1 83:1 85:1 90:1 92:1 95:1 100:1 104:1 107:1 109:1 117:1 118:1 123:1 124:1 127:1 133:1 136:1 141:1 142:1 147:1 148:1 151:1 154:1 159:1 160:1 163:1 166:1 169:1 177:1 178:1 
1 0 3:1 6:1 8:1 14:1 16:1 20:1 22:1 27:1 29:1 33:1 35:1 39:1 41:1 44:1 47:1 51:1 54:1 56:1 61:1 71:1 77:1 81:1 83:1 85:1 90:1 92:1 98:1 100:1 104:1 107:1 109:1 117:1 120:1 121:1 129:1 130:1 138:1 139:1 145:1 152:1 156:1 158:1 161:1 165:1 167:1 171:1 173:1 179:1 
1 0 14:1 26:1 28:1 45:1 50:1 62:1 64:1 68:1 71:1 76:1 79:1 83:1 85:1 90:1 92:1 98:1 101:1 108:1 111:1 114:1 115:1 118:1 121:1 125:1 129:1 135:1 136:1 144:1 147:1 153:1 154:1 163:1 173:1 180:1 
0.003726992614729736 1 5:1 7:1 11:1 15:1 17:1 19:1 26:1 29:1 35:1 42:1 44:1 56:1 59:1 65:1 71:1 80:1 83:1 85:1 90:1 91:1 95:1 97:1 100:1 105:1 109:1 113:1 118:1 122:1 125:1 129:1 130:1 135:1 140:1 142:1 145:1 152:1 161:1 165:1 167:1 169:1 173:1 175:1 179:1 
1 0 1:1 5:1 7:1 12:1 14:1 21:1 23:1 25:1 35:1 41:1 43:1 51:1 53:1 62:1 65:1 72:1 74:1 77:1 81:1 83:1 85:1 90:1 98:1 107:1 110:1 113:1 116:1 118:1 121:1 128:1 131:1 133:1 138:1 141:1 146:1 152:1 155:1 159:1 162:1 163:1 168:1 171:1 173:1 180:1 
1 0.8917792236563788 4:1 7:1 11:1 14:1 16:1 19:1 24:1 28:1 31:1 35:1 39:1 40:1 44:1 50:1 58:1 61:1 68:1 71:1 79:1 83:1 85:1 90:1 91:1 99:1 102:1 105:1 106:1 109:1 112:1 117:1 120:1 123:1 125:1 131:1 134:1 143:1 145:1 148:1 153:1 157:1 165:1 167:1 170:1 177:1 180:1 
0 1 3:1 6:1 9:1 11:1 14:1 17:1 20:1 26:1 33:1 34:1 41:1 43:1 47:1 50:1 56:1 59:1 61:1 65:1 71:1 74:1 79:1 85:1 90:1 93:1 97:1 105:1 106:1 111:1 112:1 116:1 118:1 123:1 124:1 129:1 131:1 138:1 141:1 143:1 146:1 148:1 156:1 158:1 162:1 164:1 167:1 169:1 174:1 179:1 
1 1 3:1 4:1 9:1 13:1 21:1 24:1 25:1 38:1 40:1 44:1 46:1 56:1 61:1 64:1 68:1 70:1 74:1 76:1 85:1 90:1 91:1 94:1 99:1 101:1 108:1 110:1 112:1 117:1 120:1 121:1 129:1 131:1 138:1 139:1 142:1 145:1 156:1 158:1 160:1 163:1 168:1 171:1 173:1 180:1 
1 1 3:1 5:1 11:1 17:1 19:1 22:1 26:1 32:1 35:1 41:1 44:1 46:1 49:1 60:1 62:1 66:1 69:1 72:1 80:1 83:1 85:1 90:1 93:1 95:1 98:1 100:1 107:1 110:1 114:1 116:1 120:1 123:1 124:1 127:1 131:1 137:1 141:1 142:1 147:1 150:1 151:1 156:1 161:1 165:1 167:1 170:1 172:1 176:1 179:1 
1 1 4:1 7:1 11:1 14:1 16:1 23:1 29:1 35:1 38:1 41:1 47:1 55:1 58:1 62:1 68:1 71:1 74:1 77:1 85:1 90:1 93:1 97:1 111:1 113:1 120:1 121:1 125:1 128:1 135:1 147:1 148:1 152:1 155:1 158:1 165:1 171:1 172:1 179:1 
1 1 1:1 9:1 12:1 14:1 17:1 20:1 23:1 32:1 35:1 41:1 44:1 57:1 59:1 66:1 72:1 74:1 77:1 80:1 83:1 85:1 90:1 93:1 94:1 99:1 100:1 104:1 106:1 111:1 117:1 126:1 129:1 130:1 134:1 136:1 144:1 146:1 152:1 155:1 159:1 162:1 165:1 166:1 174:1 176:1 179:1 
1 0 2:1 4:1 8:1 14:1 16:1 20:1 24:1 25:1 30:1 36:1 41:1 51:1 53:1 59:1 65:1 68:1 78:1 79:1 83:1 85:1 90:1 94:1 102:1 108:1 111:1 114:1 115:1 118:1 123:1 125:1 128:1 131:1 133:1 136:1 141:1 142:1 145:1 152:1 155:1 159:1 162:1 164:1 166:1 169:1 172:1 176:1 179:1 
1 1 1:1 4:1 13:1 16:1 19:1 22:1 27:1 34:1 37:1 40:1 46:1 49:1 53:1 61:1 68:1 71:1 79:1 83:1 85:1 90:1 93:1 99:1 100:1 104:1 107:1 114:1 117:1 121:1 125:1 132:1 134:1 143:1 145:1 153:1 157:1 165:1 170:1 173:1 176:1 179:1 
0.8379680336985185 0 6:1 9:1 10:1 13:1 17:1 19:1 22:1 26:1 29:1 35:1 41:1 47:1 52:1 56:1 58:1 61:1 68:1 71:1 74:1 80:1 83:1 85:1 90:1 91:1 98:1 107:1 111:1 113:1 115:1 118:1 121:1 127:1 131:1 138:1 144:1 147:1 148:1 152:1 154:1 157:1 165:1 167:1 170:1 173:1 177:1 179:1 
0.8151479750203032 0 6:1 12:1 15:1 19:1 26:1 32:1 44:1 50:1 52:1 59:1 71:1 74:1 77:1 83:1 85:1 90:1 96:1 97:1 104:1 111:1 115:1 119:1 122:1 124:1 132:1 143:1 145:1 149:1 151:1 155:1 158:1 160:1 165:1 171:1 174:1 
1 0 5:1 11:1 13:1 17:1 22:1 27:1 30:1 32:1 35:1 38:1 47:1 56:1 59:1 68:1 71:1 74:1 77:1 79:1 82:1 85:1 90:1 92:1 102:1 104:1 110:1 113:1 115:1 120:1 123:1 125:1 132:1 135:1 136:1 142:1 146:1 148:1 151:1 156:1 159:1 162:1 165:1 167:1 171:1 174:1 177:1 
1 0 4:1 8:1 10:1 14:1 16:1 19:1 26:1 38:1 41:1 50:1 57:1 63:1 68:1 71:1 80:1 83:1 85:1 90:1 91:1 94:1 98:1 101:1 107:1 110:1 116:1 119:1 125:1 128:1 141:1 142:1 147:1 150:1 158:1 162:1 163:1 166:1 170:1 173:1 180:1 
0.08935940449862281 1 1:1 5:1 11:1 13:1 17:1 20:1 30:1 35:1 38:1 41:1 44:1 47:1 56:1 62:1 65:1 67:1 76:1 83:1 85:1 90:1 93:1 102:1 105:1 107:1 110:1 113:1 115:1 121:1 124:1 127:1 132:1 134:1 137:1 140:1 146:1 153:1 155:1 157:1 161:1 168:1 169:1 174:1 175:1 178:1 
0 1 2:1 5:1 9:1 12:1 13:1 20:1 22:1 32:1 34:1 42:1 43:1 47:1 50:1 62:1 68:1 78:1 80:1 83:1 85:1 90:1 93:1 101:1 104:1 111:1 114:1 115:1 123:1 125:1 128:1 133:1 141:1 143:1 150:1 151:1 156:1 158:1 160:1 164:1 166:1 169:1 174:1 
1 0 4:1 7:1 15:1 16:1 23:1 26:1 33:1 38:1 41:1 56:1 61:1 77:1 79:1 83:1 85:1 90:1 92:1 95:1 101:1 107:1 110:1 116:1 119:1 125:1 128:1 131:1 133:1 138:1 146:1 152:1 155:1 161:1 168:1 171:1 172:1 179:1 
1 1 3:1 4:1 9:1 12:1 15:1 16:1 20:1 27:1 28:1 31:1 36:1 38:1 41:1 44:1 46:1 51:1 56:1 58:1 66:1 68:1 71:1 74:1 79:1 83:1 85:1 90:1 93:1 94:1 99:1 100:1 107:1 110:1 114:1 120:1 121:1 126:1 135:1 137:1 139:1 144:1 147:1 149:1 155:1 157:1 162:1 164:1 173:1 175:1 180:1 
0.9568754214375073 0 2:1 5:1 11:1 14:1 20:1 22:1 26:1 42:1 44:1 47:1 50:1 53:1 60:1 65:1 67:1 71:1 74:1 85:1 90:1 93:1 94:1 97:1 102:1 106:1 109:1 112:1 115:1 120:1 123:1 125:1 128:1 133:1 137:1 139:1 142:1 147:1 149:1 152:1 155:1 157:1 162:1 163:1 174:1 176:1 179:1 
1 0 1:1 9:1 11:1 18:1 19:1 23:1 26:1 28:1 32:1 41:1 44:1 47:1 53:1 62:1 68:1 75:1 76:1 81:1 83:1 85:1 90:1 96:1 102:1 103:1 107:1 116:1 118:1 122:1 125:1 129:1 130:1 133:1 138:1 139:1 143:1 146:1 148:1 153:1 154:1 158:1 161:1 165:1 167:1 169:1 174:1 177:1 
1 0.0574862594436493 2:1 9:1 12:1 18:1 24:1 25:1 28:1 36:1 39:1 41:1 43:1 53:1 59:1 81:1 83:1 85:1 90:1 91:1 95:1 97:1 102:1 103:1 108:1 111:1 112:1 117:1 119:1 126:1 127:1 130:1 134:1 137:1 141:1 143:1 147:1 148:1 153:1 156:1 162:1 165:1 167:1 170:1 172:1 176:1 179:1 
0.1322574595252439 1 1:1 8:1 14:1 16:1 20:1 26:1 32:1 38:1 41:1 44:1 51:1 53:1 67:1 71:1 74:1 77:1 85:1 90:1 93:1 96:1 102:1 103:1 113:1 120:1 123:1 126:1 129:1 132:1 134:1 137:1 140:1 142:1 146:1 156:1 161:1 168:1 172:1 175:1 
0 0.8743979427892674 1:1 5:1 7:1 11:1 18:1 20:1 23:1 25:1 33:1 41:1 48:1 50:1 53:1 56:1 63:1 68:1 71:1 77:1 79:1 83:1 85:1 90:1 93:1 96:1 97:1 102:1 104:1 110:1 112:1 117:1 119:1 122:1 125:1 129:1 131:1 138:1 141:1 142:1 146:1 154:1 160:1 163:1 171:1 173:1 176:1 178:1 
1 0 1:1 4:1 7:1 10:1 13:1 21:1 22:1 33:1 37:1 50:1 53:1 65:1 68:1 74:1 80:1 83:1 85:1 90:1 91:1 95:1 101:1 108:1 109:1 114:1 117:1 118:1 128:1 131:1 138:1 146:1 149:1 156:1 160:1 164:1 166:1 172:1 175:1 178:1 
1 1 4:1 7:1 13:1 16:1 22:1 27:1 29:1 36:1 47:1 53:1 60:1 69:1 79:1 82:1 85:1 90:1 93:1 95:1 97:1 101:1 106:1 110:1 112:1 115:1 118:1 124:1 128:1 135:1 141:1 144:1 146:1 148:1 153:1 155:1 157:1 163:1 169:1 172:1 
1 0 5:1 13:1 16:1 22:1 25:1 29:1 31:1 34:1 42:1 44:1 46:1 55:1 61:1 65:1 77:1 85:1 90:1 91:1 94:1 103:1 107:1 109:1 112:1 117:1 118:1 121:1 128:1 131:1 134:1 136:1 139:1 142:1 146:1 152:1 154:1 158:1 161:1 163:1 168:1 171:1 172:1 180:1 
0.6131941720091846 0 2:1 5:1 7:1 11:1 17:1 22:1 36:1 38:1 40:1 57:1 66:1 68:1 70:1 83:1 85:1 90:1 91:1 96:1 99:1 100:1 103:1 107:1 109:1 116:1 118:1 121:1 126:1 127:1 130:1 133:1 140:1 142:1 150:1 151:1 154:1 158:1 160:1 163:1 167:1 180:1 
1 1 3:1 6:1 8:1 11:1 18:1 19:1 23:1 32:1 37:1 42:1 44:1 47:1 49:1 53:1 57:1 60:1 63:1 68:1 74:1 77:1 81:1 83:1 85:1 90:1 99:1 102:1 104:1 107:1 110:1 112:1 117:1 119:1 123:1 125:1 134:1 138:1 141:1 144:1 146:1 149:1 153:1 156:1 162:1 170:1 172:1 176:1 180:1 
1 0.5153245488975369 2:1 5:1 12:1 13:1 17:1 23:1 29:1 31:1 36:1 38:1 41:1 48:1 51:1 53:1 58:1 65:1 72:1 80:1 85:1 90:1 91:1 94:1 102:1 107:1 110:1 117:1 119:1 122:1 129:1 132:1 134:1 141:1 147:1 150:1 152:1 161:1 167:1 170:1 177:1 
1 1 1:1 6:1 8:1 11:1 18:1 21:1 24:1 26:1 33:1 34:1 38:1 41:1 44:1 47:1 49:1 53:1 57:1 62:1 69:1 72:1 74:1 77:1 79:1 83:1 85:1 90:1 93:1 95:1 98:1 101:1 105:1 107:1 111:1 117:1 119:1 126:1 128:1 131:1 134:1 137:1 141:1 144:1 145:1 148:1 153:1 158:1 163:1 171:1 173:1 177:1 
1 1 3:1 9:1 10:1 15:1 20:1 22:1 26:1 29:1 36:1 42:1 43:1 47:1 50:1 52:1 56:1 62:1 72:1 83:1 85:1 90:1 93:1 94:1 102:1 103:1 109:1 112:1 117:1 120:1 121:1 129:1 131:1 134:1 143:1 148:1 156:1 162:1 165:1 167:1 169:1 174:1 175:1 179:1 
1 0 9:1 17:1 20:1 23:1 25:1 28:1 32:1 35:1 38:1 41:1 53:1 62:1 65:1 68:1 77:1 80:1 83:1 85:1 90:1 93:1 96:1 99:1 101:1 108:1 110:1 113:1 117:1 120:1 123:1 124:1 129:1 132:1 134:1 139:1 146:1 148:1 151:1 154:1 157:1 162:1 165:1 166:1 173:1 177:1 179:1 
0 0.4316273062479826 5:1 8:1 11:1 17:1 24:1 33:1 35:1 38:1 41:1 47:1 54:1 57:1 68:1 74:1 77:1 80:1 83:1 85:1 90:1 93:1 95:1 101:1 104:1 107:1 111:1 114:1 115:1 119:1 123:1 128:1 131:1 134:1 141:1 143:1 149:1 152:1 159:1 162:1 164:1 180:1 
0.3791149982701957 0 1:1 4:1 7:1 13:1 29:1 31:1 38:1 41:1 44:1 49:1 61:1 74:1 79:1 83:1 85:1 90:1 96:1 98:1 103:1 107:1 109:1 112:1 120:1 121:1 124:1 127:1 130:1 133:1 138:1 139:1 142:1 147:1 150:1 153:1 159:1 160:1 165:1 166:1 169:1 174:1 175:1 180:1 
1 1 2:1 4:1 9:1 11:1 18:1 19:1 23:1 29:1 32:1 35:1 37:1 42:1 43:1 48:1 53:1 56:1 58:1 62:1 68:1 71:1 74:1 81:1 85:1 90:1 93:1 98:1 102:1 105:1 108:1 110:1 112:1 117:1 119:1 121:1 126:1 129:1 131:1 134:1 138:1 142:1 147:1 148:1 151:1 156:1 161:1 168:1 171:1 173:1 175:1 180:1 
1 1 3:1 7:1 13:1 16:1 20:1 23:1 26:1 33:1 35:1 39:1 40:1 48:1 50:1 53:1 60:1 64:1 71:1 76:1 79:1 83:1 85:1 90:1 93:1 99:1 100:1 105:1 106:1 111:1 113:1 115:1 119:1 121:1 126:1 130:1 133:1 138:1 141:1 142:1 146:1 151:1 162:1 164:1 169:1 177:1 180:1 
1 0.4073348720212989 1:1 5:1 7:1 10:1 13:1 16:1 20:1 35:1 38:1 41:1 59:1 61:1 64:1 71:1 76:1 79:1 85:1 90:1 94:1 98:1 102:1 105:1 107:1 109:1 114:1 116:1 123:1 125:1 130:1 141:1 143:1 151:1 159:1 162:1 164:1 167:1 174:1 177:1 178:1 
1 1 2:1 14:1 20:1 23:1 25:1 28:1 31:1 35:1 37:1 43:1 46:1 49:1 52:1 58:1 71:1 79:1 85:1 90:1 92:1 97:1 101:1 104:1 111:1 113:1 116:1 128:1 135:1 138:1 139:1 142:1 147:1 148:1 151:1 155:1 168:1 170:1 173:1 175:1 
1 1 2:1 12:1 13:1 18:1 20:1 23:1 26:1 33:1 35:1 38:1 48:1 54:1 56:1 59:1 65:1 68:1 75:1 77:1 79:1 83:1 85:1 90:1 93:1 96:1 97:1 100:1 108:1 110:1 117:1 120:1 122:1 124:1 129:1 132:1 133:1 139:1 142:1 147:1 150:1 151:1 156:1 158:1 162:1 164:1 167:1 169:1 174:1 176:1 
1 1 1:1 6:1 9:1 22:1 26:1 30:1 31:1 40:1 48:1 52:1 60:1 61:1 70:1 74:1 81:1 83:1 85:1 90:1 93:1 97:1 102:1 104:1 108:1 110:1 117:1 120:1 124:1 130:1 138:1 141:1 146:1 148:1 151:1 154:1 162:1 163:1 166:1 174:1 175:1 178:1 
0.6422734253487992 0.7908588703409388 6:1 9:1 11:1 14:1 17:1 24:1 25:1 29:1 35:1 37:1 40:1 45:1 47:1 50:1 56:1 66:1 68:1 71:1 80:1 83:1 85:1 90:1 98:1 101:1 105:1 108:1 109:1 112:1 116:1 123:1 125:1 127:1 135:1 137:1 143:1 145:1 149:1 152:1 154:1 158:1 161:1 163:1 170:1 177:1 179:1 
0.3258556506958897 0 4:1 7:1 10:1 17:1 26:1 31:1 36:1 38:1 44:1 49:1 64:1 77:1 79:1 83:1 85:1 90:1 91:1 101:1 103:1 115:1 123:1 124:1 129:1 130:1 136:1 141:1 143:1 145:1 148:1 153:1 154:1 157:1 162:1 165:1 167:1 169:1 176:1 179:1 
0.7375134266634427 0 3:1 6:1 9:1 12:1 14:1 17:1 24:1 25:1 33:1 36:1 37:1 41:1 48:1 53:1 56:1 59:1 62:1 64:1 71:1 74:1 81:1 83:1 85:1 90:1 91:1 102:1 103:1 108:1 111:1 112:1 117:1 118:1 123:1 125:1 127:1 131:1 134:1 136:1 140:1 142:1 147:1 153:1 156:1 161:1 163:1 167:1 170:1 172:1 176:1 178:1 
0.04988811314787778 0 2:1 10:1 14:1 41:1 47:1 49:1 59:1 65:1 68:1 73:1 76:1 80:1 83:1 85:1 90:1 93:1 95:1 102:1 103:1 107:1 109:1 118:1 127:1 134:1 138:1 141:1 142:1 146:1 148:1 152:1 160:1 168:1 172:1 179:1 
0.5672264523167445 0.9753856266285287 5:1 8:1 11:1 17:1 24:1 33:1 35:1 38:1 41:1 47:1 54:1 57:1 68:1 74:1 77:1 80:1 83:1 85:1 90:1 93:1 95:1 101:1 104:1 107:1 111:1 114:1 115:1 119:1 123:1 128:1 131:1 134:1 141:1 143:1 149:1 152:1 159:1 162:1 164:1 180:1 
1 0 3:1 9:1 10:1 15:1 18:1 20:1 22:1 29:1 32:1 34:1 42:1 44:1 47:1 50:1 57:1 59:1 65:1 71:1 78:1 83:1 85:1 90:1 91:1 97:1 101:1 104:1 106:1 111:1 114:1 117:1 119:1 122:1 124:1 128:1 132:1 138:1 140:1 145:1 149:1 153:1 154:1 159:1 162:1 163:1 167:1 170:1 172:1 177:1 180:1 
1 1 1:1 6:1 7:1 11:1 13:1 27:1 29:1 36:1 38:1 40:1 44:1 56:1 59:1 69:1 71:1 81:1 85:1 90:1 93:1 102:1 105:1 120:1 122:1 126:1 129:1 130:1 141:1 143:1 146:1 148:1 152:1 159:1 160:1 168:1 169:1 179:1 
1 0 3:1 9:1 12:1 14:1 16:1 20:1 23:1 27:1 28:1 32:1 39:1 40:1 44:1 46:1 50:1 56:1 59:1 68:1 71:1 77:1 79:1 85:1 90:1 91:1 96:1 101:1 103:1 111:1 113:1 115:1 118:1 123:1 126:1 129:1 131:1 134:1 138:1 140:1 147:1 149:1 151:1 155:1 162:1 163:1 168:1 171:1 174:1 176:1 
0.3064890666543966 0 1:1 5:1 8:1 11:1 14:1 17:1 19:1 26:1 29:1 35:1 37:1 41:1 47:1 54:1 56:1 62:1 68:1 74:1 81:1 83:1 85:1 90:1 92:1 98:1 101:1 103:1 109:1 112:1 115:1 123:1 128:1 130:1 134:1 137:1 147:1 150:1 153:1 156:1 159:1 161:1 164:1 167:1 169:1 173:1 175:1 178:1 
0.5502797527281573 0 1:1 6:1 9:1 12:1 14:1 17:1 20:1 23:1 29:1 31:1 35:1 38:1 47:1 50:1 53:1 56:1 62:1 65:1 77:1 80:1 83:1 85:1 90:1 91:1 96:1 98:1 101:1 103:1 110:1 119:1 122:1 125:1 127:1 132:1 134:1 137:1 140:1 142:1 146:1 149:1 151:1 158:1 161:1 164:1 167:1 169:1 176:1 180:1 
1 0 2:1 5:1 11:1 17:1 24:1 28:1 31:1 35:1 40:1 44:1 47:1 54:1 63:1 68:1 74:1 80:1 83:1 85:1 90:1 92:1 99:1 104:1 109:1 116:1 119:1 121:1 125:1 129:1 130:1 135:1 137:1 141:1 142:1 147:1 148:1 151:1 156:1 157:1 161:1 163:1 168:1 170:1 173:1 176:1 179:1 
1 1 3:1 5:1 8:1 11:1 14:1 17:1 19:1 22:1 26:1 29:1 31:1 35:1 39:1 41:1 47:1 54:1 63:1 65:1 71:1 81:1 83:1 85:1 90:1 92:1 96:1 97:1 100:1 105:1 107:1 110:1 113:1 115:1 119:1 122:1 124:1 128:1 132:1 133:1 137:1 141:1 143:1 146:1 148:1 153:1 155:1 159:1 161:1 164:1 168:1 170:1 174:1 175:1 179:1 
1 0 5:1 13:1 16:1 22:1 25:1 29:1 31:1 34:1 42:1 44:1 46:1 55:1 61:1 65:1 77:1 85:1 90:1 91:1 94:1 103:1 107:1 109:1 112:1 117:1 118:1 121:1 128:1 131:1 134:1 136:1 139:1 142:1 146:1 152:1 154:1 158:1 161:1 163:1 168:1 171:1 172:1 180:1 
1 1 1:1 6:1 9:1 11:1 18:1 19:1 24:1 30:1 36:1 38:1 42:1 43:1 51:1 54:1 55:1 59:1 62:1 65:1 72:1 79:1 83:1 85:1 90:1 91:1 94:1 97:1 101:1 104:1 106:1 111:1 113:1 116:1 119:1 126:1 127:1 132:1 134:1 136:1 139:1 142:1 147:1 150:1 153:1 156:1 164:1 171:1 172:1 177:1 180:1 
1 0.6178606580231457 7:1 13:1 16:1 20:1 30:1 33:1 36:1 38:1 48:1 51:1 56:1 65:1 72:1 79:1 83:1 85:1 90:1 95:1 105:1 108:1 114:1 115:1 123:1 125:1 128:1 138:1 141:1 142:1 146:1 148:1 153:1 155:1 157:1 162:1 164:1 166:1 169:1 173:1 179:1 
1 1 3:1 9:1 10:1 14:1 22:1 25:1 28:1 31:1 39:1 40:1 43:1 46:1 58:1 76:1 79:1 85:1 90:1 93:1 99:1 100:1 103:1 107:1 109:1 115:1 118:1 124:1 135:1 136:1 141:1 144:1 145:1 150:1 151:1 155:1 157:1 162:1 163:1 166:1 170:1 172:1 178:1 
1 0 3:1 5:1 12:1 14:1 21:1 22:1 26:1 28:1 32:1 38:1 44:1 47:1 53:1 56:1 58:1 69:1 71:1 83:1 85:1 90:1 91:1 96:1 101:1 103:1 107:1 110:1 117:1 120:1 126:1 129:1 137:1 144:1 146:1 150:1 152:1 155:1 164:1 167:1 170:1 173:1 178:1 
0 0.3955404811800254 3:1 5:1 7:1 10:1 13:1 17:1 23:1 29:1 36:1 39:1 41:1 50:1 56:1 62:1 68:1 81:1 83:1 85:1 90:1 91:1 99:1 100:1 104:1 108:1 111:1 113:1 120:1 122:1 125:1 128:1 132:1 133:1 136:1 141:1 143:1 146:1 149:1 152:1 155:1 158:1 162:1 163:1 168:1 169:1 180:1 
1 1 2:1 18:1 22:1 25:1 34:1 37:1 45:1 46:1 51:1 52:1 70:1 85:1 90:1 91:1 99:1 101:1 104:1 111:1 112:1 117:1 120:1 121:1 124:1 129:1 135:1 137:1 139:1 143:1 146:1 148:1 156:1 159:1 160:1 165:1 166:1 171:1 174:1 175:1 180:1 
1 0 3:1 6:1 9:1 11:1 15:1 17:1 24:1 29:1 32:1 39:1 53:1 59:1 62:1 69:1 75:1 81:1 83:1 85:1 90:1 91:1 95:1 98:1 102:1 111:1 114:1 117:1 120:1 123:1 126:1 129:1 135:1 136:1 139:1 148:1 152:1 161:1 170:1 174:1 175:1 179:1 
1 0 2:1 5:1 7:1 15:1 24:1 29:1 36:1 38:1 41:1 43:1 53:1 60:1 63:1 65:1 68:1 80:1 83:1 85:1 90:1 91:1 94:1 98:1 100:1 107:1 109:1 112:1 120:1 122:1 126:1 129:1 131:1 134:1 136:1 139:1 142:1 149:1 154:1 159:1 170:1 173:1 179:1 
1 1 1:1 6:1 8:1 11:1 15:1 23:1 27:1 30:1 32:1 41:1 48:1 51:1 54:1 56:1 62:1 69:1 74:1 77:1 79:1 83:1 85:1 90:1 93:1 96:1 97:1 105:1 107:1 114:1 116:1 119:1 126:1 127:1 131:1 134:1 137:1 140:1 142:1 145:1 150:1 151:1 154:1 158:1 162:1 168:1 170:1 172:1 176:1 178:1 
0.1821707303589045 0 6:1 8:1 10:1 15:1 17:1 21:1 22:1 26:1 29:1 35:1 38:1 45:1 59:1 65:1 68:1 78:1 81:1 83:1 85:1 90:1 91:1 94:1 99:1 102:1 103:1 106:1 111:1 113:1 116:1 118:1 125:1 131:1 134:1 137:1 140:1 146:1 149:1 151:1 156:1 157:1 165:1 167:1 171:1 174:1 176:1 179:1 
1 1 3:1 7:1 12:1 13:1 17:1 20:1 30:1 33:1 39:1 42:1 45:1 47:1 51:1 54:1 59:1 62:1 71:1 77:1 80:1 85:1 90:1 93:1 94:1 97:1 102:1 103:1 106:1 111:1 113:1 116:1 121:1 127:1 134:1 137:1 140:1 142:1 145:1 148:1 153:1 156:1 157:1 160:1 164:1 166:1 171:1 172:1 175:1 180:1 
1 0.2206875962106505 6:1 9:1 12:1 13:1 19:1 24:1 25:1 28:1 31:1 35:1 41:1 43:1 47:1 56:1 59:1 64:1 68:1 70:1 80:1 83:1 85:1 90:1 91:1 99:1 102:1 103:1 106:1 114:1 116:1 122:1 128:1 135:1 137:1 139:1 144:1 147:1 149:1 152:1 154:1 157:1 162:1 164:1 167:1 170:1 174:1 176:1 178:1 
1 1 2:1 5:1 12:1 15:1 17:1 19:1 22:1 27:1 29:1 33:1 35:1 42:1 43:1 48:1 50:1 54:1 57:1 58:1 63:1 64:1 71:1 81:1 83:1 85:1 90:1 93:1 95:1 97:1 102:1 108:1 111:1 113:1 116:1 126:1 131:1 135:1 140:1 144:1 145:1 148:1 153:1 158:1 165:1 168:1 170:1 173:1 
1 0 3:1 6:1 9:1 12:1 14:1 16:1 21:1 24:1 25:1 29:1 35:1 38:1 40:1 44:1 47:1 50:1 54:1 55:1 62:1 64:1 74:1 77:1 80:1 83:1 85:1 90:1 91:1 101:1 103:1 108:1 110:1 112:1 117:1 119:1 123:1 124:1 128:1 135:1 137:1 139:1 144:1 147:1 148:1 153:1 156:1 157:1 162:1 164:1 169:1 174:1 175:1 179:1 
0 1 3:1 5:1 8:1 14:1 19:1 29:1 33:1 39:1 41:1 45:1 50:1 56:1 59:1 63:1 68:1 74:1 77:1 81:1 83:1 85:1 90:1 93:1 98:1 100:1 105:1 107:1 113:1 116:1 120:1 122:1 125:1 129:1 130:1 133:1 138:1 141:1 143:1 147:1 149:1 152:1 156:1 158:1 161:1 163:1 166:1 171:1 174:1 175:1 178:1 
1 1 2:1 4:1 9:1 12:1 17:1 20:1 23:1 30:1 31:1 34:1 37:1 41:1 47:1 59:1 65:1 68:1 76:1 80:1 83:1 85:1 90:1 92:1 97:1 103:1 110:1 117:1 120:1 123:1 129:1 135:1 138:1 144:1 146:1 153:1 156:1 158:1 160:1 165:1 167:1 174:1 180:1 
1 1 8:1 15:1 18:1 27:1 29:1 32:1 35:1 42:1 43:1 47:1 54:1 56:1 59:1 66:1 81:1 85:1 90:1 93:1 95:1 98:1 100:1 105:1 107:1 110:1 122:1 126:1 127:1 131:1 134:1 137:1 140:1 142:1 146:1 149:1 158:1 161:1 167:1 169:1 176:1 180:1 
1 0 3:1 5:1 8:1 15:1 17:1 24:1 25:1 28:1 32:1 38:1 40:1 44:1 46:1 50:1 57:1 68:1 74:1 77:1 79:1 83:1 85:1 90:1 92:1 96:1 98:1 100:1 108:1 109:1 114:1 115:1 120:1 122:1 125:1 128:1 130:1 135:1 137:1 140:1 143:1 147:1 150:1 152:1 154:1 158:1 161:1 164:1 167:1 174:1 180:1 
1 1 2:1 5:1 8:1 12:1 14:1 17:1 20:1 24:1 27:1 30:1 32:1 35:1 38:1 42:1 44:1 47:1 50:1 54:1 56:1 60:1 65:1 68:1 71:1 81:1 85:1 90:1 105:1 108:1 111:1 112:1 117:1 120:1 126:1 127:1 134:1 136:1 141:1 143:1 147:1 148:1 156:1 157:1 162:1 164:1 166:1 170:1 174:1 177:1 179:1 
0.2214433269582238 0 1:1 18:1 19:1 22:1 26:1 29:1 32:1 35:1 42:1 44:1 47:1 50:1 52:1 59:1 68:1 71:1 78:1 81:1 83:1 85:1 90:1 93:1 95:1 98:1 101:1 103:1 108:1 110:1 113:1 116:1 119:1 121:1 126:1 128:1 131:1 134:1 136:1 141:1 144:1 147:1 150:1 151:1 155:1 158:1 161:1 164:1 166:1 171:1 172:1 176:1 180:1 
1 1 3:1 4:1 10:1 14:1 17:1 20:1 28:1 38:1 41:1 44:1 51:1 57:1 60:1 61:1 69:1 74:1 77:1 83:1 85:1 90:1 93:1 95:1 98:1 105:1 107:1 112:1 116:1 123:1 124:1 128:1 131:1 134:1 141:1 143:1 145:1 150:1 152:1 155:1 157:1 162:1 163:1 166:1 170:1 172:1 177:1 178:1 
1 1 1:1 4:1 7:1 11:1 18:1 19:1 24:1 26:1 33:1 34:1 42:1 43:1 49:1 52:1 61:1 70:1 80:1 85:1 90:1 93:1 95:1 98:1 100:1 104:1 106:1 111:1 112:1 115:1 119:1 126:1 127:1 130:1 133:1 137:1 139:1 146:1 155:1 157:1 162:1 168:1 173:1 178:1 
0 0.5214984152826466 6:1 7:1 11:1 14:1 16:1 21:1 24:1 29:1 32:1 39:1 57:1 65:1 70:1 74:1 80:1 83:1 85:1 90:1 93:1 95:1 97:1 102:1 104:1 108:1 109:1 113:1 115:1 120:1 126:1 128:1 131:1 134:1 136:1 141:1 144:1 147:1 149:1 155:1 162:1 163:1 171:1 177:1 
1 1 5:1 15:1 19:1 36:1 51:1 64:1 67:1 70:1 77:1 79:1 83:1 85:1 90:1 93:1 104:1 110:1 112:1 121:1 124:1 128:1 131:1 141:1 147:1 148:1 151:1 156:1 158:1 160:1 163:1 166:1 169:1 174:1 176:1 179:1 
1 0 1:1 8:1 11:1 21:1 24:1 33:1 39:1 50:1 53:1 63:1 66:1 68:1 71:1 74:1 81:1 83:1 85:1 90:1 92:1 94:1 99:1 102:1 103:1 111:1 112:1 115:1 120:1 122:1 128:1 134:1 137:1 139:1 143:1 150:1 153:1 155:1 157:1 164:1 166:1 
0 0.6809713590186052 2:1 5:1 7:1 11:1 14:1 17:1 23:1 26:1 28:1 33:1 35:1 38:1 41:1 44:1 47:1 49:1 54:1 56:1 62:1 65:1 71:1 74:1 81:1 83:1 85:1 90:1 91:1 95:1 97:1 100:1 105:1 107:1 114:1 117:1 123:1 128:1 133:1 138:1 141:1 142:1 145:1 149:1 154:1 158:1 161:1 164:1 168:1 171:1 172:1 176:1 179:1 
0.5996988315723534 0.4014633108689158 3:1 5:1 7:1 11:1 14:1 17:1 19:1 27:1 28:1 32:1 35:1 42:1 45:1 47:1 53:1 59:1 62:1 65:1 68:1 71:1 80:1 83:1 85:1 90:1 93:1 94:1 99:1 102:1 104:1 111:1 117:1 118:1 121:1 126:1 127:1 132:1 134:1 138:1 141:1 143:1 145:1 155:1 157:1 161:1 164:1 168:1 172:1 176:1 
0.9377464996167895 0 3:1 6:1 8:1 11:1 17:1 23:1 26:1 35:1 41:1 50:1 53:1 62:1 64:1 68:1 81:1 83:1 85:1 90:1 91:1 96:1 99:1 101:1 108:1 111:1 112:1 115:1 120:1 121:1 129:1 132:1 134:1 136:1 141:1 143:1 146:1 149:1 152:1 155:1 159:1 162:1 163:1 167:1 174:1 177:1 180:1 
1 1 3:1 4:1 8:1 10:1 15:1 16:1 21:1 23:1 26:1 33:1 36:1 39:1 45:1 48:1 51:1 53:1 55:1 62:1 69:1 71:1 74:1 77:1 79:1 83:1 85:1 90:1 91:1 95:1 102:1 105:1 110:1 113:1 116:1 119:1 122:1 124:1 127:1 132:1 135:1 141:1 144:1 150:1 153:1 154:1 159:1 161:1 168:1 174:1 178:1 
0.8044493188311324 1 3:1 6:1 8:1 11:1 14:1 17:1 23:1 25:1 29:1 31:1 36:1 39:1 40:1 44:1 46:1 62:1 71:1 74:1 76:1 79:1 83:1 85:1 90:1 93:1 99:1 102:1 103:1 106:1 109:1 112:1 117:1 120:1 121:1 126:1 129:1 132:1 133:1 138:1 140:1 145:1 149:1 155:1 160:1 163:1 168:1 171:1 173:1 180:1 
1 0 10:1 14:1 19:1 22:1 34:1 37:1 40:1 45:1 46:1 50:1 53:1 60:1 71:1 74:1 77:1 79:1 85:1 90:1 93:1 94:1 99:1 101:1 107:1 109:1 114:1 119:1 126:1 127:1 130:1 136:1 146:1 156:1 159:1 160:1 165:1 166:1 169:1 172:1 177:1 178:1 
0 1 2:1 5:1 11:1 18:1 19:1 36:1 38:1 47:1 50:1 53:1 55:1 59:1 62:1 71:1 74:1 81:1 83:1 85:1 90:1 93:1 99:1 102:1 103:1 106:1 111:1 116:1 118:1 121:1 126:1 127:1 135:1 138:1 139:1 144:1 147:1 150:1 153:1 156:1 157:1 161:1 167:1 174:1 180:1 
0.04950436735698068 0 1:1 6:1 9:1 10:1 14:1 18:1 20:1 26:1 28:1 33:1 39:1 41:1 48:1 50:1 66:1 68:1 71:1 83:1 85:1 90:1 91:1 94:1 97:1 101:1 104:1 110:1 113:1 120:1 122:1 124:1 127:1 130:1 133:1 138:1 144:1 147:1 148:1 151:1 156:1 158:1 162:1 163:1 166:1 171:1 173:1 176:1 180:1 
1 1 1:1 5:1 15:1 16:1 19:1 22:1 28:1 47:1 53:1 56:1 58:1 62:1 64:1 70:1 83:1 85:1 90:1 105:1 113:1 115:1 123:1 124:1 127:1 133:1 143:1 145:1 148:1 153:1 154:1 157:1 162:1 163:1 167:1 169:1 176:1 179:1 
1 0 5:1 13:1 16:1 20:1 23:1 26:1 28:1 31:1 36:1 41:1 44:1 47:1 51:1 58:1 62:1 68:1 77:1 80:1 83:1 85:1 90:1 93:1 94:1 98:1 101:1 103:1 107:1 119:1 126:1 138:1 139:1 145:1 148:1 153:1 155:1 158:1 165:1 171:1 176:1 179:1 
0 1 1:1 6:1 8:1 13:1 16:1 21:1 26:1 29:1 36:1 38:1 41:1 44:1 50:1 52:1 65:1 68:1 71:1 77:1 83:1 85:1 90:1 93:1 95:1 97:1 105:1 108:1 109:1 114:1 119:1 122:1 129:1 135:1 138:1 140:1 142:1 149:1 152:1 154:1 158:1 162:1 163:1 166:1 169:1 173:1 178:1 
1 0 2:1 12:1 14:1 17:1 19:1 23:1 30:1 32:1 34:1 38:1 44:1 47:1 49:1 55:1 59:1 66:1 68:1 70:1 78:1 79:1 83:1 85:1 90:1 91:1 96:1 98:1 100:1 103:1 108:1 109:1 113:1 116:1 119:1 126:1 131:1 137:1 145:1 150:1 151:1 154:1 157:1 160:1 163:1 166:1 171:1 172:1 175:1 178:1 
1 0 1:1 4:1 7:1 15:1 21:1 22:1 25:1 38:1 45:1 48:1 49:1 79:1 85:1 90:1 92:1 94:1 102:1 114:1 120:1 125:1 127:1 136:1 141:1 147:1 148:1 151:1 154:1 158:1 165:1 168:1 169:1 172:1 175:1 178:1 
1 1 3:1 7:1 24:1 25:1 29:1 32:1 35:1 40:1 44:1 47:1 53:1 57:1 68:1 71:1 81:1 85:1 90:1 93:1 98:1 104:1 106:1 111:1 113:1 116:1 126:1 129:1 130:1 137:1 139:1 144:1 147:1 148:1 153:1 154:1 163:1 174:1 175:1 178:1 
1 1 3:1 9:1 12:1 15:1 24:1 33:1 34:1 39:1 42:1 45:1 48:1 49:1 52:1 56:1 58:1 63:1 66:1 69:1 72:1 73:1 77:1 79:1 85:1 90:1 92:1 99:1 105:1 107:1 112:1 120:1 121:1 126:1 129:1 140:1 153:1 154:1 158:1 167:1 169:1 172:1 180:1 
1 1 4:1 7:1 10:1 15:1 18:1 26:1 34:1 41:1 47:1 53:1 58:1 65:1 70:1 74:1 85:1 90:1 93:1 94:1 97:1 102:1 103:1 110:1 113:1 115:1 120:1 122:1 131:1 134:1 136:1 139:1 144:1 150:1 152:1 155:1 157:1 161:1 168:1 170:1 172:1 177:1 
1 0 5:1 13:1 16:1 22:1 25:1 29:1 31:1 34:1 42:1 44:1 46:1 55:1 61:1 65:1 77:1 85:1 90:1 91:1 94:1 103:1 107:1 109:1 112:1 117:1 118:1 121:1 128:1 131:1 134:1 136:1 139:1 142:1 146:1 152:1 154:1 158:1 161:1 163:1 168:1 171:1 172:1 180:1 
0.3179729949349853 1 2:1 5:1 11:1 14:1 17:1 24:1 26:1 29:1 32:1 35:1 37:1 50:1 53:1 58:1 62:1 65:1 68:1 71:1 73:1 77:1 79:1 83:1 85:1 90:1 93:1 98:1 101:1 104:1 111:1 113:1 116:1 118:1 125:1 131:1 134:1 144:1 147:1 149:1 152:1 157:1 165:1 166:1 171:1 174:1 176:1 178:1 
1 1 2:1 11:1 14:1 19:1 23:1 30:1 31:1 34:1 37:1 41:1 48:1 49:1 52:1 56:1 59:1 62:1 68:1 71:1 73:1 76:1 80:1 83:1 85:1 90:1 93:1 96:1 97:1 102:1 104:1 107:1 110:1 113:1 117:1 118:1 123:1 127:1 134:1 138:1 141:1 143:1 145:1 150:1 152:1 154:1 159:1 164:1 166:1 171:1 173:1 175:1 180:1 
1 1 3:1 5:1 8:1 10:1 14:1 16:1 21:1 23:1 26:1 29:1 31:1 36:1 53:1 59:1 66:1 67:1 71:1 74:1 77:1 79:1 85:1 90:1 95:1 105:1 107:1 111:1 113:1 116:1 119:1 122:1 124:1 129:1 132:1 133:1 138:1 143:1 152:1 154:1 159:1 165:1 171:1 177:1 178:1 
0 0.1731623633989792 2:1 5:1 7:1 12:1 17:1 19:1 23:1 26:1 28:1 32:1 34:1 39:1 42:1 43:1 47:1 50:1 53:1 56:1 66:1 71:1 74:1 77:1 79:1 83:1 85:1 90:1 93:1 98:1 104:1 117:1 118:1 123:1 125:1 128:1 135:1 138:1 139:1 144:1 145:1 149:1 151:1 159:1 160:1 163:1 166:1 172:1 176:1 180:1 
1 1 2:1 8:1 10:1 21:1 22:1 25:1 28:1 32:1 34:1 39:1 41:1 46:1 52:1 65:1 83:1 85:1 90:1 91:1 100:1 105:1 111:1 112:1 120:1 121:1 129:1 130:1 133:1 137:1 140:1 142:1 147:1 150:1 157:1 165:1 166:1 170:1 173:1 
0 0.9872793876372467 2:1 6:1 12:1 13:1 18:1 24:1 25:1 32:1 35:1 42:1 47:1 50:1 56:1 62:1 65:1 67:1 71:1 74:1 77:1 81:1 83:1 85:1 90:1 93:1 96:1 98:1 101:1 105:1 107:1 111:1 119:1 123:1 125:1 127:1 131:1 134:1 136:1 139:1 142:1 145:1 149:1 152:1 156:1 162:1 163:1 166:1 171:1 172:1 175:1 180:1 
1 1 3:1 6:1 7:1 10:1 14:1 19:1 22:1 27:1 30:1 31:1 36:1 38:1 41:1 43:1 51:1 54:1 55:1 62:1 69:1 72:1 77:1 80:1 85:1 90:1 93:1 95:1 97:1 105:1 108:1 114:1 117:1 123:1 124:1 129:1 132:1 133:1 137:1 142:1 146:1 150:1 155:1 164:1 170:1 173:1 176:1 
1 0.002068046457805377 3:1 5:1 9:1 11:1 13:1 17:1 19:1 23:1 26:1 29:1 35:1 38:1 41:1 45:1 47:1 53:1 65:1 69:1 72:1 74:1 81:1 83:1 85:1 90:1 93:1 94:1 98:1 102:1 104:1 111:1 112:1 120:1 123:1 124:1 128:1 132:1 133:1 138:1 139:1 143:1 146:1 148:1 156:1 157:1 160:1 165:1 168:1 169:1 174:1 
1 1 2:1 9:1 17:1 23:1 36:1 39:1 41:1 48:1 54:1 60:1 66:1 68:1 81:1 85:1 90:1 97:1 105:1 110:1 112:1 116:1 120:1 122:1 124:1 131:1 138:1 139:1 147:1 148:1 151:1 156:1 158:1 162:1 163:1 166:1 176:1 178:1 
0 1 2:1 5:1 8:1 10:1 14:1 20:1 27:1 28:1 32:1 39:1 45:1 47:1 50:1 53:1 59:1 66:1 68:1 71:1 74:1 81:1 83:1 85:1 90:1 93:1 94:1 99:1 100:1 105:1 109:1 117:1 118:1 122:1 125:1 132:1 134:1 138:1 141:1 143:1 147:1 149:1 156:1 159:1 162:1 163:1 168:1 169:1 172:1 177:1 
1 0 2:1 5:1 7:1 10:1 15:1 18:1 20:1 25:1 28:1 32:1 41:1 48:1 66:1 73:1 77:1 85:1 90:1 99:1 102:1 103:1 108:1 109:1 112:1 117:1 120:1 121:1 124:1 128:1 132:1 133:1 138:1 139:1 144:1 145:1 148:1 153:1 156:1 157:1 160:1 163:1 172:1 177:1 
0.3786175127935699 0 4:1 10:1 13:1 24:1 36:1 37:1 44:1 46:1 59:1 68:1 71:1 80:1 83:1 85:1 90:1 93:1 96:1 99:1 101:1 103:1 106:1 109:1 112:1 117:1 118:1 122:1 124:1 132:1 138:1 141:1 142:1 147:1 148:1 153:1 155:1 158:1 163:1 167:1 173:1 180:1 
0 1 1:1 11:1 14:1 16:1 19:1 22:1 25:1 28:1 36:1 38:1 50:1 62:1 65:1 68:1 71:1 74:1 81:1 83:1 85:1 90:1 93:1 99:1 100:1 105:1 106:1 109:1 114:1 115:1 123:1 124:1 128:1 130:1 135:1 136:1 141:1 144:1 145:1 148:1 153:1 154:1 157:1 162:1 166:1 171:1 172:1 177:1 178:1 
1 1 3:1 6:1 9:1 10:1 13:1 17:1 20:1 27:1 28:1 32:1 36:1 39:1 40:1 45:1 46:1 50:1 53:1 56:1 63:1 66:1 69:1 71:1 80:1 83:1 85:1 90:1 93:1 99:1 102:1 104:1 107:1 109:1 116:1 118:1 121:1 124:1 128:1 130:1 134:1 138:1 144:1 147:1 148:1 153:1 154:1 157:1 162:1 165:1 166:1 170:1 173:1 177:1 180:1 
0.3678410466900909 0 9:1 11:1 17:1 19:1 24:1 26:1 29:1 35:1 39:1 41:1 48:1 50:1 60:1 62:1 65:1 71:1 74:1 81:1 83:1 85:1 90:1 91:1 95:1 99:1 101:1 104:1 108:1 110:1 113:1 115:1 120:1 123:1 125:1 128:1 132:1 133:1 138:1 140:1 143:1 145:1 150:1 158:1 161:1 165:1 168:1 171:1 177:1 
0.2600506027050988 0 2:1 8:1 10:1 14:1 18:1 19:1 24:1 27:1 29:1 39:1 41:1 47:1 53:1 63:1 71:1 74:1 83:1 85:1 90:1 91:1 94:1 99:1 101:1 108:1 116:1 123:1 126:1 127:1 140:1 148:1 152:1 154:1 159:1 165:1 168:1 174:1 175:1 180:1 
0.5462082309687465 0.8523043613670523 3:1 9:1 12:1 15:1 16:1 20:1 23:1 29:1 31:1 34:1 38:1 44:1 47:1 56:1 59:1 62:1 65:1 67:1 74:1 77:1 79:1 83:1 85:1 90:1 91:1 94:1 97:1 105:1 108:1 114:1 116:1 121:1 125:1 128:1 131:1 133:1 138:1 140:1 146:1 148:1 151:1 156:1 158:1 161:1 168:1 171:1 174:1 176:1 179:1 
1 0 1:1 11:1 18:1 23:1 25:1 29:1 33:1 38:1 45:1 50:1 52:1 60:1 66:1 71:1 74:1 77:1 80:1 83:1 85:1 90:1 94:1 98:1 101:1 107:1 110:1 112:1 117:1 118:1 123:1 126:1 130:1 133:1 137:1 144:1 150:1 152:1 158:1 160:1 164:1 168:1 169:1 172:1 176:1 178:1 
1 1 1:1 5:1 12:1 13:1 18:1 23:1 26:1 29:1 32:1 36:1 42:1 44:1 53:1 56:1 59:1 62:1 65:1 77:1 80:1 85:1 90:1 93:1 95:1 97:1 100:1 105:1 108:1 109:1 114:1 115:1 118:1 123:1 126:1 127:1 132:1 134:1 137:1 140:1 143:1 150:1 153:1 154:1 159:1 164:1 168:1 170:1 172:1 177:1 
1 1 1:1 6:1 9:1 10:1 15:1 18:1 19:1 22:1 26:1 29:1 32:1 34:1 41:1 45:1 46:1 53:1 60:1 65:1 78:1 81:1 83:1 85:1 90:1 91:1 99:1 102:1 105:1 106:1 109:1 112:1 116:1 120:1 121:1 125:1 131:1 137:1 141:1 144:1 145:1 154:1 160:1 165:1 167:1 169:1 176:1 180:1 
1 0.5692837995623224 2:1 5:1 14:1 16:1 20:1 23:1 26:1 28:1 35:1 38:1 41:1 44:1 51:1 56:1 59:1 62:1 69:1 71:1 75:1 78:1 80:1 83:1 85:1 90:1 93:1 98:1 102:1 103:1 108:1 111:1 117:1 118:1 129:1 132:1 135:1 138:1 141:1 142:1 147:1 149:1 151:1 156:1 157:1 161:1 163:1 166:1 171:1 175:1 179:1 
1 1 2:1 5:1 8:1 10:1 14:1 17:1 20:1 23:1 26:1 28:1 35:1 38:1 41:1 44:1 49:1 57:1 60:1 62:1 68:1 77:1 80:1 85:1 90:1 93:1 94:1 99:1 100:1 104:1 107:1 110:1 113:1 115:1 120:1 122:1 124:1 127:1 132:1 134:1 136:1 141:1 142:1 145:1 149:1 155:1 157:1 161:1 168:1 170:1 176:1 
1 0.7907166266763946 1:1 6:1 9:1 12:1 15:1 18:1 23:1 26:1 29:1 36:1 37:1 42:1 44:1 47:1 50:1 57:1 62:1 65:1 71:1 74:1 81:1 83:1 85:1 90:1 93:1 94:1 104:1 107:1 112:1 116:1 119:1 123:1 126:1 127:1 130:1 135:1 137:1 139:1 144:1 147:1 153:1 156:1 161:1 163:1 174:1 175:1 
1 0 3:1 7:1 12:1 14:1 17:1 23:1 25:1 29:1 35:1 38:1 41:1 43:1 48:1 50:1 53:1 56:1 66:1 83:1 85:1 90:1 93:1 94:1 102:1 108:1 116:1 123:1 126:1 129:1 131:1 134:1 136:1 139:1 144:1 148:1 152:1 154:1 158:1 160:1 165:1 168:1 174:1 175:1 180:1 
1 1 5:1 7:1 10:1 17:1 22:1 25:1 30:1 33:1 35:1 51:1 57:1 58:1 65:1 69:1 74:1 77:1 79:1 83:1 85:1 90:1 93:1 99:1 100:1 104:1 106:1 109:1 116:1 122:1 125:1 127:1 130:1 136:1 141:1 142:1 146:1 156:1 162:1 167:1 176:1 178:1 
1 0 2:1 4:1 9:1 11:1 14:1 17:1 24:1 25:1 29:1 31:1 35:1 42:1 44:1 47:1 50:1 57:1 59:1 72:1 74:1 81:1 83:1 85:1 90:1 92:1 95:1 98:1 107:1 116:1 118:1 122:1 125:1 129:1 130:1 138:1 139:1 144:1 150:1 152:1 154:1 158:1 162:1 170:1 172:1 175:1 180:1 
1 0 6:1 8:1 14:1 26:1 41:1 48:1 59:1 61:1 65:1 71:1 77:1 85:1 90:1 91:1 98:1 100:1 104:1 107:1 111:1 114:1 116:1 120:1 124:1 127:1 134:1 136:1 139:1 143:1 146:1 149:1 151:1 156:1 158:1 162:1 171:1 174:1 175:1 179:1 
0 0.3763182850067337 6:1 11:1 14:1 17:1 26:1 33:1 35:1 38:1 50:1 53:1 65:1 68:1 80:1 83:1 85:1 90:1 93:1 96:1 99:1 101:1 107:1 111:1 114:1 117:1 118:1 122:1 124:1 132:1 138:1 141:1 142:1 147:1 148:1 153:1 155:1 158:1 163:1 167:1 173:1 180:1 
1 0.8419358769308654 6:1 7:1 10:1 23:1 30:1 32:1 38:1 44:1 47:1 54:1 56:1 59:1 66:1 74:1 85:1 90:1 92:1 97:1 104:1 107:1 111:1 117:1 120:1 125:1 128:1 135:1 136:1 139:1 143:1 146:1 148:1 153:1 160:1 168:1 174:1 180:1 
0 0.1786910094599681 2:1 15:1 18:1 20:1 26:1 28:1 41:1 51:1 53:1 56:1 72:1 83:1 85:1 90:1 93:1 94:1 99:1 103:1 109:1 113:1 115:1 119:1 122:1 130:1 133:1 136:1 144:1 145:1 151:1 154:1 159:1 160:1 163:1 168:1 170:1 172:1 177:1 
0 0.36530332254829 5:1 8:1 11:1 14:1 20:1 22:1 26:1 28:1 33:1 36:1 39:1 40:1 43:1 46:1 62:1 71:1 74:1 77:1 79:1 83:1 85:1 90:1 93:1 99:1 102:1 103:1 106:1 109:1 112:1 117:1 120:1 121:1 126:1 129:1 132:1 133:1 138:1 140:1 145:1 149:1 155:1 161:1 163:1 168:1 171:1 173:1 180:1 
1 0.1833861456822524 1:1 8:1 11:1 14:1 20:1 23:1 26:1 29:1 31:1 34:1 38:1 41:1 48:1 54:1 56:1 59:1 62:1 72:1 77:1 85:1 89:1 91:1 96:1 97:1 102:1 104:1 106:1 110:1 117:1 118:1 122:1 124:1 128:1 132:1 135:1 137:1 143:1 146:1 149:1 153:1 156:1 159:1 160:1 164:1 167:1 173:1 177:1 180:1 
1 0.4683466265799785 2:1 8:1 10:1 14:1 16:1 30:1 32:1 42:1 59:1 66:1 69:1 71:1 77:1 79:1 83:1 85:1 90:1 91:1 95:1 97:1 105:1 110:1 114:1 115:1 120:1 123:1 124:1 127:1 132:1 135:1 137:1 153:1 159:1 170:1 173:1 176:1 178:1 
1 0 5:1 14:1 16:1 19:1 31:1 34:1 38:1 50:1 52:1 56:1 58:1 71:1 83:1 85:1 90:1 93:1 94:1 97:1 103:1 106:1 110:1 112:1 123:1 125:1 128:1 130:1 133:1 136:1 140:1 144:1 149:1 151:1 155:1 159:1 160:1 168:1 169:1 172:1 
1 0.6729713722298847 2:1 6:1 9:1 10:1 15:1 17:1 20:1 23:1 29:1 31:1 35:1 38:1 40:1 45:1 47:1 49:1 63:1 74:1 77:1 79:1 83:1 85:1 90:1 92:1 95:1 99:1 100:1 106:1 115:1 123:1 127:1 131:1 133:1 137:1 141:1 144:1 147:1 150:1 151:1 155:1 157:1 162:1 171:1 172:1 176:1 
0.4381630297841712 1 3:1 5:1 11:1 13:1 16:1 20:1 23:1 25:1 29:1 31:1 36:1 39:1 42:1 43:1 47:1 50:1 53:1 56:1 62:1 68:1 74:1 81:1 83:1 85:1 90:1 93:1 96:1 98:1 105:1 108:1 110:1 113:1 116:1 119:1 126:1 129:1 131:1 133:1 136:1 141:1 144:1 146:1 149:1 152:1 156:1 159:1 162:1 163:1 167:1 169:1 174:1 177:1 178:1 
1 0 11:1 20:1 26:1 36:1 37:1 44:1 50:1 65:1 71:1 75:1 78:1 79:1 83:1 85:1 90:1 91:1 96:1 97:1 100:1 108:1 109:1 112:1 117:1 118:1 121:1 124:1 135:1 136:1 144:1 153:1 159:1 160:1 164:1 166:1 171:1 175:1 180:1 
1 1 2:1 4:1 9:1 14:1 17:1 20:1 24:1 27:1 29:1 32:1 36:1 39:1 45:1 47:1 50:1 57:1 60:1 63:1 68:1 71:1 74:1 76:1 79:1 83:1 85:1 90:1 91:1 96:1 99:1 100:1 105:1 108:1 110:1 113:1 117:1 123:1 126:1 127:1 132:1 135:1 136:1 141:1 144:1 145:1 150:1 151:1 155:1 157:1 162:1 165:1 166:1 171:1 172:1 180:1 
1 0.635748742013282 5:1 10:1 14:1 17:1 21:1 26:1 29:1 32:1 44:1 47:1 50:1 52:1 56:1 58:1 62:1 64:1 68:1 74:1 81:1 83:1 85:1 90:1 91:1 94:1 99:1 102:1 108:1 111:1 117:1 126:1 131:1 140:1 147:1 150:1 153:1 158:1 162:1 165:1 168:1 171:1 173:1 176:1 178:1 
1 1 5:1 8:1 15:1 16:1 20:1 27:1 33:1 36:1 37:1 41:1 48:1 53:1 56:1 59:1 66:1 69:1 71:1 81:1 83:1 85:1 90:1 93:1 94:1 99:1 100:1 108:1 109:1 112:1 120:1 122:1 125:1 128:1 135:1 136:1 141:1 142:1 147:1 150:1 152:1 155:1 157:1 162:1 165:1 171:1 174:1 177:1 
0.2550124618846874 1 6:1 7:1 11:1 14:1 21:1 22:1 29:1 42:1 44:1 50:1 56:1 59:1 62:1 65:1 68:1 75:1 78:1 80:1 83:1 85:1 90:1 99:1 100:1 105:1 108:1 109:1 114:1 117:1 118:1 123:1 124:1 127:1 131:1 134:1 137:1 141:1 144:1 145:1 149:1 158:1 165:1 168:1 169:1 172:1 176:1 179:1 
1 1 1:1 5:1 8:1 11:1 13:1 17:1 32:1 35:1 41:1 50:1 53:1 55:1 59:1 65:1 72:1 75:1 76:1 81:1 83:1 85:1 90:1 92:1 94:1 101:1 105:1 108:1 114:1 115:1 120:1 132:1 134:1 141:1 147:1 150:1 151:1 155:1 157:1 160:1 165:1 168:1 171:1 173:1 175:1 179:1 
1 1 2:1 4:1 7:1 11:1 18:1 21:1 24:1 27:1 28:1 32:1 35:1 41:1 43:1 47:1 50:1 53:1 59:1 62:1 65:1 67:1 74:1 77:1 80:1 83:1 85:1 90:1 93:1 94:1 97:1 101:1 104:1 106:1 114:1 115:1 118:1 122:1 126:1 128:1 135:1 137:1 140:1 147:1 153:1 154:1 159:1 161:1 168:1 170:1 177:1 180:1 
1 0 1:1 4:1 9:1 12:1 13:1 17:1 25:1 30:1 36:1 37:1 41:1 44:1 47:1 49:1 53:1 57:1 58:1 62:1 65:1 68:1 71:1 79:1 83:1 85:1 90:1 96:1 101:1 106:1 110:1 112:1 123:1 126:1 129:1 131:1 134:1 136:1 141:1 143:1 145:1 150:1 153:1 154:1 158:1 161:1 175:1 180:1 
0.809761211574419 0.9701700831573746 2:1 4:1 9:1 10:1 18:1 21:1 24:1 26:1 32:1 34:1 38:1 42:1 45:1 47:1 50:1 52:1 59:1 62:1 65:1 71:1 74:1 81:1 83:1 85:1 90:1 93:1 94:1 99:1 101:1 103:1 108:1 110:1 114:1 115:1 119:1 126:1 129:1 130:1 134:1 137:1 140:1 142:1 147:1 148:1 153:1 155:1 158:1 160:1 168:1 174:1 177:1 179:1 
1 0.04645987897617367 3:1 4:1 7:1 21:1 29:1 31:1 39:1 40:1 44:1 49:1 60:1 66:1 74:1 81:1 85:1 90:1 92:1 95:1 102:1 103:1 108:1 109:1 113:1 115:1 120:1 122:1 129:1 131:1 134:1 141:1 147:1 153:1 156:1 159:1 160:1 164:1 171:1 172:1 177:1 178:1 
1 0 3:1 4:1 7:1 21:1 29:1 31:1 39:1 40:1 44:1 49:1 65:1 74:1 81:1 85:1 90:1 92:1 95:1 102:1 103:1 108:1 109:1 113:1 115:1 120:1 122:1 129:1 131:1 134:1 144:1 150:1 156:1 158:1 162:1 163:1 167:1 174:1 175:1 180:1 
1 1 2:1 5:1 8:1 10:1 14:1 16:1 19:1 23:1 25:1 30:1 36:1 54:1 56:1 59:1 66:1 69:1 71:1 74:1 77:1 81:1 85:1 90:1 95:1 105:1 106:1 110:1 113:1 116:1 119:1 121:1 124:1 127:1 132:1 133:1 136:1 139:1 143:1 152:1 154:1 159:1 165:1 171:1 177:1 180:1 
0 0.9453745376587808 6:1 8:1 11:1 21:1 23:1 30:1 31:1 35:1 39:1 41:1 44:1 47:1 53:1 56:1 59:1 63:1 68:1 71:1 74:1 77:1 81:1 83:1 85:1 90:1 93:1 95:1 99:1 102:1 104:1 106:1 109:1 114:1 118:1 122:1 126:1 132:1 134:1 137:1 140:1 143:1 147:1 149:1 153:1 155:1 158:1 162:1 168:1 170:1 176:1 180:1 
1 1 9:1 10:1 23:1 25:1 30:1 36:1 38:1 45:1 48:1 49:1 58:1 68:1 81:1 83:1 85:1 90:1 91:1 94:1 97:1 100:1 114:1 115:1 120:1 121:1 124:1 129:1 131:1 133:1 136:1 144:1 147:1 150:1 152:1 154:1 161:1 164:1 171:1 172:1 175:1 180:1 
1 0 2:1 8:1 11:1 13:1 21:1 24:1 31:1 35:1 42:1 45:1 48:1 52:1 56:1 59:1 62:1 65:1 68:1 74:1 77:1 80:1 83:1 85:1 90:1 92:1 96:1 98:1 105:1 106:1 111:1 115:1 119:1 122:1 125:1 127:1 132:1 133:1 137:1 140:1 146:1 149:1 153:1 154:1 157:1 160:1 165:1 167:1 169:1 173:1 175:1 178:1 
1 1 2:1 5:1 15:1 16:1 20:1 26:1 29:1 32:1 35:1 39:1 42:1 45:1 47:1 54:1 60:1 66:1 68:1 70:1 83:1 85:1 90:1 91:1 95:1 99:1 102:1 105:1 107:1 114:1 120:1 122:1 129:1 130:1 133:1 137:1 139:1 143:1 150:1 152:1 154:1 159:1 161:1 171:1 172:1 175:1 
0 1 3:1 9:1 12:1 14:1 17:1 19:1 23:1 25:1 30:1 32:1 38:1 44:1 47:1 53:1 56:1 59:1 63:1 65:1 68:1 72:1 74:1 77:1 81:1 83:1 85:1 90:1 93:1 98:1 107:1 110:1 116:1 118:1 122:1 125:1 129:1 131:1 144:1 146:1 150:1 152:1 156:1 158:1 161:1 164:1 167:1 171:1 172:1 175:1 180:1 
1 1 6:1 8:1 15:1 16:1 19:1 22:1 25:1 29:1 31:1 35:1 37:1 45:1 46:1 50:1 59:1 83:1 85:1 90:1 93:1 95:1 100:1 109:1 114:1 122:1 126:1 133:1 137:1 139:1 143:1 146:1 148:1 151:1 156:1 157:1 160:1 163:1 168:1 172:1 176:1 179:1 
0 1 1:1 8:1 11:1 20:1 23:1 29:1 32:1 34:1 38:1 41:1 47:1 54:1 57:1 68:1 77:1 81:1 83:1 85:1 90:1 93:1 94:1 97:1 100:1 107:1 110:1 112:1 120:1 122:1 125:1 128:1 132:1 133:1 143:1 145:1 150:1 151:1 154:1 159:1 160:1 165:1 168:1 169:1 174:1 176:1 179:1 
1 1 1:1 4:1 9:1 12:1 13:1 18:1 24:1 25:1 38:1 43:1 56:1 59:1 71:1 79:1 82:1 85:1 90:1 91:1 96:1 99:1 100:1 105:1 108:1 109:1 112:1 116:1 118:1 121:1 126:1 127:1 130:1 135:1 136:1 144:1 145:1 150:1 153:1 154:1 157:1 162:1 163:1 166:1 169:1 176:1 180:1 
1 0.3695689178995261 1:1 4:1 9:1 13:1 18:1 19:1 24:1 26:1 32:1 34:1 39:1 42:1 45:1 51:1 56:1 62:1 65:1 69:1 77:1 81:1 83:1 85:1 90:1 91:1 95:1 97:1 103:1 107:1 109:1 112:1 120:1 126:1 129:1 130:1 134:1 136:1 141:1 142:1 146:1 148:1 153:1 156:1 162:1 164:1 167:1 169:1 174:1 175:1 179:1 
1 1 2:1 9:1 10:1 13:1 18:1 21:1 22:1 25:1 29:1 33:1 36:1 39:1 43:1 48:1 51:1 54:1 56:1 59:1 61:1 66:1 69:1 72:1 74:1 76:1 81:1 83:1 85:1 90:1 92:1 98:1 101:1 108:1 109:1 114:1 117:1 119:1 121:1 125:1 132:1 134:1 137:1 144:1 146:1 153:1 156:1 162:1 163:1 167:1 170:1 173:1 180:1 
0.1792873599626905 0 2:1 5:1 8:1 14:1 17:1 20:1 22:1 26:1 32:1 36:1 45:1 47:1 53:1 59:1 62:1 66:1 69:1 71:1 74:1 76:1 81:1 83:1 85:1 90:1 92:1 102:1 103:1 108:1 110:1 113:1 120:1 121:1 128:1 132:1 133:1 138:1 144:1 146:1 150:1 153:1 155:1 158:1 161:1 163:1 168:1 174:1 176:1 178:1 
1 1 2:1 4:1 12:1 14:1 17:1 27:1 28:1 31:1 44:1 59:1 66:1 68:1 70:1 74:1 78:1 79:1 83:1 85:1 90:1 93:1 98:1 105:1 107:1 110:1 112:1 117:1 119:1 127:1 131:1 133:1 145:1 149:1 152:1 155:1 157:1 160:1 163:1 167:1 174:1 179:1 
1 1 12:1 14:1 16:1 20:1 27:1 28:1 31:1 39:1 41:1 43:1 46:1 49:1 56:1 77:1 80:1 82:1 85:1 90:1 93:1 99:1 100:1 109:1 116:1 119:1 126:1 127:1 130:1 134:1 137:1 139:1 146:1 149:1 151:1 156:1 159:1 161:1 164:1 166:1 169:1 172:1 178:1 
1 1 8:1 21:1 22:1 25:1 31:1 34:1 37:1 44:1 47:1 55:1 59:1 64:1 76:1 80:1 83:1 85:1 90:1 93:1 94:1 98:1 100:1 103:1 107:1 114:1 116:1 118:1 122:1 125:1 127:1 132:1 133:1 137:1 140:1 142:1 150:1 152:1 161:1 163:1 168:1 174:1 175:1 180:1 
0.1473819940502653 0 2:1 5:1 7:1 10:1 17:1 19:1 23:1 26:1 28:1 32:1 35:1 37:1 40:1 45:1 47:1 53:1 56:1 66:1 71:1 74:1 77:1 79:1 83:1 85:1 90:1 93:1 95:1 98:1 104:1 117:1 118:1 123:1 125:1 128:1 131:1 135:1 138:1 139:1 144:1 145:1 149:1 151:1 155:1 159:1 160:1 163:1 166:1 172:1 180:1 
1 1 3:1 4:1 11:1 18:1 21:1 23:1 30:1 31:1 35:1 43:1 59:1 69:1 70:1 80:1 85:1 90:1 93:1 95:1 102:1 103:1 108:1 111:1 120:1 123:1 134:1 136:1 141:1 143:1 145:1 153:1 157:1 164:1 171:1 173:1 
1 1 2:1 9:1 11:1 17:1 19:1 23:1 26:1 30:1 31:1 35:1 39:1 40:1 43:1 47:1 51:1 52:1 56:1 58:1 74:1 77:1 79:1 83:1 85:1 90:1 93:1 94:1 99:1 101:1 104:1 108:1 109:1 113:1 116:1 123:1 125:1 128:1 133:1 137:1 139:1 144:1 145:1 149:1 152:1 155:1 159:1 161:1 164:1 171:1 174:1 175:1 180:1 
1 1 2:1 5:1 8:1 14:1 17:1 22:1 26:1 29:1 33:1 36:1 37:1 40:1 44:1 51:1 52:1 55:1 59:1 62:1 65:1 71:1 74:1 76:1 79:1 83:1 85:1 90:1 93:1 96:1 97:1 102:1 104:1 107:1 110:1 113:1 117:1 118:1 123:1 127:1 134:1 138:1 141:1 143:1 145:1 150:1 152:1 154:1 159:1 164:1 166:1 171:1 173:1 175:1 180:1 
1 1 3:1 11:1 18:1 19:1 22:1 27:1 30:1 33:1 37:1 42:1 45:1 48:1 50:1 52:1 57:1 60:1 63:1 66:1 68:1 70:1 75:1 77:1 79:1 83:1 85:1 90:1 92:1 98:1 101:1 106:1 109:1 114:1 116:1 119:1 121:1 125:1 132:1 134:1 137:1 144:1 146:1 153:1 156:1 162:1 163:1 167:1 170:1 173:1 180:1 
1 1 5:1 8:1 12:1 14:1 21:1 22:1 26:1 30:1 32:1 39:1 41:1 54:1 57:1 59:1 66:1 71:1 77:1 80:1 83:1 85:1 90:1 91:1 99:1 105:1 108:1 114:1 117:1 123:1 125:1 132:1 133:1 136:1 140:1 146:1 149:1 151:1 154:1 159:1 160:1 165:1 168:1 169:1 173:1 176:1 178:1 
0 1 2:1 5:1 13:1 16:1 21:1 23:1 28:1 33:1 38:1 41:1 44:1 53:1 59:1 62:1 65:1 68:1 81:1 83:1 85:1 90:1 91:1 95:1 99:1 100:1 105:1 106:1 114:1 116:1 118:1 123:1 125:1 129:1 130:1 134:1 139:1 147:1 153:1 159:1 163:1 171:1 177:1 179:1 
1 0 6:1 9:1 11:1 14:1 16:1 21:1 23:1 26:1 32:1 37:1 40:1 44:1 50:1 53:1 55:1 60:1 62:1 65:1 68:1 71:1 74:1 83:1 85:1 90:1 92:1 94:1 101:1 107:1 110:1 114:1 117:1 119:1 124:1 128:1 132:1 133:1 137:1 139:1 146:1 149:1 152:1 159:1 160:1 165:1 168:1 171:1 173:1 175:1 179:1 
1 0 3:1 5:1 9:1 12:1 21:1 22:1 33:1 34:1 38:1 40:1 45:1 56:1 62:1 65:1 74:1 77:1 80:1 83:1 85:1 90:1 91:1 95:1 102:1 105:1 107:1 110:1 112:1 115:1 122:1 124:1 128:1 130:1 135:1 138:1 140:1 142:1 147:1 150:1 151:1 154:1 159:1 160:1 168:1 169:1 172:1 177:1 180:1 
1 1 1:1 4:1 9:1 12:1 13:1 18:1 24:1 25:1 38:1 43:1 56:1 59:1 71:1 79:1 82:1 85:1 90:1 91:1 96:1 99:1 100:1 105:1 108:1 109:1 112:1 116:1 118:1 121:1 126:1 127:1 130:1 135:1 136:1 144:1 145:1 150:1 153:1 154:1 157:1 162:1 163:1 166:1 169:1 176:1 180:1 
1 1 2:1 4:1 9:1 11:1 17:1 20:1 29:1 32:1 34:1 37:1 43:1 50:1 66:1 71:1 78:1 85:1 90:1 95:1 97:1 102:1 105:1 108:1 109:1 113:1 118:1 126:1 128:1 132:1 135:1 137:1 141:1 143:1 145:1 148:1 151:1 155:1 157:1 164:1 170:1 173:1 
1 1 2:1 8:1 17:1 25:1 28:1 32:1 40:1 43:1 46:1 50:1 53:1 62:1 64:1 80:1 85:1 90:1 93:1 94:1 98:1 101:1 103:1 106:1 111:1 112:1 116:1 119:1 122:1 125:1 132:1 135:1 136:1 140:1 143:1 150:1 153:1 156:1 159:1 161:1 164:1 167:1 169:1 174:1 179:1 
1 0 1:1 9:1 13:1 16:1 26:1 30:1 33:1 34:1 37:1 41:1 45:1 46:1 56:1 65:1 68:1 81:1 83:1 85:1 90:1 91:1 98:1 100:1 104:1 107:1 116:1 121:1 129:1 130:1 135:1 138:1 139:1 143:1 145:1 150:1 153:1 156:1 158:1 161:1 170:1 173:1 175:1 180:1 
1 0 3:1 6:1 9:1 12:1 14:1 16:1 21:1 24:1 25:1 29:1 35:1 38:1 40:1 44:1 47:1 50:1 54:1 55:1 62:1 64:1 74:1 77:1 80:1 83:1 85:1 90:1 91:1 101:1 103:1 108:1 110:1 112:1 117:1 119:1 123:1 124:1 128:1 135:1 137:1 139:1 144:1 147:1 148:1 153:1 156:1 157:1 162:1 164:1 169:1 174:1 175:1 179:1 
1 1 2:1 8:1 10:1 15:1 18:1 20:1 24:1 29:1 32:1 35:1 38:1 45:1 47:1 54:1 59:1 62:1 65:1 69:1 72:1 74:1 81:1 83:1 85:1 90:1 96:1 97:1 101:1 104:1 111:1 114:1 117:1 118:1 123:1 125:1 128:1 130:1 133:1 137:1 139:1 143:1 146:1 149:1 155:1 159:1 161:1 168:1 169:1 174:1 177:1 
1 1 7:1 10:1 18:1 23:1 29:1 32:1 35:1 37:1 40:1 43:1 47:1 50:1 56:1 58:1 62:1 65:1 68:1 70:1 73:1 77:1 80:1 83:1 85:1 90:1 93:1 94:1 99:1 100:1 103:1 106:1 116:1 119:1 123:1 126:1 127:1 132:1 138:1 139:1 143:1 149:1 154:1 161:1 163:1 167:1 170:1 172:1 175:1 179:1 
1 1 3:1 8:1 11:1 20:1 30:1 33:1 39:1 42:1 45:1 48:1 51:1 54:1 59:1 62:1 71:1 77:1 80:1 85:1 90:1 93:1 94:1 97:1 102:1 103:1 106:1 109:1 113:1 116:1 121:1 127:1 134:1 137:1 140:1 142:1 145:1 148:1 153:1 156:1 157:1 161:1 164:1 166:1 171:1 172:1 175:1 180:1 
1 1 2:1 7:1 10:1 14:1 16:1 19:1 24:1 41:1 48:1 52:1 60:1 64:1 67:1 71:1 80:1 85:1 90:1 93:1 99:1 100:1 103:1 106:1 111:1 112:1 116:1 119:1 122:1 125:1 132:1 133:1 137:1 139:1 142:1 145:1 148:1 153:1 154:1 158:1 160:1 163:1 170:1 172:1 179:1 
0.8213737280811965 0 3:1 5:1 11:1 13:1 18:1 21:1 24:1 26:1 35:1 45:1 50:1 53:1 65:1 68:1 77:1 80:1 83:1 85:1 90:1 93:1 96:1 98:1 102:1 108:1 109:1 117:1 120:1 126:1 129:1 132:1 134:1 136:1 144:1 147:1 150:1 155:1 157:1 162:1 163:1 166:1 171:1 174:1 175:1 
0.3539963006121302 0 6:1 11:1 14:1 17:1 19:1 22:1 26:1 32:1 42:1 45:1 59:1 62:1 64:1 73:1 77:1 79:1 83:1 85:1 90:1 91:1 95:1 97:1 102:1 103:1 108:1 114:1 116:1 118:1 121:1 126:1 127:1 131:1 135:1 136:1 144:1 145:1 149:1 159:1 161:1 163:1 166:1 169:1 172:1 180:1 
1 1 3:1 7:1 12:1 13:1 17:1 20:1 30:1 33:1 39:1 42:1 45:1 47:1 51:1 54:1 59:1 62:1 71:1 77:1 80:1 85:1 90:1 93:1 94:1 97:1 102:1 103:1 106:1 111:1 113:1 116:1 121:1 127:1 134:1 137:1 140:1 142:1 145:1 148:1 153:1 156:1 157:1 160:1 164:1 166:1 171:1 172:1 175:1 180:1 
0 0.3607330907773816 3:1 8:1 11:1 14:1 17:1 23:1 25:1 29:1 31:1 36:1 39:1 42:1 44:1 46:1 62:1 71:1 74:1 77:1 79:1 83:1 85:1 90:1 93:1 99:1 102:1 103:1 106:1 109:1 112:1 117:1 120:1 121:1 126:1 129:1 132:1 133:1 138:1 140:1 147:1 149:1 155:1 161:1 163:1 168:1 171:1 173:1 180:1 
1 1 3:1 6:1 9:1 10:1 14:1 18:1 21:1 24:1 26:1 33:1 34:1 38:1 41:1 43:1 47:1 51:1 54:1 57:1 60:1 63:1 65:1 69:1 72:1 75:1 78:1 80:1 83:1 85:1 90:1 93:1 96:1 101:1 107:1 109:1 113:1 115:1 119:1 122:1 125:1 131:1 134:1 136:1 141:1 142:1 147:1 150:1 151:1 159:1 163:1 167:1 171:1 174:1 176:1 
1 1 2:1 5:1 9:1 11:1 15:1 20:1 22:1 26:1 29:1 31:1 36:1 39:1 41:1 44:1 51:1 56:1 59:1 69:1 72:1 75:1 80:1 83:1 85:1 90:1 93:1 96:1 97:1 101:1 103:1 110:1 116:1 120:1 122:1 125:1 128:1 132:1 137:1 140:1 147:1 148:1 151:1 156:1 159:1 160:1 164:1 167:1 170:1 173:1 177:1 179:1 
0 1 5:1 7:1 12:1 14:1 22:1 26:1 33:1 34:1 38:1 40:1 44:1 47:1 49:1 54:1 56:1 59:1 62:1 64:1 68:1 74:1 77:1 79:1 83:1 85:1 90:1 91:1 99:1 102:1 105:1 108:1 109:1 113:1 116:1 118:1 123:1 129:1 135:1 137:1 140:1 146:1 148:1 151:1 156:1 161:1 164:1 166:1 174:1 176:1 179:1 
1 0 2:1 10:1 14:1 16:1 20:1 22:1 25:1 28:1 39:1 42:1 44:1 46:1 54:1 56:1 66:1 72:1 83:1 85:1 90:1 91:1 99:1 101:1 104:1 114:1 117:1 125:1 127:1 130:1 135:1 138:1 141:1 142:1 150:1 153:1 154:1 157:1 160:1 165:1 170:1 172:1 176:1 179:1 
1 0 2:1 4:1 7:1 12:1 21:1 22:1 26:1 31:1 36:1 37:1 45:1 47:1 50:1 53:1 64:1 83:1 85:1 90:1 91:1 94:1 97:1 103:1 113:1 118:1 122:1 124:1 131:1 133:1 144:1 147:1 148:1 153:1 155:1 162:1 168:1 171:1 175:1 
1 1 5:1 8:1 11:1 14:1 18:1 22:1 29:1 37:1 44:1 50:1 57:1 62:1 64:1 68:1 70:1 74:1 80:1 83:1 85:1 90:1 92:1 99:1 102:1 110:1 113:1 120:1 122:1 125:1 128:1 135:1 138:1 139:1 147:1 150:1 152:1 159:1 161:1 164:1 171:1 173:1 177:1 179:1 
0.2265065548502773 1 1:1 6:1 8:1 13:1 16:1 21:1 26:1 29:1 36:1 38:1 41:1 44:1 50:1 52:1 65:1 68:1 71:1 77:1 83:1 85:1 90:1 93:1 95:1 97:1 105:1 108:1 109:1 114:1 119:1 122:1 129:1 135:1 138:1 140:1 142:1 149:1 152:1 154:1 158:1 162:1 163:1 166:1 169:1 173:1 178:1 
0 0.5917716874573274 2:1 5:1 8:1 15:1 16:1 19:1 26:1 35:1 38:1 45:1 47:1 50:1 53:1 62:1 68:1 74:1 77:1 80:1 83:1 85:1 90:1 93:1 94:1 103:1 107:1 111:1 112:1 117:1 118:1 123:1 126:1 131:1 134:1 137:1 144:1 145:1 150:1 155:1 159:1 161:1 164:1 171:1 172:1 176:1 180:1 
0.1911686280390257 0 2:1 8:1 11:1 14:1 17:1 19:1 23:1 26:1 29:1 31:1 35:1 38:1 45:1 50:1 53:1 55:1 59:1 62:1 65:1 69:1 71:1 74:1 77:1 81:1 83:1 85:1 90:1 91:1 98:1 102:1 104:1 113:1 116:1 123:1 126:1 127:1 132:1 134:1 137:1 139:1 144:1 147:1 149:1 151:1 154:1 159:1 160:1 163:1 167:1 173:1 176:1 178:1 
1 0 3:1 6:1 8:1 14:1 16:1 20:1 22:1 27:1 29:1 33:1 35:1 39:1 41:1 44:1 47:1 51:1 54:1 56:1 61:1 71:1 77:1 81:1 83:1 85:1 90:1 92:1 98:1 100:1 104:1 107:1 109:1 117:1 120:1 121:1 129:1 130:1 138:1 139:1 145:1 152:1 156:1 158:1 161:1 165:1 167:1 171:1 173:1 179:1 
1 1 6:1 12:1 14:1 21:1 22:1 26:1 29:1 33:1 35:1 38:1 45:1 47:1 54:1 55:1 59:1 66:1 68:1 71:1 81:1 83:1 85:1 90:1 93:1 99:1 100:1 103:1 106:1 117:1 119:1 122:1 125:1 132:1 138:1 141:1 146:1 149:1 159:1 162:1 168:1 171:1 176:1 179:1 
0.5336602541383515 0.1769661414703116 6:1 9:1 14:1 21:1 24:1 25:1 29:1 32:1 35:1 39:1 42:1 45:1 50:1 53:1 56:1 60:1 66:1 71:1 74:1 81:1 83:1 85:1 90:1 93:1 95:1 98:1 102:1 104:1 111:1 113:1 116:1 119:1 121:1 126:1 128:1 130:1 135:1 137:1 139:1 144:1 147:1 148:1 153:1 158:1 160:1 165:1 167:1 170:1 172:1 176:1 179:1 
1 1 1:1 6:1 8:1 11:1 13:1 17:1 23:1 25:1 29:1 35:1 41:1 47:1 50:1 53:1 57:1 59:1 63:1 65:1 69:1 71:1 75:1 77:1 79:1 83:1 85:1 90:1 93:1 95:1 97:1 104:1 108:1 114:1 116:1 123:1 126:1 127:1 131:1 137:1 140:1 144:1 147:1 149:1 153:1 154:1 158:1 162:1 165:1 167:1 171:1 176:1 178:1 
1 0 2:1 5:1 11:1 14:1 17:1 21:1 23:1 36:1 42:1 48:1 50:1 53:1 56:1 59:1 63:1 65:1 71:1 74:1 76:1 81:1 83:1 85:1 90:1 92:1 95:1 101:1 104:1 107:1 111:1 113:1 117:1 118:1 122:1 126:1 127:1 135:1 137:1 140:1 143:1 146:1 152:1 154:1 157:1 161:1 165:1 172:1 176:1 179:1 
1 0 14:1 17:1 20:1 22:1 29:1 31:1 38:1 41:1 48:1 52:1 56:1 65:1 80:1 85:1 90:1 91:1 99:1 104:1 106:1 111:1 113:1 116:1 118:1 121:1 126:1 127:1 130:1 135:1 136:1 140:1 144:1 152:1 155:1 158:1 168:1 171:1 175:1 178:1 
0.9989006570043181 0 1:1 10:1 13:1 26:1 31:1 34:1 47:1 74:1 77:1 80:1 85:1 90:1 91:1 94:1 98:1 105:1 112:1 116:1 121:1 124:1 127:1 131:1 138:1 139:1 144:1 149:1 151:1 156:1 157:1 160:1 165:1 175:1 179:1 
1 1 6:1 7:1 11:1 14:1 21:1 22:1 29:1 42:1 44:1 50:1 56:1 59:1 62:1 65:1 68:1 75:1 78:1 80:1 83:1 85:1 90:1 99:1 100:1 105:1 108:1 109:1 114:1 117:1 118:1 123:1 124:1 127:1 131:1 134:1 137:1 141:1 144:1 145:1 149:1 158:1 165:1 168:1 169:1 172:1 176:1 179:1 
1 0.9197857437348628 1:1 4:1 12:1 16:1 22:1 30:1 34:1 37:1 43:1 46:1 56:1 65:1 67:1 83:1 85:1 90:1 93:1 94:1 97:1 102:1 103:1 106:1 111:1 112:1 115:1 124:1 128:1 130:1 135:1 136:1 139:1 142:1 148:1 152:1 154:1 161:1 164:1 166:1 171:1 174:1 175:1 180:1 
1 0 3:1 4:1 9:1 10:1 13:1 18:1 19:1 24:1 26:1 32:1 34:1 39:1 40:1 45:1 51:1 56:1 62:1 69:1 74:1 77:1 80:1 83:1 85:1 90:1 91:1 95:1 97:1 103:1 107:1 109:1 112:1 120:1 124:1 129:1 130:1 134:1 136:1 139:1 142:1 146:1 148:1 156:1 162:1 164:1 167:1 169:1 174:1 175:1 179:1 
1 1 3:1 8:1 10:1 14:1 16:1 22:1 28:1 32:1 39:1 40:1 44:1 47:1 53:1 60:1 61:1 65:1 67:1 71:1 74:1 77:1 85:1 90:1 93:1 96:1 97:1 100:1 105:1 110:1 112:1 117:1 123:1 126:1 129:1 130:1 135:1 141:1 144:1 148:1 151:1 155:1 158:1 160:1 164:1 167:1 169:1 173:1 175:1 179:1 
1 0 7:1 15:1 17:1 29:1 32:1 43:1 50:1 53:1 56:1 62:1 69:1 73:1 79:1 83:1 85:1 90:1 93:1 94:1 99:1 100:1 104:1 106:1 111:1 112:1 116:1 119:1 121:1 124:1 128:1 133:1 138:1 139:1 142:1 147:1 148:1 156:1 157:1 162:1 163:1 166:1 171:1 176:1 
0 1 3:1 8:1 10:1 14:1 17:1 21:1 22:1 29:1 32:1 39:1 40:1 44:1 47:1 53:1 60:1 65:1 67:1 71:1 74:1 77:1 83:1 85:1 90:1 93:1 94:1 97:1 100:1 105:1 110:1 112:1 117:1 121:1 126:1 129:1 130:1 135:1 141:1 144:1 150:1 151:1 155:1 158:1 160:1 164:1 167:1 169:1 173:1 175:1 179:1 
1 0.4764829416223896 1:1 5:1 7:1 12:1 14:1 21:1 23:1 25:1 35:1 41:1 43:1 51:1 53:1 62:1 65:1 72:1 74:1 77:1 81:1 83:1 85:1 90:1 98:1 107:1 110:1 113:1 116:1 118:1 121:1 128:1 131:1 133:1 138:1 141:1 146:1 152:1 155:1 159:1 162:1 163:1 168:1 171:1 173:1 180:1 
-1 1 6:1 7:1 11:1 13:1 16:1 19:1 22:1 33:1 36:1 37:1 40:1 48:1 56:1 68:1 70:1 75:1 80:1 82:1 85:1 93:1 96:1 98:1 100:1 103:1 107:1 109:1 128:1 130:1 134:1 141:1 144:1 147:1 157:1 163:1 168:1 172:1 177:1 180:1 
-0.4281633718639193 1 7:1 11:1 14:1 20:1 25:1 28:1 35:1 37:1 40:1 44:1 46:1 51:1 59:1 61:1 64:1 73:1 81:1 83:1 93:1 94:1 97:1 111:1 116:1 119:1 122:1 129:1 134:1 139:1 148:1 151:1 158:1 160:1 164:1 173:1 179:1 
-1 0.5866458343062935 6:1 8:1 14:1 17:1 20:1 23:1 26:1 28:1 31:1 35:1 45:1 48:1 51:1 54:1 56:1 59:1 62:1 69:1 72:1 73:1 80:1 83:1 85:1 90:1 92:1 94:1 99:1 102:1 108:1 111:1 112:1 119:1 121:1 126:1 127:1 132:1 134:1 141:1 144:1 146:1 150:1 152:1 154:1 157:1 160:1 165:1 166:1 171:1 173:1 177:1 180:1 
-1 1 3:1 4:1 11:1 13:1 17:1 19:1 23:1 28:1 35:1 41:1 44:1 46:1 50:1 60:1 62:1 65:1 68:1 70:1 75:1 77:1 80:1 83:1 90:1 96:1 99:1 100:1 103:1 108:1 109:1 118:1 123:1 125:1 129:1 132:1 134:1 137:1 139:1 147:1 151:1 161:1 164:1 166:1 169:1 177:1 
-0 1 3:1 6:1 8:1 11:1 14:1 19:1 24:1 28:1 33:1 35:1 37:1 42:1 44:1 47:1 49:1 55:1 59:1 61:1 66:1 69:1 70:1 75:1 77:1 84:1 87:1 90:1 93:1 94:1 97:1 102:1 105:1 108:1 111:1 114:1 116:1 119:1 125:1 132:1 135:1 138:1 141:1 143:1 150:1 151:1 155:1 158:1 160:1 165:1 168:1 170:1 174:1 175:1 179:1 
-0 0.9581618688318386 6:1 8:1 10:1 15:1 24:1 25:1 28:1 33:1 35:1 38:1 41:1 43:1 51:1 52:1 57:1 60:1 62:1 65:1 68:1 70:1 73:1 78:1 79:1 82:1 90:1 98:1 100:1 108:1 116:1 119:1 122:1 124:1 129:1 132:1 133:1 136:1 141:1 144:1 149:1 151:1 155:1 157:1 160:1 164:1 167:1 172:1 177:1 
-0 1 3:1 6:1 9:1 10:1 15:1 16:1 19:1 22:1 25:1 29:1 33:1 40:1 45:1 48:1 51:1 57:1 63:1 66:1 67:1 73:1 82:1 86:1 90:1 93:1 94:1 97:1 100:1 105:1 107:1 110:1 119:1 122:1 127:1 130:1 133:1 136:1 139:1 142:1 150:1 151:1 155:1 157:1 169:1 172:1 176:1 
-1 1 3:1 4:1 11:1 15:1 19:1 26:1 35:1 38:1 47:1 53:1 55:1 59:1 62:1 64:1 72:1 74:1 76:1 90:1 99:1 100:1 104:1 106:1 111:1 115:1 135:1 136:1 141:1 144:1 146:1 148:1 153:1 159:1 162:1 164:1 170:1 173:1 175:1 178:1 
-1 0 12:1 15:1 16:1 19:1 23:1 26:1 31:1 36:1 37:1 41:1 43:1 50:1 53:1 56:1 59:1 62:1 65:1 75:1 77:1 80:1 87:1 90:1 91:1 95:1 101:1 108:1 109:1 114:1 116:1 123:1 124:1 128:1 131:1 135:1 136:1 139:1 149:1 152:1 155:1 158:1 161:1 168:1 170:1 174:1 176:1 178:1 
-0 1 2:1 6:1 9:1 11:1 14:1 18:1 20:1 27:1 29:1 32:1 35:1 39:1 42:1 44:1 47:1 50:1 53:1 57:1 60:1 62:1 66:1 67:1 72:1 74:1 78:1 81:1 82:1 87:1 90:1 93:1 95:1 99:1 102:1 103:1 108:1 110:1 114:1 116:1 120:1 123:1 125:1 129:1 131:1 134:1 138:1 141:1 142:1 147:1 149:1 152:1 156:1 157:1 162:1 165:1 168:1 170:1 173:1 177:1 179:1 
-0 1 2:1 5:1 8:1 10:1 15:1 18:1 19:1 24:1 27:1 30:1 33:1 39:1 42:1 43:1 47:1 50:1 53:1 55:1 59:1 61:1 66:1 68:1 71:1 74:1 76:1 81:1 84:1 87:1 88:1 93:1 96:1 98:1 101:1 105:1 106:1 109:1 112:1 117:1 119:1 123:1 125:1 129:1 132:1 135:1 137:1 141:1 144:1 147:1 149:1 151:1 156:1 159:1 161:1 163:1 168:1 169:1 174:1 177:1 179:1 
-1 0 3:1 4:1 8:1 10:1 17:1 21:1 22:1 27:1 28:1 35:1 39:1 41:1 44:1 46:1 50:1 53:1 58:1 62:1 65:1 69:1 71:1 73:1 76:1 79:1 83:1 90:1 92:1 99:1 102:1 103:1 108:1 111:1 114:1 116:1 120:1 121:1 126:1 129:1 130:1 135:1 139:1 143:1 145:1 150:1 151:1 154:1 162:1 167:1 174:1 177:1 178:1 
-0 1 1:1 6:1 7:1 12:1 13:1 17:1 20:1 23:1 36:1 37:1 40:1 45:1 50:1 52:1 55:1 60:1 63:1 64:1 68:1 70:1 74:1 77:1 81:1 82:1 87:1 90:1 91:1 94:1 99:1 100:1 105:1 108:1 109:1 113:1 122:1 125:1 127:1 131:1 135:1 141:1 144:1 145:1 149:1 152:1 154:1 159:1 162:1 168:1 169:1 173:1 176:1 178:1 
-0 1 2:1 5:1 8:1 10:1 14:1 17:1 21:1 27:1 29:1 36:1 38:1 45:1 48:1 51:1 52:1 56:1 59:1 66:1 68:1 70:1 75:1 78:1 84:1 88:1 93:1 94:1 99:1 100:1 105:1 108:1 111:1 114:1 117:1 120:1 122:1 125:1 128:1 135:1 136:1 140:1 144:1 146:1 150:1 152:1 154:1 159:1 160:1 164:1 167:1 170:1 172:1 177:1 
-1 1 1:1 5:1 9:1 15:1 17:1 24:1 26:1 28:1 33:1 34:1 41:1 44:1 48:1 49:1 52:1 63:1 66:1 68:1 74:1 77:1 79:1 83:1 85:1 89:1 92:1 95:1 99:1 105:1 108:1 114:1 117:1 123:1 125:1 132:1 133:1 138:1 140:1 144:1 147:1 149:1 152:1 159:1 162:1 163:1 167:1 169:1 173:1 176:1 178:1 
-0 0.6172757134567022 3:1 7:1 13:1 17:1 21:1 27:1 30:1 32:1 34:1 37:1 45:1 47:1 51:1 60:1 62:1 69:1 72:1 75:1 82:1 97:1 100:1 107:1 109:1 119:1 124:1 129:1 132:1 134:1 136:1 143:1 147:1 161:1 164:1 170:1 173:1 
-0.9848461480618518 0 2:1 9:1 12:1 14:1 17:1 30:1 32:1 42:1 45:1 48:1 50:1 59:1 64:1 69:1 70:1 74:1 76:1 80:1 83:1 95:1 97:1 101:1 108:1 110:1 112:1 116:1 122:1 124:1 128:1 135:1 140:1 149:1 155:1 158:1 161:1 164:1 167:1 173:1 176:1 
-0 1 2:1 4:1 8:1 10:1 15:1 18:1 20:1 22:1 32:1 35:1 37:1 44:1 46:1 50:1 52:1 55:1 58:1 65:1 68:1 81:1 84:1 86:1 93:1 99:1 101:1 114:1 120:1 121:1 126:1 136:1 143:1 145:1 150:1 155:1 157:1 162:1 163:1 168:1 170:1 172:1 179:1 
-0.8211187569510068 1 3:1 4:1 8:1 11:1 18:1 20:1 22:1 27:1 29:1 31:1 35:1 38:1 42:1 45:1 47:1 54:1 57:1 58:1 62:1 66:1 67:1 72:1 75:1 77:1 80:1 84:1 85:1 90:1 92:1 94:1 99:1 100:1 107:1 111:1 113:1 116:1 119:1 125:1 127:1 130:1 135:1 138:1 141:1 143:1 147:1 150:1 152:1 154:1 157:1 162:1 163:1 166:1 171:1 173:1 175:1 180:1 
-0 1 6:1 7:1 10:1 15:1 17:1 20:1 29:1 35:1 37:1 41:1 44:1 46:1 49:1 54:1 57:1 60:1 64:1 68:1 71:1 74:1 76:1 80:1 82:1 86:1 89:1 93:1 96:1 97:1 100:1 113:1 116:1 118:1 123:1 126:1 127:1 130:1 135:1 136:1 139:1 142:1 148:1 153:1 154:1 159:1 170:1 178:1 
-0 0.1605793688756102 8:1 11:1 16:1 26:1 35:1 38:1 40:1 44:1 46:1 53:1 56:1 62:1 68:1 71:1 73:1 78:1 80:1 82:1 86:1 89:1 105:1 116:1 119:1 126:1 127:1 131:1 148:1 151:1 157:1 160:1 171:1 173:1 176:1 178:1 
-1 1 1:1 6:1 11:1 13:1 17:1 24:1 27:1 30:1 35:1 41:1 48:1 50:1 53:1 56:1 58:1 63:1 66:1 69:1 74:1 77:1 79:1 82:1 87:1 90:1 93:1 96:1 99:1 105:1 106:1 111:1 112:1 116:1 119:1 121:1 125:1 127:1 132:1 135:1 137:1 139:1 143:1 146:1 148:1 153:1 156:1 158:1 161:1 167:1 170:1 177:1 180:1 
-1 0 2:1 5:1 12:1 15:1 17:1 20:1 22:1 26:1 29:1 31:1 36:1 38:1 47:1 50:1 53:1 59:1 66:1 68:1 71:1 78:1 79:1 83:1 86:1 89:1 92:1 94:1 99:1 102:1 104:1 107:1 109:1 113:1 116:1 123:1 128:1 137:1 143:1 149:1 152:1 155:1 157:1 161:1 165:1 171:1 173:1 175:1 179:1 
-1 1 3:1 11:1 15:1 21:1 24:1 27:1 30:1 33:1 35:1 38:1 40:1 44:1 57:1 59:1 63:1 66:1 68:1 71:1 84:1 85:1 90:1 93:1 94:1 99:1 101:1 104:1 108:1 111:1 112:1 117:1 119:1 126:1 128:1 134:1 138:1 140:1 143:1 146:1 148:1 153:1 156:1 157:1 161:1 163:1 170:1 173:1 177:1 179:1 
-0 1 1:1 5:1 8:1 21:1 24:1 26:1 32:1 36:1 39:1 42:1 43:1 48:1 49:1 54:1 57:1 59:1 61:1 66:1 67:1 71:1 78:1 84:1 87:1 90:1 92:1 99:1 101:1 105:1 106:1 110:1 113:1 119:1 126:1 134:1 138:1 139:1 144:1 145:1 148:1 153:1 154:1 157:1 162:1 167:1 171:1 173:1 180:1 
-1 1 4:1 9:1 12:1 17:1 20:1 26:1 29:1 36:1 38:1 44:1 50:1 53:1 55:1 61:1 68:1 74:1 78:1 80:1 83:1 85:1 90:1 96:1 99:1 102:1 105:1 117:1 118:1 124:1 129:1 130:1 135:1 136:1 139:1 143:1 149:1 151:1 156:1 157:1 160:1 165:1 167:1 171:1 177:1 180:1 
-1 0 5:1 9:1 11:1 25:1 29:1 31:1 35:1 38:1 41:1 48:1 49:1 56:1 59:1 62:1 65:1 68:1 70:1 74:1 78:1 79:1 83:1 96:1 99:1 102:1 103:1 111:1 112:1 115:1 120:1 121:1 124:1 129:1 131:1 134:1 140:1 143:1 147:1 149:1 155:1 158:1 165:1 166:1 169:1 173:1 175:1 178:1 
-0 1 2:1 5:1 15:1 17:1 23:1 25:1 30:1 31:1 36:1 38:1 42:1 45:1 46:1 51:1 52:1 55:1 58:1 63:1 65:1 67:1 81:1 93:1 97:1 101:1 103:1 106:1 111:1 112:1 119:1 122:1 126:1 128:1 130:1 135:1 136:1 140:1 144:1 150:1 154:1 157:1 160:1 168:1 176:1 179:1 
-0 0.7703224664285205 3:1 5:1 10:1 13:1 19:1 22:1 25:1 28:1 31:1 35:1 37:1 40:1 45:1 47:1 49:1 53:1 58:1 69:1 77:1 79:1 82:1 86:1 100:1 105:1 108:1 114:1 120:1 126:1 130:1 134:1 147:1 150:1 151:1 156:1 158:1 161:1 163:1 167:1 170:1 172:1 
-0 0.8956359584502772 1:1 6:1 9:1 12:1 15:1 16:1 20:1 23:1 26:1 28:1 33:1 36:1 37:1 41:1 45:1 50:1 53:1 56:1 59:1 61:1 66:1 72:1 74:1 77:1 81:1 88:1 93:1 95:1 99:1 102:1 104:1 116:1 118:1 123:1 126:1 129:1 132:1 135:1 137:1 140:1 143:1 147:1 150:1 151:1 156:1 158:1 162:1 164:1 167:1 173:1 177:1 180:1 
-0.1858885756984796 1 2:1 6:1 8:1 10:1 13:1 17:1 27:1 30:1 33:1 35:1 38:1 45:1 48:1 51:1 53:1 55:1 58:1 63:1 64:1 67:1 72:1 77:1 81:1 83:1 90:1 93:1 94:1 99:1 101:1 103:1 108:1 114:1 117:1 120:1 126:1 127:1 131:1 134:1 138:1 139:1 144:1 147:1 148:1 153:1 156:1 158:1 161:1 165:1 167:1 170:1 177:1 179:1 
-0 0.4152012811673771 1:1 4:1 7:1 21:1 24:1 34:1 39:1 40:1 45:1 48:1 51:1 56:1 58:1 61:1 64:1 67:1 71:1 78:1 79:1 84:1 93:1 99:1 103:1 114:1 115:1 123:1 124:1 127:1 133:1 138:1 140:1 142:1 146:1 150:1 153:1 158:1 161:1 168:1 170:1 175:1 179:1 
-1 0.4698200139397073 5:1 8:1 11:1 14:1 18:1 19:1 24:1 26:1 29:1 32:1 38:1 40:1 45:1 47:1 49:1 53:1 55:1 60:1 62:1 64:1 69:1 71:1 78:1 80:1 84:1 85:1 90:1 91:1 96:1 97:1 104:1 113:1 115:1 118:1 122:1 124:1 132:1 135:1 137:1 141:1 142:1 147:1 150:1 153:1 154:1 161:1 163:1 168:1 170:1 174:1 176:1 178:1 
-1 0 5:1 8:1 10:1 15:1 17:1 32:1 38:1 40:1 45:1 50:1 52:1 56:1 62:1 64:1 69:1 71:1 73:1 80:1 83:1 85:1 89:1 91:1 95:1 97:1 102:1 105:1 107:1 110:1 112:1 117:1 120:1 121:1 125:1 128:1 130:1 135:1 136:1 139:1 142:1 149:1 152:1 155:1 170:1 172:1 176:1 179:1 
-1 1 3:1 16:1 20:1 23:1 26:1 28:1 31:1 37:1 40:1 45:1 48:1 50:1 52:1 56:1 59:1 61:1 65:1 68:1 71:1 73:1 77:1 80:1 85:1 93:1 94:1 100:1 104:1 111:1 117:1 119:1 124:1 128:1 130:1 135:1 136:1 144:1 147:1 148:1 153:1 157:1 164:1 174:1 175:1 179:1 
-1 1 1:1 6:1 8:1 12:1 15:1 17:1 24:1 27:1 29:1 31:1 37:1 41:1 44:1 53:1 56:1 59:1 61:1 65:1 71:1 73:1 77:1 81:1 84:1 85:1 90:1 93:1 95:1 98:1 100:1 107:1 110:1 112:1 117:1 120:1 122:1 125:1 135:1 147:1 148:1 153:1 155:1 159:1 162:1 165:1 168:1 170:1 174:1 175:1 180:1 
-1 1 1:1 4:1 7:1 11:1 18:1 21:1 24:1 27:1 29:1 32:1 39:1 40:1 45:1 46:1 50:1 54:1 56:1 59:1 62:1 65:1 72:1 75:1 77:1 80:1 82:1 90:1 93:1 94:1 98:1 101:1 105:1 107:1 116:1 119:1 122:1 124:1 130:1 134:1 137:1 144:1 147:1 149:1 155:1 162:1 167:1 170:1 172:1 175:1 180:1 
-0 0.6144838211431579 3:1 4:1 7:1 12:1 13:1 21:1 22:1 25:1 28:1 37:1 40:1 44:1 47:1 51:1 53:1 56:1 60:1 62:1 64:1 68:1 70:1 75:1 77:1 84:1 86:1 93:1 94:1 99:1 100:1 103:1 111:1 112:1 117:1 129:1 135:1 138:1 143:1 146:1 153:1 154:1 157:1 162:1 163:1 166:1 171:1 174:1 175:1 
-1 0.06007004086402301 1:1 5:1 10:1 14:1 20:1 27:1 29:1 31:1 35:1 40:1 43:1 46:1 51:1 53:1 56:1 58:1 72:1 74:1 77:1 80:1 83:1 85:1 88:1 100:1 103:1 108:1 118:1 124:1 127:1 130:1 139:1 143:1 146:1 148:1 153:1 164:1 168:1 171:1 175:1 178:1 
-0 0.7347701962091854 1:1 6:1 9:1 12:1 14:1 16:1 20:1 27:1 33:1 36:1 40:1 45:1 48:1 50:1 52:1 56:1 59:1 64:1 70:1 75:1 80:1 83:1 86:1 88:1 93:1 95:1 100:1 104:1 114:1 117:1 120:1 121:1 126:1 129:1 131:1 138:1 139:1 144:1 147:1 149:1 151:1 154:1 159:1 160:1 165:1 166:1 169:1 180:1 
-1 0 2:1 5:1 8:1 10:1 13:1 16:1 24:1 29:1 35:1 37:1 42:1 43:1 46:1 54:1 58:1 66:1 71:1 74:1 77:1 79:1 84:1 85:1 88:1 91:1 95:1 98:1 105:1 111:1 114:1 116:1 123:1 125:1 134:1 136:1 139:1 143:1 146:1 148:1 159:1 160:1 164:1 166:1 171:1 
-0 1 5:1 8:1 11:1 14:1 20:1 23:1 26:1 28:1 32:1 35:1 38:1 44:1 46:1 51:1 54:1 57:1 58:1 63:1 65:1 68:1 70:1 75:1 78:1 80:1 86:1 90:1 93:1 95:1 97:1 110:1 117:1 120:1 122:1 124:1 129:1 131:1 133:1 136:1 141:1 142:1 150:1 151:1 154:1 158:1 161:1 164:1 167:1 170:1 173:1 176:1 178:1 
-0 0.9406200987192721 9:1 11:1 14:1 17:1 23:1 25:1 30:1 32:1 34:1 41:1 43:1 47:1 50:1 52:1 60:1 61:1 64:1 68:1 72:1 75:1 76:1 81:1 82:1 87:1 90:1 92:1 95:1 97:1 104:1 108:1 110:1 113:1 120:1 122:1 126:1 128:1 135:1 136:1 141:1 144:1 147:1 149:1 156:1 158:1 161:1 163:1 168:1 171:1 173:1 176:1 178:1 
-0 0.1749816694721275 3:1 4:1 7:1 12:1 17:1 19:1 22:1 25:1 29:1 31:1 44:1 46:1 49:1 52:1 57:1 69:1 72:1 73:1 84:1 86:1 88:1 95:1 97:1 100:1 105:1 111:1 114:1 116:1 118:1 126:1 132:1 134:1 141:1 147:1 148:1 152:1 155:1 157:1 169:1 175:1 178:1 
-0 1 3:1 6:1 7:1 20:1 23:1 25:1 30:1 32:1 35:1 41:1 44:1 47:1 50:1 56:1 63:1 65:1 67:1 70:1 73:1 78:1 79:1 87:1 93:1 94:1 97:1 101:1 105:1 106:1 111:1 117:1 123:1 125:1 127:1 132:1 133:1 137:1 141:1 144:1 150:1 152:1 155:1 158:1 160:1 164:1 167:1 170:1 173:1 176:1 179:1 
-0.5026412907297484 0 3:1 5:1 12:1 13:1 17:1 24:1 26:1 29:1 31:1 36:1 37:1 45:1 46:1 50:1 60:1 66:1 67:1 72:1 73:1 76:1 80:1 83:1 85:1 88:1 91:1 94:1 98:1 101:1 104:1 106:1 114:1 128:1 131:1 134:1 136:1 142:1 146:1 148:1 151:1 155:1 161:1 164:1 167:1 171:1 174:1 175:1 180:1 
-0 1 3:1 9:1 16:1 20:1 23:1 27:1 28:1 33:1 36:1 39:1 41:1 43:1 56:1 61:1 64:1 68:1 70:1 75:1 80:1 89:1 97:1 101:1 106:1 110:1 114:1 117:1 119:1 122:1 128:1 131:1 135:1 137:1 140:1 144:1 145:1 149:1 152:1 156:1 158:1 162:1 164:1 168:1 170:1 176:1 180:1 
-0.9375753903676428 0.2250924234659483 3:1 4:1 7:1 10:1 15:1 21:1 23:1 26:1 30:1 31:1 36:1 37:1 44:1 47:1 54:1 56:1 58:1 63:1 66:1 68:1 75:1 81:1 83:1 86:1 90:1 95:1 98:1 102:1 105:1 111:1 112:1 117:1 120:1 123:1 126:1 129:1 130:1 138:1 140:1 142:1 156:1 157:1 162:1 164:1 171:1 172:1 176:1 
-0.6085525851446699 1 3:1 6:1 8:1 15:1 18:1 19:1 23:1 26:1 30:1 31:1 35:1 38:1 40:1 44:1 46:1 51:1 53:1 57:1 59:1 63:1 69:1 71:1 73:1 78:1 82:1 85:1 90:1 95:1 99:1 102:1 104:1 107:1 110:1 113:1 116:1 123:1 125:1 128:1 131:1 134:1 138:1 143:1 146:1 153:1 155:1 158:1 161:1 168:1 170:1 173:1 177:1 180:1 
-1 0 6:1 8:1 15:1 21:1 30:1 32:1 39:1 44:1 62:1 65:1 68:1 74:1 80:1 86:1 92:1 94:1 98:1 102:1 103:1 106:1 109:1 114:1 117:1 128:1 131:1 134:1 136:1 141:1 144:1 147:1 149:1 151:1 156:1 158:1 161:1 163:1 168:1 171:1 174:1 177:1 179:1 
-0 1 1:1 4:1 7:1 15:1 18:1 19:1 24:1 25:1 33:1 35:1 38:1 40:1 43:1 46:1 49:1 53:1 55:1 60:1 61:1 65:1 68:1 70:1 75:1 78:1 80:1 82:1 86:1 88:1 93:1 94:1 97:1 100:1 105:1 107:1 114:1 115:1 118:1 123:1 126:1 132:1 134:1 141:1 144:1 145:1 150:1 151:1 159:1 161:1 164:1 166:1 169:1 174:1 180:1 
-0 1 2:1 6:1 9:1 10:1 14:1 17:1 19:1 24:1 26:1 32:1 34:1 42:1 45:1 47:1 50:1 59:1 63:1 66:1 68:1 72:1 75:1 77:1 83:1 86:1 88:1 93:1 95:1 99:1 100:1 105:1 107:1 110:1 114:1 120:1 122:1 126:1 128:1 132:1 134:1 140:1 147:1 149:1 151:1 156:1 158:1 161:1 168:1 170:1 172:1 176:1 178:1 
-1 1 2:1 5:1 12:1 15:1 20:1 23:1 26:1 29:1 32:1 39:1 42:1 44:1 47:1 50:1 57:1 59:1 66:1 69:1 71:1 75:1 76:1 81:1 82:1 85:1 88:1 93:1 96:1 97:1 104:1 107:1 110:1 113:1 120:1 123:1 129:1 131:1 138:1 139:1 147:1 150:1 155:1 158:1 165:1 167:1 174:1 177:1 
-0.5272141258966677 0 3:1 4:1 9:1 10:1 13:1 18:1 19:1 22:1 31:1 34:1 38:1 41:1 57:1 59:1 68:1 74:1 77:1 79:1 84:1 93:1 94:1 97:1 101:1 103:1 117:1 121:1 126:1 128:1 130:1 133:1 139:1 142:1 147:1 152:1 154:1 162:1 164:1 166:1 169:1 172:1 178:1 
-0 1 4:1 8:1 14:1 17:1 20:1 22:1 26:1 32:1 35:1 38:1 41:1 43:1 53:1 62:1 64:1 67:1 70:1 74:1 77:1 80:1 82:1 87:1 89:1 95:1 97:1 100:1 105:1 113:1 116:1 118:1 123:1 131:1 134:1 140:1 143:1 145:1 149:1 152:1 157:1 162:1 165:1 166:1 170:1 179:1 
-0.1223228220274186 0.03636786141680769 2:1 5:1 12:1 15:1 17:1 19:1 26:1 30:1 31:1 36:1 41:1 45:1 48:1 52:1 57:1 58:1 66:1 68:1 71:1 73:1 78:1 81:1 82:1 85:1 93:1 95:1 102:1 109:1 112:1 115:1 119:1 121:1 131:1 136:1 142:1 147:1 151:1 155:1 157:1 161:1 163:1 168:1 171:1 172:1 180:1 
-1 1 3:1 5:1 7:1 10:1 13:1 17:1 20:1 26:1 32:1 35:1 38:1 45:1 48:1 50:1 53:1 56:1 59:1 69:1 72:1 73:1 78:1 83:1 85:1 90:1 93:1 95:1 97:1 101:1 103:1 108:1 111:1 114:1 116:1 120:1 123:1 126:1 129:1 135:1 144:1 147:1 153:1 156:1 159:1 162:1 163:1 166:1 169:1 177:1 
-0 1 3:1 6:1 8:1 11:1 17:1 21:1 24:1 26:1 30:1 32:1 35:1 41:1 45:1 47:1 51:1 54:1 56:1 59:1 63:1 65:1 69:1 71:1 75:1 81:1 84:1 86:1 89:1 93:1 99:1 101:1 105:1 107:1 113:1 120:1 122:1 125:1 130:1 138:1 141:1 144:1 147:1 150:1 152:1 155:1 158:1 162:1 165:1 171:1 174:1 177:1 179:1 
-1 0 2:1 8:1 14:1 28:1 36:1 38:1 47:1 53:1 68:1 70:1 74:1 80:1 87:1 90:1 91:1 96:1 97:1 101:1 103:1 108:1 109:1 114:1 116:1 123:1 127:1 132:1 135:1 136:1 141:1 142:1 145:1 150:1 153:1 154:1 157:1 162:1 164:1 170:1 173:1 176:1 
-0 1 3:1 5:1 10:1 19:1 23:1 28:1 32:1 35:1 37:1 40:1 45:1 47:1 50:1 57:1 64:1 69:1 76:1 79:1 84:1 87:1 90:1 92:1 94:1 97:1 100:1 105:1 108:1 110:1 112:1 115:1 120:1 121:1 124:1 127:1 138:1 142:1 145:1 159:1 162:1 165:1 168:1 170:1 177:1 
-0 1 2:1 4:1 10:1 18:1 27:1 28:1 31:1 34:1 37:1 40:1 48:1 49:1 56:1 58:1 61:1 64:1 71:1 73:1 78:1 81:1 82:1 88:1 100:1 105:1 108:1 109:1 117:1 123:1 125:1 127:1 134:1 136:1 141:1 143:1 149:1 151:1 159:1 163:1 175:1 179:1 
-1 1 5:1 8:1 10:1 18:1 30:1 34:1 37:1 40:1 43:1 47:1 52:1 56:1 58:1 62:1 64:1 71:1 74:1 77:1 82:1 85:1 93:1 99:1 105:1 107:1 110:1 112:1 118:1 123:1 124:1 129:1 139:1 142:1 146:1 148:1 152:1 154:1 157:1 162:1 167:1 170:1 177:1 
-0 1 3:1 4:1 7:1 10:1 18:1 20:1 22:1 25:1 30:1 31:1 34:1 37:1 41:1 45:1 48:1 51:1 56:1 58:1 62:1 65:1 67:1 74:1 77:1 84:1 87:1 93:1 96:1 97:1 102:1 105:1 108:1 109:1 114:1 117:1 118:1 123:1 124:1 129:1 130:1 141:1 142:1 147:1 149:1 156:1 168:1 169:1 173:1 177:1 180:1 
-1 0 2:1 4:1 7:1 12:1 13:1 16:1 21:1 23:1 26:1 28:1 31:1 34:1 39:1 41:1 43:1 48:1 54:1 55:1 58:1 63:1 66:1 75:1 77:1 79:1 84:1 85:1 90:1 91:1 94:1 110:1 118:1 122:1 127:1 130:1 133:1 136:1 144:1 146:1 149:1 151:1 154:1 159:1 162:1 163:1 173:1 175:1 
-0 1 2:1 6:1 9:1 10:1 14:1 17:1 20:1 22:1 26:1 28:1 32:1 36:1 39:1 42:1 44:1 48:1 49:1 54:1 55:1 58:1 63:1 65:1 68:1 71:1 80:1 84:1 86:1 90:1 96:1 102:1 105:1 107:1 111:1 113:1 116:1 123:1 125:1 129:1 132:1 134:1 136:1 139:1 144:1 147:1 149:1 152:1 161:1 165:1 168:1 170:1 173:1 175:1 180:1 
-0.2352004798317212 1 1:1 4:1 7:1 11:1 16:1 20:1 23:1 26:1 29:1 34:1 37:1 40:1 43:1 48:1 50:1 53:1 55:1 58:1 61:1 64:1 72:1 75:1 78:1 79:1 82:1 85:1 90:1 93:1 94:1 97:1 100:1 103:1 108:1 109:1 113:1 119:1 121:1 127:1 134:1 136:1 139:1 143:1 145:1 156:1 161:1 165:1 170:1 172:1 
-0 1 3:1 6:1 12:1 17:1 19:1 24:1 27:1 33:1 36:1 39:1 40:1 45:1 49:1 53:1 60:1 62:1 64:1 67:1 71:1 74:1 81:1 82:1 86:1 90:1 92:1 94:1 97:1 105:1 107:1 113:1 115:1 120:1 121:1 125:1 129:1 131:1 133:1 138:1 139:1 142:1 147:1 150:1 153:1 154:1 158:1 165:1 167:1 170:1 174:1 179:1 
-0.2303863904281072 0 1:1 9:1 11:1 14:1 20:1 23:1 26:1 28:1 31:1 34:1 39:1 45:1 47:1 49:1 54:1 57:1 60:1 61:1 70:1 74:1 76:1 81:1 84:1 90:1 94:1 97:1 102:1 104:1 107:1 112:1 116:1 119:1 121:1 125:1 127:1 131:1 134:1 137:1 139:1 144:1 146:1 149:1 151:1 154:1 157:1 160:1 167:1 170:1 175:1 
-1 0 2:1 5:1 9:1 14:1 17:1 20:1 25:1 35:1 42:1 45:1 47:1 50:1 52:1 56:1 66:1 67:1 77:1 81:1 84:1 87:1 90:1 93:1 94:1 98:1 100:1 104:1 107:1 114:1 117:1 121:1 126:1 129:1 132:1 135:1 136:1 144:1 147:1 150:1 153:1 154:1 157:1 160:1 165:1 168:1 174:1 177:1 180:1 
-0 1 6:1 9:1 10:1 14:1 18:1 21:1 25:1 28:1 32:1 34:1 39:1 42:1 43:1 46:1 54:1 58:1 66:1 67:1 72:1 73:1 78:1 87:1 90:1 93:1 99:1 101:1 104:1 106:1 109:1 112:1 115:1 119:1 129:1 135:1 138:1 140:1 143:1 147:1 149:1 152:1 155:1 162:1 166:1 170:1 172:1 175:1 180:1 
-0 1 2:1 4:1 13:1 16:1 33:1 39:1 41:1 43:1 53:1 66:1 69:1 73:1 76:1 105:1 126:1 130:1 133:1 137:1 142:1 146:1 148:1 151:1 154:1 159:1 161:1 174:1 176:1 
-0 1 6:1 9:1 12:1 14:1 21:1 23:1 25:1 32:1 35:1 42:1 44:1 51:1 54:1 55:1 62:1 66:1 69:1 70:1 75:1 76:1 80:1 84:1 90:1 93:1 96:1 97:1 102:1 103:1 109:1 113:1 119:1 122:1 125:1 131:1 135:1 136:1 141:1 142:1 145:1 148:1 153:1 156:1 157:1 160:1 165:1 166:1 169:1 174:1 175:1 179:1 
-0.004037571410108611 1 4:1 9:1 12:1 13:1 27:1 30:1 33:1 36:1 37:1 48:1 49:1 52:1 57:1 59:1 62:1 65:1 69:1 72:1 74:1 81:1 82:1 90:1 93:1 97:1 102:1 105:1 107:1 109:1 114:1 115:1 118:1 122:1 132:1 135:1 136:1 141:1 142:1 146:1 148:1 151:1 159:1 165:1 166:1 171:1 172:1 175:1 180:1 
-0 1 3:1 9:1 10:1 15:1 18:1 30:1 41:1 46:1 50:1 53:1 55:1 60:1 67:1 77:1 80:1 84:1 87:1 88:1 93:1 97:1 100:1 104:1 107:1 109:1 114:1 115:1 121:1 124:1 127:1 132:1 133:1 138:1 139:1 147:1 149:1 152:1 155:1 161:1 168:1 179:1 
-1 0 3:1 4:1 20:1 22:1 26:1 29:1 39:1 40:1 44:1 47:1 50:1 53:1 60:1 65:1 67:1 71:1 78:1 84:1 90:1 91:1 94:1 98:1 100:1 104:1 111:1 112:1 115:1 120:1 122:1 134:1 147:1 150:1 151:1 155:1 157:1 160:1 165:1 168:1 170:1 172:1 176:1 179:1 
-0.543423902028155 1 1:1 12:1 15:1 17:1 19:1 22:1 27:1 30:1 31:1 36:1 37:1 44:1 46:1 57:1 58:1 62:1 65:1 71:1 75:1 81:1 90:1 93:1 94:1 98:1 101:1 105:1 106:1 109:1 119:1 123:1 125:1 127:1 130:1 135:1 137:1 144:1 147:1 149:1 152:1 156:1 157:1 161:1 164:1 166:1 171:1 177:1 179:1 
-1 0 2:1 5:1 10:1 14:1 16:1 19:1 24:1 27:1 33:1 38:1 41:1 43:1 47:1 50:1 56:1 63:1 66:1 68:1 71:1 74:1 77:1 80:1 84:1 87:1 90:1 92:1 95:1 104:1 106:1 111:1 113:1 115:1 120:1 122:1 125:1 129:1 131:1 137:1 140:1 145:1 149:1 151:1 155:1 159:1 160:1 165:1 171:1 174:1 177:1 179:1 
-0.443522463964854 1 2:1 17:1 20:1 22:1 27:1 28:1 33:1 35:1 38:1 46:1 52:1 59:1 69:1 72:1 76:1 82:1 90:1 92:1 95:1 97:1 100:1 108:1 109:1 117:1 119:1 122:1 126:1 128:1 131:1 133:1 146:1 153:1 154:1 159:1 161:1 164:1 166:1 171:1 172:1 175:1 178:1 
-1 1 3:1 6:1 8:1 11:1 14:1 17:1 20:1 22:1 26:1 29:1 36:1 39:1 45:1 48:1 49:1 52:1 57:1 59:1 62:1 65:1 71:1 76:1 80:1 83:1 90:1 93:1 99:1 105:1 107:1 111:1 114:1 117:1 120:1 121:1 126:1 128:1 132:1 133:1 138:1 141:1 152:1 161:1 166:1 170:1 174:1 176:1 178:1 
-1 1 3:1 5:1 9:1 11:1 14:1 16:1 19:1 22:1 27:1 29:1 31:1 34:1 37:1 42:1 45:1 48:1 51:1 52:1 56:1 58:1 64:1 67:1 70:1 74:1 76:1 80:1 83:1 85:1 90:1 93:1 94:1 97:1 101:1 103:1 106:1 110:1 114:1 117:1 120:1 123:1 124:1 129:1 130:1 135:1 136:1 141:1 143:1 146:1 152:1 155:1 162:1 168:1 169:1 172:1 175:1 180:1 
-1 0 6:1 7:1 11:1 15:1 17:1 20:1 23:1 29:1 31:1 34:1 39:1 42:1 45:1 47:1 49:1 53:1 60:1 66:1 67:1 72:1 77:1 80:1 83:1 90:1 92:1 95:1 98:1 100:1 104:1 107:1 114:1 117:1 120:1 122:1 125:1 127:1 132:1 135:1 137:1 140:1 143:1 150:1 152:1 155:1 158:1 161:1 170:1 176:1 
-1 0 5:1 8:1 19:1 23:1 25:1 30:1 31:1 35:1 37:1 42:1 44:1 49:1 54:1 60:1 66:1 69:1 75:1 78:1 80:1 83:1 85:1 89:1 95:1 97:1 102:1 115:1 120:1 122:1 124:1 131:1 137:1 144:1 146:1 152:1 157:1 171:1 174:1 176:1 179:1 
-1 1 3:1 5:1 8:1 11:1 14:1 18:1 20:1 24:1 26:1 29:1 34:1 38:1 45:1 46:1 51:1 57:1 59:1 65:1 67:1 72:1 78:1 79:1 82:1 90:1 93:1 94:1 97:1 102:1 104:1 106:1 111:1 113:1 126:1 130:1 134:1 138:1 140:1 143:1 145:1 150:1 152:1 156:1 163:1 171:1 174:1 180:1 
-1 0.7774839026191802 8:1 11:1 15:1 16:1 19:1 24:1 25:1 29:1 32:1 41:1 43:1 48:1 49:1 52:1 55:1 58:1 63:1 64:1 67:1 71:1 74:1 76:1 81:1 83:1 85:1 89:1 91:1 97:1 100:1 108:1 109:1 114:1 115:1 119:1 121:1 125:1 128:1 130:1 136:1 139:1 142:1 147:1 148:1 151:1 156:1 165:1 168:1 173:1 180:1 
-0 1 3:1 4:1 15:1 16:1 19:1 24:1 30:1 33:1 35:1 42:1 45:1 46:1 49:1 52:1 57:1 58:1 63:1 69:1 70:1 78:1 80:1 83:1 90:1 93:1 96:1 99:1 100:1 103:1 108:1 111:1 112:1 117:1 118:1 126:1 129:1 130:1 135:1 142:1 150:1 151:1 156:1 159:1 162:1 166:1 170:1 177:1 
-1 1 3:1 6:1 8:1 11:1 15:1 17:1 20:1 23:1 30:1 34:1 38:1 41:1 44:1 50:1 62:1 64:1 68:1 71:1 83:1 86:1 89:1 94:1 97:1 100:1 105:1 106:1 110:1 113:1 116:1 121:1 124:1 127:1 134:1 141:1 142:1 147:1 150:1 151:1 154:1 161:1 163:1 166:1 170:1 172:1 177:1 180:1 
-1 0 3:1 4:1 9:1 11:1 14:1 19:1 24:1 25:1 29:1 31:1 35:1 38:1 41:1 44:1 51:1 54:1 57:1 66:1 70:1 75:1 78:1 81:1 84:1 85:1 90:1 91:1 96:1 99:1 101:1 108:1 111:1 114:1 117:1 123:1 126:1 127:1 132:1 135:1 138:1 139:1 144:1 145:1 150:1 153:1 155:1 161:1 164:1 173:1 176:1 179:1 
-0 0.1410572411234619 2:1 5:1 8:1 11:1 13:1 18:1 20:1 28:1 32:1 35:1 39:1 41:1 44:1 47:1 49:1 54:1 58:1 62:1 66:1 68:1 70:1 75:1 76:1 80:1 86:1 93:1 94:1 97:1 102:1 104:1 112:1 123:1 124:1 129:1 130:1 134:1 140:1 142:1 146:1 149:1 156:1 157:1 162:1 163:1 166:1 170:1 175:1 
-0.2103490370602951 0 3:1 4:1 7:1 10:1 18:1 19:1 23:1 30:1 31:1 39:1 42:1 43:1 48:1 51:1 57:1 63:1 66:1 67:1 86:1 90:1 102:1 103:1 106:1 111:1 116:1 118:1 125:1 129:1 132:1 137:1 141:1 144:1 146:1 156:1 157:1 161:1 163:1 167:1 170:1 172:1 180:1 
-1 1 6:1 7:1 10:1 15:1 21:1 26:1 31:1 34:1 42:1 44:1 46:1 55:1 58:1 62:1 78:1 82:1 85:1 90:1 93:1 97:1 101:1 108:1 109:1 112:1 118:1 122:1 130:1 133:1 139:1 147:1 153:1 156:1 159:1 160:1 163:1 166:1 170:1 173:1 176:1 
-0 1 1:1 5:1 7:1 11:1 13:1 18:1 20:1 24:1 25:1 30:1 33:1 35:1 38:1 44:1 46:1 49:1 54:1 55:1 59:1 61:1 66:1 72:1 84:1 85:1 89:1 93:1 94:1 97:1 102:1 104:1 108:1 109:1 116:1 119:1 123:1 124:1 129:1 131:1 133:1 138:1 143:1 146:1 152:1 159:1 161:1 164:1 167:1 171:1 173:1 176:1 
-1 0 6:1 12:1 14:1 17:1 24:1 26:1 32:1 34:1 38:1 41:1 50:1 52:1 56:1 59:1 61:1 66:1 68:1 74:1 81:1 83:1 86:1 88:1 92:1 96:1 99:1 101:1 108:1 111:1 112:1 116:1 119:1 123:1 126:1 127:1 132:1 133:1 137:1 141:1 143:1 149:1 156:1 158:1 162:1 165:1 168:1 171:1 173:1 180:1 
-1 1 3:1 9:1 12:1 15:1 16:1 20:1 23:1 25:1 29:1 31:1 36:1 38:1 41:1 43:1 48:1 51:1 52:1 56:1 60:1 63:1 65:1 68:1 71:1 80:1 82:1 85:1 90:1 91:1 97:1 102:1 105:1 108:1 111:1 113:1 120:1 121:1 126:1 129:1 132:1 133:1 138:1 141:1 143:1 146:1 148:1 151:1 156:1 159:1 162:1 165:1 166:1 169:1 173:1 175:1 
-0 1 3:1 6:1 8:1 25:1 28:1 33:1 35:1 41:1 47:1 49:1 54:1 58:1 67:1 75:1 76:1 81:1 82:1 93:1 99:1 100:1 110:1 117:1 121:1 124:1 127:1 131:1 134:1 137:1 139:1 145:1 159:1 161:1 167:1 169:1 174:1 175:1 178:1 
-0 0.2514148974988763 4:1 9:1 10:1 18:1 21:1 26:1 29:1 36:1 37:1 42:1 45:1 46:1 49:1 52:1 55:1 60:1 70:1 76:1 81:1 83:1 93:1 98:1 103:1 116:1 122:1 128:1 134:1 139:1 142:1 146:1 148:1 154:1 159:1 168:1 173:1 175:1 180:1 
-1 0 2:1 5:1 12:1 13:1 17:1 21:1 26:1 28:1 32:1 34:1 39:1 40:1 43:1 48:1 50:1 53:1 56:1 62:1 69:1 74:1 77:1 83:1 86:1 92:1 94:1 98:1 111:1 113:1 117:1 123:1 126:1 128:1 132:1 137:1 139:1 142:1 146:1 148:1 152:1 156:1 159:1 160:1 164:1 166:1 171:1 173:1 177:1 180:1 
-1 1 5:1 9:1 15:1 18:1 20:1 24:1 36:1 42:1 45:1 47:1 49:1 52:1 56:1 59:1 62:1 65:1 69:1 72:1 73:1 77:1 79:1 83:1 87:1 90:1 93:1 96:1 98:1 100:1 104:1 107:1 109:1 114:1 116:1 119:1 121:1 126:1 131:1 133:1 138:1 140:1 144:1 147:1 148:1 153:1 155:1 158:1 164:1 167:1 173:1 175:1 179:1 
-0.009190374189129286 0 6:1 9:1 12:1 15:1 17:1 27:1 30:1 32:1 35:1 42:1 45:1 47:1 54:1 56:1 59:1 62:1 65:1 69:1 71:1 77:1 79:1 83:1 87:1 89:1 92:1 94:1 98:1 107:1 113:1 119:1 122:1 125:1 129:1 131:1 134:1 137:1 140:1 143:1 145:1 150:1 151:1 155:1 157:1 161:1 164:1 166:1 169:1 177:1 180:1 
-1 1 2:1 6:1 8:1 17:1 20:1 26:1 30:1 35:1 38:1 42:1 44:1 47:1 50:1 53:1 58:1 61:1 66:1 71:1 75:1 78:1 81:1 82:1 85:1 90:1 93:1 101:1 104:1 114:1 116:1 120:1 123:1 131:1 135:1 137:1 141:1 144:1 146:1 150:1 156:1 158:1 161:1 165:1 168:1 169:1 173:1 177:1 
-1 1 1:1 6:1 9:1 12:1 15:1 17:1 24:1 26:1 29:1 33:1 35:1 37:1 42:1 44:1 47:1 51:1 53:1 56:1 60:1 62:1 66:1 67:1 72:1 74:1 77:1 83:1 86:1 90:1 93:1 94:1 98:1 100:1 105:1 106:1 110:1 114:1 116:1 119:1 121:1 126:1 127:1 132:1 134:1 138:1 139:1 144:1 147:1 148:1 153:1 156:1 158:1 162:1 164:1 169:1 173:1 177:1 179:1 
-0 1 1:1 4:1 8:1 14:1 16:1 19:1 22:1 26:1 28:1 33:1 34:1 37:1 42:1 45:1 51:1 56:1 63:1 70:1 73:1 81:1 82:1 87:1 88:1 93:1 94:1 99:1 105:1 106:1 114:1 116:1 119:1 122:1 124:1 131:1 138:1 140:1 143:1 148:1 152:1 155:1 157:1 164:1 167:1 169:1 172:1 177:1 180:1 
-0 0.3130690289128587 3:1 5:1 7:1 10:1 18:1 21:1 23:1 25:1 31:1 36:1 37:1 40:1 43:1 48:1 54:1 60:1 61:1 64:1 68:1 70:1 73:1 76:1 81:1 82:1 85:1 88:1 91:1 99:1 100:1 106:1 115:1 118:1 123:1 126:1 127:1 132:1 135:1 138:1 141:1 144:1 147:1 149:1 156:1 160:1 165:1 166:1 169:1 174:1 177:1 180:1 
-0 1 9:1 15:1 19:1 27:1 30:1 36:1 42:1 43:1 48:1 51:1 55:1 60:1 63:1 66:1 68:1 78:1 79:1 84:1 87:1 97:1 105:1 120:1 130:1 138:1 141:1 144:1 150:1 154:1 158:1 160:1 165:1 174:1 
-1 1 2:1 4:1 9:1 10:1 14:1 16:1 19:1 22:1 26:1 29:1 35:1 41:1 47:1 50:1 52:1 57:1 58:1 61:1 65:1 71:1 73:1 78:1 80:1 83:1 85:1 91:1 99:1 100:1 104:1 110:1 116:1 122:1 128:1 131:1 133:1 138:1 139:1 142:1 146:1 152:1 154:1 159:1 164:1 166:1 171:1 172:1 176:1 178:1 
-0 1 1:1 6:1 7:1 12:1 15:1 17:1 19:1 24:1 25:1 30:1 32:1 39:1 41:1 44:1 47:1 50:1 57:1 58:1 63:1 69:1 70:1 75:1 77:1 80:1 82:1 90:1 92:1 94:1 99:1 100:1 105:1 108:1 109:1 116:1 122:1 125:1 131:1 134:1 137:1 143:1 145:1 152:1 155:1 157:1 164:1 170:1 176:1 
-0.04328510839434137 0 3:1 4:1 9:1 10:1 13:1 16:1 21:1 24:1 25:1 35:1 38:1 40:1 45:1 46:1 51:1 54:1 56:1 61:1 66:1 68:1 74:1 77:1 79:1 82:1 85:1 88:1 92:1 95:1 97:1 104:1 107:1 110:1 112:1 117:1 120:1 125:1 127:1 137:1 146:1 148:1 155:1 158:1 164:1 166:1 170:1 173:1 176:1 178:1 
-1 0 1:1 5:1 7:1 11:1 14:1 16:1 20:1 22:1 26:1 32:1 36:1 38:1 40:1 46:1 51:1 56:1 60:1 63:1 64:1 68:1 71:1 74:1 77:1 79:1 84:1 85:1 88:1 94:1 98:1 103:1 107:1 110:1 113:1 115:1 118:1 121:1 129:1 131:1 138:1 141:1 143:1 153:1 154:1 161:1 163:1 171:1 172:1 175:1 179:1 
-1 0 5:1 9:1 11:1 18:1 24:1 27:1 28:1 35:1 39:1 42:1 44:1 49:1 53:1 59:1 75:1 81:1 82:1 90:1 92:1 94:1 98:1 100:1 104:1 107:1 109:1 114:1 116:1 120:1 122:1 129:1 132:1 138:1 140:1 142:1 147:1 148:1 151:1 156:1 159:1 161:1 167:1 174:1 177:1 179:1 
-1 1 3:1 4:1 9:1 12:1 13:1 18:1 20:1 29:1 32:1 34:1 37:1 40:1 49:1 56:1 59:1 61:1 70:1 75:1 77:1 79:1 83:1 85:1 88:1 93:1 95:1 98:1 101:1 105:1 110:1 112:1 117:1 123:1 126:1 128:1 131:1 134:1 137:1 139:1 147:1 149:1 151:1 157:1 160:1 163:1 171:1 175:1 179:1 
-0 1 1:1 6:1 9:1 10:1 13:1 16:1 19:1 22:1 27:1 28:1 33:1 36:1 37:1 40:1 45:1 48:1 51:1 52:1 57:1 60:1 63:1 64:1 69:1 72:1 75:1 76:1 81:1 84:1 85:1 88:1 93:1 96:1 97:1 100:1 105:1 108:1 109:1 112:1 115:1 120:1 121:1 124:1 129:1 132:1 133:1 136:1 141:1 144:1 145:1 148:1 153:1 156:1 159:1 160:1 165:1 166:1 171:1 172:1 177:1 178:1 
-0.6746148570052116 0 3:1 4:1 7:1 17:1 19:1 26:1 29:1 34:1 38:1 40:1 45:1 48:1 54:1 56:1 58:1 63:1 66:1 68:1 75:1 77:1 80:1 85:1 92:1 94:1 99:1 100:1 103:1 108:1 111:1 117:1 120:1 126:1 129:1 131:1 138:1 141:1 147:1 153:1 156:1 158:1 163:1 166:1 174:1 176:1 179:1 
-0.6735705580013489 1 5:1 8:1 14:1 21:1 24:1 30:1 32:1 35:1 37:1 40:1 44:1 51:1 53:1 55:1 60:1 62:1 64:1 68:1 72:1 74:1 79:1 84:1 87:1 90:1 93:1 99:1 102:1 107:1 109:1 113:1 116:1 122:1 124:1 129:1 131:1 134:1 138:1 139:1 144:1 147:1 148:1 152:1 154:1 158:1 161:1 167:1 171:1 174:1 177:1 180:1 
-1 1 5:1 8:1 11:1 14:1 18:1 20:1 22:1 26:1 28:1 33:1 35:1 39:1 40:1 43:1 46:1 53:1 59:1 62:1 65:1 67:1 72:1 78:1 81:1 83:1 85:1 89:1 92:1 96:1 97:1 102:1 105:1 108:1 111:1 114:1 116:1 120:1 121:1 126:1 129:1 132:1 139:1 142:1 147:1 153:1 156:1 159:1 162:1 165:1 168:1 171:1 172:1 177:1 180:1 
-0 1 3:1 5:1 9:1 12:1 15:1 17:1 20:1 24:1 27:1 28:1 33:1 35:1 37:1 41:1 45:1 48:1 51:1 53:1 55:1 59:1 62:1 65:1 67:1 72:1 74:1 76:1 84:1 87:1 90:1 93:1 96:1 100:1 104:1 111:1 113:1 119:1 121:1 125:1 127:1 131:1 133:1 138:1 139:1 144:1 147:1 148:1 152:1 156:1 158:1 165:1 167:1 173:1 175:1 180:1 
-0.2599381543268058 1 2:1 4:1 8:1 12:1 21:1 24:1 27:1 28:1 33:1 36:1 41:1 45:1 46:1 51:1 54:1 56:1 58:1 63:1 66:1 68:1 70:1 75:1 76:1 83:1 85:1 89:1 99:1 100:1 105:1 107:1 110:1 113:1 115:1 120:1 122:1 124:1 129:1 135:1 139:1 142:1 147:1 150:1 158:1 168:1 172:1 179:1 
-1 1 2:1 5:1 11:1 13:1 24:1 25:1 34:1 37:1 43:1 47:1 49:1 56:1 58:1 65:1 71:1 73:1 77:1 79:1 83:1 95:1 97:1 105:1 106:1 111:1 119:1 128:1 131:1 133:1 146:1 148:1 151:1 154:1 159:1 160:1 164:1 170:1 172:1 176:1 
-1 0 9:1 11:1 14:1 17:1 27:1 28:1 33:1 34:1 41:1 46:1 62:1 65:1 74:1 80:1 82:1 85:1 91:1 99:1 108:1 109:1 116:1 118:1 121:1 126:1 128:1 130:1 135:1 136:1 141:1 150:1 153:1 154:1 157:1 160:1 163:1 166:1 172:1 180:1 
-0.2070670386497857 1 2:1 4:1 9:1 11:1 21:1 24:1 32:1 38:1 41:1 48:1 51:1 54:1 56:1 58:1 61:1 66:1 67:1 70:1 75:1 76:1 79:1 84:1 85:1 88:1 93:1 94:1 97:1 100:1 105:1 106:1 109:1 114:1 115:1 120:1 123:1 124:1 129:1 132:1 135:1 138:1 141:1 142:1 145:1 150:1 153:1 156:1 157:1 160:1 163:1 166:1 169:1 174:1 175:1 178:1 
-1 1 8:1 12:1 14:1 17:1 19:1 22:1 26:1 28:1 33:1 35:1 38:1 45:1 48:1 54:1 58:1 66:1 69:1 71:1 75:1 77:1 80:1 86:1 90:1 93:1 94:1 98:1 100:1 105:1 107:1 109:1 112:1 116:1 120:1 125:1 130:1 137:1 141:1 143:1 146:1 148:1 152:1 155:1 162:1 163:1 166:1 171:1 174:1 175:1 179:1 
-0.729872445969776 0 11:1 35:1 37:1 42:1 44:1 46:1 49:1 53:1 56:1 58:1 66:1 71:1 74:1 76:1 79:1 84:1 87:1 90:1 91:1 95:1 98:1 105:1 107:1 109:1 114:1 123:1 126:1 130:1 141:1 142:1 149:1 159:1 162:1 164:1 166:1 170:1 173:1 175:1 179:1 
-1 0 3:1 6:1 11:1 17:1 24:1 26:1 33:1 36:1 44:1 49:1 54:1 56:1 65:1 68:1 74:1 83:1 86:1 89:1 91:1 104:1 111:1 112:1 116:1 122:1 125:1 132:1 135:1 137:1 148:1 153:1 155:1 161:1 167:1 174:1 177:1 178:1 
-1 1 3:1 6:1 7:1 10:1 18:1 21:1 27:1 28:1 32:1 39:1 42:1 43:1 47:1 59:1 62:1 64:1 69:1 70:1 77:1 80:1 87:1 90:1 96:1 97:1 105:1 107:1 114:1 117:1 118:1 121:1 124:1 132:1 133:1 137:1 143:1 146:1 149:1 152:1 154:1 159:1 161:1 165:1 171:1 174:1 175:1 180:1 
-1 1 1:1 18:1 23:1 25:1 33:1 35:1 42:1 45:1 48:1 49:1 54:1 57:1 58:1 61:1 69:1 83:1 87:1 90:1 93:1 98:1 100:1 106:1 110:1 114:1 117:1 118:1 123:1 129:1 135:1 137:1 144:1 147:1 148:1 153:1 154:1 157:1 162:1 168:1 169:1 180:1 
-0.08123537898587169 0 6:1 7:1 11:1 13:1 21:1 35:1 40:1 51:1 56:1 66:1 67:1 70:1 74:1 77:1 79:1 88:1 92:1 99:1 101:1 103:1 109:1 117:1 118:1 124:1 128:1 130:1 137:1 139:1 142:1 145:1 150:1 157:1 160:1 165:1 171:1 172:1 176:1 178:1 
-0.5213830274562846 0 4:1 7:1 11:1 17:1 29:1 32:1 34:1 38:1 41:1 43:1 46:1 59:1 61:1 64:1 67:1 73:1 78:1 84:1 86:1 90:1 93:1 95:1 103:1 106:1 109:1 112:1 117:1 118:1 126:1 127:1 130:1 135:1 138:1 139:1 144:1 145:1 150:1 152:1 157:1 160:1 163:1 167:1 169:1 172:1 175:1 179:1 
-1 0 6:1 7:1 15:1 16:1 21:1 23:1 29:1 36:1 38:1 40:1 47:1 50:1 53:1 55:1 69:1 75:1 78:1 83:1 85:1 95:1 98:1 105:1 107:1 112:1 116:1 118:1 123:1 128:1 134:1 137:1 139:1 142:1 146:1 148:1 151:1 159:1 164:1 167:1 170:1 177:1 180:1 
-0 1 6:1 15:1 24:1 27:1 33:1 34:1 37:1 45:1 48:1 49:1 54:1 56:1 62:1 64:1 69:1 78:1 84:1 90:1 93:1 96:1 99:1 102:1 105:1 106:1 110:1 113:1 116:1 123:1 124:1 131:1 133:1 136:1 140:1 142:1 146:1 149:1 151:1 158:1 165:1 168:1 171:1 177:1 180:1 
-1 0.9686510195512623 3:1 4:1 9:1 10:1 14:1 18:1 20:1 27:1 29:1 31:1 36:1 38:1 42:1 44:1 46:1 50:1 54:1 57:1 58:1 62:1 65:1 68:1 71:1 74:1 77:1 80:1 82:1 85:1 90:1 91:1 95:1 97:1 101:1 103:1 109:1 117:1 118:1 122:1 125:1 128:1 130:1 134:1 137:1 139:1 143:1 146:1 149:1 152:1 154:1 161:1 167:1 174:1 175:1 179:1 
-1 1 1:1 5:1 8:1 21:1 24:1 26:1 35:1 41:1 43:1 48:1 50:1 52:1 57:1 60:1 62:1 64:1 69:1 71:1 78:1 79:1 83:1 90:1 91:1 96:1 99:1 100:1 105:1 106:1 110:1 120:1 123:1 126:1 129:1 134:1 143:1 146:1 153:1 156:1 158:1 164:1 166:1 170:1 175:1 
-1 1 6:1 9:1 10:1 15:1 18:1 19:1 22:1 25:1 35:1 41:1 45:1 46:1 51:1 54:1 60:1 61:1 65:1 68:1 75:1 78:1 79:1 83:1 85:1 90:1 93:1 96:1 98:1 102:1 105:1 108:1 110:1 117:1 120:1 123:1 125:1 129:1 130:1 135:1 138:1 139:1 143:1 147:1 149:1 155:1 158:1 161:1 165:1 168:1 171:1 174:1 176:1 179:1 
-1 1 2:1 5:1 8:1 11:1 16:1 21:1 22:1 30:1 31:1 34:1 39:1 44:1 50:1 53:1 55:1 63:1 64:1 69:1 71:1 76:1 80:1 82:1 85:1 90:1 93:1 96:1 98:1 101:1 108:1 111:1 117:1 121:1 128:1 131:1 133:1 138:1 141:1 147:1 148:1 155:1 160:1 165:1 169:1 172:1 
-1 1 2:1 9:1 12:1 14:1 17:1 26:1 29:1 36:1 39:1 40:1 44:1 46:1 51:1 53:1 55:1 60:1 63:1 66:1 69:1 72:1 74:1 80:1 83:1 90:1 93:1 96:1 97:1 107:1 110:1 117:1 120:1 123:1 134:1 137:1 139:1 144:1 147:1 151:1 154:1 159:1 165:1 166:1 
-0.741584569385464 0 1:1 4:1 9:1 12:1 13:1 17:1 19:1 22:1 27:1 29:1 31:1 36:1 39:1 44:1 49:1 53:1 56:1 60:1 63:1 66:1 68:1 71:1 73:1 77:1 81:1 83:1 85:1 89:1 92:1 96:1 98:1 101:1 108:1 110:1 117:1 119:1 126:1 128:1 135:1 138:1 141:1 147:1 149:1 156:1 159:1 160:1 165:1 166:1 169:1 176:1 
-0 1 2:1 5:1 7:1 10:1 14:1 18:1 20:1 23:1 25:1 29:1 32:1 34:1 39:1 41:1 44:1 46:1 54:1 57:1 60:1 61:1 66:1 72:1 78:1 80:1 86:1 88:1 93:1 96:1 97:1 102:1 107:1 111:1 113:1 117:1 120:1 123:1 126:1 128:1 130:1 135:1 136:1 140:1 144:1 150:1 151:1 155:1 157:1 164:1 171:1 176:1 179:1 
-1 0 1:1 11:1 13:1 16:1 19:1 23:1 25:1 30:1 32:1 36:1 38:1 41:1 47:1 49:1 54:1 55:1 59:1 64:1 68:1 77:1 79:1 93:1 96:1 100:1 104:1 106:1 109:1 112:1 116:1 118:1 121:1 126:1 127:1 130:1 137:1 144:1 147:1 148:1 151:1 154:1 157:1 162:1 165:1 170:1 173:1 179:1 
-0 0.1000170999912033 1:1 13:1 21:1 24:1 28:1 31:1 34:1 37:1 41:1 43:1 52:1 62:1 64:1 68:1 71:1 73:1 80:1 89:1 96:1 100:1 113:1 125:1 130:1 133:1 138:1 141:1 144:1 150:1 152:1 158:1 162:1 168:1 171:1 
-0 0.2896722526386377 2:1 4:1 10:1 16:1 22:1 27:1 28:1 32:1 37:1 41:1 43:1 51:1 53:1 58:1 63:1 70:1 73:1 78:1 82:1 86:1 88:1 94:1 99:1 100:1 105:1 108:1 109:1 117:1 123:1 129:1 135:1 139:1 145:1 150:1 151:1 157:1 163:1 171:1 178:1 
-0 0.3466324129235452 1:1 4:1 9:1 10:1 17:1 19:1 23:1 30:1 34:1 39:1 45:1 48:1 51:1 57:1 66:1 69:1 70:1 74:1 76:1 79:1 84:1 93:1 96:1 100:1 108:1 111:1 113:1 117:1 123:1 129:1 131:1 136:1 143:1 145:1 150:1 152:1 154:1 164:1 171:1 174:1 177:1 178:1 
-0 0.557463478989923 3:1 5:1 7:1 11:1 13:1 21:1 23:1 26:1 29:1 32:1 36:1 39:1 40:1 44:1 46:1 51:1 59:1 66:1 67:1 72:1 78:1 79:1 84:1 86:1 88:1 93:1 99:1 102:1 104:1 106:1 114:1 117:1 119:1 122:1 126:1 138:1 143:1 146:1 149:1 156:1 157:1 162:1 163:1 168:1 169:1 174:1 176:1 179:1 
-0.2469638111980844 0 3:1 5:1 8:1 11:1 14:1 16:1 21:1 23:1 29:1 31:1 35:1 38:1 41:1 43:1 46:1 50:1 52:1 56:1 59:1 61:1 66:1 68:1 77:1 83:1 88:1 91:1 96:1 97:1 100:1 104:1 107:1 110:1 112:1 117:1 120:1 121:1 134:1 144:1 150:1 151:1 156:1 159:1 164:1 170:1 177:1 
-0.6908292735041368 0 3:1 6:1 10:1 18:1 19:1 24:1 25:1 28:1 35:1 40:1 45:1 48:1 50:1 52:1 57:1 60:1 63:1 66:1 68:1 70:1 75:1 78:1 81:1 84:1 85:1 90:1 97:1 101:1 103:1 108:1 113:1 116:1 119:1 133:1 137:1 139:1 144:1 145:1 151:1 156:1 157:1 160:1 163:1 166:1 169:1 173:1 175:1 180:1 
-1 0 2:1 4:1 17:1 29:1 32:1 35:1 43:1 58:1 62:1 65:1 68:1 70:1 81:1 95:1 101:1 103:1 109:1 113:1 115:1 120:1 123:1 130:1 136:1 139:1 144:1 146:1 148:1 152:1 154:1 162:1 167:1 170:1 180:1 
-0 1 3:1 6:1 9:1 10:1 15:1 17:1 19:1 24:1 27:1 28:1 33:1 36:1 37:1 42:1 43:1 46:1 51:1 52:1 60:1 62:1 66:1 69:1 70:1 75:1 78:1 80:1 82:1 87:1 90:1 91:1 96:1 99:1 100:1 105:1 106:1 114:1 115:1 123:1 129:1 132:1 135:1 136:1 141:1 145:1 150:1 153:1 154:1 159:1 162:1 163:1 168:1 169:1 172:1 177:1 178:1 
-0 1 4:1 14:1 24:1 25:1 29:1 31:1 39:1 40:1 45:1 46:1 49:1 52:1 55:1 62:1 64:1 69:1 73:1 76:1 87:1 90:1 91:1 95:1 98:1 100:1 105:1 108:1 110:1 114:1 116:1 120:1 123:1 129:1 132:1 134:1 140:1 150:1 152:1 155:1 162:1 166:1 169:1 176:1 179:1 
-0 1 2:1 6:1 7:1 11:1 15:1 17:1 19:1 24:1 25:1 29:1 32:1 35:1 38:1 40:1 47:1 50:1 53:1 55:1 59:1 66:1 69:1 72:1 75:1 76:1 80:1 87:1 90:1 93:1 95:1 98:1 100:1 105:1 106:1 110:1 112:1 117:1 119:1 122:1 129:1 135:1 136:1 141:1 144:1 146:1 148:1 153:1 158:1 160:1 165:1 167:1 174:1 177:1 
-1 0 1:1 6:1 8:1 17:1 19:1 29:1 32:1 39:1 41:1 44:1 50:1 60:1 65:1 72:1 75:1 77:1 83:1 85:1 90:1 92:1 94:1 98:1 100:1 106:1 117:1 120:1 125:1 127:1 133:1 136:1 139:1 142:1 146:1 148:1 154:1 164:1 171:1 174:1 
