svm_type c_svc
kernel_type rbf
gamma 0.166667
nr_class 3
total_sv 579
rho -2.68424 -0.238599 4.01395
label 0 1 7
nr_sv 145 230 204
SV
1 1 1:0.0770708 2:-0.77002 3:-0.96845 4:-0.658467 5:-0.99887 6:-0.948369 
1 1 1:-0.218186 2:-0.789357 3:-0.975826 4:-0.56343 5:-0.998448 6:-0.863153 
1 1 1:-0.831549 2:-0.78236 3:-0.98994 4:-0.549111 5:-0.993621 6:-0.594282 
1 1 1:-0.967795 2:-0.790419 3:-0.992204 4:-0.553274 5:-0.996004 6:-0.811034 
1 1 1:-0.963804 2:-0.798197 3:-0.989874 4:-0.578541 5:-0.99954 6:-0.997769 
1 1 1:-0.585454 2:-0.750353 3:-0.985159 4:-0.725305 5:-0.998719 6:-0.850715 
1 0.3858219568949711 1:0.145343 2:-0.74654 3:-0.974974 4:-0.67191 5:-0.99946 6:-0.994241 
1 0 1:0.115416 2:-0.708223 3:-0.975761 4:-0.612185 5:-0.999469 6:-0.975004 
1 1 1:0.140669 2:-0.687213 3:-0.975249 4:-0.700998 5:-0.999838 6:-0.976512 
1 1 1:0.180274 2:-0.68757 3:-0.977006 4:-0.849329 5:-0.999548 6:-0.88575 
1 0 1:0.177818 2:-0.757439 3:-0.965151 4:-0.762969 5:-0.992944 6:-0.954358 
1 1 1:0.179277 2:-0.752787 3:-0.966381 4:-0.764738 5:-0.998514 6:-0.965142 
1 1 1:0.192289 2:-0.726185 3:-0.967814 4:-0.8508 5:-0.999853 6:-0.976423 
1 1 1:0.221024 2:-0.68565 3:-0.972146 4:-0.869278 5:-0.999384 6:-0.899432 
1 1 1:0.187161 2:-0.734666 3:-0.958929 4:-0.798262 5:-0.996073 6:-0.951578 
1 1 1:0.179794 2:-0.747886 3:-0.961299 4:-0.807708 5:-0.999814 6:-0.981738 
1 1 1:0.189656 2:-0.727931 3:-0.964722 4:-0.871636 5:-0.998853 6:-0.959934 
0 1 1:0.515844 2:0.529688 3:-0.983155 4:-0.894626 5:-0.997144 6:-0.959036 
0 1 1:0.524918 2:0.636903 3:-0.976331 4:-0.915196 5:-0.999458 6:-0.984955 
0 1 1:0.364319 2:0.740678 3:-0.960428 4:-0.955114 5:-0.990215 6:-0.973463 
1 1 1:0.274705 2:0.760516 3:-0.961716 4:-0.96845 5:-0.992649 6:-0.971244 
0 1 1:0.373142 2:0.80906 3:-0.960144 4:-0.967824 5:-0.999914 6:-0.994159 
0 0.7594193774127267 1:0.626983 2:0.868855 3:-0.97033 4:-0.861393 5:-0.997766 6:-0.877979 
1 0 1:0.339997 2:-0.161915 3:-0.965667 4:-0.691538 5:-0.998206 6:-0.943833 
1 0 1:0.382749 2:-0.161574 3:-0.97786 4:-0.748547 5:-0.995279 6:-0.967989 
1 0 1:0.346326 2:-0.312158 3:-0.961283 4:-0.810612 5:-0.999994 6:-0.998337 
1 0 1:0.334498 2:-0.355973 3:-0.964819 4:-0.766123 5:-0.999903 6:-0.990552 
1 0 1:0.319014 2:-0.41789 3:-0.970908 4:-0.702171 5:-0.999877 6:-0.992848 
1 0 1:0.278256 2:-0.549768 3:-0.964139 4:-0.805919 5:-0.996973 6:-0.977448 
1 1 1:-0.00137782 2:-0.779879 3:-0.976497 4:-0.685667 5:-0.999489 6:-0.970536 
1 1 1:0.0926155 2:-0.689471 3:-0.972854 4:-0.776324 5:-0.995531 6:-0.79118 
1 1 1:0.0337742 2:-0.757474 3:-0.974557 4:-0.679143 5:-0.99812 6:-0.929536 
1 1 1:-0.157345 2:-0.58271 3:-0.976803 4:-0.517956 5:-0.997362 6:-0.695195 
1 1 1:-0.24164 2:-0.703156 3:-0.976608 4:-0.581753 5:-0.998436 6:-0.816509 
1 1 1:-0.162232 2:-0.748495 3:-0.976851 4:-0.725975 5:-0.998601 6:-0.970936 
1 1 1:-0.097346 2:-0.797862 3:-0.979253 4:-0.660536 5:-0.99628 6:-0.95353 
1 1 1:-0.0955969 2:-0.818412 3:-0.97927 4:-0.631486 5:-0.998349 6:-0.867694 
1 1 1:-0.11459 2:-0.847318 3:-0.98185 4:-0.626494 5:-0.997657 6:-0.903741 
0 1 1:-0.0808726 2:-0.829176 3:-0.982111 4:-0.573402 5:-0.98963 6:-0.829777 
1 1 1:-0.0610677 2:-0.826403 3:-0.972208 4:-0.572649 5:-0.995179 6:-0.941141 
1 1 1:-0.0297502 2:-0.834226 3:-0.982176 4:-0.59508 5:-0.999524 6:-0.997575 
1 1 1:0.0466572 2:-0.801576 3:-0.996198 4:-0.62344 5:-0.975876 6:-0.962605 
1 1 1:0.0655511 2:-0.768367 3:-0.992639 4:-0.624853 5:-0.983811 6:-0.943566 
1 0.007231695675679452 1:0.0872583 2:-0.765688 3:-0.964988 4:-0.635329 5:-0.983113 6:-0.952001 
1 1 1:0.14988 2:-0.709162 3:-0.970916 4:-0.809404 5:-0.9988 6:-0.852591 
1 1 1:0.135075 2:-0.764629 3:-0.971934 4:-0.708863 5:-0.999867 6:-0.982645 
0 1 1:0.0494375 2:-0.884197 3:-0.971455 4:-0.647044 5:-0.99936 6:-0.976899 
1 1 1:-0.0556472 2:-0.922394 3:-0.972504 4:-0.597444 5:-0.999036 6:-0.988244 
1 1 1:-0.445002 2:-0.942111 3:-0.978692 4:-0.488801 5:-0.99703 6:-0.804012 
1 1 1:-0.456232 2:-0.942054 3:-0.978808 4:-0.69276 5:-0.997271 6:-0.980481 
1 1 1:-0.305093 2:-0.86246 3:-0.978669 4:-0.714027 5:-0.999246 6:-0.897586 
1 1 1:0.0450427 2:-0.554518 3:-0.978469 4:-0.725607 5:-0.99252 6:-0.855637 
1 1 1:0.176255 2:0.535073 3:-0.972723 4:-0.688287 5:-0.995801 6:-0.943882 
1 1 1:0.136369 2:0.544236 3:-0.985669 4:-0.843149 5:-0.985439 6:-0.748987 
1 0 1:0.325985 2:-0.407722 3:-0.968693 4:-0.794442 5:-0.99992 6:-0.984434 
1 0 1:0.320286 2:-0.432257 3:-0.973793 4:-0.792212 5:-0.999354 6:-0.986373 
1 0 1:0.298448 2:-0.513846 3:-0.9865 4:-0.799239 5:-0.995316 6:-0.996048 
1 0 1:0.248312 2:-0.63636 3:-0.957278 4:-0.793232 5:-0.993489 6:-0.993856 
1 0 1:0.223467 2:-0.680856 3:-0.94943 4:-0.772212 5:-0.972358 6:-0.99071 
1 1 1:0.143593 2:-0.769842 3:-0.95217 4:-0.741143 5:-0.995057 6:-0.976552 
1 1 1:0.10753 2:-0.697517 3:-0.965982 4:-0.745505 5:-0.998967 6:-0.954348 
1 0 1:0.191643 2:-0.618916 3:-0.969625 4:-0.729864 5:-0.997529 6:-0.939798 
0.6123754462832161 1 1:0.12335 2:-0.836158 3:-0.962863 4:-0.70722 5:-0.973862 6:-0.989433 
1 1 1:0.113795 2:-0.84249 3:-0.96236 4:-0.716201 5:-0.986476 6:-0.984947 
1 1 1:0.107019 2:-0.835286 3:-0.962955 4:-0.70288 5:-0.999725 6:-0.988482 
0 1 1:0.108898 2:-0.824351 3:-0.970071 4:-0.877261 5:-0.99923 6:-0.80749 
0 1 1:0.105975 2:-0.823948 3:-0.972169 4:-0.790181 5:-0.998365 6:-0.83814 
1 0 1:0.302101 2:-0.392186 3:-0.949209 4:-0.720328 5:-0.998757 6:-0.940248 
1 0 1:0.31337 2:-0.365428 3:-0.949756 4:-0.725203 5:-0.998611 6:-0.990663 
1 0 1:0.325178 2:-0.33305 3:-0.950742 4:-0.735702 5:-0.999813 6:-0.999207 
1 1 1:0.158809 2:-0.770089 3:-0.947524 4:-0.744651 5:-0.999627 6:-0.971317 
1 1 1:0.174789 2:-0.746027 3:-0.952525 4:-0.863862 5:-0.99952 6:-0.877726 
1 1 1:0.212625 2:-0.671507 3:-0.964298 4:-0.769695 5:-0.997834 6:-0.998259 
1 1 1:0.250301 2:-0.585979 3:-0.973604 4:-0.858989 5:-0.994493 6:-0.959103 
1 1 1:0.260287 2:-0.56789 3:-0.97445 4:-0.93052 5:-0.99741 6:-0.866832 
1 1 1:0.259938 2:-0.582458 3:-0.971646 4:-0.880908 5:-0.999789 6:-0.98621 
1 0 1:0.116382 2:-0.592871 3:-0.957711 4:-0.575553 5:-0.999833 6:-0.987178 
1 1 1:-0.161858 2:-0.396258 3:-0.959688 4:-0.567263 5:-0.999594 6:-0.79238 
1 1 1:-0.183281 2:-0.452572 3:-0.959138 4:-0.607059 5:-0.999378 6:-0.879411 
1 1 1:-0.0562787 2:-0.415656 3:-0.959734 4:-0.609068 5:-0.997865 6:-0.955834 
1 1 1:0.27171 2:0.0616836 3:-0.981458 4:-0.796484 5:-0.970176 6:-0.790458 
0 1 1:0.454988 2:0.43046 3:-0.992314 4:-0.931148 5:-0.983672 6:-0.73571 
1 1 1:0.215913 2:0.620841 3:-0.988726 4:-0.955576 5:-0.996996 6:-0.775933 
1 1 1:0.270565 2:0.696567 3:-0.986841 4:-0.957684 5:-0.999427 6:-0.932177 
0 0.2438341725759007 1:0.357781 2:-0.255663 3:1 4:-0.43158 5:0.964629 6:-0.995125 
1 1 1:0.279113 2:-0.360688 3:-0.961784 4:-0.790852 5:-0.999999 6:-0.998738 
1 1 1:0.253817 2:-0.452562 3:-0.964967 4:-0.771267 5:-0.999991 6:-0.995336 
1 1 1:0.249432 2:-0.466816 3:-0.965244 4:-0.771236 5:-0.999991 6:-0.998142 
1 1 1:0.241687 2:-0.49094 3:-0.966067 4:-0.758018 5:-0.999964 6:-0.998648 
1 0 1:0.243028 2:-0.490312 3:-0.973307 4:-0.674809 5:-0.999578 6:-0.977414 
1 0 1:0.245402 2:-0.482485 3:-0.972634 4:-0.674384 5:-0.999724 6:-0.981514 
1 0 1:0.231308 2:-0.539005 3:-0.968563 4:-0.844076 5:-0.998821 6:-0.88901 
1 0 1:0.195646 2:-0.616178 3:-0.96852 4:-0.634994 5:-0.997582 6:-0.993897 
1 1 1:0.212848 2:-0.627543 3:-0.972028 4:-0.839822 5:-0.999864 6:-0.973526 
1 0 1:0.202768 2:-0.437791 3:-0.951824 4:-0.577251 5:-0.99903 6:-0.964009 
0 0.8288315544391636 1:0.150324 2:-0.777525 3:-0.963824 4:-0.739191 5:-0.999629 6:-0.943758 
1 1 1:0.150095 2:-0.779814 3:-0.963754 4:-0.729942 5:-0.999915 6:-0.987376 
1 1 1:0.168867 2:-0.741418 3:-0.962803 4:-0.780805 5:-0.999809 6:-0.968863 
0.08697539134262314 1 1:0.321357 2:0.489658 3:-0.96429 4:-0.893979 5:-0.999201 6:-0.861059 
0 1 1:0.287591 2:0.746946 3:-0.966264 4:-0.950315 5:-0.998923 6:-0.802301 
0 1 1:0.508733 2:0.816477 3:-0.961512 4:-0.894249 5:-0.998233 6:-0.817872 
0 1 1:0.533595 2:0.694912 3:-0.969671 4:-0.915085 5:-0.998638 6:-0.927155 
0 1 1:0.535846 2:0.686957 3:-0.967353 4:-0.911771 5:-0.996626 6:-0.80034 
0 1 1:0.52499 2:0.594495 3:-0.966552 4:-0.883871 5:-0.999555 6:-0.998105 
1 1 1:0.413702 2:-0.0107805 3:-0.974059 4:-0.852732 5:-0.99994 6:-0.98876 
1 1 1:0.395577 2:-0.0823106 3:-0.97346 4:-0.863188 5:-0.999976 6:-0.97923 
1 0 1:0.378371 2:-0.161164 3:-0.969426 4:-0.876114 5:-0.999232 6:-0.893721 
0.7681588668711644 1 1:-0.185514 2:-0.592812 3:-0.974669 4:-0.419355 5:-0.988685 6:-0.722203 
1 1 1:-0.194666 2:-0.608223 3:-0.971033 4:-0.465247 5:-0.994653 6:-0.771966 
1 1 1:-0.0140106 2:-0.387566 3:-0.966854 4:-0.543329 5:-0.999931 6:-0.87249 
0 1 1:0.388924 2:0.573076 3:-0.981007 4:-0.892528 5:-0.993334 6:-0.766264 
1 1 1:0.194495 2:0.719354 3:-0.985989 4:-0.957228 5:-0.994337 6:-0.771897 
0 1 1:0.33089 2:0.78443 3:-0.98326 4:-0.953619 5:-0.998412 6:-0.909105 
0 1 1:0.515125 2:0.754982 3:-0.972904 4:-0.859631 5:-0.996741 6:-0.938943 
1 1 1:0.274615 2:-0.424455 3:-0.971675 4:-0.787672 5:-0.999249 6:-0.991699 
1 1 1:0.257243 2:-0.49513 3:-0.98726 4:-0.791697 5:-0.99098 6:-0.995982 
1 1 1:0.192777 2:-0.66048 3:-0.961764 4:-0.783834 5:-0.99573 6:-0.993562 
1 1 1:0.166702 2:-0.713523 3:-0.950819 4:-0.769654 5:-0.966359 6:-0.991547 
1 1 1:0.116219 2:-0.792554 3:-0.945331 4:-0.756084 5:-0.983474 6:-0.978832 
0 1 1:0.0730159 2:-0.79464 3:-0.949173 4:-0.688986 5:-0.989484 6:-0.902808 
1 1 1:0.0469746 2:-0.797255 3:-0.952505 4:-0.714617 5:-0.998305 6:-0.908936 
1 1 1:0.00051242 2:-0.83144 3:-0.963965 4:-0.737147 5:-0.996388 6:-0.886663 
0 1 1:-0.0873955 2:-0.851517 3:-0.971344 4:-0.538925 5:-0.996877 6:-0.908861 
1 1 1:-0.128771 2:-0.851039 3:-0.970137 4:-0.537196 5:-0.994195 6:-0.98443 
1 1 1:-0.139088 2:-0.832652 3:-0.969804 4:-0.544028 5:-0.994954 6:-0.982834 
1 1 1:-0.113376 2:-0.831759 3:-0.970201 4:-0.545144 5:-0.999063 6:-0.9976 
1 1 1:0.0221791 2:-0.721053 3:-0.973203 4:-0.548176 5:-0.994091 6:-0.994914 
1 1 1:0.05096 2:-0.591709 3:-0.975123 4:-0.618577 5:-0.991302 6:-0.911695 
1 1 1:0.0561795 2:-0.817858 3:-0.949757 4:-0.656434 5:-0.991428 6:-0.966964 
0 1 1:0.0440989 2:-0.841786 3:-0.948788 4:-0.669806 5:-0.996323 6:-0.887036 
1 1 1:0.0231025 2:-0.802956 3:-0.958687 4:-0.76272 5:-0.996787 6:-0.891353 
0 1 1:-0.146406 2:-0.889952 3:-0.972131 4:-0.48714 5:-0.996812 6:-0.888534 
1 1 1:-0.175765 2:-0.923028 3:-0.974569 4:-0.593592 5:-0.999948 6:-0.971078 
1 1 1:-0.225092 2:-0.938826 3:-0.973075 4:-0.649094 5:-0.99981 6:-0.925449 
1 1 1:-0.286922 2:-0.933842 3:-0.97229 4:-0.597284 5:-0.99942 6:-0.954918 
1 1 1:-0.348076 2:-0.931541 3:-0.970691 4:-0.648878 5:-0.998089 6:-0.973349 
1 1 1:-0.185718 2:-0.842326 3:-0.96642 4:-0.861003 5:-0.996497 6:-0.801459 
1 1 1:-0.0942173 2:-0.805672 3:-0.967221 4:-0.840527 5:-0.997434 6:-0.812107 
0 1 1:0.0204795 2:-0.801392 3:-0.969973 4:-0.592339 5:-0.997353 6:-0.929502 
0 1 1:0.0611568 2:-0.823267 3:-0.966325 4:-0.645356 5:-0.99623 6:-0.950003 
0 1 1:0.0666864 2:-0.801798 3:-0.967103 4:-0.625823 5:-0.99919 6:-0.941253 
1 0 1:0.236876 2:-0.505166 3:-0.969384 4:-0.69683 5:-0.999725 6:-0.915165 
1 1 1:0.253458 2:-0.475727 3:-0.966579 4:-0.841003 5:-0.999898 6:-0.987925 
1 0 1:0.276049 2:-0.391357 3:-0.962517 4:-0.746791 5:-0.999538 6:-0.968882 
1 0 1:0.243714 2:-0.506373 3:-0.965247 4:-0.848058 5:-0.999941 6:-0.853321 
-0 1 1:-0.715873 2:-0.128985 3:-0.98879 4:-0.866762 5:-0.999214 6:-0.988256 
-0 1 1:-0.746596 2:-0.295936 3:-0.986005 4:-0.815749 5:-0.99781 6:-0.963858 
-0 1 1:-0.751385 2:-0.326038 3:-0.984456 4:-0.792785 5:-0.998125 6:-0.958588 
-0 1 1:-0.75582 2:-0.353882 3:-0.981919 4:-0.750413 5:-0.999381 6:-0.980058 
-0 1 1:-0.76065 2:-0.378428 3:-0.977729 4:-0.70888 5:-0.998854 6:-0.971749 
-0 1 1:-0.762503 2:-0.387852 3:-0.977515 4:-0.711189 5:-0.999499 6:-0.992109 
-0 1 1:-0.762349 2:-0.391088 3:-0.979661 4:-0.733333 5:-0.999993 6:-0.999763 
-0 1 1:-0.753995 2:-0.363188 3:-0.987462 4:-0.810864 5:-0.998972 6:-0.983608 
-0 1 1:-0.749615 2:-0.347881 3:-0.989617 4:-0.833338 5:-0.998614 6:-0.978074 
-0 1 1:-0.734974 2:-0.293662 3:-0.994675 4:-0.87948 5:-0.998711 6:-0.980815 
-0 1 1:-0.705978 2:-0.169246 3:-0.999465 4:-0.927214 5:-0.996005 6:-0.936758 
-0 1 1:-0.699772 2:-0.131377 3:-1 4:-0.934309 5:-0.998112 6:-0.966305 
-0 1 1:-0.699553 2:-0.101626 3:-0.999458 4:-0.936124 5:-0.999626 6:-0.992223 
-0 1 1:-0.729027 2:-0.207201 3:-0.996286 4:-0.912482 5:-0.998058 6:-0.973477 
-0 1 1:-0.748722 2:-0.284804 3:-0.996062 4:-0.912822 5:-0.998591 6:-0.98272 
-0 1 1:-0.778813 2:-0.381017 3:-0.995796 4:-0.90866 5:-0.999693 6:-0.996746 
-0 1 1:-0.781571 2:-0.388355 3:-0.995408 4:-0.910054 5:-0.99985 6:-0.999087 
-0 1 1:-0.784754 2:-0.398098 3:-0.994863 4:-0.908094 5:-0.999951 6:-0.999837 
-0 1 1:-0.791529 2:-0.419408 3:-0.993411 4:-0.893488 5:-0.999913 6:-0.99851 
-0 1 1:-0.796364 2:-0.437186 3:-0.992182 4:-0.882123 5:-0.999873 6:-0.996712 
-0 1 1:-0.800753 2:-0.453673 3:-0.992072 4:-0.880466 5:-0.999966 6:-0.998991 
-0 1 1:-0.792848 2:-0.443275 3:-0.989521 4:-0.847454 5:-0.99993 6:-0.998053 
-0 1 1:-0.782829 2:-0.413174 3:-0.988879 4:-0.841367 5:-0.999986 6:-0.999596 
-0 1 1:-0.785335 2:-0.420847 3:-0.989418 4:-0.844769 5:-0.999998 6:-0.999983 
-0 1 1:-0.78791 2:-0.427397 3:-0.989833 4:-0.847949 5:-0.999994 6:-0.999914 
-0 1 1:-0.788339 2:-0.428884 3:-0.989913 4:-0.849135 5:-0.999998 6:-0.999966 
-0 1 1:-0.789247 2:-0.431189 3:-0.98992 4:-0.854652 5:-0.999999 6:-0.999931 
-0 1 1:-0.789168 2:-0.43124 3:-0.989818 4:-0.858496 5:-0.999999 6:-0.999867 
-0 1 1:-0.788866 2:-0.4307 3:-0.989758 4:-0.857847 5:-1 6:-0.999977 
-0 1 1:-0.787728 2:-0.428359 3:-0.990414 4:-0.853071 5:-0.999996 6:-0.999938 
-0 1 1:-0.779009 2:-0.393762 3:-0.990648 4:-0.854096 5:-0.999982 6:-0.999968 
-0 1 1:-0.77988 2:-0.393993 3:-0.990876 4:-0.855508 5:-0.999992 6:-0.999931 
-0 1 1:-0.782559 2:-0.390661 3:-0.991227 4:-0.857847 5:-0.999999 6:-0.999982 
-0 1 1:-0.785941 2:-0.400852 3:-0.991533 4:-0.859681 5:-1 6:-0.999991 
-0 1 1:-0.786438 2:-0.40312 3:-0.991549 4:-0.860036 5:-1 6:-1 
-0 1 1:-0.778897 2:-0.371264 3:-0.991243 4:-0.857596 5:-0.999999 6:-0.999983 
-0 1 1:-0.773923 2:-0.34915 3:-0.990572 4:-0.85974 5:-0.999995 6:-0.999967 
-0 1 1:-0.773756 2:-0.347668 3:-0.990221 4:-0.867391 5:-0.999992 6:-0.999762 
-0 1 1:-0.769771 2:-0.318438 3:-0.989309 4:-0.885018 5:-0.999989 6:-0.998728 
-0 1 1:-0.771765 2:-0.313186 3:-0.987812 4:-0.902599 5:-0.999956 6:-0.996863 
-0 1 1:-0.77285 2:-0.316836 3:-0.987888 4:-0.903716 5:-0.999965 6:-0.99899 
-0 1 1:-0.771335 2:-0.322075 3:-0.988874 4:-0.899358 5:-0.99999 6:-0.999647 
-0 1 1:-0.777731 2:-0.362779 3:-0.990778 4:-0.872199 5:-0.99987 6:-0.996983 
-0 1 1:-0.77984 2:-0.374539 3:-0.991039 4:-0.863892 5:-0.99988 6:-0.997366 
-0 1 1:-0.781819 2:-0.386493 3:-0.991476 4:-0.859326 5:-0.999999 6:-0.999675 
-0 1 1:-0.78424 2:-0.39802 3:-0.991637 4:-0.861837 5:-0.999996 6:-0.999971 
-0 1 1:-0.786349 2:-0.406296 3:-0.991602 4:-0.863339 5:-0.999999 6:-0.999989 
-0 1 1:-0.790077 2:-0.419813 3:-0.991709 4:-0.863725 5:-0.999999 6:-0.999989 
-0 1 1:-0.783845 2:-0.391869 3:-0.991373 4:-0.861717 5:-0.999997 6:-0.999941 
-0 1 1:-0.777079 2:-0.363118 3:-0.991184 4:-0.859037 5:-0.999996 6:-0.999941 
-0 1 1:-0.77231 2:-0.338091 3:-0.991313 4:-0.857947 5:-0.999998 6:-0.999995 
-0 1 1:-0.765847 2:-0.299786 3:-0.991332 4:-0.860241 5:-0.999994 6:-0.999968 
-0 1 1:-0.768992 2:-0.312367 3:-0.991753 4:-0.861078 5:-0.999995 6:-0.999981 
-0 1 1:-0.773662 2:-0.331239 3:-0.991785 4:-0.860329 5:-0.999997 6:-0.999994 
-0 1 1:-0.789505 2:-0.391956 3:-0.993235 4:-0.874571 5:-0.999953 6:-0.998822 
-0 1 1:-0.802091 2:-0.442625 3:-0.993833 4:-0.882058 5:-0.999895 6:-0.997668 
-0 0.9251752677532302 1:-0.795168 2:-0.448955 3:-0.99413 4:-0.881325 5:-0.999989 6:-0.999113 
-0 1 1:-0.778702 2:-0.409719 3:-0.994808 4:-0.880196 5:-0.999903 6:-0.993565 
-0 1 1:-0.773394 2:-0.401335 3:-0.994751 4:-0.804487 5:-0.999561 6:-0.943454 
-0 1 1:-0.776742 2:-0.412613 3:-0.994923 4:-0.78233 5:-0.999728 6:-0.957922 
-0 1 1:-0.790013 2:-0.436947 3:-0.994935 4:-0.75718 5:-0.999899 6:-0.992038 
-0 1 1:-0.807414 2:-0.452865 3:-0.994262 4:-0.737799 5:-0.999792 6:-0.992414 
-0 1 1:-0.803596 2:-0.444269 3:-0.99392 4:-0.743558 5:-0.999909 6:-0.998589 
-0 1 1:-0.766432 2:-0.362534 3:-0.993745 4:-0.802206 5:-0.999845 6:-0.987543 
-0 1 1:-0.707582 2:-0.130224 3:-0.989241 4:-0.83349 5:-0.998618 6:-0.887586 
-0 1 1:-0.698872 2:-0.0738638 3:-0.987967 4:-0.810978 5:-0.998398 6:-0.856413 
-0 1 1:-0.697454 2:-0.0650442 3:-0.987446 4:-0.812921 5:-0.999734 6:-0.988695 
-0 1 1:-0.689429 2:-0.0341542 3:-0.986395 4:-0.813588 5:-0.999978 6:-0.999874 
-1 1 1:0.0951296 2:-0.474883 3:-0.965546 4:-0.78862 5:-0.999998 6:-0.99891 
-1 1 1:0.0758649 2:-0.53839 3:-0.966095 4:-0.731797 5:-0.999981 6:-0.991727 
-1 1 1:0.0467896 2:-0.624231 3:-0.967179 4:-0.592848 5:-0.999642 6:-0.944319 
-1 1 1:0.040103 2:-0.646744 3:-0.968111 4:-0.546531 5:-0.999581 6:-0.952379 
-1 1 1:0.0266476 2:-0.671806 3:-0.96967 4:-0.475223 5:-0.999796 6:-0.985951 
-1 1 1:0.0237297 2:-0.670162 3:-0.969536 4:-0.539598 5:-0.999493 6:-0.999066 
-1 1 1:0.0413011 2:-0.626028 3:-0.968389 4:-0.60892 5:-0.999749 6:-0.98307 
-1 1 1:0.09269 2:-0.475071 3:-0.966215 4:-0.809254 5:-0.999814 6:-0.877151 
-1 1 1:0.143206 2:-0.285699 3:-0.966417 4:-0.869736 5:-0.998956 6:-0.817449 
-1 1 1:0.14496 2:-0.270969 3:-0.96978 4:-0.861525 5:-0.998779 6:-0.975613 
-1 1 1:0.137784 2:-0.294618 3:-0.98258 4:-0.825362 5:-0.997069 6:-0.997839 
-1 1 1:0.132382 2:-0.325378 3:-0.991444 4:-0.80416 5:-0.994249 6:-0.995339 
-1 1 1:0.131421 2:-0.32811 3:-0.991947 4:-0.800743 5:-0.998609 6:-0.997766 
-1 1 1:0.129212 2:-0.336435 3:-0.991597 4:-0.799092 5:-0.999912 6:-0.999068 
-1 1 1:0.127845 2:-0.342046 3:-0.99218 4:-0.799226 5:-0.999837 6:-0.999498 
-1 1 1:0.126778 2:-0.34673 3:-0.992097 4:-0.796964 5:-0.999936 6:-0.999933 
-1 1 1:0.126136 2:-0.353366 3:-0.990919 4:-0.78076 5:-0.999911 6:-0.99859 
-1 1 1:0.120632 2:-0.382702 3:-0.986135 4:-0.818699 5:-0.999442 6:-0.998028 
-1 1 1:0.119619 2:-0.388741 3:-0.986991 4:-0.821504 5:-0.999815 6:-0.996525 
-1 1 1:0.117089 2:-0.40189 3:-0.987927 4:-0.828601 5:-0.999888 6:-0.999833 
-1 1 1:0.11315 2:-0.423789 3:-0.98694 4:-0.818212 5:-0.999943 6:-0.998884 
-1 1 1:0.110715 2:-0.435771 3:-0.988578 4:-0.814211 5:-0.999992 6:-0.997602 
-1 1 1:0.107878 2:-0.448816 3:-0.990219 4:-0.818819 5:-0.999831 6:-0.999528 
-1 1 1:0.103884 2:-0.461706 3:-0.990569 4:-0.817967 5:-0.999838 6:-0.9996 
-1 1 1:0.103388 2:-0.463666 3:-0.990341 4:-0.815732 5:-0.999995 6:-0.999944 
-1 1 1:0.10283 2:-0.465597 3:-0.988972 4:-0.800159 5:-0.99968 6:-0.996601 
-1 1 1:0.100933 2:-0.470263 3:-0.98339 4:-0.771983 5:-0.997687 6:-0.978039 
-1 1 1:0.0977219 2:-0.481727 3:-0.986194 4:-0.806795 5:-0.999584 6:-0.999273 
-1 1 1:0.0945965 2:-0.492481 3:-0.989316 4:-0.844263 5:-0.998324 6:-0.961727 
-1 0 1:0.0911931 2:-0.502742 3:-0.990183 4:-0.831642 5:-0.999158 6:-0.988517 
-1 0 1:0.0904427 2:-0.506296 3:-0.99001 4:-0.826885 5:-0.999997 6:-0.998422 
-1 0.634931459049546 1:0.0893133 2:-0.5111 3:-0.987336 4:-0.819181 5:-0.999729 6:-0.996406 
-1 1 1:0.0869015 2:-0.518339 3:-0.982725 4:-0.799525 5:-0.998565 6:-0.980109 
-1 1 1:0.0855171 2:-0.521488 3:-0.982877 4:-0.798454 5:-0.999305 6:-0.98799 
-1 0 1:0.0798528 2:-0.540189 3:-0.990042 4:-0.81462 5:-0.999088 6:-0.996796 
-1 0 1:0.0762174 2:-0.549871 3:-0.991655 4:-0.825275 5:-0.996969 6:-0.982596 
-1 0 1:0.0748057 2:-0.55463 3:-0.990733 4:-0.82787 5:-0.999369 6:-0.994079 
-1 0 1:0.0739892 2:-0.556277 3:-0.989943 4:-0.826815 5:-0.999945 6:-0.999942 
-1 0 1:0.0745867 2:-0.552189 3:-0.989094 4:-0.818106 5:-0.999733 6:-0.999282 
-1 0 1:0.0747127 2:-0.552604 3:-0.990128 4:-0.820928 5:-0.999948 6:-0.999755 
-1 0 1:0.0757496 2:-0.550299 3:-0.990221 4:-0.815779 5:-0.999939 6:-0.998803 
-1 0 1:0.0748518 2:-0.550808 3:-0.988992 4:-0.809333 5:-0.999918 6:-0.999069 
-1 0 1:0.0747315 2:-0.552134 3:-0.98996 4:-0.81212 5:-0.999983 6:-0.999338 
-1 0 1:0.0753284 2:-0.549545 3:-0.989973 4:-0.820589 5:-0.999609 6:-0.997609 
-1 0 1:0.076035 2:-0.547426 3:-0.988802 4:-0.821872 5:-0.999978 6:-0.999354 
-1 0 1:0.0754828 2:-0.550627 3:-0.98824 4:-0.820208 5:-0.9997 6:-0.999287 
-1 1 1:0.0763681 2:-0.545271 3:-0.984889 4:-0.802791 5:-0.999275 6:-0.996061 
-1 0 1:0.080412 2:-0.538064 3:-0.986076 4:-0.80817 5:-0.999671 6:-0.999875 
-1 0 1:0.0797806 2:-0.540543 3:-0.98782 4:-0.811649 5:-0.999725 6:-0.991739 
-1 0 1:0.0792374 2:-0.544818 3:-0.989534 4:-0.811935 5:-0.999259 6:-0.996833 
-1 0 1:0.0772276 2:-0.551132 3:-0.988302 4:-0.804251 5:-0.999896 6:-0.999275 
-1 1 1:0.0767221 2:-0.551384 3:-0.986925 4:-0.798358 5:-0.99977 6:-0.994768 
-1 1 1:0.0768565 2:-0.551125 3:-0.982356 4:-0.790476 5:-0.998603 6:-0.991849 
-1 1 1:0.0783121 2:-0.547271 3:-0.988589 4:-0.80003 5:-0.999959 6:-0.999729 
-1 1 1:0.0794044 2:-0.543648 3:-0.989333 4:-0.803909 5:-0.997835 6:-0.993978 
-1 0 1:0.0800907 2:-0.542763 3:-0.988135 4:-0.807113 5:-0.999664 6:-0.997227 
-1 1 1:0.0793709 2:-0.546215 3:-0.983452 4:-0.793732 5:-0.999008 6:-0.999372 
-1 1 1:0.0829419 2:-0.533625 3:-0.982096 4:-0.792591 5:-0.99828 6:-0.997966 
-1 1 1:0.080585 2:-0.542167 3:-0.986048 4:-0.80309 5:-0.99991 6:-0.995808 
-1 0 1:0.0756248 2:-0.559972 3:-0.987695 4:-0.801206 5:-0.999297 6:-0.998277 
-1 1 1:0.0753492 2:-0.561397 3:-0.986133 4:-0.795435 5:-0.999987 6:-0.996757 
-1 1 1:0.0753532 2:-0.559153 3:-0.986757 4:-0.794722 5:-0.999793 6:-0.996918 
-1 0 1:0.0764207 2:-0.557709 3:-0.989322 4:-0.809887 5:-0.999261 6:-0.998797 
-1 0 1:0.0756343 2:-0.560521 3:-0.987872 4:-0.806432 5:-0.999557 6:-0.997255 
-1 0 1:0.0730625 2:-0.56851 3:-0.983549 4:-0.79847 5:-0.998511 6:-0.999436 
-1 0 1:0.071027 2:-0.573792 3:-0.988827 4:-0.80772 5:-0.999981 6:-0.997445 
-1 0 1:0.0720251 2:-0.572475 3:-0.989192 4:-0.802906 5:-0.998758 6:-0.997383 
-1 1 1:0.072516 2:-0.571369 3:-0.987568 4:-0.78849 5:-0.999883 6:-0.994143 
-1 0 1:0.0712094 2:-0.576051 3:-0.987576 4:-0.805325 5:-0.999794 6:-0.99841 
-1 1 1:0.0600375 2:-0.609619 3:-0.984889 4:-0.77387 5:-0.999834 6:-0.99875 
-1 1 1:0.0544931 2:-0.626607 3:-0.984727 4:-0.759709 5:-0.999676 6:-0.991987 
-1 1 1:0.0624966 2:-0.60746 3:-0.98344 4:-0.747406 5:-0.999831 6:-0.996957 
-1 1 1:0.0642288 2:-0.602553 3:-0.982641 4:-0.74498 5:-0.999969 6:-0.999759 
-1 1 1:0.0646069 2:-0.601733 3:-0.982333 4:-0.732575 5:-0.99999 6:-0.999704 
-1 1 1:0.0474899 2:-0.659351 3:-0.982744 4:-0.718664 5:-0.999989 6:-0.998287 
-1 1 1:0.0448679 2:-0.666222 3:-0.982699 4:-0.728264 5:-0.999994 6:-0.999155 
-0 1 1:-0.549817 2:-0.299168 3:-0.981786 4:-0.823279 5:-0.99995 6:-0.995193 
-0 1 1:-0.560248 2:-0.348717 3:-0.980156 4:-0.82262 5:-0.999927 6:-0.995773 
-0 1 1:-0.563047 2:-0.359261 3:-0.97936 4:-0.823429 5:-0.999871 6:-0.999576 
-0 1 1:-0.563732 2:-0.352337 3:-0.987978 4:-0.832338 5:-0.998914 6:-0.99952 
-0 1 1:-0.557751 2:-0.325998 3:-0.997575 4:-0.833868 5:-0.99662 6:-0.9997 
-0 1 1:-0.556517 2:-0.31872 3:-0.995839 4:-0.830324 5:-0.999074 6:-0.999825 
-0 1 1:-0.553154 2:-0.304744 3:-0.997287 4:-0.836218 5:-0.999983 6:-0.999826 
-0 1 1:-0.547499 2:-0.28036 3:-0.996277 4:-0.831519 5:-0.999918 6:-0.999659 
-0 1 1:-0.547008 2:-0.276234 3:-0.998388 4:-0.83225 5:-0.999928 6:-0.999913 
-0 1 1:-0.543676 2:-0.253955 3:-0.99828 4:-0.833851 5:-0.999825 6:-0.999581 
-0 1 1:-0.54621 2:-0.256154 3:-0.994504 4:-0.883182 5:-0.999875 6:-0.992066 
-0 1 1:-0.547877 2:-0.266146 3:-0.993337 4:-0.896553 5:-0.999619 6:-0.988325 
-0 1 1:-0.550447 2:-0.283183 3:-0.99179 4:-0.884688 5:-0.999849 6:-0.994458 
-0 1 1:-0.556076 2:-0.307279 3:-0.990259 4:-0.831267 5:-0.999883 6:-0.989857 
-0 1 1:-0.557081 2:-0.312441 3:-0.99311 4:-0.809714 5:-0.999973 6:-0.989122 
-0 1 1:-0.557915 2:-0.312679 3:-0.991659 4:-0.820551 5:-0.999652 6:-0.999568 
-0 1 1:-0.55993 2:-0.31957 3:-0.988598 4:-0.838119 5:-0.999645 6:-0.998368 
-0 1 1:-0.56115 2:-0.322697 3:-0.988516 4:-0.831465 5:-0.999675 6:-0.99714 
-0 1 1:-0.564054 2:-0.331929 3:-0.988172 4:-0.842589 5:-0.999909 6:-0.999921 
-0 1 1:-0.566814 2:-0.33867 3:-0.985415 4:-0.836031 5:-0.999809 6:-0.99999 
-0 1 1:-0.569109 2:-0.345794 3:-0.988413 4:-0.830271 5:-0.999971 6:-0.99897 
-0 1 1:-0.571287 2:-0.351922 3:-0.990793 4:-0.846069 5:-0.999495 6:-0.99803 
-0 1 1:-0.569663 2:-0.344301 3:-0.989458 4:-0.842473 5:-0.999837 6:-0.998168 
-0 1 1:-0.567837 2:-0.3335 3:-0.989559 4:-0.861666 5:-0.999953 6:-0.999072 
-0 1 1:-0.566096 2:-0.327004 3:-0.989481 4:-0.866764 5:-0.999988 6:-0.996295 
-0 1 1:-0.566536 2:-0.327926 3:-0.988431 4:-0.857816 5:-0.999959 6:-0.999896 
-0 1 1:-0.566443 2:-0.328087 3:-0.98843 4:-0.834007 5:-0.999821 6:-0.996213 
-0 1 1:-0.570117 2:-0.341161 3:-0.990999 4:-0.824264 5:-0.999943 6:-0.996362 
-0 1 1:-0.570865 2:-0.344894 3:-0.991162 4:-0.830908 5:-0.999693 6:-0.998412 
-0 1 1:-0.571409 2:-0.34819 3:-0.99073 4:-0.839711 5:-0.999822 6:-0.997556 
-0 1 1:-0.574175 2:-0.357651 3:-0.989877 4:-0.843351 5:-0.999972 6:-0.999338 
-0 1 1:-0.578105 2:-0.37472 3:-0.990142 4:-0.82753 5:-0.999992 6:-0.998795 
-0 1 1:-0.578859 2:-0.374844 3:-0.990377 4:-0.825812 5:-0.999999 6:-0.999454 
-0 1 1:-0.579353 2:-0.375016 3:-0.990762 4:-0.823259 5:-0.999996 6:-0.999938 
-0 1 1:-0.579316 2:-0.375711 3:-0.990747 4:-0.824122 5:-0.999998 6:-0.999972 
-0 1 1:-0.579482 2:-0.3762 3:-0.990809 4:-0.82375 5:-1 6:-0.999998 
-0 1 1:-0.579684 2:-0.377213 3:-0.99089 4:-0.824454 5:-1 6:-0.999997 
-0 1 1:-0.579225 2:-0.376794 3:-0.990959 4:-0.825841 5:-0.999999 6:-0.999979 
-0 1 1:-0.579572 2:-0.377548 3:-0.990999 4:-0.826431 5:-1 6:-0.999989 
-0 1 1:-0.579572 2:-0.377548 3:-0.990999 4:-0.826431 5:-1 6:-1 
-0 1 1:-0.562071 2:-0.302573 3:-0.98856 4:-0.837101 5:-0.999977 6:-0.999577 
-0 1 1:-0.562071 2:-0.302573 3:-0.98856 4:-0.837101 5:-0.999977 6:-0.999577 
-1 1 1:0.180169 2:-0.75804 3:-0.970227 4:-0.743945 5:-1 6:-1 
-1 1 1:0.0606181 2:-0.931991 3:-0.978436 4:-0.573371 5:-0.999652 6:-0.921984 
-1 1 1:0.0606181 2:-0.931991 3:-0.978436 4:-0.573371 5:-0.999652 6:-0.921984 
-1 1 1:-0.0103089 2:-0.98224 3:-0.982304 4:-0.510387 5:-0.999674 6:-0.952849 
-1 1 1:-0.0103089 2:-0.98224 3:-0.982304 4:-0.510387 5:-0.999674 6:-0.952849 
-1 1 1:-0.0103089 2:-0.98224 3:-0.982304 4:-0.510387 5:-1 6:-1 
-1 1 1:0.0149427 2:-0.947239 3:-0.984251 4:-0.527953 5:-0.999903 6:-0.980356 
-1 1 1:0.0149427 2:-0.947239 3:-0.984251 4:-0.527953 5:-0.999903 6:-0.980356 
-1 1 1:0.08837 2:-0.87468 3:-0.984173 4:-0.668717 5:-0.999673 6:-0.949526 
-1 1 1:0.08837 2:-0.87468 3:-0.984173 4:-0.668717 5:-0.999673 6:-0.949526 
-1 1 1:0.08837 2:-0.87468 3:-0.984173 4:-0.668717 5:-1 6:-1 
-1 1 1:0.196571 2:-0.652315 3:-0.98372 4:-0.744637 5:-0.998195 6:-0.921207 
-1 1 1:0.196571 2:-0.652315 3:-0.98372 4:-0.744637 5:-0.998195 6:-0.921207 
-1 1 1:0.229424 2:-0.623538 3:-0.986302 4:-0.741611 5:-0.999735 6:-0.999707 
-1 1 1:0.229424 2:-0.623538 3:-0.986302 4:-0.741611 5:-0.999735 6:-0.999707 
-1 1 1:0.229424 2:-0.623538 3:-0.986302 4:-0.741611 5:-1 6:-1 
-1 1 1:0.203629 2:-0.72487 3:-0.986942 4:-0.598646 5:-0.999979 6:-0.959488 
-1 1 1:0.203629 2:-0.72487 3:-0.986942 4:-0.598646 5:-0.999979 6:-0.959488 
-1 1 1:0.159216 2:-0.820389 3:-0.987642 4:-0.437804 5:-0.999888 6:-0.960847 
-1 1 1:0.159216 2:-0.820389 3:-0.987642 4:-0.437804 5:-0.999888 6:-0.960847 
-1 1 1:0.159216 2:-0.820389 3:-0.987642 4:-0.437804 5:-1 6:-1 
-1 1 1:0.200432 2:-0.722658 3:-0.981074 4:-0.528504 5:-0.999511 6:-0.987656 
-1 1 1:0.200432 2:-0.722658 3:-0.981074 4:-0.528504 5:-0.999511 6:-0.987656 
-0 1 1:-0.372724 2:-0.0470308 3:-0.984168 4:-0.931884 5:-1 6:-1 
-1 1 1:-0.434562 2:-0.348172 3:-0.989712 4:-0.868172 5:-0.999699 6:-0.927767 
-1 1 1:-0.434562 2:-0.348172 3:-0.989712 4:-0.868172 5:-0.999699 6:-0.927767 
-0.4675097044970036 0 1:-0.446002 2:-0.389791 3:-0.993369 4:-0.867106 5:-0.999958 6:-0.993935 
-1 0 1:-0.447236 2:-0.391492 3:-0.993346 4:-0.872318 5:-0.999996 6:-0.987049 
-1 0 1:-0.447236 2:-0.391492 3:-0.993346 4:-0.872318 5:-0.999996 6:-0.987049 
-1 0 1:-0.443038 2:-0.361815 3:-0.992589 4:-0.866336 5:-0.999987 6:-0.980572 
-1 0 1:-0.443038 2:-0.361815 3:-0.992589 4:-0.866336 5:-0.999987 6:-0.980572 
-1 0 1:-0.441992 2:-0.357208 3:-0.992629 4:-0.825364 5:-0.999998 6:-0.993626 
-1 0 1:-0.441992 2:-0.357208 3:-0.992629 4:-0.825364 5:-0.999998 6:-0.993626 
-1 0 1:-0.441992 2:-0.357208 3:-0.992629 4:-0.825364 5:-1 6:-1 
-1 0 1:-0.442942 2:-0.354594 3:-0.994321 4:-0.842315 5:-0.999942 6:-0.987481 
-1 0 1:-0.442942 2:-0.354594 3:-0.994321 4:-0.842315 5:-0.999942 6:-0.987481 
-1 0 1:-0.452152 2:-0.392985 3:-0.995392 4:-0.827338 5:-0.999514 6:-0.995684 
-1 0 1:-0.452152 2:-0.392985 3:-0.995392 4:-0.827338 5:-0.999514 6:-0.995684 
-1 0 1:-0.452152 2:-0.392985 3:-0.995392 4:-0.827338 5:-1 6:-1 
-1 0 1:-0.449355 2:-0.384347 3:-0.994893 4:-0.843519 5:-0.999951 6:-0.992064 
-1 0 1:-0.449355 2:-0.384347 3:-0.994893 4:-0.843519 5:-0.999951 6:-0.992064 
-1 0 1:-0.449355 2:-0.384347 3:-0.994893 4:-0.843519 5:-1 6:-1 
-0 1 1:-0.420499 2:-0.263253 3:-0.988104 4:-0.904186 5:-0.999863 6:-0.995034 
-0 1 1:-0.420499 2:-0.263253 3:-0.988104 4:-0.904186 5:-0.999863 6:-0.995034 
-0 -1 1:-0.652555 2:-0.155874 3:-0.980225 4:-0.890073 5:-1 6:-1 
-0 -1 1:-0.679339 2:-0.297518 3:-0.982601 4:-0.84112 5:-0.999749 6:-0.954461 
-0 -1 1:-0.679339 2:-0.297518 3:-0.982601 4:-0.84112 5:-0.999749 6:-0.954461 
-0 -1 1:-0.682148 2:-0.323106 3:-0.985555 4:-0.749188 5:-0.999895 6:-0.981894 
-0 -1 1:-0.682148 2:-0.323106 3:-0.985555 4:-0.749188 5:-0.999895 6:-0.981894 
-0 -1 1:-0.682148 2:-0.323106 3:-0.985555 4:-0.749188 5:-1 6:-1 
-0 -1 1:-0.685751 2:-0.326634 3:-0.986966 4:-0.743463 5:-0.999991 6:-0.994403 
-0 -1 1:-0.685751 2:-0.326634 3:-0.986966 4:-0.743463 5:-0.999991 6:-0.994403 
-0 -1 1:-0.692604 2:-0.35411 3:-0.98738 4:-0.737027 5:-0.999999 6:-0.999286 
-0 -1 1:-0.692604 2:-0.35411 3:-0.98738 4:-0.737027 5:-0.999999 6:-0.999286 
-0 -1 1:-0.692604 2:-0.35411 3:-0.98738 4:-0.737027 5:-1 6:-1 
-0 -1 1:-0.707564 2:-0.419713 3:-0.988841 4:-0.753148 5:-0.999995 6:-0.996372 
-0 -1 1:-0.707564 2:-0.419713 3:-0.988841 4:-0.753148 5:-0.999995 6:-0.996372 
-0 -1 1:-0.71496 2:-0.444055 3:-0.989173 4:-0.747221 5:-0.999999 6:-0.999879 
-0 -1 1:-0.71496 2:-0.444055 3:-0.989173 4:-0.747221 5:-0.999999 6:-0.999879 
-0 -1 1:-0.71496 2:-0.444055 3:-0.989173 4:-0.747221 5:-1 6:-1 
-0 -1 1:-0.714694 2:-0.436463 3:-0.989143 4:-0.774299 5:-0.999979 6:-0.998331 
-0 -1 1:-0.714694 2:-0.436463 3:-0.989143 4:-0.774299 5:-0.999979 6:-0.998331 
-0 -1 1:-0.713991 2:-0.433144 3:-0.989145 4:-0.772612 5:-0.999995 6:-0.999573 
-0 -1 1:-0.713991 2:-0.433144 3:-0.989145 4:-0.772612 5:-0.999995 6:-0.999573 
-0 -1 1:-0.713991 2:-0.433144 3:-0.989145 4:-0.772612 5:-1 6:-1 
-0 -1 1:-0.716892 2:-0.442501 3:-0.989065 4:-0.768508 5:-0.999999 6:-0.999942 
-0 -1 1:-0.716892 2:-0.442501 3:-0.989065 4:-0.768508 5:-0.999999 6:-0.999942 
-0 -1 1:-0.718225 2:-0.446434 3:-0.988954 4:-0.766066 5:-0.999993 6:-0.999732 
-0 -1 1:-0.718225 2:-0.446434 3:-0.988954 4:-0.766066 5:-0.999993 6:-0.999732 
-0 -1 1:-0.718225 2:-0.446434 3:-0.988954 4:-0.766066 5:-1 6:-1 
-0 -1 1:-0.725033 2:-0.471799 3:-0.988673 4:-0.754381 5:-0.999997 6:-0.999546 
-0.8260958012616446 -1 1:-0.725033 2:-0.471799 3:-0.988673 4:-0.754381 5:-0.999997 6:-0.999546 
-1 -1 1:-0.727115 2:-0.47992 3:-0.988738 4:-0.754698 5:-0.999999 6:-0.999999 
-1 -1 1:-0.727115 2:-0.47992 3:-0.988738 4:-0.754698 5:-0.999999 6:-0.999999 
-1 -1 1:-0.727115 2:-0.47992 3:-0.988738 4:-0.754698 5:-1 6:-1 
-0 -1 1:-0.724868 2:-0.467363 3:-0.987565 4:-0.803334 5:-0.999911 6:-0.96103 
-0 -1 1:-0.724868 2:-0.467363 3:-0.987565 4:-0.803334 5:-0.999911 6:-0.96103 
-0 -1 1:-0.725096 2:-0.466876 3:-0.987429 4:-0.760713 5:-0.999932 6:-0.992526 
-0 -1 1:-0.725096 2:-0.466876 3:-0.987429 4:-0.760713 5:-0.999932 6:-0.992526 
-0 -1 1:-0.725096 2:-0.466876 3:-0.987429 4:-0.760713 5:-1 6:-1 
-0 -1 1:-0.678975 2:-0.283298 3:-0.985177 4:-0.892184 5:-0.999999 6:-0.950837 
-0 -1 1:-0.678975 2:-0.283298 3:-0.985177 4:-0.892184 5:-0.999999 6:-0.950837 
-0 -1 1:-0.64007 2:-0.0951058 3:-0.983425 4:-0.954815 5:-0.999988 6:-0.979184 
-0 -1 1:-0.64007 2:-0.0951058 3:-0.983425 4:-0.954815 5:-0.999988 6:-0.979184 
-0 -1 1:-0.64007 2:-0.0951058 3:-0.983425 4:-0.954815 5:-1 6:-1 
-0 -1 1:-0.569453 2:0.299547 3:-0.979632 4:-0.988914 5:-0.999919 6:-0.970682 
-0 -1 1:-0.569453 2:0.299547 3:-0.979632 4:-0.988914 5:-0.999919 6:-0.970682 
-0 -1 1:-0.575307 2:0.266004 3:-0.979969 4:-0.986346 5:-0.999999 6:-0.999873 
-0 -1 1:-0.575307 2:0.266004 3:-0.979969 4:-0.986346 5:-0.999999 6:-0.999873 
-0 -1 1:-0.575307 2:0.266004 3:-0.979969 4:-0.986346 5:-1 6:-1 
-1 -1 1:-0.698045 2:-0.375537 3:-0.986951 4:-0.794178 5:-0.999939 6:-0.807437 
-1 -1 1:-0.698045 2:-0.375537 3:-0.986951 4:-0.794178 5:-0.999939 6:-0.807437 
-0 -1 1:-0.702074 2:-0.389224 3:-0.987636 4:-0.779655 5:-0.999996 6:-0.99921 
-0 -1 1:-0.702074 2:-0.389224 3:-0.987636 4:-0.779655 5:-0.999996 6:-0.99921 
-0 -1 1:-0.702074 2:-0.389224 3:-0.987636 4:-0.779655 5:-1 6:-1 
-0 -1 1:-0.717062 2:-0.437112 3:-0.988554 4:-0.814233 5:-0.999993 6:-0.998144 
-0 -1 1:-0.717062 2:-0.437112 3:-0.988554 4:-0.814233 5:-0.999993 6:-0.998144 
-0 -1 1:-0.728557 2:-0.478374 3:-0.989452 4:-0.835939 5:-0.999978 6:-0.998058 
-0 -1 1:-0.728557 2:-0.478374 3:-0.989452 4:-0.835939 5:-0.999978 6:-0.998058 
-0 -1 1:-0.728557 2:-0.478374 3:-0.989452 4:-0.835939 5:-1 6:-1 
-0 -1 1:-0.930087 2:0.210152 3:-0.980321 4:-0.927722 5:-1 6:-1 
-0 -1 1:-0.928125 2:0.116764 3:-0.986944 4:-0.720332 5:-0.999925 6:-0.996019 
-0 -1 1:-0.928125 2:0.116764 3:-0.986944 4:-0.720332 5:-0.999925 6:-0.996019 
-0 -1 1:-0.924736 2:0.182818 3:-0.984896 4:-0.851157 5:-0.999885 6:-0.939915 
-0 -1 1:-0.924736 2:0.182818 3:-0.984896 4:-0.851157 5:-0.999885 6:-0.939915 
-0 -1 1:-0.924736 2:0.182818 3:-0.984896 4:-0.851157 5:-1 6:-1 
-0 -1 1:-0.959739 2:-0.0175108 3:-0.987657 4:-0.828565 5:-0.999702 6:-0.720361 
-0 -1 1:-0.959739 2:-0.0175108 3:-0.987657 4:-0.828565 5:-0.999702 6:-0.720361 
-0 -1 1:-0.95442 2:0.00281214 3:-0.98773 4:-0.814819 5:-0.9999 6:-0.998148 
-0 -1 1:-0.95442 2:0.00281214 3:-0.98773 4:-0.814819 5:-0.9999 6:-0.998148 
-0 -1 1:-0.95442 2:0.00281214 3:-0.98773 4:-0.814819 5:-1 6:-1 
-0 -1 1:-0.970974 2:-0.0534984 3:-0.98683 4:-0.888647 5:-0.999925 6:-0.972772 
-0 -1 1:-0.970974 2:-0.0534984 3:-0.98683 4:-0.888647 5:-0.999925 6:-0.972772 
-0 -1 1:-1 2:-0.166153 3:-0.988933 4:-0.94651 5:-0.999843 6:-0.950882 
-0 -1 1:-1 2:-0.166153 3:-0.988933 4:-0.94651 5:-0.999843 6:-0.950882 
-0 -1 1:-1 2:-0.166153 3:-0.988933 4:-0.94651 5:-1 6:-1 
-0 -1 1:-0.916809 2:0.0780975 3:-0.993991 4:-0.662892 5:-0.999853 6:-0.972184 
-0 -1 1:-0.916809 2:0.0780975 3:-0.993991 4:-0.662892 5:-0.999853 6:-0.972184 
-0 -1 1:-0.916809 2:0.0780975 3:-0.993991 4:-0.662892 5:-1 6:-1 
-0 -1 1:-0.929775 2:0.0279769 3:-0.991009 4:-0.781704 5:-0.998838 6:-0.992698 
-0 -1 1:-0.929775 2:0.0279769 3:-0.991009 4:-0.781704 5:-0.998838 6:-0.992698 
-0 -1 1:-0.929775 2:0.0279769 3:-0.991009 4:-0.781704 5:-1 6:-1 
-0 -1 1:-0.930503 2:0.0584182 3:-0.982801 4:-0.750106 5:-0.99939 6:-0.988403 
-0 -1 1:-0.930503 2:0.0584182 3:-0.982801 4:-0.750106 5:-0.99939 6:-0.988403 
-0 -1 1:-0.934314 2:0.0606211 3:-0.979239 4:-0.747536 5:-0.999028 6:-0.998083 
-0 -1 1:-0.934314 2:0.0606211 3:-0.979239 4:-0.747536 5:-0.999028 6:-0.998083 
-0 -1 1:-0.934314 2:0.0606211 3:-0.979239 4:-0.747536 5:-1 6:-1 
-0 -1 1:-0.946692 2:0.0215896 3:-0.994437 4:-0.824188 5:-0.997152 6:-0.986958 
-0 -1 1:-0.946692 2:0.0215896 3:-0.994437 4:-0.824188 5:-0.997152 6:-0.986958 
-0 -1 1:-0.935089 2:0.0825871 3:-0.99633 4:-0.701697 5:-0.996809 6:-0.905061 
-0 -1 1:-0.935089 2:0.0825871 3:-0.99633 4:-0.701697 5:-0.996809 6:-0.905061 
-0 -1 1:-0.935089 2:0.0825871 3:-0.99633 4:-0.701697 5:-1 6:-1 
-0 -1 1:-0.886633 2:0.182421 3:-0.991932 4:-0.789908 5:-0.999349 6:-0.990613 
-0 -1 1:-0.886633 2:0.182421 3:-0.991932 4:-0.789908 5:-0.999349 6:-0.990613 
-0 -0.5601067268027764 1:-0.924916 2:0.0678391 3:-0.990769 4:-0.801715 5:-0.999633 6:-0.722013 
-0 -1 1:-0.91163 2:0.0907665 3:-0.993609 4:-0.649263 5:-1 6:-1 
-0 -1 1:-0.928842 2:0.0523339 3:-0.994127 4:-0.870621 5:-0.999791 6:-0.894478 
-0 -1 1:-0.928842 2:0.0523339 3:-0.994127 4:-0.870621 5:-0.999791 6:-0.894478 
-1 -1 1:-0.297629 2:-0.384937 3:-0.970721 4:-0.838208 5:-1 6:-1 
-1 -1 1:-0.253401 2:-0.193609 3:-0.967812 4:-0.741918 5:-0.995324 6:-0.685924 
-1 -1 1:-0.253401 2:-0.193609 3:-0.967812 4:-0.741918 5:-0.995324 6:-0.685924 
-1 -1 1:-0.254716 2:-0.198058 3:-0.968614 4:-0.723738 5:-0.999953 6:-0.998334 
-1 -1 1:-0.254716 2:-0.198058 3:-0.968614 4:-0.723738 5:-0.999953 6:-0.998334 
-1 -1 1:-0.254716 2:-0.198058 3:-0.968614 4:-0.723738 5:-1 6:-1 
-1 -1 1:-0.150169 2:0.341202 3:-0.961295 4:-0.976145 5:-0.999926 6:-0.764647 
-1 -1 1:-0.150169 2:0.341202 3:-0.961295 4:-0.976145 5:-0.999926 6:-0.764647 
-1 -0 1:-0.10274 2:0.700437 3:-0.958637 4:-0.977961 5:-0.999642 6:-0.992252 
-1 -0 1:-0.10274 2:0.700437 3:-0.958637 4:-0.977961 5:-0.999642 6:-0.992252 
-1 -0 1:-0.10274 2:0.700437 3:-0.958637 4:-0.977961 5:-1 6:-1 
-0.3990429557367968 -0 1:-0.102366 2:0.837508 3:-0.95929 4:-0.970012 5:-0.999701 6:-0.997475 
-1 -0 1:-0.100508 2:0.817704 3:-0.961727 4:-0.963715 5:-0.999954 6:-0.998862 
-1 -0 1:-0.100508 2:0.817704 3:-0.961727 4:-0.963715 5:-0.999954 6:-0.998862 
-1 -0 1:-0.102995 2:0.799826 3:-0.963716 4:-0.974964 5:-0.999901 6:-0.998019 
-1 -0 1:-0.102995 2:0.799826 3:-0.963716 4:-0.974964 5:-0.999901 6:-0.998019 
-1 -0 1:-0.102995 2:0.799826 3:-0.963716 4:-0.974964 5:-1 6:-1 
-1 -1 1:-0.233815 2:-0.126568 3:-0.976963 4:-0.921342 5:-0.997463 6:-0.875188 
-1 -1 1:-0.233815 2:-0.126568 3:-0.976963 4:-0.921342 5:-0.997463 6:-0.875188 
-1 -1 1:-0.251226 2:-0.189231 3:-0.981051 4:-0.814249 5:-0.99963 6:-0.968081 
-1 -1 1:-0.251226 2:-0.189231 3:-0.981051 4:-0.814249 5:-0.99963 6:-0.968081 
-1 -1 1:-0.251226 2:-0.189231 3:-0.981051 4:-0.814249 5:-1 6:-1 
-1 -1 1:-0.303601 2:-0.394971 3:-0.985964 4:-0.827369 5:-0.999594 6:-0.961076 
-1 -1 1:-0.303601 2:-0.394971 3:-0.985964 4:-0.827369 5:-0.999594 6:-0.961076 
-1 -1 1:0.212267 2:-0.623118 3:-0.964088 4:-0.790159 5:-1 6:-1 
-1 -1 1:0.172837 2:-0.739745 3:-0.986805 4:-0.725738 5:-0.997138 6:-0.990158 
-1 -1 1:0.172837 2:-0.739745 3:-0.986805 4:-0.725738 5:-0.997138 6:-0.990158 
-1 -1 1:0.16417 2:-0.760636 3:-0.987582 4:-0.726381 5:-0.997495 6:-0.995976 
-1 -1 1:0.16417 2:-0.760636 3:-0.987582 4:-0.726381 5:-0.997495 6:-0.995976 
-1 -1 1:0.16417 2:-0.760636 3:-0.987582 4:-0.726381 5:-1 6:-1 
-1 -1 1:0.162976 2:-0.759763 3:-0.984972 4:-0.665077 5:-0.999433 6:-0.912868 
-1 -1 1:0.162976 2:-0.759763 3:-0.984972 4:-0.665077 5:-0.999433 6:-0.912868 
-1 -1 1:0.147225 2:-0.778568 3:-0.984762 4:-0.63636 5:-0.99983 6:-0.987234 
-1 -1 1:0.147225 2:-0.778568 3:-0.984762 4:-0.63636 5:-0.99983 6:-0.987234 
-1 -1 1:0.147225 2:-0.778568 3:-0.984762 4:-0.63636 5:-1 6:-1 
-1 -1 1:0.129367 2:-0.792068 3:-0.984037 4:-0.696767 5:-0.999863 6:-0.996386 
-1 -1 1:0.129367 2:-0.792068 3:-0.984037 4:-0.696767 5:-0.999863 6:-0.996386 
-1 -1 1:0.130663 2:-0.79043 3:-0.982965 4:-0.779421 5:-0.999741 6:-0.943059 
-1 -1 1:0.130663 2:-0.79043 3:-0.982965 4:-0.779421 5:-0.999741 6:-0.943059 
-1 -1 1:0.130663 2:-0.79043 3:-0.982965 4:-0.779421 5:-1 6:-1 
-1 -1 1:0.096013 2:-0.829842 3:-0.983729 4:-0.679994 5:-0.996437 6:-0.892156 
-1 -1 1:0.096013 2:-0.829842 3:-0.983729 4:-0.679994 5:-0.996437 6:-0.892156 
-1 -1 1:0.0470224 2:-0.875055 3:-0.983846 4:-0.59351 5:-0.999963 6:-0.971389 
-1 -1 1:0.0470224 2:-0.875055 3:-0.983846 4:-0.59351 5:-0.999963 6:-0.971389 
-1 -1 1:0.0470224 2:-0.875055 3:-0.983846 4:-0.59351 5:-1 6:-1 
-1 -1 1:0.0145547 2:-0.896498 3:-0.983947 4:-0.594858 5:-0.999888 6:-0.998581 
-1 -1 1:0.0145547 2:-0.896498 3:-0.983947 4:-0.594858 5:-0.999888 6:-0.998581 
-1 -1 1:0.0256503 2:-0.887064 3:-0.983359 4:-0.592476 5:-0.999974 6:-0.999599 
-1 -1 1:0.0256503 2:-0.887064 3:-0.983359 4:-0.592476 5:-0.999974 6:-0.999599 
-1 -1 1:0.0256503 2:-0.887064 3:-0.983359 4:-0.592476 5:-1 6:-1 
-1 -1 1:0.0401503 2:-0.87817 3:-0.984046 4:-0.597959 5:-0.999981 6:-0.999438 
-1 -1 1:0.0401503 2:-0.87817 3:-0.984046 4:-0.597959 5:-0.999981 6:-0.999438 
-1 -1 1:0.0590521 2:-0.861134 3:-0.984706 4:-0.673725 5:-0.999983 6:-0.967771 
-1 -1 1:0.0590521 2:-0.861134 3:-0.984706 4:-0.673725 5:-0.999983 6:-0.967771 
-1 -1 1:0.0590521 2:-0.861134 3:-0.984706 4:-0.673725 5:-1 6:-1 
-1 -1 1:0.082268 2:-0.882396 3:-0.986401 4:-0.760689 5:-0.999498 6:-0.833756 
-1 -1 1:0.082268 2:-0.882396 3:-0.986401 4:-0.760689 5:-0.999498 6:-0.833756 
-1 -1 1:0.0778979 2:-0.892063 3:-0.985964 4:-0.711926 5:-0.999811 6:-0.995069 
-1 -1 1:0.0778979 2:-0.892063 3:-0.985964 4:-0.711926 5:-0.999811 6:-0.995069 
-1 -1 1:0.0778979 2:-0.892063 3:-0.985964 4:-0.711926 5:-1 6:-1 
-1 -1 1:0.0756382 2:-0.892973 3:-0.985948 4:-0.720681 5:-0.999998 6:-0.99967 
-1 -1 1:0.0756382 2:-0.892973 3:-0.985948 4:-0.720681 5:-0.999998 6:-0.99967 
-1 -1 1:0.0806004 2:-0.873596 3:-0.984727 4:-0.751155 5:-0.999987 6:-0.968238 
-1 -1 1:0.0806004 2:-0.873596 3:-0.984727 4:-0.751155 5:-0.999987 6:-0.968238 
-1 -1 1:0.0806004 2:-0.873596 3:-0.984727 4:-0.751155 5:-1 6:-1 
-1 -1 1:-0.158508 2:-0.988646 3:-0.984231 4:-0.611207 5:-0.999834 6:-0.842247 
-1 -1 1:-0.158508 2:-0.988646 3:-0.984231 4:-0.611207 5:-0.999834 6:-0.842247 
-1 -1 1:-0.212037 2:-1 3:-0.985215 4:-0.622627 5:-0.999956 6:-0.998566 
-1 -1 1:-0.212037 2:-1 3:-0.985215 4:-0.622627 5:-0.999956 6:-0.998566 
-1 -1 1:-0.212037 2:-1 3:-0.985215 4:-0.622627 5:-1 6:-1 
-1 -1 1:-0.117337 2:-0.956687 3:-0.982217 4:-0.710965 5:-0.999922 6:-0.978297 
-1 -1 1:-0.117337 2:-0.956687 3:-0.982217 4:-0.710965 5:-0.999922 6:-0.978297 
-1 -1 1:0.0129113 2:-0.882239 3:-0.976305 4:-0.868674 5:-0.999671 6:-0.904667 
-1 -1 1:0.0129113 2:-0.882239 3:-0.976305 4:-0.868674 5:-0.999671 6:-0.904667 
-1 -1 1:0.0129113 2:-0.882239 3:-0.976305 4:-0.868674 5:-1 6:-1 
-1 -1 1:0.330373 2:0.0309657 3:-0.962332 4:-0.986714 5:-0.999931 6:-0.739403 
-1 -1 1:0.330373 2:0.0309657 3:-0.962332 4:-0.986714 5:-0.999931 6:-0.739403 
-1 -1 1:0.399272 2:0.333757 3:-0.95686 4:-0.996506 5:-0.999987 6:-0.98727 
-1 -1 1:0.399272 2:0.333757 3:-0.95686 4:-0.996506 5:-0.999987 6:-0.98727 
-1 -1 1:0.399272 2:0.333757 3:-0.95686 4:-0.996506 5:-1 6:-1 
-1 -0 1:0.451972 2:0.677423 3:-0.950128 4:-0.999222 5:-0.999828 6:-0.992798 
-1 -0 1:0.451972 2:0.677423 3:-0.950128 4:-0.999222 5:-0.999828 6:-0.992798 
-1 -0 1:0.456738 2:0.757638 3:-0.949279 4:-1 5:-0.999938 6:-0.999878 
-1 -0 1:0.456738 2:0.757638 3:-0.949279 4:-1 5:-0.999938 6:-0.999878 
-1 -0 1:0.456738 2:0.757638 3:-0.949279 4:-1 5:-1 6:-1 
-1 -0 1:0.450847 2:0.746071 3:-0.949874 4:-0.998086 5:-0.999963 6:-0.999064 
-1 -0 1:0.450847 2:0.746071 3:-0.949874 4:-0.998086 5:-0.999963 6:-0.999064 
-1 -1 1:0.367351 2:0.219289 3:-0.95819 4:-0.98852 5:-0.999922 6:-0.976773 
-1 -1 1:0.367351 2:0.219289 3:-0.95819 4:-0.98852 5:-0.999922 6:-0.976773 
-1 -1 1:0.367351 2:0.219289 3:-0.95819 4:-0.98852 5:-1 6:-1 
-1 -1 1:0.0197313 2:-0.92554 3:-0.973871 4:-0.784816 5:-0.998391 6:-0.580771 
-1 -1 1:0.0197313 2:-0.92554 3:-0.973871 4:-0.784816 5:-0.998391 6:-0.580771 
-1 -1 1:-0.136483 2:-0.979169 3:-0.977427 4:-0.704104 5:-0.999713 6:-0.964148 
-1 -1 1:-0.136483 2:-0.979169 3:-0.977427 4:-0.704104 5:-0.999713 6:-0.964148 
-1 -1 1:-0.136483 2:-0.979169 3:-0.977427 4:-0.704104 5:-1 6:-1 
-1 -1 1:-0.271229 2:-0.987913 3:-0.977837 4:-0.665408 5:-0.999531 6:-0.98684 
-1 -1 1:-0.271229 2:-0.987913 3:-0.977837 4:-0.665408 5:-0.999531 6:-0.98684 
-1 -1 1:-0.217523 2:-0.976396 3:-0.977766 4:-0.670718 5:-0.999971 6:-0.998007 
-1 -1 1:-0.217523 2:-0.976396 3:-0.977766 4:-0.670718 5:-0.999971 6:-0.998007 
-1 -1 1:-0.217523 2:-0.976396 3:-0.977766 4:-0.670718 5:-1 6:-1 
-1 -1 1:0.179449 2:-0.706072 3:-0.978166 4:-0.655946 5:-0.996862 6:-0.925762 
-1 -1 1:0.179449 2:-0.706072 3:-0.978166 4:-0.655946 5:-0.996862 6:-0.925762 
-1 -1 1:0.211475 2:-0.651575 3:-0.978792 4:-0.730647 5:-0.999829 6:-0.97644 
-1 -1 1:0.211475 2:-0.651575 3:-0.978792 4:-0.730647 5:-0.999829 6:-0.97644 
-1 -1 1:0.211475 2:-0.651575 3:-0.978792 4:-0.730647 5:-1 6:-1 
-1 -1 1:0.220749 2:-0.615904 3:-0.978357 4:-0.732084 5:-0.999971 6:-0.997488 
-1 -1 1:0.220749 2:-0.615904 3:-0.978357 4:-0.732084 5:-0.999971 6:-0.997488 
-1 -1 1:0.216839 2:-0.62882 3:-0.97838 4:-0.733528 5:-0.999992 6:-0.999951 
-1 -1 1:0.216839 2:-0.62882 3:-0.97838 4:-0.733528 5:-0.999992 6:-0.999951 
-1 -1 1:0.216839 2:-0.62882 3:-0.97838 4:-0.733528 5:-1 6:-1 
